<?xml version="1.0"?>
<opencv_storage>
<DigitOCR type_id="opencv-ml-ann-mlp">
  <layer_sizes type_id="opencv-matrix">
    <rows>1</rows>
    <cols>3</cols>
    <dt>i</dt>
    <data>
      256 16 10</data></layer_sizes>
  <activation_function>SIGMOID_SYM</activation_function>
  <f_param1>5.9999999999999998e-001</f_param1>
  <f_param2>1.</f_param2>
  <min_val>-9.4999999999999996e-001</min_val>
  <max_val>9.4999999999999996e-001</max_val>
  <min_val1>-9.7999999999999998e-001</min_val1>
  <max_val1>9.7999999999999998e-001</max_val1>
  <training_params>
    <train_method>BACKPROP</train_method>
    <dw_scale>1.0000000000000001e-001</dw_scale>
    <moment_scale>1.0000000000000001e-001</moment_scale>
    <term_criteria><epsilon>9.9999999747524271e-007</epsilon>
      <iterations>1000</iterations></term_criteria></training_params>
  <input_scale>
    2.0512903762734829e+000 -1.2535663410560174e+000
    2.0211964657589125e+000 -8.6462293257464584e-001
    2.2409772215907480e+000 -6.1502374859212749e-001
    2.2013116115231903e+000 -6.4082626913230645e-001
    2.3198033714891952e+000 -5.7221816496733480e-001
    2.4647730756320145e+000 -5.1212507238131855e-001
    2.1044356809523004e+000 -7.2486117899468128e-001
    2.0087684400209258e+000 -1.0981267472114393e+000
    2.0087684400209258e+000 -9.1064169280948637e-001
    2.0145574100634507e+000 -8.8640526042791834e-001
    2.0057332002768820e+000 -1.0786387432600122e+000
    2.1285222023051822e+000 -7.0004730209148214e-001
    2.0012653974415824e+000 -1.0362107502308637e+000
    2.0205392795643680e+000 -8.6658684656871776e-001
    2.0512903762734829e+000 -7.9772403521746560e-001
    2.0261022461827691e+000 -8.5096294339676304e-001
    2.0935271669675650e+000 -7.3738679103190896e-001
    2.3377727427601704e+000 -5.6366298353217448e-001
    2.1821789023599236e+000 -6.5465367070797709e-001
    3.3333333333333335e+000 -3.3333333333333337e-001
    3.1819805153394642e+000 -3.5355339059327379e-001
    2.8355916689405736e+000 -4.1273612070135013e-001
    2.5000000000000000e+000 -5.0000000000000000e-001
    2.5000000000000000e+000 -5.0000000000000000e-001
    2.5000000000000000e+000 -5.0000000000000000e-001
    2.5000000000000000e+000 -5.0000000000000000e-001
    2.5322091569597980e+000 -4.8956043701222762e-001
    2.7125665916062740e+000 -4.4003858041612887e-001
    2.6155718717359338e+000 -4.6499055497527714e-001
    2.4896860925035034e+000 -5.0346985426181956e-001
    2.1821789023599236e+000 -6.5465367070797709e-001
    2.1821789023599236e+000 -6.5465367070797709e-001
    2.0861746047505605e+000 -7.4638691414408931e-001
    2.1664995420866324e+000 -6.6680041461999684e-001
    3.2102753749645005e+000 -3.4956331860724560e-001
    1.0654058785733513e+001 -9.4702744762075672e-002
    3.0530408919874126e+000 -3.7314944235401709e-001
    2.6155718717359338e+000 -4.6499055497527714e-001
    2.4599347524626372e+000 -5.1385303718108422e-001
    2.0340554312066605e+000 -8.3170266520450120e-001
    2.1643371755720100e+000 -6.6853970534335416e-001
    2.0340554312066605e+000 -8.3170266520450120e-001
    2.6285244029752519e+000 -4.6145206185565529e-001
    2.6552947407980403e+000 -4.5435043342544240e-001
    2.6285244029752519e+000 -4.6145206185565529e-001
    3.2395065959301004e+000 -3.4554737023254406e-001
    2.4795740739186538e+000 -5.0693514400114703e-001
    2.4696586563936376e+000 -5.1039612232135179e-001
    2.0283702113484399e+000 -8.4515425472851669e-001
    2.2643462081239445e+000 -6.0130971526846966e-001
    2.6028960314767677e+000 -4.6852128566581819e-001
    2.8630496168959927e+000 -4.0718927884743006e-001
    2.0481487444106778e+000 -8.0332945197441041e-001
    2.4140227479263383e+000 -1.8829377433825440e+000
    2.9212773780761547e+000 -2.5252820001591649e+000
    2.6977563996253222e+000 -2.2541253472424918e+000
    2.8266688554165347e+000 -2.4120907566221099e+000
    2.3128376703959801e+000 -1.7371980724307583e+000
    2.2798037629377661e+000 -1.6870547845739470e+000
    2.1643371755720100e+000 -1.4957974702286558e+000
    2.0512903762734829e+000 -1.2535663410560174e+000
    2.4795740739186538e+000 -5.0693514400114703e-001
    2.6028960314767677e+000 -4.6852128566581819e-001
    2.0725227177880337e+000 -7.6453060256180794e-001
    2.2139635234802673e+000 -6.3220958392714299e-001
    2.1798797713739395e+000 -6.5638602004704183e-001
    2.5547983011164677e+000 -4.8257301243311057e-001
    2.1044356809523004e+000 -7.2486117899468128e-001
    2.0109987099683271e+000 -1.1105181765047316e+000
    2.8537798375389425e+000 -2.4447380608250273e+000
    2.7591270276823456e+000 -2.3299294900428698e+000
    3.0179769709786566e+000 -2.6390531957335588e+000
    2.9013545682253357e+000 -2.5016123832698449e+000
    3.0650743851967857e+000 -2.6938598207673974e+000
    2.4364311762359372e+000 -1.9139520462208974e+000
    2.5377699610715405e+000 -2.0499541796655669e+000
    2.0545428639909491e+000 -1.2624024486522165e+000
    2.1322225504499768e+000 -6.9652603314699235e-001
    2.6832815729997477e+000 -4.4721359549995793e-001
    2.2244882111736781e+000 -6.2532835269660059e-001
    2.0340554312066605e+000 -8.3170266520450120e-001
    2.2218226619384676e+000 -6.2704772903596750e-001
    2.4228590189284578e+000 -5.2764485301108632e-001
    2.2553911898998824e+000 -6.0644963106196836e-001
    2.0000790170282006e+000 -9.9115026843841947e-001
    2.1891979044209848e+000 -1.5397358594427595e+000
    2.1340979750564193e+000 -1.4393305231769404e+000
    2.1517558052776349e+000 -1.4727573067233588e+000
    2.1285222023051822e+000 -1.4284749002137000e+000
    2.1398266546446330e+000 -1.4503269548146958e+000
    2.0764740418875567e+000 -1.3174074199086609e+000
    2.3233331304639728e+000 -1.7528257728722640e+000
    2.0725227177880337e+000 -1.3079921152262255e+000
    2.2643462081239445e+000 -6.0130971526846966e-001
    2.7511360334219019e+000 -4.3101131190276465e-001
    2.8178573706898660e+000 -4.1641670033528022e-001
    2.0186324888020586e+000 -8.7249782016000088e-001
    2.6977563996253218e+000 -4.4363105238283068e-001
    2.2673837834288699e+000 -5.9959704495119004e-001
    2.5783414795436017e+000 -4.7556076178248652e-001
    2.0523621490871617e+000 -7.9586043336824386e-001
    2.4010759230743153e+000 -1.8648356335877181e+000
    2.8091551463556312e+000 -2.3909031578982374e+000
    2.8537798375389425e+000 -2.4447380608250273e+000
    3.0066218601686825e+000 -2.6257830912139828e+000
    2.4551430807011823e+000 -1.9395630337539340e+000
    2.7672142211956392e+000 -2.3398333581443125e+000
    2.2165605175474705e+000 -1.5860721925561898e+000
    2.0000790170282006e+000 -1.0089287485897813e+000
    2.2113889870173815e+000 -6.3393150961164935e-001
    2.5723631915191678e+000 -4.7731628109300112e-001
    2.5783414795436017e+000 -4.7556076178248652e-001
    2.0050760496448352e+000 -1.0738296176986784e+000
    2.3884865823693073e+000 -5.4139029200370958e-001
    2.3884865823693073e+000 -5.4139029200370958e-001
    2.3884865823693073e+000 -5.4139029200370958e-001
    2.0340554312066605e+000 -8.3170266520450120e-001
    2.0712325533373335e+000 -7.6635604473481334e-001
    2.0268471093549429e+000 -8.4902373358534833e-001
    2.0239339837683006e+000 -8.5679871979524724e-001
    2.0218644975644704e+000 -8.6266218562750741e-001
    2.0232332242873321e+000 -8.5875010186417877e-001
    2.0421923857074988e+000 -8.1460785163221350e-001
    2.0156686448603294e+000 -8.8241494008329968e-001
    2.2063065203045702e+000 -6.3737743919909795e-001
    3.1411938347596262e+000 -3.5949218331137944e-001
    3.6402953918447518e+000 -2.9931317666279073e-001
    3.7338291614026007e+000 -2.9040893477575785e-001
    2.0028505270122428e+000 -9.4801591611912828e-001
    2.5000000000000000e+000 -5.0000000000000000e-001
    2.5000000000000000e+000 -5.0000000000000000e-001
    2.5000000000000000e+000 -5.0000000000000000e-001
    2.1821789023599236e+000 -6.5465367070797709e-001
    2.5000000000000000e+000 -5.0000000000000000e-001
    2.5000000000000000e+000 -5.0000000000000000e-001
    2.1821789023599236e+000 -6.5465367070797709e-001
    2.1821789023599236e+000 -6.5465367070797709e-001
    2.5105212947519053e+000 -4.9652532273982125e-001
    2.5000000000000000e+000 -5.0000000000000000e-001
    2.5000000000000000e+000 -5.0000000000000000e-001
    2.5105212947519053e+000 -4.9652532273982125e-001
    5.2449832416577866e+000 -1.9814381135151637e-001
    1.0654058785733513e+001 -9.4702744762075672e-002 1. 0.
    2.0028505270122428e+000 -9.4801591611912828e-001
    2.1600691233179368e+000 -6.7202150503224700e-001
    2.4896860925035034e+000 -5.0346985426181956e-001
    2.4896860925035034e+000 -5.0346985426181956e-001
    2.1579631534986761e+000 -6.7376405125903116e-001
    2.4184200451531979e+000 -5.2936527655019994e-001
    2.3682652508320730e+000 -5.4996381935989247e-001
    2.3377727427601704e+000 -5.6366298353217448e-001
    2.3451897843813394e+000 -5.6023978182443113e-001
    2.4096666235209088e+000 -5.3280406453406759e-001
    2.3722354671501642e+000 -5.4824997463026015e-001
    2.3604329629295417e+000 -5.5339039464237039e-001
    2.1028324368774873e+000 -7.2664543096544287e-001
    3.8360787696567331e+000 -2.8131244310816045e-001
    4.7410465593076045e+000 -2.2124883943435489e-001
    4.0726066578742479e+000 -2.6245687350745150e-001
    2.0461152006655503e+000 -1.2390364270696943e+000
    2.0057332002768820e+000 -1.0786387432600122e+000
    2.0016019225635890e+000 -9.6076892283052273e-001
    2.0019782398505810e+000 -9.5650071459527763e-001
    2.2063065203045702e+000 -1.5689290811054721e+000
    2.1110016546037453e+000 -1.3932610920384720e+000
    2.3565700825037323e+000 -1.8014669075139644e+000
    2.8630496168959931e+000 -2.4558603380485629e+000
    2.7920704736857416e+000 -2.3701576021065631e+000
    2.6977563996253222e+000 -2.2541253472424918e+000
    2.3643312187173020e+000 -1.8126539343499317e+000
    2.0950410870037235e+000 -1.3594488831224161e+000
    2.2613350843332269e+000 -1.6583123951776997e+000
    2.6091998941139032e+000 -4.6675686994704263e-001
    3.4750329861563998e+000 -3.1661411651647198e-001
    4.3656412506539937e+000 -2.4253562503633297e-001
    2.0833333333333335e+000 -1.3333333333333335e+000
    2.0096295968787494e+000 -1.1030633565090024e+000
    2.0004940101347417e+000 -1.0224747162910901e+000
    2.0064308847628198e+000 -1.0834726777719228e+000
    2.0996711939066826e+000 -1.3694522120258030e+000
    2.6484911372663476e+000 -2.1923621080704763e+000
    2.8915895840489969e+000 -2.4899799195977477e+000
    3.0179769709786566e+000 -2.6390531957335588e+000
    2.9212773780761547e+000 -2.5252820001591649e+000
    2.8005601680560188e+000 -2.3804761428476158e+000
    2.2926681095070043e+000 -1.7067640370774366e+000
    2.2113889870173815e+000 -1.5774574774057322e+000
    2.0129695187391943e+000 -1.1205530320981514e+000
    2.4503974655279857e+000 -5.1730613161146366e-001
    3.8908938592466704e+000 -2.7668578554642992e-001
    3.8908938592466704e+000 -2.7668578554642992e-001
    2.1028324368774873e+000 -1.3761870059120447e+000
    2.0156686448603294e+000 -8.8241494008329968e-001
    2.0114757979682243e+000 -1.1130166082090842e+000
    2.0134883207811960e+000 -1.1230790411468450e+000
    2.3233331304639728e+000 -1.7528257728722640e+000
    2.6761664815261077e+000 -2.2271652162922830e+000
    2.8266688554165347e+000 -2.4120907566221099e+000
    3.1411938347596258e+000 -2.7817016514482464e+000
    3.1411938347596258e+000 -2.7817016514482464e+000
    3.0650743851967857e+000 -2.6938598207673974e+000
    2.4140227479263383e+000 -1.8829377433825440e+000
    2.0384593438689160e+000 -1.2162807418417867e+000
    2.0075536903016622e+000 -1.0907708383972365e+000
    2.4948174715473503e+000 -5.0173551372230041e-001
    3.8360787696567331e+000 -2.8131244310816045e-001
    2.6417623262863010e+000 -4.5790546988962555e-001
    2.0512903762734829e+000 -1.2535663410560174e+000
    2.0087684400209258e+000 -1.0981267472114393e+000
    2.0232332242873321e+000 -8.5875010186417877e-001
    2.0007114905952563e+000 -9.7367959208969146e-001
    2.0431551790338833e+000 -1.2304334522626275e+000
    2.2829775035110056e+000 -1.6919399942687121e+000
    2.6028960314767673e+000 -2.1343747458109492e+000
    2.4696586563936380e+000 -1.9592625340722862e+000
    2.5377699610715405e+000 -2.0499541796655669e+000
    2.2959557211578216e+000 -1.7117625432187757e+000
    2.2829775035110056e+000 -1.6919399942687121e+000
    2.0162401307562416e+000 -8.8042485709689211e-001
    2.0044593143431828e+000 -1.0690449676496976e+000
    2.9843893635597620e+000 -3.8465462908103598e-001
    5.4001728082948421e+000 -1.9200614429492771e-001
    2.9212773780761538e+000 -3.9599537791698980e-001
    2.0036097492521527e+000 -1.0619131671036410e+000
    2.0890725544918336e+000 -7.4278135270820755e-001
    2.4410420808904476e+000 -5.2075564392329554e-001
    2.4410420808904476e+000 -5.2075564392329554e-001
    2.1178170772611953e+000 -7.1064528592542331e-001
    2.0981130130884185e+000 -7.3200831789973719e-001
    2.2381689740106814e+000 -6.1673989506072113e-001
    2.0602141085758228e+000 -7.8288136125881269e-001
    2.2063065203045702e+000 -6.3737743919909795e-001
    2.2495501349550158e+000 -6.0987803658780437e-001
    2.2992725230686215e+000 -5.8248237251071755e-001
    2.5212556963323447e+000 -4.9304555839388076e-001
    2.6155718717359338e+000 -4.6499055497527714e-001
    2.7591270276823461e+000 -4.2919753763947605e-001
    2.1821789023599236e+000 -6.5465367070797709e-001
    2.5000000000000000e+000 -5.0000000000000000e-001
    2.0109987099683271e+000 -9.0048053346359536e-001
    2.1821789023599236e+000 -6.5465367070797709e-001
    2.1821789023599236e+000 -6.5465367070797709e-001
    2.1821789023599236e+000 -6.5465367070797709e-001
    2.5000000000000000e+000 -5.0000000000000000e-001
    2.5000000000000000e+000 -5.0000000000000000e-001
    2.5000000000000000e+000 -5.0000000000000000e-001
    2.5000000000000000e+000 -5.0000000000000000e-001
    2.5000000000000000e+000 -5.0000000000000000e-001
    2.5664471656093308e+000 -4.7907013758040845e-001
    2.6155718717359338e+000 -4.6499055497527714e-001
    2.2381689740106814e+000 -6.1673989506072113e-001
    2.2735393132252817e+000 -5.9617253102351841e-001
    2.2861792873808349e+000 -5.8932621630261517e-001
    2.5000000000000000e+000 -5.0000000000000000e-001
    2.5000000000000000e+000 -5.0000000000000000e-001</input_scale>
  <output_scale>
    227158990. -2.1580103950000000e+008 227158990.
    -2.1580103950000000e+008 227158990. -2.1580103950000000e+008
    227158990. -2.1580103950000000e+008 227158990.
    -2.1580103950000000e+008 227158990. -2.1580103950000000e+008
    227158990. -2.1580103950000000e+008 227158990.
    -2.1580103950000000e+008 227158990. -2.1580103950000000e+008
    227158990. -2.1580103950000000e+008</output_scale>
  <inv_output_scale>
    4.4022030561062097e-009 9.4999999559779691e-001
    4.4022030561062097e-009 9.4999999559779691e-001
    4.4022030561062097e-009 9.4999999559779691e-001
    4.4022030561062097e-009 9.4999999559779691e-001
    4.4022030561062097e-009 9.4999999559779691e-001
    4.4022030561062097e-009 9.4999999559779691e-001
    4.4022030561062097e-009 9.4999999559779691e-001
    4.4022030561062097e-009 9.4999999559779691e-001
    4.4022030561062097e-009 9.4999999559779691e-001
    4.4022030561062097e-009 9.4999999559779691e-001</inv_output_scale>
  <weights>
    <_>
      1.7810998785703638e+000 3.6868623108739554e-003
      7.7548054832122973e-002 2.9653958274107790e-002
      7.9564449769798633e-003 5.1025195688485056e-002
      -4.4462177623252802e-002 2.6577151016650303e-002
      1.0986066132119578e-002 -5.5638694231050369e-002
      3.0184978544406622e-002 1.3076105075303135e-001
      2.1379313841991204e-001 -1.3179924144934524e-001
      4.0771691815677464e-003 -2.2023496103391910e-002
      -6.4511753464097943e-001 -6.2517757654047712e-002
      -1.4774004153804775e-002 -1.1744300832795224e-002
      -6.3622120719457609e-002 -2.2349187300030961e-002
      -7.6737241615721041e-002 -1.2954876185491696e-002
      -6.1762991900429005e-002 6.9925328158766162e-002
      -4.3719752347530470e-002 1.0609507754146896e-001
      5.2574159773992858e-002 3.9636300487240032e-003
      5.2445469990417957e-002 2.2387401745509856e-002
      -2.3126593188658537e+000 3.4563930293023425e-002
      1.4097726224884390e-002 1.1922650944813706e-002
      -7.5316644931162566e-002 1.8361595469582076e-002
      1.1986893311234287e-001 1.6906040416772357e-002
      7.4780558430873889e-002 1.9070777982922954e-001
      2.7394884960719977e-002 -8.3805530824599114e-002
      -5.8497482812877408e-002 6.7295116997520875e-003
      -2.3600787634277432e-003 1.3382065355536296e-001
      -8.6101562660586994e-001 2.3432468763390429e-002
      6.8622112594168824e-002 3.8377907560536474e-002
      -6.4061099171262209e-002 8.3004890678231538e-002
      3.6517255128299841e-002 -3.3101256363781764e-002
      -9.3420494913107624e-002 2.2347008520777298e-001
      -3.3123649378518423e-002 1.0013150074343422e-002
      -3.6539245566915624e-002 2.5368158706468292e-002
      5.9357449217342803e-002 1.1616787535144514e-001
      9.6795905437263075e-001 -1.1233395298369347e-002
      -4.4129182991729576e-002 -1.5019206449177910e-002
      5.1048711086213221e-002 3.6225191773160033e-003
      -5.8541857044569073e-002 9.5883164687016839e-002
      4.1740401460046019e-002 -6.5727060719788380e-003
      -8.0130140714795323e-002 9.7637575108296612e-002
      -1.2114561971065952e-003 3.2152594834419811e-002
      1.0477699495719076e-001 -8.1355887103863253e-003
      2.9085735060380933e+000 1.6083249554735751e-001
      7.1453483300010071e-002 -1.7271745990362887e-002
      3.8661255004656683e-002 -7.7579397864885893e-002
      8.7686267224720282e-002 -1.5299621808703055e-002
      -1.9487359038408944e-001 -3.1961818907914934e-002
      -1.4448569524030580e-001 -3.1537240339599620e-002
      -8.2331641636977537e-002 3.7367374420845992e-002
      -3.6291717222013707e-002 -7.3203201227406756e-002
      2.4420713959146836e+000 2.2459914515912546e-001
      1.8260077355052740e-001 1.5409534910310105e-001
      6.4657722703371695e-002 -8.4937354980941057e-002
      2.5506226535387094e-001 -7.7674946543938569e-002
      -2.1672472412016408e-001 -4.8764241948740759e-002
      4.2082486880510063e-002 -6.6970692822330216e-002
      -1.4158358801264043e-001 1.2158064408945199e-001
      1.3392374615554517e-001 5.7837334630088534e-002
      2.6163284456057428e-001 2.7435899396014662e-002
      4.6965320907646865e-002 -1.0036249916394693e-001
      1.6390239607928139e-003 4.8187708555873732e-002
      1.3643410542615442e-001 -3.1544072287606813e-002
      -1.7483388653819687e-001 1.2365029940574807e-001
      -4.4306358317280303e-002 -2.5639580246283128e-002
      -9.1233279668952050e-003 -8.8754055526175143e-002
      -1.4870313042706038e-001 -1.6224452321152483e-001
      9.7053148014998059e-001 4.2939602268764678e-002
      7.1497179081210283e-002 7.9092603440715920e-003
      1.4669461464978866e-002 -1.2197948719397759e-002
      1.4416560012674889e-001 -1.3456690533536991e-002
      -1.1951830714825958e-001 1.0662295271980389e-001
      -6.5403762733825893e-002 5.8964984147078632e-002
      -8.3153513156494829e-002 1.2817342370559007e-001
      6.3930272430974641e-002 6.6102055311013458e-002
      2.9756368754483031e-001 1.0254224858323713e-001
      6.8959410853759437e-002 3.4456298145254048e-002
      -3.8164663053505375e-002 -2.7850069666576195e-002
      8.6479192952568812e-002 -3.5048828540637290e-003
      -1.5447789273981882e-001 1.0038279434891448e-001
      -7.6573090036717348e-002 2.7891817294041228e-002
      -2.5033077467436904e-001 2.2349750663823334e-001
      5.2592916914637251e-002 6.8492223799176716e-002
      -8.9738609401791194e-002 -3.1177092254206725e-002
      3.6435894367975730e-002 -1.1940263354727775e-001
      7.8196411337469268e-002 7.1063422012536737e-002
      1.5804728318784150e-001 -3.6480615211634149e-002
      -1.6133637510494761e-001 1.0186393087564559e-001
      1.7196449376189388e-002 8.3818575733721465e-002
      5.1609260926185714e-003 -3.6333193267248196e-002
      -7.9237430131272754e-002 -1.4840177905757962e-001
      1.2354233850085605e+000 2.2040052006108556e-002
      -2.5647173190405100e-002 -1.3922260885757071e-001
      1.3200975238528923e-002 -1.3862027214017001e-002
      -2.6174222716554490e-002 8.1982162774359921e-002
      -9.4199923806730142e-003 1.7889789081557797e-001
      -1.2793332772939717e-001 9.6943137464402099e-002
      -1.1659654093433569e-001 1.2775655351529408e-001
      1.1363809115660028e-001 1.1710434820906666e-001
      6.1624316876962526e-001 1.4468727366022900e-002
      4.7273080427200825e-002 -1.1694709563124689e-001
      -9.7488940134497132e-002 1.0838112265594299e-001
      7.6639004623313897e-002 -7.0372220024239984e-002
      -1.2549857562479411e-001 1.2468282136743142e-001
      -2.2068495980437180e-002 1.4062395819822092e-002
      3.4823898041651286e-002 -1.5100388624835850e-001
      -4.7014118234651070e-002 -1.4123361755177249e-001
      1.6470935650516996e+000 -7.0900029896256558e-002
      3.1740137465708175e-002 4.6688888763114028e-002
      -5.2885204050435129e-004 3.8631640268214380e-003
      1.2259823659244419e-001 -3.8374301656905218e-003
      8.5284179014981764e-003 4.4049605053695255e-002
      1.7289583752150985e-002 9.3659726493333553e-002
      1.5461578833025218e-002 2.2699908690025496e-002
      8.3508243124196815e-002 -3.1092551475204035e-002
      1.0910416185924525e+000 -2.8894089432801438e-002
      3.0533102535768721e-002 1.1610849940515999e-001
      -1.2183425718983945e-001 8.8873623949395450e-002
      4.7813939647999362e-002 4.4261676919745467e-002
      2.4337533557051646e-002 1.6716759519757637e-001
      4.0803132030579142e-002 2.2502051690109481e-001
      -1.0794109554102138e-001 1.2956825620935372e-001
      2.0117066624373131e-001 -4.5926883088796373e-003
      2.9958365390660551e+000 1.0407709267805706e-002
      -9.6713711772570363e-002 8.5437562190979921e-002
      -2.1713558342004743e-001 2.4923374606054420e-002
      1.0162355885733119e-001 -1.0201418399906670e-001
      1.6857562044954494e-001 -4.5100856182674481e-002
      9.8768658362071035e-002 1.4189523354374969e-001
      -1.7400741079046408e-001 1.0445086903809402e-001
      2.0770343425825563e-001 -6.6034256239326877e-002
      -7.9022814986878376e-001 -9.0469693981185137e-002
      -1.4789380706752500e-001 -2.8550095174637502e-003
      -1.7449804272766115e-001 -1.3419437208173379e-002
      -1.7264664013535400e-001 -5.0947047593079456e-002
      -1.9781471406300658e-002 1.3666045400174812e-001
      -7.9633796200702878e-002 -3.5157252189689576e-002
      -1.4162913959479770e-001 2.1628373713098131e-001
      -6.2153901207410170e-002 1.2461872713646711e-001
      -1.6573030028246676e+000 3.8902014035408598e-002
      -6.9053272337070912e-002 -7.1902319411368792e-002
      -1.7217655633052359e-001 2.7819423350605749e-002
      1.0162716223933749e-001 -6.0515128279004127e-002
      2.3020787326603846e-002 1.0188476809404449e-001
      2.1961868527903643e-002 -1.8985658971636676e-002
      -6.1544325586209972e-003 -8.8794588739476987e-002
      3.5775507707856624e-003 5.0593154538467744e-002
      -2.2178234840529267e+000 -1.1079632591984173e-001
      -1.2935824820903297e-002 -2.1415463036516955e-001
      -1.5192429411429828e-001 2.2391458341786974e-001
      6.6074038586012213e-002 -5.1193251882131405e-002
      -3.8114308245645268e-002 2.8661755343497103e-001
      1.4719605646276283e-002 3.9032307801118021e-002
      2.1176741485630665e-001 -3.0849534058958727e-001
      -1.9145826096021676e-001 -2.3100915541731257e-001
      -1.9572986213311845e+000 -1.6840260157522111e-001
      -1.5444104070586218e-001 -2.9126926668683839e-001
      -1.0962389332465808e-001 1.2497969661368871e-001
      -2.0861336402941827e-001 6.6927147130904516e-002
      1.6611976780692292e-001 2.0447141096833410e-001
      -1.7472237111192127e-001 1.4027032793564403e-001
      1.3602506904429160e-002 -3.7051962041489053e-003
      -5.3704010238282522e-002 4.0480209824705175e-002
      1.5186939265482715e+000 2.1754174013214292e-001
      8.3923260790694537e-002 -4.0778987776797344e-002
      -2.0950711038455826e-002 -2.0999009325496816e-002
      1.4105942678521921e-001 2.5795821043773433e-002
      -1.9450992220478228e-001 2.2646179690436214e-002
      -1.7963838179642097e-001 4.7391785602188402e-002
      -1.4388311241010421e-001 1.3235537249248050e-001
      1.4988860053488265e-001 -2.0855899800793307e-002
      3.5429173194164365e+000 1.1728603027282401e-001
      4.2023653940244994e-002 -2.8411705976790325e-002
      -4.4928465427665765e-003 -5.0235078870879045e-002
      1.1347861971886469e-001 -8.4206013068789165e-002
      -3.6227542084559738e-001 -4.1646771842180914e-002
      -1.5696786761810799e-001 1.0550783258240205e-001
      7.4284337288005348e-002 -4.5397435301544699e-002
      1.0303265223660564e-001 -2.2456494104782243e-001
      3.1481600517318373e+000 2.2073979262546481e-001
      6.5269258567878838e-002 -2.1080242516582182e-001
      3.0509297797717494e-002 -8.5716178122288864e-002
      2.0743839431163508e-001 -5.6632360543282011e-003
      -3.1009500966130721e-001 4.7390149084555563e-002
      -2.5270141706312255e-001 8.3254586014137960e-002
      -3.7446111617301735e-002 1.3354782226154521e-002
      1.3370249844967264e-001 -1.9836699312638068e-001
      3.1454883943214718e+000 2.1514112032077190e-001
      6.8580833403460786e-002 -2.0987237503861511e-001
      3.7677214652187943e-002 -7.8708404350053843e-002
      2.0676194467462819e-001 -1.3482167589129476e-004
      -3.1745055188289090e-001 3.3758031617890011e-002
      -2.4997788550064490e-001 7.4583986426676602e-002
      -4.1981344741745995e-002 1.7674601941124513e-002
      1.2083622761833342e-001 -1.9660367390181344e-001
      3.1480699375527852e+000 2.0959306948103248e-001
      5.9060149151531793e-002 -2.0968812079979815e-001
      4.3762109807057026e-002 -7.6107251369635212e-002
      2.1090491076301149e-001 -1.3865608092676689e-002
      -3.1298769652139885e-001 4.1430754120886135e-002
      -2.4819820113214272e-001 7.2328321174774834e-002
      -3.8221695575593136e-002 8.1240124560541874e-003
      1.3146257565372688e-001 -1.9468351583004501e-001
      3.1436698185934508e+000 2.1337642343897570e-001
      6.7207129135620616e-002 -2.1901142168124849e-001
      4.1494664413192509e-002 -8.6832961258724375e-002
      2.0069631674468127e-001 -7.2789602098572949e-003
      -3.1679649303357382e-001 4.0164081320453029e-002
      -2.5179118259528788e-001 7.7305673539559916e-002
      -4.6899413577730316e-002 1.8605163915776799e-002
      1.2411624564492667e-001 -1.9845061546797377e-001
      3.2150740028840343e+000 2.2686707456430824e-001
      7.5682081742213220e-002 -1.6795764031766836e-001
      -2.2415994997231171e-002 -5.7342358628213776e-002
      1.9680365068804898e-001 3.0223103458000257e-002
      -2.3135547749401383e-001 2.9071189089852238e-002
      -2.4206939241445422e-001 1.0395546843891816e-001
      -3.1252998538057575e-002 1.7815366812846897e-002
      1.4333580390981712e-001 -1.8303014652473726e-001
      3.6559891334777652e+000 2.2494409864067455e-001
      7.4122594661917007e-002 -9.2156025951972531e-002
      -3.5840557363266889e-003 -2.9127468228801266e-002
      1.3814727094448112e-001 -8.9790328953564785e-002
      -2.5523885491437254e-001 -7.2464060091332966e-002
      -2.1458811681053072e-001 1.4285961632240943e-001
      -7.2579240359819996e-002 1.1564558990579425e-001
      2.1786090044909789e-001 -1.7377196266432271e-001
      3.5566216268413888e+000 2.1268948760878623e-001
      5.7984630393307542e-002 -1.5432394537850114e-001
      1.9091788965584014e-002 -6.3147502422707225e-002
      1.4373580802409031e-001 -1.2787747877483225e-002
      -1.9078355244349035e-001 -2.3188116385155676e-002
      -2.3862761039074282e-001 1.1211680173913213e-001
      -4.1243487001354419e-002 6.7422139063857134e-002
      1.8130083839036909e-001 -1.5873122732673930e-001
      3.5104255391452863e+000 2.4200287476832122e-001
      1.6474830111492000e-001 2.2193468231706770e-001
      -2.6047079196834472e-001 1.5481564417615479e-001
      1.9233197041381611e-001 -6.5340689559117204e-002
      -3.6920046057517220e-001 -1.1294277143844236e-001
      5.2377055521784536e-003 2.2295305916982786e-001
      -3.5798784323851904e-002 5.4941596857815467e-002
      2.1257295800692544e-001 -2.9104648194341720e-001
      1.8350721262056346e+000 9.5297750932890279e-002
      4.4921495015595385e-002 4.3703938369195477e-002
      -3.1281549860483882e-001 2.2124582341211438e-001
      2.8789791336234348e-002 -4.6822786731601056e-002
      -2.0869935948848839e-001 2.5060075289409848e-002
      -1.0430900725109145e-001 3.0753608554289813e-001
      -2.1185734474312171e-002 5.9021657184695937e-002
      1.5266763051834362e-001 -2.2317362397334164e-001
      1.8250228151838153e+000 9.1464508920250348e-002
      3.8858641234696380e-002 4.2822034665718572e-002
      -3.1497538725978658e-001 2.1675925027374923e-001
      2.2040769161498115e-002 -3.3935010159764738e-002
      -2.0213967805649691e-001 2.5522940198556634e-002
      -1.0170972592889475e-001 2.9825706885607001e-001
      -2.1358604161627104e-002 4.4678555344310485e-002
      1.5429351604923860e-001 -2.2762550901264153e-001
      -8.0745110475370929e-001 -7.0054058976871975e-002
      1.9942314402530654e-002 -2.0288632365256798e-002
      -1.7256663597219772e-002 6.2910336227504735e-002
      -7.3738687930970182e-003 -4.1748189786250320e-002
      -3.4604607951372997e-002 1.7155061137157365e-001
      3.9747229402380756e-002 1.1522884302407135e-001
      1.1282930352794360e-002 -5.2129975150230774e-002
      2.8210443440599069e-002 -4.8258704141181580e-002
      -3.6677493891010360e+000 -5.7854186007559046e-002
      -4.6718447926703526e-003 -5.5552510369209114e-002
      -1.6385664053749543e-001 1.1838950344137754e-001
      -8.5603789505298455e-002 -1.3525561774999258e-002
      -1.6546016025591725e-001 -1.7702608215190447e-002
      -5.9041167987119329e-002 1.2992085820460714e-001
      2.7089222393089207e-002 4.7348757578742576e-003
      -1.0171264408123833e-001 5.6490262297529986e-002
      -2.6729603201482575e+000 -1.4819657334661593e-001
      -1.4615586401909522e-001 -2.1956107749466344e-001
      -8.8993031476325909e-002 1.1127889617790736e-001
      -1.8262820003074867e-001 7.0519872472588965e-002
      1.3011008664566548e-001 1.8588034432121234e-001
      -1.3152806270069714e-001 1.3230310406970969e-001
      -3.6805344328470414e-002 8.5849201546217193e-003
      -7.8198200846391411e-002 7.4099170000285416e-002
      -2.6422845993839568e+000 7.0926869216725655e-002
      2.1846287354976065e-002 1.7070225268972364e-001
      5.9162042579351246e-002 -4.9664454648543688e-002
      4.1538454572419906e-002 4.2819034430031412e-002
      -7.6462601736956973e-002 -3.2861431705952751e-002
      1.1521050193430883e-001 -3.2900160916329850e-002
      -1.7836078968758462e-001 5.7685451353031054e-002
      -9.7041886287554960e-002 1.1100689019190715e-001
      1.9242794900739868e+000 1.4718189737671564e-001
      5.4303727449784005e-002 -5.0806185743879857e-002
      1.0400765806394360e-002 -8.9573803411131123e-002
      1.2951990837804678e-001 -5.4112163940572715e-002
      -2.5829117145856728e-001 4.1849566720064256e-002
      -1.9747189086642872e-001 -5.2375357137586287e-002
      -3.2542529468020842e-003 -5.4372093091223919e-003
      4.4317997143926730e-002 -1.0169822879139981e-001
      2.5844022781974414e+000 1.6443364102609867e-001
      7.1306733319973115e-002 -7.6734640102819135e-002
      3.4835470891366606e-002 -7.7492137442239942e-002
      1.6028116994232580e-001 -7.4780010155944432e-002
      -3.4631669708788637e-001 -3.2198651889778045e-002
      -1.8773183671594285e-001 6.3644238664305547e-002
      -4.4726655652698531e-002 1.9559247412057699e-002
      8.2725720048008031e-002 -1.7038218034864225e-001
      2.4795355472550109e+000 2.3375762974984532e-001
      6.8233765750037326e-002 -1.7034984964422334e-001
      4.4028498602849270e-002 -9.8077316517142007e-002
      2.1135503320846988e-001 1.0950989793853108e-002
      -3.3549105305055255e-001 3.1764460296396638e-002
      -2.2276858039093475e-001 6.1044953643858792e-002
      -7.4699156542188047e-002 3.3496567627286707e-002
      9.6859066219515275e-002 -1.5734666726566562e-001
      3.4384581169351802e-001 1.7363654910521253e-001
      8.0739977213456465e-002 -1.7375753268879490e-001
      -1.5472733392968344e-001 5.8818295398248295e-002
      1.8235764437596264e-001 -3.2213357233871254e-002
      -2.5017226176524893e-001 2.7056292441745422e-001
      -2.0241087636048452e-001 1.0199026788883149e-001
      -8.3594008257822941e-002 3.0984587422827340e-002
      8.1540190831546122e-002 -1.0362177356991251e-001
      1.6310858522682856e+000 2.9314561843214276e-001
      1.7932550736892736e-001 -6.5918822324089639e-006
      -9.8266990946144939e-002 -1.7860660798596956e-002
      3.2112553943983813e-001 -7.4584594390343956e-002
      -3.7786830115324155e-001 1.5941737294851840e-001
      -1.0767860116530717e-001 1.4887647127797487e-002
      -1.0146865071190977e-001 3.0905553715489649e-002
      1.2432365713974995e-001 -1.3703430486177870e-001
      3.5033625236703114e-001 1.6518766946540847e-001
      8.3664206642255573e-002 -1.7158836187727677e-001
      -1.5525415677161827e-001 6.5458274127038904e-002
      1.8174668292730961e-001 -2.6896134572177054e-002
      -2.6265613210144673e-001 2.6991976078507363e-001
      -2.0410105991477726e-001 1.0486086563669743e-001
      -8.2433653220553613e-002 2.4833883797936069e-002
      8.9550731774548392e-002 -1.1136032709628516e-001
      3.4514999648865698e+000 2.3989445639378618e-001
      6.9068337181077161e-002 -9.9056756942070917e-002
      -6.0359959591970748e-002 -3.1038782070690073e-002
      1.9623300690494069e-001 -2.2813348529724890e-003
      -1.4578250981081975e-001 -3.5100518182973099e-002
      -2.3099625974433396e-001 1.2480723127309326e-001
      -6.7274356375946767e-002 6.2839134641506769e-002
      1.8785678157608315e-001 -1.8324670480184305e-001
      3.1567855523986421e+000 1.6515492782143817e-001
      1.7887766533002860e-002 -1.1864314158043086e-001
      6.5939593940443478e-002 -6.4823477660199247e-002
      1.6107995869406086e-001 -4.8961800128464794e-002
      -1.7911378351628088e-001 -1.0869261334055203e-002
      -1.7091992678085835e-001 6.4266645039544393e-002
      -7.5396598804511411e-002 1.0233142491696882e-001
      2.0236638707754140e-001 -7.8428177885829897e-002
      2.3850550308394616e+000 1.7719674538329352e-001
      5.7916145734497014e-003 4.2817259955361134e-002
      -3.9865740748469677e-003 -1.1348033964858599e-001
      1.7425053640589230e-001 -2.2486723755410543e-002
      -1.0231612235057519e-001 -6.5589478204478247e-002
      -1.7451008299684134e-001 7.9575588027386499e-002
      -1.8116944235967530e-001 1.6616530678140320e-001
      1.2532655243418031e-001 1.0285859156648682e-002
      4.6547170561002744e+000 1.6488996047842039e-001
      -2.7705431235961885e-002 1.2755755367900878e-001
      -1.1606442633499625e-001 3.6058385315778096e-003
      9.7531715977185574e-002 -3.0084117576317983e-002
      -2.2863781906594144e-001 -3.2209703417435942e-001
      -1.4240085145671466e-001 2.7326563786322822e-001
      -1.0031045002394835e-001 1.9499735809976393e-001
      2.1567624398736662e-001 -1.7010943169484197e-001
      3.1697452266931685e+000 3.3692304661421056e-002
      -6.3956352281151374e-002 -8.2871672648919995e-002
      -3.9496035719185460e-002 9.0858725182532865e-002
      1.3537745909903837e-001 -5.0175530988961638e-002
      -2.3660639970013472e-001 -2.3493542344654877e-001
      -6.1626249617961412e-002 2.1412353157943664e-001
      1.9284185024910028e-001 -2.0661945887900532e-001
      -5.5562863852554989e-002 -4.1861964644064781e-001
      3.1573630756522566e+000 1.9948886415539666e-001
      1.1345937216567861e-001 2.6046240626386086e-001
      -1.6372224233454533e-001 1.1218815151088775e-001
      2.2477775292512839e-001 -1.0861854016326822e-001
      -2.5890761293149905e-001 -1.1175096591346682e-001
      1.0482416573739495e-002 2.1635403749238338e-001
      -8.9370969342457737e-002 1.0549811941056418e-001
      2.6902647966916299e-001 -1.7478690994145488e-001
      -1.1940191726659606e+000 -1.7070967707229118e-002
      -1.2706912441950755e-001 2.8353955734294119e-002
      -3.2066594529092884e-002 -4.4208785860102122e-002
      -6.2662723496815015e-003 1.0836736775789685e-001
      8.0509843155442559e-002 4.6055418491004980e-002
      4.6817949785987953e-003 2.7542505933903390e-002
      -3.3033424036160455e-002 1.0230884809726674e-001
      4.1005335119713625e-002 8.2466046309461957e-002
      -1.2458149434856283e+000 8.1808375370906350e-002
      1.1618544202549493e-002 5.8000381828867978e-002
      2.5684283375574601e-002 4.8116250936114310e-002
      -1.9935465521117371e-001 1.5043849517432140e-001
      2.4008166523499352e-002 -5.6954312469560717e-002
      -1.0884773511271716e-002 7.4747519750469768e-002
      -1.7949407321791661e-001 2.4262674816653107e-001
      1.3464229357822977e-002 8.3990876298797562e-002
      -3.7515463264908766e-001 1.4302164458654237e-001
      2.3009568543495518e-001 9.1770767641511888e-002
      1.0082055227545710e-001 7.9020651419865237e-002
      -1.5945975420539962e-001 1.5129847073168520e-001
      -2.3159373338608588e-001 -1.6808177322895124e-001
      -2.7060806500584466e-004 -8.0327250880394829e-003
      -1.3426859869898294e-001 1.2932034611165780e-001
      4.6581324624356282e-002 2.4304051757692652e-002
      8.8501239205969229e-001 1.0920817029130844e-001
      2.3584053637830921e-001 3.2045309977195444e-002
      7.3168889489767269e-002 7.4560228451893001e-002
      -1.4654291667960151e-001 8.8134507247262184e-002
      -1.7232922273390122e-001 -6.0326880618569230e-002
      1.2399685017189457e-002 -7.1125541722285544e-003
      -1.6578777791811453e-002 6.7302589097322868e-002
      5.3583488444008009e-002 -3.2484286455802233e-004
      1.8394722589743234e-001 2.1481552073688395e-001
      6.4225384239450511e-002 3.5928425058000715e-002
      6.8681222774852599e-002 2.4751120849427034e-002
      5.1847830429707573e-002 6.0070707742603736e-002
      -9.1416799176041758e-002 -1.3975371184952651e-001
      2.4280870618244365e-002 6.1423096593863212e-002
      -1.2656254619730206e-001 1.6292146683435559e-002
      4.7876907540831605e-002 1.2173988504650485e-002
      -2.7373491640493469e-001 9.0986176928204501e-002
      3.7279449890167994e-002 -1.3908189626591324e-002
      6.6612762838624634e-002 -1.4605098657053962e-002
      4.2900758711351718e-002 1.9508938053416948e-002
      -2.2881451697097020e-002 1.8235340476189488e-001
      -1.5008489715526584e-002 6.9039681171656304e-003
      -1.2311938127513890e-001 1.0618122884859033e-001
      -9.2014571733142793e-003 -7.4265623809079469e-003
      2.8782464347260817e-001 -9.0762937628307949e-002
      4.8250749139487480e-002 -3.1801734351549239e-002
      -3.0499776752025701e-002 -1.8844013534199976e-002
      -1.8057590480004160e-001 -1.7664997567202943e-002
      -4.4854949302235804e-002 1.3939905257590943e-001
      -1.3339644251956790e-002 -3.9731490485302834e-002
      -1.3008354801248842e-001 1.4750015661266255e-001
      5.3456451119734398e-002 1.3703894873874009e-001
      -1.5744368431513353e-001 1.7581949407209443e-002
      5.4113883679786826e-002 5.9382901095809945e-002
      -1.2011989058368901e-001 3.5918328971185187e-002
      -1.4112710544254894e-001 2.2263124655294366e-002
      -1.1813647415744637e-001 -1.8808024986328869e-002
      -6.4292672333814763e-002 -1.6501980062090343e-002
      -1.2448802042571240e-001 6.5297117090231879e-002
      -7.2933448963132200e-003 1.4929644534649975e-001
      6.2483647516259344e-001 4.6980368711218266e-002
      1.0271414151067193e-001 -2.7437147040233027e-002
      3.6707479445009281e-002 -1.3056848945836903e-002
      -7.4142712626967727e-002 4.0813278787784645e-002
      -7.1074352135154964e-002 -6.7439148540426000e-002
      1.0545407141973950e-002 -3.2223698221641463e-003
      -9.4183649412130255e-002 5.0396371881693269e-002
      -9.9776026409779908e-002 9.1653044796407845e-002
      7.2413935210769165e-001 5.1118932219966400e-003
      1.1708656807159222e-001 5.4094169074023852e-003
      5.5951345461188766e-003 6.4956173984544608e-003
      -1.1611370035654020e-001 -9.6535335340054332e-002
      -6.7376981786230278e-002 9.5211415621362733e-002
      -5.0835208118779451e-002 1.4115982319490764e-001
      -4.6295506554691085e-002 2.2842184370326907e-001
      1.9430952185424943e-001 8.5285930498278859e-002
      -7.5305816352803992e-003 1.3628015082612681e-002
      4.9291879049639248e-002 3.7471528447369527e-002
      -4.9327541181369942e-002 2.7861807128322376e-002
      -7.2816000994007826e-002 -6.3887805874605517e-004
      -2.4012220902396429e-002 5.5854382121148370e-002
      -4.5698614494755589e-002 -2.2119689663234469e-002
      -1.8695630877378538e-001 2.0398115918178159e-001
      6.0140843614687835e-002 8.3672549358997900e-002
      1.1188903896907967e+000 1.3693429828363336e-002
      -2.0947497723185377e-001 -9.5532535246607344e-003
      -1.8647404610421439e-001 -8.9260345163913568e-002
      -4.2766901107101039e-003 9.4968201052014811e-002
      2.5999965807941827e-001 1.0755987686209594e-001
      -1.3744439545207654e-001 -1.7347879173400002e-001
      -2.6185974185425420e-001 1.3890797252566470e-001
      -3.3898021493480875e-002 9.6739344418637740e-002
      9.4550953373749647e-001 1.3488663210487517e-001
      9.4796953107844570e-002 2.6810158256824021e-002
      1.4400823021451578e-001 -8.6104742629948286e-002
      -6.0917620567205476e-002 7.7049513243712772e-002
      3.3292632267235660e-002 2.4407422113775189e-002
      8.5923264956058783e-003 -8.2915925215816963e-002
      -1.3630040140007982e-001 1.4455505957404988e-001
      2.6592701265996891e-003 1.1400059573061802e-001
      4.5273176416840677e+000 -3.5050038087675109e-002
      -2.1838630151764482e-001 -5.0920696271685627e-002
      -1.5971708466249776e-001 -9.2975103715491891e-002
      -3.2630943568822446e-001 -1.7206370528053588e-001
      1.9032476098746801e-001 -3.1617868872437299e-001
      -2.0338870165211045e-001 -3.3005613081257368e-001
      -4.4279089712647668e-001 2.8537154195771192e-001
      -8.2246681974288874e-002 4.5260552199369711e-002
      3.7662613506744207e+000 -5.0859955454408100e-002
      -2.1407704622888382e-001 1.1274404734912220e-001
      -1.3452637842720566e-001 6.8042676258871252e-003
      -3.0689449044685346e-001 -2.3955990782066927e-001
      1.5727945172223845e-001 -3.3307318759537896e-001
      -1.1145663840038231e-001 -3.2788083350861019e-001
      -4.3374154274962040e-001 3.1179145196843927e-001
      -1.6194207235168043e-001 3.9639967868205202e-003
      2.7596574304090544e+000 2.1297277774563286e-003
      -5.3732478412997255e-002 1.7966813844315248e-002
      -1.7988902737000639e-001 1.6042902265410702e-001
      -5.9182220077585862e-002 -2.5592510453333628e-001
      -2.5590361738835676e-002 -1.6811796360436043e-001
      1.8728462903212298e-002 -2.2660723107121619e-001
      -1.0947732721546885e-001 -6.9439804614086539e-002
      -2.0971606227083225e-001 -2.5331649670273110e-001
      1.6668406974384538e+000 8.5725314890170729e-003
      -9.2545700428572159e-002 5.2636263168859290e-002
      -4.6324496199530309e-002 -3.3426046446549187e-002
      -1.2815177618112478e-001 9.6235728144977953e-002
      8.6342037095669802e-002 -1.3739672757540125e-001
      -7.4515524735181762e-002 -1.2007930216032343e-001
      -1.5212925255350498e-001 1.5180950488131761e-001
      4.5532592502637921e-002 1.7881016470266554e-002
      -2.0467564508168343e+000 1.6219458594985284e-001
      2.8960872122774256e-001 1.7570209148515922e-001
      2.2097135542972804e-001 1.2037271817506574e-001
      -2.6135816529230765e-001 1.9353140660571080e-001
      -3.9586070832757198e-001 -2.7153886168466645e-001
      5.3555410578119231e-002 2.1386989992256419e-001
      1.0797178285163385e-002 1.7789966115116310e-001
      -2.5559022395925036e-002 5.7710009276585636e-002
      3.0869930434144122e-001 1.4373993307091315e-001
      1.6783546475562616e-001 1.9319508607081462e-001
      2.4593804420941109e-002 9.8795408973236257e-002
      -1.3594060958355383e-001 2.0366791259790842e-001
      -1.8252831322656182e-001 -2.5243932165575261e-001
      -3.8963784538116150e-002 2.4245644881888063e-002
      -8.4015195575082247e-002 1.0169565803120992e-001
      -1.1517840600337684e-003 -5.5397705848528756e-003
      -9.3318055880094619e-001 -1.0187723848742643e-001
      3.6930174182177133e-001 -6.2104005443166056e-002
      2.6951795901417741e-001 2.6846907404780657e-001
      -1.9165526144071143e-001 1.4640926697436615e-001
      -4.8959380219990639e-001 -1.1889871730557815e-001
      3.4226812837255568e-003 2.9702317287662067e-001
      4.0223275886752352e-001 -1.5163437965911258e-001
      -5.0800938452523779e-002 -2.3322427096262305e-001
      2.1247362825945100e+000 6.7027208822832196e-002
      -1.3309080800609890e-001 2.4941897004163747e-002
      -5.2596076354000439e-002 -4.7753590357006832e-002
      9.8799226351202162e-003 -5.1851789294603502e-003
      1.8216378190974514e-001 -9.8034322679678113e-002
      2.7508439791947486e-002 -4.1861328071093828e-002
      3.4536762410781553e-002 -1.3554508036336779e-002
      1.0088664640961661e-001 1.0100730538124685e-001
      1.1153122302666849e+000 4.0732789234759294e-002
      9.9682009972642593e-002 3.7075438449267882e-002
      1.3584303223096675e-001 4.1514741768573497e-002
      6.4920446717795635e-002 5.3010969199677731e-002
      -2.4749202330294064e-002 1.0945814168901684e-001
      6.8295754072855805e-002 1.0163164606600320e-001
      7.3308145546037932e-003 3.9273216281329092e-002
      1.8702274564024726e-001 4.7893154227707138e-002
      2.3673146421924982e+000 7.5123173833445647e-002
      -3.9439293994891066e-002 7.0632171455491707e-002
      -9.7740904035272927e-002 -5.1527879615248393e-002
      1.8408260320163499e-002 1.3446514361107329e-002
      9.9022077984915649e-002 -8.4647806731860689e-002
      -4.2649415437949000e-002 -5.8902502611272903e-002
      -1.7762806295275835e-001 1.2010240144523932e-001
      1.8829113112814524e-001 1.3816797999964589e-001
      1.0699053666450378e+000 6.1423511559159413e-002
      5.5143138604891881e-002 -9.5356000322194649e-003
      -5.2824980573058927e-002 -6.9260829403040722e-002
      -1.3012690636017760e-001 6.3355764153388413e-003
      1.1416676476164339e-001 1.6485765107908907e-002
      -6.1701762702054998e-002 -4.1346758320212139e-002
      -2.2998965577386546e-001 3.2067873174307887e-001
      1.1532617057856967e-001 3.1731933549765928e-001
      8.4650456982368205e-001 1.0464815064994806e-001
      -4.5562159105526849e-002 1.1741749899319424e-001
      -8.6922963325843192e-002 -7.9798003852979527e-002
      -1.4525764878637860e-002 8.5068390925029921e-002
      1.8378931571502558e-001 -5.0073853709288962e-002
      4.3387423386633435e-002 -1.1517146729359573e-001
      -3.1489537715552318e-001 2.2765295822417819e-001
      1.2028771939298188e-001 2.2998695416046719e-001
      5.9827129049789451e-001 2.6751131266475364e-002
      2.9965661896090071e-002 1.0468774269193673e-001
      -1.7764670984558739e-001 -1.3849400253595007e-001
      3.6424881253716422e-002 -7.9333946293191446e-002
      1.6762046557839905e-001 1.8307514301029965e-001
      -1.1242023633342065e-001 -1.5155452474323786e-001
      -3.4013019032039538e-001 4.0375458796967145e-001
      1.3504745270261781e-001 3.2570483757688423e-001
      3.0017973077507483e+000 -1.0634701865306220e-001
      2.2411241681636319e-002 -4.8130411942625025e-002
      -4.3343188620899330e-002 -1.8193610514926167e-002
      -1.9813951081716057e-002 -6.1003651235468026e-002
      1.3835619228840876e-001 1.6904214986291130e-001
      -1.9445683271846391e-002 9.5547714173789100e-002
      4.7015583301192931e-002 -3.0412444249799352e-002
      2.7446089948936081e-001 -1.9591771473174126e-002
      2.4131930409125508e+000 4.9814377354769762e-002
      -3.5232281469727116e-002 9.8244214341617717e-002
      7.8120258821822216e-003 -1.1967337920894335e-002
      -3.9427146397379147e-002 -1.2825451427010496e-002
      1.3138543757321264e-001 1.4772194156672809e-002
      4.0460837653358672e-002 -1.2440794949598230e-002
      -1.3330811150684069e-001 1.3967476844238580e-001
      1.1761838354681758e-001 -6.3238726134415835e-003
      2.1050426995591702e+000 4.5469280805433332e-002
      1.2464627316961381e-001 7.8255933106178191e-002
      2.5698722259909290e-001 -5.6355748829065154e-002
      -2.5796571457798446e-002 4.5837630590061934e-002
      -5.2298645478822764e-002 -1.7744030984360859e-001
      2.3630728124541176e-002 1.1106831310260867e-001
      -3.6807205881049113e-003 1.7159944078003533e-001
      5.7874501619812835e-002 5.6582446596786712e-002
      4.6824765926007998e+000 2.3059564878758240e-003
      -2.3249205792593974e-001 8.9540487203658453e-002
      -1.8913541289575278e-001 -1.6783689278681613e-001
      8.3373072343458695e-004 -1.3507482659066958e-002
      4.3609999629734564e-001 -1.9913100959815197e-001
      2.6821705727144339e-002 -1.5174558638258870e-001
      -2.3200985243402381e-001 6.7887045055407241e-002
      1.2736114747270239e-001 2.9068203785895481e-002
      2.2166249818369068e+000 -7.2368791993897036e-002
      -1.5537018427730359e-001 7.0924803719433924e-002
      -6.2928376956830484e-002 1.4355055896532706e-002
      -2.0731608157746065e-001 -1.4609982937284871e-001
      -2.4168376933669704e-003 -1.6381858127353818e-001
      -1.9359224015727147e-001 -7.3548611605112141e-002
      -2.3715343518249410e-001 1.9048089821049374e-001
      -2.1459978731402585e-001 -2.9644684136109656e-002
      2.7823343222291381e+000 -1.5375686401720542e-001
      -2.1475107258428403e-001 -7.7426410190531807e-003
      -2.0564435997870606e-001 4.3179608611017092e-002
      -2.4677804250009369e-001 -2.4203315840282630e-001
      6.5309927670975862e-002 -2.9727349437523543e-001
      -1.2037397720766985e-001 -2.0110036930700226e-001
      -1.3869510700564705e-001 5.5950673257661683e-002
      -2.5046918666415952e-001 -1.9245993023221999e-001
      -1.9278445687637100e+000 4.5828120184690478e-002
      -9.5546250606483640e-002 5.4852256158964163e-002
      2.7164737116373204e-002 6.0097020158927636e-002
      -5.1655641430991918e-002 7.1182842500672361e-002
      -1.2401233309805190e-002 2.5353601131600796e-002
      -2.4426220265587210e-002 4.5314779034701054e-002
      -1.7063154704733677e-001 1.5490135931755775e-001
      4.5413621322466123e-003 1.9487853374030958e-002
      -1.8940870421201899e+000 5.7201758927660037e-002
      4.0606230724567488e-001 8.1805170048692755e-002
      2.1869610380720786e-001 2.4882527606986746e-001
      -3.2079525353482902e-001 2.3793322324328456e-001
      -5.4195548732451426e-001 -1.6474744066965080e-001
      -1.8166357116169627e-002 2.7817022764526228e-001
      1.3190518360033482e-001 1.3199579165635786e-001
      1.8330570472274116e-003 -3.8164890836364554e-002
      -9.1451280169610527e-001 7.4900104117248414e-002
      3.2688561370428554e-001 1.5590469277939450e-001
      1.2349416967310092e-001 1.5361525244146290e-001
      -1.5098799811208302e-001 1.8221252049233386e-001
      -3.2689613189446187e-001 -8.7087520044932587e-002
      -1.9612577554614902e-002 1.3370967648860202e-001
      8.7881900291471894e-003 1.7008266747142967e-001
      9.3065904907087660e-002 3.0747265374414568e-002
      -1.9643833624230056e+000 1.0130958906186810e-001
      2.9926754533737082e-001 1.6841180578071840e-001
      1.2677186160204607e-001 1.1062222745645028e-001
      -2.1228366559540468e-001 2.0865629807409025e-001
      -3.7807158812174813e-001 -1.5397113156487166e-001
      -7.6081400625443524e-002 1.4644199592020571e-001
      -4.3571782787996657e-002 2.0600609892578473e-001
      -3.0491500118419237e-002 6.0481793838020596e-002
      1.9844538024396714e+000 4.5942228908995075e-002
      5.2596552748962674e-002 3.7341991889749855e-002
      5.3495128752637178e-002 3.4505379035119126e-002
      2.1325449436716398e-001 1.2824385957791945e-001
      -9.3352407683847019e-002 -7.7094933944093752e-002
      1.8355034072800921e-001 3.8197346948868609e-002
      2.4196614545324863e-003 -7.2324402378104016e-002
      1.8564554604835540e-001 -7.8655564009384310e-002
      6.2096578150428010e-002 1.3223770457701664e-001
      -4.1409798536041079e-003 -2.0751599888337260e-002
      1.1197230573548167e-001 -1.4624883753039384e-002
      1.2981224454386675e-001 8.8807939790934584e-002
      6.3369010024934475e-002 8.2507728043540965e-002
      1.3584704289035157e-001 5.0168974742136080e-002
      -1.7801867122634893e-003 -9.0661900079143255e-003
      1.0033636304795424e-001 9.6528879978698948e-004
      3.1289174975151290e-001 9.0017499024957731e-002
      -8.6085819078926235e-002 2.8483374294801654e-002
      -3.9410607037219159e-002 -1.4577237770575794e-002
      1.5834819168407815e-001 4.0374517868502449e-002
      1.0728775239713306e-001 1.3564165868619615e-001
      3.8575884600042143e-003 -2.2907109352910942e-002
      -6.0329562729909388e-003 -6.6538320111985252e-002
      9.0445939448171350e-002 3.1954017886912343e-002
      -2.2213266069788723e-001 1.5984242938385834e-001
      -7.4544749738029964e-002 6.6338509767080070e-002
      1.4186632001111787e-002 -4.5853490450796612e-002
      1.3383965633597683e-001 6.4820696083002699e-002
      6.6233857249073949e-002 6.0306932604553366e-002
      1.0635585654757410e-001 -2.3142942336778021e-003
      -1.1938480716072419e-001 8.3015136974565543e-003
      4.0388945108762783e-003 3.2519956964352628e-002
      -3.5273272961368562e-002 1.7850053548189179e-001
      -1.1481115721900841e-001 4.4567826816175063e-002
      -9.2466306093573272e-003 -2.4799557474833860e-002
      1.9120055140580416e-001 8.4628730670946742e-002
      7.7339933504408209e-002 7.5921616673243070e-002
      9.6320719296984589e-002 -5.5910580278824833e-002
      -1.4469344803875786e-001 -5.7408947889220838e-002
      -5.1217282859441465e-002 7.8067825613333331e-003
      -4.9222506895871104e-001 1.2556554560317573e-001
      -6.2301852492284190e-002 -2.4608805066005237e-002
      -8.4442904552920833e-002 3.6281404499354089e-002
      1.0732128578650375e-001 2.9662475279229022e-002
      6.2092086650306730e-002 1.5802258542276928e-001
      -4.0635497532518789e-003 -6.7688773105965480e-002
      -1.1000028013491478e-001 -6.4382168236317719e-002
      1.2573361537377011e-002 1.6281803625749974e-002
      1.8129498608037657e+000 1.2076985463037104e-001
      -1.1885558536457062e-001 -2.4529737348349370e-002
      -1.3733709192280315e-002 -1.0168308150548769e-002
      6.5398317116309362e-002 -2.6257968570822687e-002
      1.1801718858806107e-001 3.2224230450289860e-002
      4.8371069046979243e-002 -2.4153553926320893e-003
      -6.8368350678568099e-002 1.6592470798759393e-002
      3.2479754749163016e-002 4.1637423382959102e-002
      9.9441933159556506e-001 3.6626578591566594e-002
      -1.1908654755587512e-001 -3.2767462824255370e-004
      -1.3556260422863084e-001 -4.1308297760601936e-002
      -4.5701245592540282e-002 -4.6775297738074977e-002
      3.6825511938729828e-002 -7.2178825850800432e-002
      3.2540017304390448e-002 -8.0834928854939453e-002
      -1.2966726071795101e-001 1.1380816754411440e-002
      8.7969613935018384e-002 1.3958079458252259e-003
      1.8231023220523614e+000 7.4653463959500899e-002
      -3.7820350764961731e-003 7.6507548365469968e-002
      6.5613771059764847e-002 -1.0925166805663260e-001
      2.3590776219591925e-001 -2.2668780750440382e-003
      1.0010797245318160e-003 3.8181832811341285e-002
      -2.4544818958361195e-002 -1.7310159411659604e-001
      -1.1343636173974431e-001 -5.2924021880328305e-002
      2.5245617255040282e-002 -6.2793390598008633e-002
      3.2382397543915511e+000 -1.0507493810475783e-001
      -1.2532578440385331e-001 -4.9166782356351239e-002
      9.3199758334442620e-002 -3.1054422741133788e-002
      1.1431818488428575e-001 4.8775809740358160e-002
      1.7706649043715533e-001 2.3234452041045132e-002
      2.0260383681192685e-002 1.6877355898415819e-001
      7.6391893245820519e-002 -6.5187223251742851e-002
      1.6003522624215646e-001 -1.0482090785247145e-001
      4.4414804455214165e+000 -1.0670063249431812e-001
      -1.6595311828867390e-001 -4.1330728413998902e-002
      -1.1092201661387759e-001 -5.3722746466377785e-002
      -2.3015390870651084e-001 -1.5120643491235686e-001
      3.1849010445021905e-002 -2.6712665378568290e-001
      -1.0503353804058067e-001 -1.0219689092229603e-001
      -1.3668068641336481e-001 1.2197203243383088e-001
      1.1699016974053225e-002 -1.8773318384615767e-001
      2.3618737190464607e+000 -5.5454113686628212e-002
      -4.0799893160635911e-002 3.2131218533636742e-002
      4.8378239949384616e-002 8.3628748582262241e-002
      -2.0342760604184826e-001 -1.0108788794941717e-001
      -1.0768896552619457e-001 -1.4161544715260838e-001
      -9.0881292036779290e-002 9.5176184809326637e-003
      -1.2315748606589796e-001 1.3762867038670215e-001
      -1.4348167370739931e-001 -1.6718013882829280e-001
      -5.0793036916745860e-001 -9.0588737154802076e-002
      -1.7460373604263113e-001 -6.6658354940746622e-002
      -1.0174382723994463e-002 1.0865462414361420e-002
      -1.7046116722051580e-001 1.3753546973242189e-001
      1.0730634101969631e-001 8.8476422426074827e-002
      -1.4406724949256358e-001 3.5998238079529753e-002
      -7.5114154656686374e-002 5.3120929360110446e-002
      -2.1846547242807192e-002 -4.6548346316063549e-003
      2.2873259437456187e-001 1.8210796007840724e-001
      1.5231704804720722e-001 1.9047953129656264e-001
      -4.9444639728198632e-002 1.1754617670911702e-001
      1.1236171182019621e-002 2.1625803656539772e-001
      -1.3911159264237877e-001 -1.4186980644594629e-001
      1.9190626012732179e-002 -8.9554246103699428e-002
      -9.4552795873890635e-002 -4.4402019818137375e-003
      2.2839050320868262e-002 -7.0830658575090272e-002
      -1.2991621840897887e+000 1.8289551280105919e-002
      4.3847618885568607e-001 1.0054198929423228e-001
      2.7584340968428156e-001 2.5092676036287065e-001
      -3.5958259530569620e-001 2.1325673192860276e-001
      -5.3458306730839367e-001 -1.9179802344521457e-001
      2.2790813518100447e-003 3.5559575341258121e-001
      1.4020829477987612e-001 1.9851248347581754e-001
      7.2062579898689944e-002 -1.5449167364001678e-003
      -5.8562872369422070e-001 2.2440163735892626e-001
      1.4951861973621150e-001 1.5446038920088165e-001
      4.9518316713073407e-003 1.5145315333724521e-001
      -9.1611366807120481e-002 2.4603200201402023e-001
      -2.3379672279608271e-001 -1.9012338388741820e-001
      6.3013641639241474e-002 -5.7633984777949877e-002
      -1.3340981714522057e-001 4.2353883226868866e-002
      -6.5371154253739280e-002 -7.5916149178361744e-002
      2.2656975823601888e+000 -2.4726302140288745e-002
      -8.6694448891242379e-002 3.8775309046827883e-002
      -4.0040532850388930e-002 -1.0041480098371791e-001
      1.6863957540776700e-001 2.0877841260675833e-002
      1.1879176487897633e-001 -2.4105402807614720e-002
      4.6162594237567384e-002 -1.6297014836481249e-001
      -6.6841015611344645e-002 -8.6674990056841827e-003
      2.2614795593233893e-002 8.1584434984417212e-002
      1.4786778155634308e+000 1.1350545318614888e-001
      -8.4165989601234406e-002 6.0368844115330868e-002
      -1.0523218031825282e-001 -1.0860490445069491e-001
      3.4025965967799790e-002 2.3980129220554001e-002
      2.7276323035826611e-001 3.4645629105945923e-002
      -1.1861030099106330e-001 -1.7301638489732860e-001
      -2.2380664223621485e-001 1.0953829221892590e-001
      2.3144343805145209e-001 1.2026947340744439e-001
      2.2882628003305259e+000 9.3007538771078258e-002
      -9.3060775202075275e-003 -8.2701659077869666e-003
      -8.2232336888100610e-002 -1.0271000471221822e-001
      2.6354401834464497e-002 3.3746019307242220e-002
      1.8769995213935092e-001 -9.7972294264830131e-003
      -1.8722048992040796e-003 -1.3002332689779050e-001
      -1.8169027006417551e-001 8.8653615146619041e-002
      9.4454773415172263e-002 1.6554556089039976e-001
      2.4202666783930340e+000 -1.1353761970374196e-002
      4.0746743579811173e-002 -4.1966450363371106e-002
      -7.8244143862951823e-002 -1.6852441831979235e-002
      -1.0510562276226008e-001 1.3805977205863535e-002
      4.0986909005050094e-002 -4.6490675739260794e-002
      -1.1114681207153726e-001 1.6513628904578134e-002
      -1.2760891352582571e-001 1.6011278722343839e-001
      7.6450263951834060e-002 8.0224560107468798e-002
      9.2292970435136545e-001 5.0935158069117754e-002
      6.4326857606482976e-002 -2.5536637384973618e-006
      -5.7864549134982769e-002 -8.0923444928570593e-002
      -9.6444316628065782e-002 2.9481141716210163e-002
      1.2907599147791246e-001 2.3387034247269196e-002
      -6.5955752833513195e-002 -2.6067528427515991e-002
      -2.2964831469059963e-001 3.0700154796624801e-001
      8.1828877193571667e-002 2.9556283380039772e-001
      3.5802156039943549e+000 -3.0541356116597109e-002
      1.9388828096348336e-002 -2.9076713317241220e-002
      -1.0167377294072455e-001 -1.4271420779563056e-002
      -3.3217601893892647e-002 -8.9470520129343922e-002
      1.2999893285077216e-001 -1.7047109155817006e-002
      -4.8889267402472056e-002 -1.0547201049883456e-001
      -9.5052671843394790e-002 8.4916875059969088e-002
      2.6087797935654865e-002 1.9183011769453796e-002
      5.0074927885173426e-001 -4.9491960663067859e-002
      5.7702357717827495e-002 1.1587005765085846e-002
      -4.5827387459403623e-002 2.1634096646874483e-002
      -1.0238199668524688e-001 -7.1958464660266910e-002
      -6.4520997522883761e-002 7.1891163945790496e-002
      -6.9429931421168059e-002 -3.7416931292730896e-002
      -1.6194379176693766e-001 2.9271006863082349e-001
      2.8644886614914468e-002 1.5545051100908863e-001
      1.9887833509961219e+000 6.4548357105439880e-002
      -1.6710900367536818e-002 4.5102405986367146e-002
      7.2083983366104734e-002 5.7503833735411986e-002
      6.1214744075294363e-002 -1.0507800796316377e-002
      5.4568082576192993e-002 1.8361240256617709e-001
      5.4140042080201671e-002 4.2113876202032663e-002
      -1.2869427842656958e-001 -3.7493974871084988e-002
      1.0962192023577001e-001 6.5513707665699888e-003
      2.2492001566804136e+000 8.5384849552994080e-002
      5.0177218894898491e-002 2.1535518931701930e-001
      7.7267477003810633e-002 -1.0399824077888692e-001
      1.6490566090458746e-002 -4.3179005094496993e-002
      5.6881992805285761e-002 -7.0375776993519115e-002
      -1.4484122443894800e-002 -1.1030519273098427e-002
      -1.4137871532062066e-001 9.7606713108204554e-002
      1.3218233426362794e-001 4.7066963134440892e-002
      4.5760855303865906e+000 -1.4969211204910304e-001
      -1.7081650853403343e-001 -6.0513893721880208e-003
      -6.6842794269213468e-002 -4.8085350603609418e-002
      -8.1315613523286742e-002 -3.3891817331425260e-002
      2.6775133321552913e-001 -1.5329145389182094e-001
      -5.0009966134851314e-002 -7.7057171466023144e-002
      -5.2050669222330509e-002 1.0716132686089931e-002
      -1.6467975845472616e-001 -1.1239591912790103e-001
      3.2083546858589136e+000 -6.7245076422520658e-002
      -2.4842776611958203e-001 1.3379418158913178e-001
      -3.0194987625676156e-001 2.5449995573428238e-003
      -3.4960585342054223e-001 -2.5213958624278116e-001
      1.6755051881756117e-001 -3.7908141607259255e-001
      -2.3963393984038459e-001 -3.4436887145840150e-001
      -4.8130106659403971e-001 3.0221403429313520e-001
      -3.9715184222542560e-001 3.0222766879865998e-002
      4.0176411636867373e+000 -8.5758740663429534e-002
      -2.7629618183824933e-001 1.0053592074588918e-001
      -2.5556827087408807e-001 -1.2956707469570375e-001
      -3.3749601227619175e-001 -2.5221799047745358e-001
      2.6590263762913247e-001 -3.8231749107102420e-001
      -1.6261952565641610e-001 -3.6192231735615094e-001
      -4.6892810485460762e-001 3.0467503865521128e-001
      -1.8028943069236772e-001 1.0699149614525816e-001
      -4.4730208259339932e-002 4.3435504512349239e-002
      1.7630922888867123e-001 2.7753373211541053e-002
      1.4830691196117562e-001 6.9562305635508234e-002
      2.2665485004430583e-002 2.3543974522831055e-002
      -1.4403641499692271e-001 4.7989402164869896e-002
      1.0936939795909636e-001 6.3646060017275019e-002
      1.0539617609929883e-001 -1.2103361862162754e-001
      -6.9693008256523697e-003 -1.2189239385836763e-001
      1.2606822532591764e+000 3.0137527574964958e-002
      -1.0308328758426287e-002 -5.7197246540981413e-002
      6.0708137966485075e-002 7.4094050992255939e-002
      4.5168699181475723e-002 1.2034710618695980e-001
      2.6481891272121583e-002 -1.5291969171369402e-001
      6.6097372203357430e-002 -1.1282009515469217e-001
      1.4700435090623648e-001 -2.8952467847988039e-001
      -1.7351224793074019e-001 -3.0197248313753589e-001
      1.2529258472803559e+000 2.2103752590889463e-002
      -1.0285761188147906e-002 -5.9663684214751524e-002
      6.3000418969707733e-002 7.4201677806978728e-002
      4.5530042930029539e-002 1.1537603898579697e-001
      1.8492389594192856e-002 -1.5147278234881917e-001
      6.9228148700636455e-002 -1.1941488035839397e-001
      1.5141440769346914e-001 -2.9616252145292599e-001
      -1.8296700101308302e-001 -3.0573453609313705e-001
      1.2503970184281568e+000 2.3934030599027153e-002
      -2.4167899869764159e-003 -5.1163307408343482e-002
      6.0770858707496760e-002 8.1314334277404560e-002
      4.1915074118471986e-002 1.1739847667081212e-001
      2.0876775831209907e-002 -1.4377395598395165e-001
      6.1446056055258512e-002 -1.1043260789419602e-001
      1.5896397993019729e-001 -2.8428922836929871e-001
      -1.8110647004825134e-001 -3.1144559411956607e-001
      2.5512991714409022e-001 -4.7785195058411967e-004
      2.6282465698168212e-002 -8.3772853856988780e-002
      -9.5764763296646307e-002 2.3144028730920607e-001
      -1.4744212107459019e-002 5.2998733189526477e-002
      2.9302109727089080e-002 7.8831553413622801e-002
      7.3312592545364111e-002 -1.5314793392192558e-002
      1.4154391187923998e-001 -2.4781177360650311e-001
      -9.9854271141304268e-002 -2.6264949205156768e-001
      -4.8590043019623702e-001 4.1554739409484134e-002
      -6.1279718235481865e-003 8.1095649160973175e-003
      -3.7434751751910904e-002 8.9515577231373225e-002
      4.3091762415876159e-002 5.1436748467997465e-002
      1.9107938479349617e-002 4.0481787928230838e-002
      4.1013172509968603e-002 -2.3629775360881854e-002
      -7.2048855523601740e-002 -7.9437486909850793e-004
      -2.8500409193730560e-002 -3.1075167760957447e-002
      5.3929841373508147e-001 7.4040026595089362e-002
      2.6697458025276066e-002 2.3531460409140915e-003
      4.8890721576999724e-002 3.4545989772851705e-002
      9.3562246983419015e-002 4.0325899115933712e-002
      1.2914460707220457e-001 -1.0049064974028268e-001
      1.6566805366222043e-001 -2.2688393680227761e-002
      -9.2462761711003417e-003 -9.6211532489360013e-002
      -3.8391583489603469e-002 2.8890978907177081e-002
      6.7274745418986415e-001 -1.1948558297221481e-003
      1.2120743296909575e-001 7.7256450993605827e-002
      4.8247179255441280e-002 6.5970486034031522e-002
      -8.5678511051106562e-002 -4.8320115066882701e-003
      6.7686962963889069e-002 8.9544133164050091e-002
      1.1345291596679909e-001 7.8503684095124204e-002
      2.3718355500945733e-003 1.1401520260697963e-001
      4.8109695555977237e-002 7.0147968373914849e-002
      1.7293265163518310e+000 -3.6604939394364413e-003
      9.4468987833327925e-002 2.3897255047724428e-002
      1.1402795174475809e-001 5.5884095800909202e-002
      5.1526561345850694e-002 -6.9506667592644539e-002
      9.2276501367614311e-002 2.4930616027992611e-002
      1.3295355385494839e-001 1.2464703519920084e-001
      1.6287151210050305e-001 -7.2602095366936695e-002
      1.3651733536944066e-001 4.5377632957615578e-002
      1.0969844825396518e+000 9.9111167177387230e-002
      1.2212017150067588e-001 4.2012367907426400e-002
      4.1957396257087033e-002 5.2843894222768965e-002
      -6.5513672075554516e-002 -4.3967122409796701e-002
      5.8546620031546703e-002 -3.4319692715340369e-002
      4.7987173426898774e-002 7.0333863415613138e-002
      -1.0419151750655305e-001 1.6814954013066793e-001
      1.4640329213579578e-001 4.8647422002915761e-002
      9.4194672228394194e-001 5.1515873829705371e-002
      1.0995371424545361e-001 -8.8379170031060009e-002
      9.9084655910144759e-002 6.9253851938876093e-002
      -1.5278879505190489e-002 6.2939237641672335e-002
      8.4746933100855987e-002 5.2486653536968741e-002
      4.9770272827511487e-002 9.1065906346821199e-002
      7.9234325464960759e-002 -5.4190311862652676e-002
      2.0666024816707741e-002 -3.4664184440676274e-002
      1.9497485912184369e+000 -1.1124267120525760e-002
      2.0817459221892452e-002 3.4633669104320891e-002
      1.0878553731649680e-001 1.6984841126576996e-002
      1.6140317967884243e-001 7.6315809757883116e-002
      2.3858786812304930e-001 1.9280963064077367e-001
      2.1436246519987684e-001 1.0691654646312787e-001
      1.6158930549542538e-001 -1.2394535324626051e-001
      2.0959166190391215e-001 -5.2810190190559041e-002
      3.2372877803267737e+000 1.5641481377350286e-001
      1.6381737243338504e-001 1.1496696418084128e-001
      -1.2726320577817452e-001 6.4688039740909600e-002
      -1.0144715936102924e-001 -9.0087969159860559e-002
      3.8673136038215199e-002 -1.5978957785441408e-001
      -7.2795525505992831e-003 5.8844913049762842e-003
      -6.6116882762415938e-002 1.2707272035882389e-001
      1.2899107199706236e-001 -4.2759873848099109e-002
      1.8940934822085056e+000 -8.5296086729548415e-002
      -3.6377361159210753e-002 1.8104630659709985e-002
      8.9694165622600311e-003 3.1812696126974481e-002
      -1.9332834021839221e-001 1.1735978079227451e-001
      5.6923358574444229e-002 -4.0192871915298967e-002
      -1.0577877771387714e-001 6.7520803173755375e-002
      -1.6458284569935488e-001 1.2643713640780224e-001
      -6.8348338431988176e-002 -2.3246136055393232e-002
      3.8615797420651470e+000 -5.7265211295447802e-002
      -2.5947007331013328e-001 -5.7617716883423828e-003
      -2.7966505421902599e-001 -2.1423307817398149e-001
      -3.6439911598115909e-001 -1.3086434772769595e-001
      2.5478560420941676e-001 -3.1594890870978293e-001
      -1.6939446614128231e-001 -2.6774970789184488e-001
      -3.4192624129148325e-001 2.8227627695945723e-001
      -1.5393113127220434e-002 1.1835913016262874e-001
      9.4637761777634188e-001 -4.0076441726341547e-002
      -3.3364212007517390e-003 -9.2838750110176158e-002
      3.9847332623757413e-002 2.4081780619541117e-002
      -2.3428168825261675e-001 -4.6663195967027643e-002
      -1.2600350435919606e-002 1.6338007620975727e-003
      -1.1411921530391904e-001 -5.6829875009593793e-002
      -1.6118497385127739e-001 1.5126544409991607e-001
      -2.1099227602969242e-001 8.3732912795924756e-003
      1.4453016789171957e+000 1.0245399921841594e-001
      1.0933898318173426e-002 8.5659443973762461e-002
      3.3915590848748338e-002 -7.0815246424013106e-003
      1.7265867411582825e-001 7.8912893927854513e-002
      -3.3733665630166889e-003 -6.4673446734968679e-002
      8.2675505239686267e-002 -2.3171765789911151e-002
      6.5027012886008734e-002 -1.8677076861180053e-001
      7.6413011766540043e-002 -1.6872026930526787e-001
      3.0684272618281634e+000 2.6694535731595977e-002
      8.4896061487043664e-002 -4.5812221285555364e-002
      1.0308675159886846e-001 1.6946153514342358e-001
      -4.4197720686686294e-002 8.5077151162583617e-002
      1.0334853067848201e-002 -2.2923724110530869e-001
      1.6698143631014092e-001 -2.3460378492759382e-002
      2.1902299666812233e-001 -3.2287090015419478e-001
      -7.5728564404931989e-002 -3.5926794941734669e-001
      3.0667659010738175e+000 3.4273776000554569e-002
      9.0301568322861195e-002 -4.5057117344252530e-002
      1.0096304126453826e-001 1.8113103440741748e-001
      -4.1339398738628068e-002 9.0767511605352860e-002
      1.2450057491260730e-002 -2.3168066294443967e-001
      1.6048151667023805e-001 -2.4545139023986796e-002
      2.1052675722419326e-001 -3.2615069375525579e-001
      -7.8659659180284322e-002 -3.6236912546361361e-001
      3.0744554112791436e+000 3.4077390619259039e-002
      9.7941541084913861e-002 -4.7943241997187976e-002
      9.6775882151079462e-002 1.7253993739059700e-001
      -4.9992475288103626e-002 9.0073417343750642e-002
      1.5457098049201503e-002 -2.3211977984398091e-001
      1.6397621369974810e-001 -2.5960375215945217e-002
      2.1917031022233438e-001 -3.2693393017167632e-001
      -7.2531573852172807e-002 -3.6491323286643568e-001
      1.4009887309855389e+000 -9.0742433426739488e-002
      -2.5686289141371315e-002 -2.1575150206039381e-001
      2.3801783264306514e-002 2.4084778827591460e-001
      -1.7153329490234587e-001 1.2041507572096337e-001
      1.2482641447989951e-001 -5.2995505716184707e-002
      3.2886020611180136e-002 7.8240306549494695e-002
      1.9056305161445031e-001 -2.8977599127768955e-001
      -1.0813462921623242e-001 -2.8544948300186995e-001
      2.0604706994913218e+000 -1.2221000309777241e-002
      1.0610839383811568e-002 -4.7740251610998617e-002
      -4.8932260975524861e-002 1.8862886982316723e-001
      -2.7319324809377854e-001 1.4452271321745178e-001
      2.1295998372630529e-001 -9.4851460987059100e-002
      -1.2244813714165116e-003 9.7488248736910435e-002
      -5.3548033336249419e-002 3.6403074773539108e-002
      1.0363485639879606e-001 -4.2234287821575935e-002
      2.0480218099694523e+000 -1.8226290908760018e-002
      9.4771464243738873e-003 -4.9438962153539566e-002
      -5.0541372686687874e-002 1.8440060646885231e-001
      -2.7815977799113856e-001 1.5316074423949708e-001
      2.1414339502434007e-001 -9.4237847809507280e-002
      -7.1595623479280080e-003 1.0039922555418183e-001
      -4.6210033576638339e-002 4.5041350784035671e-002
      1.0173496931265096e-001 -3.7634082680801990e-002
      1.2431315913990626e+000 8.1361962633056312e-002
      1.4063300130182252e-001 1.1300563778774214e-001
      -1.9171948032950528e-001 2.2459185633046597e-001
      -9.7651400720023221e-002 6.6690403988295538e-002
      1.0135161241817987e-001 4.7602554690558754e-002
      7.1909195817043553e-002 4.5097799884543613e-002
      -7.9484300808620942e-002 4.1647846572495650e-002
      1.1962397510114540e-001 -3.9154451885156177e-002
      1.2361775290666923e+000 7.9106225985487444e-002
      1.3594691067828782e-001 1.1010330201622065e-001
      -1.9303200088699482e-001 2.3285373434021411e-001
      -9.9656950587689544e-002 5.9402652005348139e-002
      1.0181274404250508e-001 4.1990998560030385e-002
      7.5424328155047932e-002 3.7176253017135216e-002
      -8.2140972597387382e-002 4.9290481375653311e-002
      1.2339500900463281e-001 -3.2776878365803314e-002
      1.8395280068346038e+000 -6.1912639299815300e-003
      6.5691897212693893e-003 -1.3240478263488807e-002
      -4.5019709542206118e-002 1.7677572248044721e-001
      -2.7904867704270936e-001 1.4368104850685590e-001
      1.9603711009647296e-001 -8.3575937994750105e-002
      -5.1975133956000917e-003 9.5738390316319213e-002
      -5.8007806884292051e-002 4.5342487436742428e-002
      9.1434088664309354e-002 -3.1982309107405259e-002
      2.0591639839376588e+000 -1.1086810854067791e-002
      1.9034021431078168e-002 -4.8137250869505509e-002
      -4.5075800283055245e-002 1.8752714536763615e-001
      -2.7256023103681443e-001 1.5445724373937189e-001
      2.0441948249958750e-001 -9.5209896640206543e-002
      -8.1454291658465596e-003 9.5585981568311260e-002
      -5.0792342895296959e-002 3.9133635879143820e-002
      1.0368614122837079e-001 -3.5754535250418058e-002
      2.0620221084851589e+000 -6.8751791388403597e-003
      1.8719400611356952e-002 -3.5863372708192863e-002
      -4.7904839614985900e-002 1.9232975362021659e-001
      -2.7413427243986133e-001 1.4696499131023924e-001
      2.0295260332065687e-001 -9.5804372775404156e-002
      -1.1411106762273878e-002 1.0104770079315804e-001
      -5.6391850422317071e-002 3.5489705708007781e-002
      9.7962868363778752e-002 -4.1513861026845823e-002
      2.0297318186512743e+000 -2.0153158978774042e-002
      1.4065535361845499e-002 -1.1462746110350433e-001
      -5.1875014092218424e-002 1.6826885951359408e-001
      -2.6939277263869393e-001 1.4870110996954786e-001
      2.0973131276182372e-001 -6.7255722105286228e-002
      -2.4329998839079922e-002 9.7269948932752384e-002
      -1.7759898281352857e-002 -2.1705479552491802e-002
      8.2393279541696895e-002 -7.6464445747524340e-002
      2.1561837139131641e+000 1.2689711740131235e-001
      2.4067938639670530e-001 -2.4239336304438794e-002
      7.9687295343762760e-002 1.3339594281128830e-001
      -1.7760211682996549e-001 9.8212008547941820e-002
      -1.3490802789155799e-002 -1.0510854334143918e-001
      7.1746486363871209e-002 6.7372384291405199e-002
      2.4239522546253733e-002 -8.5829201242054124e-003
      1.0956111410352821e-001 3.0824383968703604e-002
      -2.6452960076258374e+000 7.1568673789162832e-002
      1.9419553375234409e-002 1.6906225821731724e-001
      4.7347586233613168e-002 -5.9946425105834672e-002
      4.0450575773596689e-002 3.8739984601088011e-002
      -8.8128631124906417e-002 -3.8983990903442053e-002
      1.1582423251537650e-001 -2.3794827118490743e-002
      -1.7212428624647394e-001 5.7211407757611847e-002
      -8.9548648795602578e-002 1.1096547013114691e-001
      4.2337186012322992e-003 -5.2618640599358373e-003
      -1.6881408820219026e-003 -6.9085450733327258e-004
      3.3801700250766207e-004 5.7960703698903765e-003
      -2.7497029780888618e-003 1.3461092144755617e-003
      -4.2635487469359660e-003 -4.7835105935539564e-003
      6.1378849264220221e-003 -5.5062433391992400e-003
      -3.0767965173052734e-003 3.3996724191047255e-004
      2.1060202715994509e-003 4.5088856711979824e-003
      1.9443172203344379e+000 1.1696150583292328e-001
      1.0372477972865235e-001 -1.0110781683250853e-003
      1.1922725602829340e-001 -4.3325732329735904e-002
      6.8130544561171458e-002 -1.1455786804020597e-001
      7.2839307347608590e-003 -5.9503722022504792e-002
      8.5896849143905107e-002 -1.9256392117224300e-001
      -4.0794892313441612e-002 -1.4505018204329978e-001
      -8.8079453553246683e-003 -1.2735485156603571e-001
      1.8331485138767174e+000 1.0555626094875158e-001
      1.6587518348321004e-001 1.2537748084842212e-001
      -4.7429054938283977e-002 1.1860496707519337e-001
      1.1116037772207812e-001 -2.7015978567019414e-002
      2.7175077602826753e-002 -5.4920102621677257e-002
      1.7934118255570664e-001 -1.7191079972764653e-001
      4.9450180007069536e-002 -1.7825906153956253e-001
      -5.1221948886632292e-002 -1.7178110934785476e-001
      2.8118616618532601e+000 1.3563859324103372e-002
      8.5014768862074569e-002 -2.1823102754543956e-002
      5.5431240857213640e-002 1.2141929975523685e-001
      -2.9319137123234175e-002 6.6706833350815009e-002
      3.3774017128174905e-002 -2.2313138007222594e-001
      1.1878193669141628e-001 -7.0009453656309104e-002
      1.8488919083038902e-001 -2.7528394195624967e-001
      -1.4978543646407491e-001 -3.1150267542542470e-001
      2.8093189270427161e+000 1.4265225847678727e-002
      8.4339682267935201e-002 -1.3445719850943984e-002
      5.4976436509798138e-002 1.2596947300752551e-001
      -3.3713579938862759e-002 6.9509865828880579e-002
      2.3054065003674577e-002 -2.1470300884536081e-001
      1.0991526646822934e-001 -5.7699613973603341e-002
      1.8626128098938510e-001 -2.7877789643216139e-001
      -1.5102856098953013e-001 -3.1488107275498139e-001
      1.2306250779515322e+000 -8.1870431584848372e-002
      -3.9884058932017422e-002 -1.5718177093812552e-001
      1.4735900508015685e-002 1.4176467638779003e-001
      -1.2806843799153209e-001 6.5480917115325193e-002
      1.0571389699541421e-001 -9.3664483233824924e-002
      4.2920898796101572e-004 4.4738975571990788e-002
      9.7426315362335092e-002 -1.7019706547335897e-001
      -1.1249842105949524e-001 -1.8770866197115005e-001
      2.6350366329017083e+000 -3.1701097564289474e-002
      -3.9940066655972974e-003 -3.7221148895524497e-002
      -8.8900682751152982e-002 9.9265946192462165e-002
      -2.3622796353582165e-001 6.4791004388525600e-002
      1.7969268890804246e-001 -1.1912331852572403e-001
      -7.5442752997494464e-002 7.3659241334633793e-002
      -3.1480413470259101e-002 7.6723688519590313e-002
      2.9793870676888764e-002 -9.2714418593020653e-002
      1.6949749317361980e+000 3.1850983083930549e-002
      -8.7741984049668782e-003 -4.2572269243040320e-003
      -1.4480809144322034e-002 3.1554298461037952e-002
      -1.8210320712245984e-001 7.3202295388983735e-002
      1.4154171601480187e-001 -1.6921518977877270e-001
      -1.7503286961114216e-002 8.5212670727087339e-002
      -1.7858807225291748e-001 1.5239792198972665e-001
      7.0302103164825935e-002 5.2650369843802378e-002
      1.0811581064832299e+000 4.4781119343980068e-002
      -1.0238926980163484e-002 -1.4355043126073733e-002
      -4.8887318297035964e-002 2.6642520581485096e-002
      -1.6221651496764725e-001 8.6887347381575442e-002
      1.1933898005936061e-001 -1.2156282178800312e-001
      -2.6191010705723810e-002 2.8133712649682112e-002
      -2.1502482604457207e-001 1.4315760238539568e-001
      4.7568663815783556e-002 5.7672714431949976e-002
      9.9431380976928208e-001 1.9324442941126233e-002
      -3.6074441096646807e-002 3.9927869046017993e-002
      -6.3680424267402849e-002 2.8156905212011894e-002
      -1.4572394464257474e-001 6.8641867749573926e-002
      1.8849601837520952e-001 -7.4857617530128276e-002
      -4.4323373935887866e-002 1.7160043733938622e-002
      -1.7878161031221004e-001 1.1730027768932534e-001
      3.6571799399823191e-002 4.7506532662595587e-002
      1.0912253109293713e+000 -2.7494370822707438e-002
      -1.8913766404762489e-002 9.6100134569124668e-003
      -5.3823857118196219e-002 1.4661043703925793e-002
      -1.8652157510245898e-001 6.8942326055202841e-002
      2.2455277662827983e-001 -5.8065436720474685e-002
      -5.3575334069861792e-002 3.0030777392802493e-002
      -1.2725397400531943e-001 8.1676816057862381e-002
      4.2311877969238791e-002 3.5458985115194200e-002
      7.4837498628775234e-001 1.0694476522635192e-002
      -2.9401510819059524e-002 -6.0327692348911229e-002
      -4.7635094625203489e-002 1.0142053197807302e-002
      -1.4707579078739483e-001 8.7730330499565745e-002
      1.9550326641555205e-001 -7.1839101486228241e-002
      -4.3514626034041382e-002 1.9441908883385906e-003
      -1.5336472102382370e-001 8.2551225089475391e-002
      3.0161131879041261e-002 4.3838918396191938e-002
      1.0092418073676275e+000 6.6902409846597927e-002
      -1.6158258597138034e-003 -2.1602149570773322e-002
      -5.7321320972679050e-002 1.1714173764273901e-001
      -2.1453759058147048e-001 1.6097014207550697e-001
      1.2548676340737105e-001 -9.0990977337837314e-002
      -3.2607042516278356e-002 3.3986261046685916e-003
      -1.2884044366489167e-001 8.3939500440871808e-003
      2.6069308631626389e-003 -8.4557295903839300e-002
      -6.2899318878151178e-001 1.6046806561941226e-001
      8.3706204080297705e-002 1.2563765797297327e-001
      -1.3688224277380825e-001 8.9741925069069486e-002
      -4.7572426954846689e-002 7.1147659055721693e-002
      8.2004210204381131e-002 3.8015088016452522e-002
      1.4182284901946571e-002 -5.0909760480011237e-002
      -2.4883244881115962e-001 1.6747845832060071e-001
      1.2727822276968448e-002 9.6698622941630785e-002
      -1.3964690455865694e+000 2.3914174384631570e-001
      1.4819199920211759e-001 7.5393108403347828e-002
      5.3764774528351177e-002 9.0241845697825229e-002
      -8.8009443571389456e-002 1.6424460000613975e-001
      -1.0390017089218566e-001 -6.9152188327856828e-002
      6.8108000233227148e-002 -1.6591895534379918e-002
      -1.8429139062008842e-001 1.2514895726666439e-001
      -7.6914469493262680e-002 8.5417749567822138e-002
      -3.8068812076001421e+000 2.6912652004813531e-001
      -8.4319940260373885e-002 -3.1908090787019601e-003
      -5.5619587231596393e-002 -4.2948208053037264e-002
      6.2656532390893110e-002 1.7920702211147213e-001
      -1.5009953654486904e-001 4.7886657587059442e-002
      -1.2818889938465028e-001 -2.2081797065483050e-001
      -2.8305483117290758e-001 7.6168526414545343e-002
      -2.7382591226561520e-001 -1.8144270615459739e-002
      -4.7410010365205375e+000 2.9147661875356085e-001
      -6.0370005837488534e-002 1.2936766600224041e-002
      5.3267618540207090e-002 2.8181176331780609e-002
      -1.2558739677063030e-001 1.9575211872594381e-001
      -2.5304338044555302e-001 -8.9207442442249818e-002
      -1.3668428518395812e-002 -1.2351354070924091e-001
      -3.0461063383554660e-001 1.2616470898140247e-001
      -3.5749518239226674e-001 -5.8626913755773103e-003
      1.4565881694255914e-001 5.2436388847240938e-002
      1.1675640508604128e-001 4.3530434430343386e-002
      5.9305097485832507e-002 5.3608384550705546e-002
      -1.1343373127335524e-001 -8.3109371451223990e-002
      -7.5976289431993124e-002 -1.2555385873969035e-001
      8.9454279147779189e-002 -9.8929249908294298e-002
      -8.8145498172548284e-002 3.0658596054288265e-002
      4.7112259458738148e-004 7.5171775774567975e-002
      8.7081203871280000e-001 -1.4864235376586496e-001
      2.7539726574896078e-001 -3.4469292742110566e-002
      -5.6951065892416795e-002 1.6723387139603793e-001
      -1.8891029523734881e-001 -1.3546968342662535e-001
      -2.2615243136523830e-001 6.7708771184241262e-002
      -2.0733986045546726e-002 -1.4959221797023500e-001
      2.1882788895495217e-001 -1.3804827081630136e-001
      -2.1454152442315449e-001 -1.3468304988447422e-001
      1.2040169984002838e+000 -1.5613615373253023e-001
      1.6565602947389843e-001 -2.4581230056950980e-003
      -1.3483987012512419e-001 1.3354385019087978e-001
      -2.2859185648822095e-001 -1.2440466264828290e-001
      4.5902890153005832e-002 2.7729300880720852e-002
      2.1540624367317032e-002 -2.6493475090605495e-001
      2.1086228238120786e-002 -3.4721930725412409e-002
      -1.6159123202953118e-001 -2.3695697205839909e-002
      1.3022068180838436e-001 -1.1560023854884420e-001
      2.0839191537728208e-001 7.0362549566859500e-002
      1.0134775052438567e-001 1.5537862864508362e-001
      -9.8604204902505682e-002 -1.0418672956581637e-001
      -7.0566161356627716e-002 -3.1930551124192477e-002
      6.7413098419818740e-002 -2.0486792297920006e-001
      5.3232980162905424e-002 -3.9614772550245862e-002
      -1.2891760324351967e-001 -1.2152404085908782e-002
      2.5465248386503152e+000 -1.0364208960205068e-001
      1.9117757396821075e-001 -3.8446158611744517e-002
      5.0337966730199496e-002 1.5064577468499032e-001
      -4.3557765856436399e-002 7.5061587904629188e-003
      -2.3569732128926291e-001 1.2317541149757248e-001
      7.9778863502428781e-003 2.9327515363498417e-002
      2.5660396825609551e-002 -9.0066461696450023e-002
      -7.3855402326532274e-002 -3.2995421257590257e-001
      1.6372630257067566e+000 -2.3629959284369721e-002
      5.3294426664543135e-002 2.4259573471647724e-002
      9.3751883935068211e-002 1.3900159300542624e-002
      -1.4953473285763907e-001 1.8765279946895762e-002
      1.3317384851500350e-001 1.0339084412211926e-002
      6.4013460755850723e-002 1.4335998321389504e-001
      -7.1975539075740905e-002 1.7866523914375410e-001
      2.0137426757029328e-001 1.7456513630165924e-001
      6.9808186146367701e-001 2.3895265984054385e-002
      -1.1166504525849608e-002 -2.5747427542372782e-002
      1.2565481549591023e-001 -8.6704875584418094e-003
      -1.2440068490621246e-001 1.4823489097616807e-001
      -2.9391323654504552e-002 -8.3320522526216856e-002
      -8.1333777454492925e-002 1.7833767181494514e-001
      3.4406650037784127e-002 7.2128998034213826e-002
      4.8126145716840450e-002 3.3267265423573562e-002
      -1.1451137365354155e-001 2.7690546965194521e-002
      1.6605363370965728e-001 -1.0637255085174315e-002
      -3.8888294619258820e-003 1.7275233604977475e-002
      8.2617392910695420e-002 3.9465743161309068e-002
      -7.4560616389162990e-002 2.4246393627725127e-001
      -7.7908991049902440e-002 1.3724896765443714e-002
      -1.1855503976582343e-002 7.1693750679257040e-002
      5.8855485569717259e-002 6.7534320905126427e-002
      9.6917238061954081e-001 1.7803340235309533e-002
      1.2968197975068455e-001 -1.5019286487832647e-002
      -1.8859237147080120e-002 1.8068175133977165e-002
      2.8545006708723578e-002 -1.8037198101554849e-002
      -5.6633542438668034e-002 7.3445831833980652e-002
      -8.8089473339452731e-002 5.7898452623455665e-002
      1.6986791227028925e-002 4.2198681686163787e-002
      6.2551003071023056e-002 8.4376039245168177e-002
      -3.4066232843446909e-001 -1.5413180381520265e-002
      1.4082154997090759e-001 8.0760526283719145e-002
      -8.4043338982340232e-002 9.2056874648687545e-002
      -2.1816401853803838e-001 -2.7106335683757990e-002
      -4.3441064887164857e-002 1.1788978518619439e-001
      -1.5156008175819849e-001 1.0769813249710197e-001
      -1.0722360551624983e-001 2.2381008022922069e-001
      -1.7120581094607332e-002 8.0573352765863429e-002
      9.3620278983970295e-001 2.9549809991466416e-002
      5.9770316891189959e-002 -1.6362893905564550e-003
      -2.7722154373493343e-002 -1.6823258391961277e-002
      6.8289406679656007e-003 5.1347253907462597e-003
      1.5470263022579706e-001 3.2734674582641588e-003
      1.2092095159802420e-001 3.7024386314878525e-002
      -1.5031786250583762e-001 1.1700409017167397e-001
      2.0319590537516855e-001 7.9837832107578457e-002
      1.2774583573050713e-001 2.4842181402784467e-002
      3.6141459230929970e-002 1.0298346728876365e-001
      -1.9739516764014371e-002 3.8552734270160829e-002
      4.6154211164831135e-002 1.1908890210226289e-001
      1.0374923884405289e-001 7.2808619688065679e-002
      3.6642259179244338e-002 8.9235828863351144e-002
      1.1845670160107499e-002 9.7849791152163718e-002
      1.6991265936368943e-001 1.1923509173060375e-001
      1.4744469461552159e+000 9.1428152985893865e-002
      5.9586079708168253e-002 9.0585619063936973e-002
      -1.4243584180263147e-001 8.3872488431333964e-002
      -7.9305660945878459e-002 7.8233485739750055e-003
      2.8907081345299589e-002 9.1412320788449158e-003
      1.5351534081212885e-002 1.3870117185157232e-001
      -1.4496770034852374e-001 1.4427581407626172e-001
      1.1521191437682671e-001 -6.1141339187180170e-002
      -1.0936532644301293e+000 4.8773313761008900e-002
      -2.3754310455118770e-002 5.2128851354730839e-002
      -4.0080013924499024e-002 -3.3392929430444383e-003
      -3.0902136276096635e-002 6.3453212387174662e-002
      -1.4378496456324455e-001 -4.3540305007463989e-002
      -3.8713411783383125e-002 -6.5145642082214655e-002
      -2.4255601059434910e-002 9.3803552656508762e-003
      -8.5180169114304465e-003 1.0801518068002319e-001
      -6.1900102002164372e+000 3.2525274149285716e-001
      -6.6929784232995518e-002 4.8149655950666427e-002
      -1.5099876830383496e-001 -6.6366318614720834e-003
      1.1228005410719888e-002 2.2879017789519762e-001
      -2.7310324537763259e-001 -1.6098163801676516e-002
      -1.2234419434822147e-001 -2.6262662364432632e-001
      -4.0753641023773973e-001 7.7654652077853159e-002
      -4.0655481366818375e-001 8.4416220595451799e-002
      -5.2952761072150727e+000 3.0269937375526446e-001
      -1.3530507749435169e-001 1.3583786633389208e-001
      -3.8168763964726259e-002 -1.3235997536481431e-001
      9.6353044689821726e-002 1.7958859956970175e-001
      -2.3784839202555755e-001 -3.8759514171721798e-002
      -1.3278422413187288e-001 -2.9079001690282363e-001
      -4.4051159625921249e-001 1.3563068603870840e-001
      -2.9353121080713673e-001 1.7857625070214758e-001
      -2.1084894605829239e+000 6.3294056451187838e-002
      -3.1554372573884534e-002 -4.1579767249286338e-002
      3.8520882463925897e-002 4.2945923239625358e-002
      -1.6192986934562805e-002 -5.6038240633857386e-002
      7.9091652208294937e-004 -6.5170907337441311e-003
      -9.3013153512707392e-003 -2.2932263504426698e-001
      -1.0143431456304457e-001 -1.0650855601657205e-001
      -2.7079439460447541e-001 -6.4891867382129584e-002
      1.0836345713094397e+000 -1.2955586120622284e-001
      2.2567261346803619e-001 -4.7909417499259296e-002
      -4.7399031227662890e-002 8.8484676627637301e-002
      -2.6545837041228337e-001 -1.2828667812406613e-001
      -1.4420522178490179e-002 -4.6817557233061659e-003
      -3.7167989266387771e-002 -2.8853145937302366e-001
      -1.5609531825796077e-002 4.1684929418476589e-002
      -1.8950140306664648e-001 5.2874828454399399e-002
      5.5144374548553032e-001 -9.9210914430923461e-002
      2.4546884855463647e-001 7.5132632911192793e-002
      2.8526500658976071e-002 9.7140840353132474e-002
      -1.2890137775256891e-001 -1.3352007488273132e-001
      -1.2062676306515775e-001 2.5642910940061867e-002
      8.7236575739932806e-002 -1.9470382481217621e-001
      5.5494486873420776e-002 -9.7548777638320379e-003
      -1.2619720241030213e-001 4.3376004898596658e-005
      1.2792151429603515e+000 -2.1925324222839768e-001
      1.9243681690990408e-001 -5.8162344930781533e-002
      -2.2462575275809440e-002 1.3698074881209699e-001
      -2.6531960794701692e-001 -4.8747404556061677e-002
      -7.4310844610520843e-002 1.7252352016115111e-002
      -2.1911009678818177e-002 -2.0949991783066121e-001
      9.4060087970425532e-002 -2.3020763325746266e-002
      -1.5746416700557170e-001 -3.6826482207404428e-002
      1.5486449974395766e+000 2.9441384374080462e-003
      1.6931960578229055e-001 6.3061240504525967e-002
      1.2348559079930124e-002 -3.4660179480669212e-002
      6.1374368750898557e-002 -5.2795229590153231e-002
      -1.1058210316908510e-002 5.1455573208717624e-002
      1.3056703165579414e-001 -7.0125293253791646e-002
      -1.2859372960363219e-002 1.8386835400866344e-002
      1.1452478614374607e-001 5.7061837846231617e-002
      3.7112867804540028e-001 1.4287204100270412e-001
      -3.7231495458559705e-003 4.2400555168904154e-002
      2.1408435633011764e-002 -3.8320362512874989e-002
      1.0221168307690999e-001 8.2347602571060177e-002
      1.2663313031706935e-001 1.0707576649731305e-001
      7.5816222166534511e-002 1.2411084043611178e-002
      -1.3198457504848821e-001 1.3773366874418930e-001
      1.5577012618930239e-001 1.8336296099420676e-001
      -4.7661118632816787e-002 1.7248716189209184e-002
      1.0946391142238286e-001 4.9037953680847613e-003
      3.7096408758157742e-002 2.8220071210846923e-002
      2.1398624946461133e-003 8.9193329994731577e-002
      -4.5586404869145475e-002 1.1529549602322528e-001
      3.2696543933816900e-002 7.1673676670408110e-002
      -3.8706021816535319e-002 9.1048554634175285e-002
      -5.5980024692467656e-002 5.8225839607372619e-002
      8.3321987794436914e-001 4.4717513538852276e-002
      5.4756358015227283e-002 7.4039388344712187e-002
      -4.4453574281499653e-002 -2.0253678921974952e-002
      -8.1783785263246991e-002 5.6175287971214613e-002
      6.3708385868568626e-002 1.2533578274766639e-003
      -5.3846138099655112e-003 1.2760602165396161e-002
      -1.8463496685202627e-001 2.3051062300125588e-001
      1.0913928149135801e-001 1.6992695745397851e-001
      7.1148730742954081e-002 1.0217656897014579e-001
      1.2139072140529163e-001 6.9521983362662826e-002
      5.8872478456174222e-002 2.9304365042505644e-002
      -2.8079740239982838e-002 6.2591686820886755e-002
      -6.7741295595691475e-002 2.8810265965151266e-002
      4.5552594333998615e-002 9.4270418531797573e-002
      -1.1553887544208569e-001 1.7649080304126344e-001
      7.3669740570451267e-002 9.5085483616932268e-002
      1.2509507092023679e+000 -1.7009784812678150e-002
      7.3664242006526381e-002 -8.0296619948664202e-002
      3.9143215344744214e-002 -7.1598822531354023e-002
      -1.5946419674610407e-001 7.0514290770535115e-002
      5.9899888672520628e-002 2.4759987461261818e-002
      1.0319964353743594e-002 1.4988588369367742e-002
      -1.4988194720289111e-001 2.6135222233078576e-001
      7.8387489846237834e-002 1.2797015635397696e-001
      2.5560115771351359e+000 -6.3252508760394899e-002
      -2.0313072243626412e-002 -4.6067053400088910e-002
      -3.7734750101487857e-002 -4.8206073205457410e-002
      -7.4831920149478467e-002 -1.7631125823266335e-002
      1.8294945539005047e-001 -2.1784412054309771e-002
      7.8260303651136953e-002 1.7765822643161417e-002
      8.1549989782633114e-002 1.6843815598237877e-002
      1.8159596255599916e-001 1.3330481871282947e-002
      -1.5778275477860834e-001 -1.6214065585997677e-002
      3.0101783224898742e-002 2.6105521893843513e-002
      2.3067742796680331e-004 -2.8442771799255688e-002
      1.6504791031910111e-002 -6.9142363778467344e-002
      6.9104905270478592e-002 7.9854332094803915e-002
      -3.4904436725808390e-002 -2.5357395818026512e-002
      -1.2770142696492096e-001 1.2377015249411444e-001
      4.0251804370729949e-002 1.6603977419236396e-001
      8.1608615429655385e-001 -1.8326892513804334e-003
      -9.9923309422350032e-002 2.8531292957809450e-002
      1.4047321838547422e-001 -8.6512446438160001e-002
      -6.9116150046027544e-002 5.0374756784354255e-002
      1.4633311036628277e-001 -7.0529954345086174e-002
      3.7520988473129457e-002 7.0935440702023581e-002
      -3.1338676049177332e-002 1.0799326915570991e-001
      1.6706165152224356e-001 1.2958744699888725e-001
      5.2429491388698846e-001 1.2759195663319703e-001
      -6.7437775013992382e-002 -2.5955205406411802e-002
      8.3622852771108411e-002 -5.8381687119980707e-002
      1.0571069389790491e-001 2.7124802143728161e-002
      4.3238668758005756e-002 -1.3462045723538793e-001
      4.2676968998039071e-002 2.5156423951100716e-002
      5.3099127037032158e-002 -8.2572955325343117e-002
      5.1962961228385063e-003 -1.0904079380798482e-002
      -5.8927596819704497e+000 1.8484257850591099e-001
      -1.8102243163345388e-001 9.4747639483078322e-003
      -1.7104875362840932e-001 -6.6693077009046323e-002
      7.1264594551101082e-002 1.8895059783836593e-001
      -2.2417921046272482e-001 1.7231803067943894e-002
      -1.3833934071032525e-001 -3.0579435159625368e-001
      -2.7096283288117506e-001 -6.0780367148737961e-002
      -4.3598227645325266e-001 5.5698046838843308e-002
      -5.9002632476779961e+000 1.7963742884317060e-001
      -1.7652534128469691e-001 6.0180517519367385e-003
      -1.6353374554706882e-001 -7.3868682600333649e-002
      6.8165536330655876e-002 1.8177714718200483e-001
      -2.0965550191034088e-001 1.1206463552729437e-002
      -1.3632009431690387e-001 -3.0150336423718821e-001
      -2.7037220240774462e-001 -6.3299490337312470e-002
      -4.2981197653310549e-001 5.3265861081582357e-002
      -3.8577704729560286e-001 -2.4159804098506689e-002
      1.2394641237374870e-001 -5.1687011761040749e-002
      -1.0757207768117451e-001 6.1107408908594507e-002
      -2.9548932844223558e-001 -2.8620016945808586e-002
