<?xml version="1.0"?>
<opencv_storage>
<DigitOCR type_id="opencv-ml-ann-mlp">
  <layer_sizes type_id="opencv-matrix">
    <rows>1</rows>
    <cols>3</cols>
    <dt>i</dt>
    <data>
      256 16 10</data></layer_sizes>
  <activation_function>SIGMOID_SYM</activation_function>
  <f_param1>5.9999999999999998e-001</f_param1>
  <f_param2>1.</f_param2>
  <min_val>-9.4999999999999996e-001</min_val>
  <max_val>9.4999999999999996e-001</max_val>
  <min_val1>-9.7999999999999998e-001</min_val1>
  <max_val1>9.7999999999999998e-001</max_val1>
  <training_params>
    <train_method>BACKPROP</train_method>
    <dw_scale>1.0000000000000001e-001</dw_scale>
    <moment_scale>1.0000000000000001e-001</moment_scale>
    <term_criteria><epsilon>9.9999999747524271e-007</epsilon>
      <iterations>1000</iterations></term_criteria></training_params>
  <input_scale>
    1. -1. 4.2264986855836701e+000 -3.9749213828703565e+000
    3.4066498437460142e+000 -3.0822070014844889e+000
    2.9091181680609211e+000 -2.5108460379097237e+000 1. -1. 1. -1. 1.
    -1. 1. -1. 1.3000230306573513e+001 -1.2922847983320100e+001
    6.5592979993214486e+000 -6.4031242374328423e+000
    2.7648936784418594e+000 -2.3369934663020477e+000
    5.8847833304740949e+000 -5.7096409694480803e+000
    3.8829013735766034e+000 -3.6055512754639891e+000
    3.5068560300768357e+000 -3.1937438845342609e+000
    2.4130858436102400e+000 -1.8816324137675087e+000
    2.0949324644933949e+000 -1.3592121347010717e+000
    2.4623480450043695e+000 -1.9493588689617924e+000
    3.7425857225745491e+000 -2.8960484758017346e-001
    3.7425857225745491e+000 -2.8960484758017346e-001
    3.7425857225745491e+000 -2.8960484758017346e-001
    2.1213203435596424e+000 -7.0710678118654746e-001
    2.1213203435596424e+000 -7.0710678118654746e-001
    2.1213203435596424e+000 -7.0710678118654746e-001
    2.1213203435596424e+000 -7.0710678118654746e-001
    2.1213203435596424e+000 -7.0710678118654746e-001
    2.1213203435596424e+000 -7.0710678118654746e-001
    2.1213203435596424e+000 -7.0710678118654746e-001
    2.1213203435596424e+000 -7.0710678118654746e-001
    2.1213203435596424e+000 -7.0710678118654746e-001
    2.6832815729997477e+000 -4.4721359549995793e-001
    2.6832815729997477e+000 -4.4721359549995793e-001
    2.4623480450043700e+000 -5.1298917604257710e-001
    3.7425857225745500e+000 -3.4529808749943767e+000 1. 0. 1. 0.
    4.2264986855836719e+000 -2.5157730271331380e-001
    2.1120800019332000e+000 -7.1659857208447864e-001
    2.1120800019332000e+000 -7.1659857208447864e-001
    2.1120800019332000e+000 -7.1659857208447864e-001
    2.1120800019332000e+000 -7.1659857208447864e-001
    2.1120800019332000e+000 -7.1659857208447864e-001
    2.1120800019332000e+000 -7.1659857208447864e-001
    2.1120800019332000e+000 -7.1659857208447864e-001
    2.0869967789998034e+000 -7.4535599249992979e-001
    2.0532129324014190e+000 -7.9439786075054908e-001
    2.3685476328517558e+000 -5.4984141476915760e-001
    2.3902636515427829e+000 -5.4065487356324848e-001
    2.4130858436102400e+000 -5.3145342984273147e-001
    2.7648936784418594e+000 -2.3369934663020477e+000
    2.1213203435596424e+000 -7.0710678118654746e-001
    2.1213203435596424e+000 -7.0710678118654746e-001
    2.0069808240170177e+000 -9.1986621100779975e-001 1. -1. 1. -1. 1.
    -1. 1. -1. 1. -1. 1. -1. 1. -1. 1. -1. 1. -1.
    2.1213203435596424e+000 -7.0710678118654746e-001
    2.1213203435596424e+000 -7.0710678118654746e-001
    2.1213203435596424e+000 -7.0710678118654746e-001
    4.4410888800216064e+000 -4.2031734043061633e+000
    2.1213203435596424e+000 -7.0710678118654746e-001
    2.1213203435596424e+000 -7.0710678118654746e-001
    2.0115793826998787e+000 -8.9802651013387447e-001 1. -1. 1. -1. 1.
    -1. 1. -1. 1. -1. 1. -1. 1. -1. 1. -1. 1. -1.
    2.1213203435596424e+000 -7.0710678118654746e-001
    2.1213203435596424e+000 -7.0710678118654746e-001
    2.1213203435596424e+000 -7.0710678118654746e-001 1. -1.
    2.1213203435596424e+000 -7.0710678118654746e-001
    2.1213203435596424e+000 -7.0710678118654746e-001
    2.0422607627824680e+000 -8.1447304230015105e-001 1. -1. 1. -1. 1.
    -1. 1. -1. 1. -1. 1. -1. 1. -1. 1. -1. 1. -1.
    2.1213203435596424e+000 -7.0710678118654746e-001
    2.1213203435596424e+000 -7.0710678118654746e-001
    2.1213203435596424e+000 -7.0710678118654746e-001 1. -1.
    2.1213203435596424e+000 -7.0710678118654746e-001
    2.1213203435596424e+000 -7.0710678118654746e-001
    2.0069808240170177e+000 -9.1986621100779975e-001 1. -1. 1. -1. 1.
    -1. 1. -1. 1. -1. 1. -1. 1. -1. 1. -1. 1. -1.
    2.1213203435596424e+000 -7.0710678118654746e-001
    2.1213203435596424e+000 -7.0710678118654746e-001
    2.1213203435596424e+000 -7.0710678118654746e-001
    1.3000230306573513e+001 -1.2922847983320100e+001
    2.1213203435596424e+000 -7.0710678118654746e-001
    2.1213203435596424e+000 -7.0710678118654746e-001
    2.0326712241937575e+000 -8.3484710993672173e-001
    2.0326712241937575e+000 -8.3484710993672173e-001
    2.0326712241937575e+000 -8.3484710993672173e-001
    2.0326712241937575e+000 -8.3484710993672173e-001
    2.0475627875559659e+000 -8.0439966653984374e-001
    2.0475627875559659e+000 -8.0439966653984374e-001
    2.1213203435596424e+000 -7.0710678118654746e-001
    2.1213203435596424e+000 -7.0710678118654746e-001
    2.1213203435596424e+000 -7.0710678118654746e-001
    2.1213203435596424e+000 -7.0710678118654746e-001 1. 0. 1. 0.
    5.8847833304740940e+000 -1.7514236102601469e-001
    3.6181361349331622e+000 -3.3166247903553985e+000
    2.6832815729997477e+000 -4.4721359549995793e-001
    2.6832815729997477e+000 -4.4721359549995793e-001
    2.6832815729997477e+000 -4.4721359549995793e-001
    2.6832815729997477e+000 -4.4721359549995793e-001
    2.6832815729997477e+000 -4.4721359549995793e-001
    2.6832815729997477e+000 -4.4721359549995793e-001
    2.6832815729997477e+000 -4.4721359549995793e-001
    2.6832815729997477e+000 -4.4721359549995793e-001
    2.6832815729997477e+000 -4.4721359549995793e-001
    2.6832815729997477e+000 -4.4721359549995793e-001
    2.6832815729997477e+000 -4.4721359549995793e-001
    2.6832815729997477e+000 -4.4721359549995793e-001 1. 0. 1. 0.
    7.5510384595883115e+000 -1.3483997249264842e-001
    3.2331615074619044e+000 -2.8867513459481291e+000
    2.2744275165103058e+000 -5.9568339718127061e-001
    2.1748597846657285e+000 -6.6022529177352463e-001
    2.1631100510233399e+000 -6.6953406341198618e-001
    2.0001417384219207e+000 -1.0119764747968050e+000 2. -1. 2. -1. 2.
    -1. 2. -1. 2. -1. 2.0949324644933949e+000 -1.3592121347010717e+000
    2.3094010767585034e+000 -1.7320508075688776e+000
    2.3478713763747789e+000 -1.7888543819998315e+000 1. 0. 1. 0. 1. 0.
    1. -1. 2.1213203435596424e+000 -1.4142135623730949e+000
    2.1213203435596424e+000 -1.4142135623730949e+000
    2.1213203435596424e+000 -1.4142135623730949e+000 1. -1. 1. -1. 1.
    -1. 1. -1. 1. -1. 1. -1. 1. -1. 1. -1. 1. -1. 1. 0. 1. 0. 1. 0. 1.
    -1. 2.1213203435596424e+000 -1.4142135623730949e+000
    2.1213203435596424e+000 -1.4142135623730949e+000
    2.1310258370705570e+000 -1.4333685689819819e+000 1. -1. 1. -1. 1.
    -1. 1. -1. 1. -1. 1. -1. 1. -1. 1. -1. 1. -1. 1. 0. 1. 0. 1. 0. 1.
    -1. 2.1213203435596424e+000 -1.4142135623730949e+000
    2.1213203435596424e+000 -1.4142135623730949e+000
    2.1213203435596424e+000 -1.4142135623730949e+000 1. -1. 1. -1. 1.
    -1. 1. -1. 1. -1. 1. -1. 1. -1. 1. -1. 1. -1. 1. 0. 1. 0. 1. 0.
    9.2201978391339932e+000 -9.1104335791443027e+000
    2.1213203435596424e+000 -1.4142135623730949e+000
    2.1213203435596424e+000 -1.4142135623730949e+000
    2.1213203435596424e+000 -1.4142135623730949e+000 1. -1. 1. -1. 1.
    -1. 1. -1. 1. -1. 1. -1. 1. -1. 1. -1. 6.5592979993214486e+000
    -6.4031242374328423e+000 1. 0. 1. 0. 1. 0. 2.3685476328517558e+000
    -1.8187062180825984e+000 2.0372992503051970e+000
    -8.2462112512353214e-001 2.1120800019332000e+000
    -7.1659857208447864e-001 2.1120800019332000e+000
    -7.1659857208447864e-001 2.1032889605117644e+000
    -7.2613547446239479e-001 2.0794691194147759e+000
    -7.5504533502560311e-001 2.0794691194147759e+000
    -7.5504533502560311e-001 2.0372992503051970e+000
    -8.2462112512353214e-001 2.0475627875559659e+000
    -8.0439966653984374e-001 2.0283702113484399e+000
    -8.4515425472851669e-001 2.0143247783869072e+000
    -8.8726210476566147e-001 2.0143247783869072e+000
    -8.8726210476566147e-001 2.0243902652367178e+000
    -8.5554588590361291e-001 1. 0. 1. 0. 1. 0. 2.4370871833797696e+000
    -1.9148542155126760e+000 2.0022714374157440e+000
    -9.5346258924559235e-001 2.1213203435596424e+000
    -7.0710678118654746e-001 2.1213203435596424e+000
    -7.0710678118654746e-001 2.1213203435596424e+000
    -7.0710678118654746e-001 2.1213203435596424e+000
    -7.0710678118654746e-001 2.1213203435596424e+000
    -7.0710678118654746e-001 2.1213203435596424e+000
    -7.0710678118654746e-001 2.1213203435596424e+000
    -7.0710678118654746e-001 2.1213203435596424e+000
    -7.0710678118654746e-001 2.1213203435596424e+000
    -7.0710678118654746e-001 2.1213203435596424e+000
    -7.0710678118654746e-001 2.1213203435596424e+000
    -7.0710678118654746e-001 1. 0. 1. 0. 1.3000230306573499e+001
    -7.7382323253413682e-002</input_scale>
  <output_scale>
    1. -431602080. 1. -431602080. 1. -431602080. 227158990.
    -2.1580103950000000e+008 227158990. -2.1580103950000000e+008
    227158990. -2.1580103950000000e+008 227158990.
    -2.1580103950000000e+008 227158990. -2.1580103950000000e+008
    227158990. -2.1580103950000000e+008 1. -431602080.</output_scale>
  <inv_output_scale>
    1. 431602080. 1. 431602080. 1. 431602080. 4.4022030561062097e-009
    9.4999999559779691e-001 4.4022030561062097e-009
    9.4999999559779691e-001 4.4022030561062097e-009
    9.4999999559779691e-001 4.4022030561062097e-009
    9.4999999559779691e-001 4.4022030561062097e-009
    9.4999999559779691e-001 4.4022030561062097e-009
    9.4999999559779691e-001 1. 431602080.</inv_output_scale>
  <weights>
    <_>
      -7.0663511885764698e-003 -3.1319616385449660e-003
      -8.2230975538369637e-004 -6.5059386202973336e-003
      -7.6566506050802204e-003 -2.5135917027173738e-003
      7.3853611719644219e-003 7.9154135231619127e-003
      -6.6065326771522596e-003 5.6815807848128097e-003
      -2.8859582044450205e-003 -1.4997155772638029e-004
      -3.8116735313184925e-003 1.6491189986482799e-003
      2.4628472888740698e-003 -7.0593483148477399e-003
      -1.6489028822863694e+000 -3.5686781622538549e-002
      3.5052153478798191e-002 3.4788940764492415e-004
      -3.1711712902117488e-004 2.2913426252182278e-001
      3.0353917405779064e-002 -3.8669210629212452e-003
      7.1324893248811957e-002 6.1690016020872096e-002
      -2.6183889502000238e-003 -4.5443662204780570e-002
      -6.5419968080825938e-002 -6.7671156240193464e-003
      1.0248854478639648e-001 4.9367102326920639e-003
      -2.2301275987038269e+000 -7.9787870712330705e-002
      4.7575773436392937e-002 1.9291373783893468e-002
      4.3056897247587052e-002 2.9896636006791788e-001
      -2.4869549497530959e-002 -2.7628956245725679e-002
      7.4496839832287512e-002 6.1621531365996136e-002
      -1.0860025182686663e-002 -6.2477540907658453e-002
      -1.2204118689060414e-001 4.3603932874322154e-002
      1.1304029768685973e-001 1.0970707858084759e-002
      -2.3952858532930064e+000 -1.4586316992314674e-001
      4.7377133280076041e-002 -1.8165272543436296e-002
      8.9280127552023823e-003 3.4212163433744253e-001
      2.7928452900545901e-002 -1.2500835454438461e-001
      2.3735108895369630e-001 1.6404542597885946e-001
      5.0282206699351064e-003 -1.8344574391531648e-001
      -5.7262261573491319e-002 3.8661040324721806e-002
      1.3651510842855794e-001 -5.0053134383587973e-002
      4.6304113684944009e-003 5.2245084383409886e-003
      6.9520611864595642e-004 -1.1749247869383686e-003
      -4.1667928654633918e-003 2.8556613457868018e-003
      -3.8576507461284783e-005 -6.7054288557298735e-003
      -6.3238538962317650e-003 6.6980239044530281e-003
      7.1855964787870394e-003 4.6400732479922610e-003
      3.7017509521545793e-003 -4.7458397991462283e-003
      -1.8314513107522577e-003 3.3768407503564513e-003
      7.1976839157452729e-003 3.9630923013030620e-003
      5.4821963212349500e-003 4.5682925188415355e-003
      -7.0983421454512956e-003 7.8220940405086276e-003
      -4.4153955852730522e-003 6.0759083072142695e-004
      1.5264434768113178e-004 -1.3462991450072211e-003
      -1.5081754747336964e-003 -5.3628847173237881e-003
      4.3375985210977474e-005 2.1838057855325080e-003
      -3.7359448471307689e-003 -3.8767601640108521e-003
      1.2914101705729509e-003 5.0569653860899665e-003
      4.5583308353638842e-003 -4.7300376068200103e-003
      3.8307401341391759e-003 9.6493059990812163e-005
      -2.4088011259102400e-003 -3.2084264953350650e-003
      5.6845368971683813e-004 6.3362240264974124e-003
      6.2697531126484462e-004 4.6551249113117605e-003
      -5.2554289070576533e-003 5.5191164762478078e-003
      2.5971352173348207e-003 -5.7410137196124925e-003
      2.4585156130597762e-003 2.7527830951445220e-003
      -5.9089750013710477e-003 -6.3785893862011722e-003
      -7.2747484030453126e-003 -5.4511013710105763e-003
      -4.2514176556096017e-003 -1.6759874095471710e-003
      -3.8100180541290221e-003 8.0335507785109089e-003
      4.4775607667893310e-003 -4.9652075045945295e-003
      6.6441744338137558e-003 3.8373968710878692e-003
      -1.0230843994065712e-003 -5.8698092701555803e-003
      5.7296418272002395e-003 3.8016178408267522e-002
      1.7894732485726213e-002 -4.5466614790185017e-002
      -1.1636044242471562e-002 4.6399212638672957e-002
      -2.8460456995244937e-002 -3.4144545986415815e-002
      -3.3762457329623068e-002 -4.1124009216121762e-002
      -6.5789905570559750e-003 -3.6991903293691987e-002
      -2.1082666925421227e-003 -3.5287113030762284e-002
      -6.4383861706587353e-003 -6.1097550611339431e-003
      -2.5336011864110231e-001 -1.2364461022454320e-002
      -6.5021333838986154e-003 -7.7741907450293354e-003
      -3.8101800169786666e-003 1.5186322093546492e-002
      -7.0398841521761624e-002 -6.3914688975217945e-002
      -6.5744363625013624e-002 -6.1943186994495310e-002
      -2.2197512621666748e-002 -3.4891596341810063e-002
      -1.5042268116113724e-002 3.9106424208098407e-003
      -3.1777117495987460e-002 3.8054009134845454e-002
      -1.9580754943214296e-001 -8.7023925859706419e-002
      -2.1976428900952555e-004 -8.6368367188585690e-002
      8.4912210570857294e-002 -8.5292690218435080e-002
      -1.9238157757241039e-001 -1.4642544641289634e-001
      -2.2413602872877164e-001 -1.8617382882855318e-001
      -1.1714641350567982e-001 -1.3595586800646259e-001
      5.5362115927728987e-002 1.0409160278246393e-001
      -3.0603833946934617e-001 -4.7513764224064683e-002
      -3.8072146388417966e-001 -3.3179582186481614e-002
      -6.5472439913910226e-003 -3.9580067580207469e-002
      2.4260114370733353e-002 -1.1460785309281020e-002
      -7.2033809092638956e-002 -4.8796628458780009e-002
      -8.3180589099620672e-002 -5.0909862147176660e-002
      -4.3167758076490606e-002 -5.6624436970909423e-002
      4.8333607358639917e-002 2.7780498980070682e-002
      -1.3130304409648719e-001 -6.8689447985775573e-002
      -2.1673852944720651e-001 -7.8295329762159954e-003
      2.7747984532740532e-002 1.2372519643479636e-002
      2.7344771610733638e-002 -3.1852939551740803e-002
      -4.1122313346248676e-002 1.9934537460660252e-002
      -1.1315817133955075e-001 -1.5754928204950360e-002
      4.4486290815816058e-002 4.3692292204292528e-002
      6.8984505122331230e-002 2.7608540293917183e-003
      -4.8431456412584568e-002 -6.0693663441219507e-002
      5.8452388890547935e-001 7.4190782688701440e-002
      8.3883007343487533e-003 8.5694465925355109e-002
      -7.2928454378476670e-003 -1.0687060438740550e-001
      -1.1758379273079227e-002 4.4525053601645360e-002
      -9.2623694749275565e-002 -3.8216597896032843e-002
      -2.1350092482164712e-002 4.0630944483657609e-002
      7.0506039075067015e-002 -5.9869723452841174e-002
      -5.4218275746423369e-003 -6.5781162383876185e-002
      1.5752318688319492e-001 1.3063283233112699e-001
      -3.2037322143304764e-002 7.5704883479752426e-003
      -7.3871582404783837e-002 6.1827121627718959e-002
      1.6157191491941645e-002 -5.8290526348284383e-002
      5.6274373507360233e-002 -3.8899347532307726e-002
      1.7776360864959977e-002 -5.5231543873672751e-003
      -2.2956448221626492e-002 -5.5149512406432219e-002
      9.7885094064827941e-002 -9.2079541400260326e-002
      5.3801065663001324e-001 -1.7909225663528879e-002
      -2.5360684817880796e-002 5.8873037359866244e-002
      -1.3320913477916941e-002 1.4820970383431250e-002
      1.5958901733024344e-002 3.6607192133253974e-002
      8.4474177312657744e-002 -7.7467698857987093e-004
      3.0372794498148004e-002 -4.6676305462833413e-003
      -9.6423219646228159e-002 5.0522260355333852e-002
      -3.9020251195806488e-002 1.0235509406860945e-001
      -1.9095438984383935e-002 -4.1503088314004628e-002
      -6.3261314831109527e-002 -5.3330363495400775e-002
      1.8794658072553459e-002 2.8760365531051119e-002
      7.6437319133998607e-002 1.6485599958518171e-002
      2.5621923902029511e-002 6.3729017397540277e-002
      -2.1800624857515861e-002 -1.8938920581799499e-002
      -1.7164456236894921e-001 1.0840014920898974e-001
      -1.2829543638096567e-003 5.9663222157679045e-002
      -7.9975407552543398e-001 3.3180079515614601e-002
      -8.1116377443131354e-002 -1.7667873017808783e-001
      2.2232434864081995e-003 6.7472615580476319e-002
      7.9509851819918959e-002 -1.1335257069212507e-001
      9.5085438345298451e-002 9.1638769309090359e-002
      -1.2805134920341529e-001 -9.2851508986995943e-002
      -1.2421330690033637e-001 1.0836674815053680e-002
      9.7188034906349696e-002 -1.4447212491420994e-001
      -7.9547801640255367e-001 2.7512401560735780e-002
      -7.2368208191557398e-002 -1.7482644226221888e-001
      4.6405820075585674e-003 7.7623771530396610e-002
      8.7823798568888820e-002 -1.2840415302716365e-001
      1.0528266833493377e-001 8.8806305782292802e-002
      -1.2710319896136080e-001 -9.6400728644927783e-002
      -1.3074002166882429e-001 2.0141953715778000e-002
      9.0617786603006567e-002 -1.4670121065677377e-001
      -8.0405208146196694e-001 3.5963037450483272e-002
      -7.0064286786432367e-002 -1.8546264799347922e-001
      1.8431528801373359e-003 6.6345653091455917e-002
      8.3518284610505242e-002 -1.1645145366693656e-001
      1.0641965538139886e-001 8.5120029142486883e-002
      -1.4152562299855839e-001 -9.7621152065048664e-002
      -1.2958951722620241e-001 1.9177026265721011e-002
      8.8953049410657320e-002 -1.4019678024030510e-001
      1.1150990838292600e+000 1.4815102991042003e-001
      -7.3746185436654552e-002 -2.1060910187473111e-001
      1.1336458303900157e-001 -2.2501386375623741e-001
      7.0250996691007012e-002 1.6145428185943198e-003
      -2.3552572926916684e-001 -2.1653437862415630e-002
      -1.6403817077430849e-001 4.4962432408788909e-002
      -8.0196267234200105e-002 7.6238841476918340e-002
      -4.5358832890539796e-002 -1.0468344312746033e-001
      1.1080721226700982e+000 1.3594158161456452e-001
      -7.1692680636044434e-002 -2.1735702541941296e-001
      1.1660922899190534e-001 -2.2927547149180746e-001
      7.0465455367082874e-002 5.2481996722059899e-003
      -2.2549872474352115e-001 -2.2209900640018432e-002
      -1.6437979444069301e-001 5.9057548928688038e-002
      -8.3982947241539443e-002 7.5135367603780701e-002
      -4.9608388094116676e-002 -1.0031127918466312e-001
      1.1157895480840596e+000 1.4419244958196589e-001
      -6.7711813676504820e-002 -2.0981356308797802e-001
      1.0693704658941247e-001 -2.3194176213970216e-001
      6.9709859307839100e-002 6.4318038497437795e-003
      -2.2279646627821217e-001 -2.2074500172206322e-002
      -1.7290312218054621e-001 5.8364188927434855e-002
      -7.9456607340656862e-002 7.9083928167993589e-002
      -3.7370625152340659e-002 -1.1055162831034063e-001
      1.1131178906736945e+000 1.3859377727727282e-001
      -6.4400238840922844e-002 -2.0888351296077126e-001
      1.1410496344387991e-001 -2.2493398836746639e-001
      6.9033409670832047e-002 1.1960218228180624e-002
      -2.3015200849979647e-001 -3.5706617638871695e-002
      -1.7017959061807142e-001 4.9693589339974163e-002
      -8.3991840465102344e-002 8.3403747882963203e-002
      -5.0236895983680030e-002 -1.0878830908577386e-001
      1.1156994339050070e+000 1.3304572643753315e-001
      -7.3920923092854043e-002 -2.0869925872195424e-001
      1.2018985859874809e-001 -2.2233283538704782e-001
      7.3176375759215734e-002 -1.7705681886055048e-003
      -2.2568915313830215e-001 -2.8033895135875078e-002
      -1.6839990624956730e-001 4.7437924088073284e-002
      -8.0232191298948388e-002 7.3853158397893442e-002
      -3.9610547948286987e-002 -1.0686815101400596e-001
      1.1112993149456740e+000 1.3682908039547662e-001
      -6.5773943108762598e-002 -2.1802255960340464e-001
      1.1792241320488372e-001 -2.3305854527613720e-001
      6.2967781740884937e-002 4.8160796942145123e-003
      -2.2949794965047912e-001 -2.9300567936307795e-002
      -1.7199288771270982e-001 5.2415276452856659e-002
      -8.8909909301086262e-002 8.4334309857615322e-002
      -4.6956877957086626e-002 -1.1063525065193383e-001
      1.1153016060569263e+000 1.4834568813444757e-001
      -6.0418683552536358e-002 -2.1816118473247989e-001
      1.1606744572115951e-001 -2.2845630802140812e-001
      6.2564143002652450e-002 5.5868672236803604e-003
      -2.3203829335106571e-001 -2.3143476451336478e-002
      -1.7262436604097203e-001 4.4529923538242498e-002
      -8.0828693842075763e-002 7.9391767500812019e-002
      -4.6857871931100234e-002 -1.0405226496933928e-001
      1.1141593653109767e+000 1.3957706799784828e-001
      -6.1276929390422903e-002 -2.0760818149813812e-001
      1.1350634716744601e-001 -2.2260691921495460e-001
      7.3039714354913299e-002 9.3083466546085309e-003
      -2.3208413009023302e-001 -2.3894636357767965e-002
      -1.6525473299144472e-001 4.7575475484346881e-002
      -7.7544418464868523e-002 8.7476294897509868e-002
      -4.4494648250860899e-002 -1.0355441400438314e-001
      1.1130812522528710e+000 1.3729086897502149e-001
      -7.2201581218813884e-002 -2.1001102778712363e-001
      1.1113901779580379e-001 -2.2807080927780590e-001
      7.0990635549508907e-002 2.6048674242325925e-003
      -2.2447303585315151e-001 -3.1404400771305428e-002
      -1.7382889019797665e-001 4.7658481262837706e-002
      -7.3373197086664607e-002 8.0394341532864719e-002
      -4.4045096178837798e-002 -1.0332345315782809e-001
      2.6626440082617995e+000 1.4651350442998096e-001
      -5.2555103766683403e-002 1.0259395580691255e-002
      1.6861148146878623e-002 -3.9175830849334681e-001
      -4.1225769324767327e-002 1.4406567589616789e-001
      -2.7946851540758322e-001 -1.9926429192108072e-001
      -7.9643387080917064e-003 2.1027183121402604e-001
      6.2959495262098208e-002 -3.1224001140936070e-002
      -1.5735376279545751e-001 4.8602953249468686e-002
      2.6606603112425962e+000 1.4614653276140516e-001
      -5.1266492521945151e-002 1.9659561366035496e-002
      1.9025197718005388e-002 -3.9921086431201891e-001
      -3.8431050248206387e-002 1.3565275934162213e-001
      -2.7896143659127492e-001 -1.9704512524540349e-001
      -1.3346621851075558e-002 2.1740383231134947e-001
      6.7010711295548558e-002 -2.1659681662664534e-002
      -1.6191111949731971e-001 4.8823596382178522e-002
      1.3621101383875196e+000 9.0380316431634342e-002
      -8.1985126186629662e-002 5.0274043040956007e-002
      -5.8431980468649936e-003 -2.4079042285274044e-001
      -8.2646028702342986e-002 7.6890708199857868e-002
      -1.8161570284370013e-001 -1.8213912647547062e-001
      -9.8632546448039107e-002 1.2071644244234087e-001
      -1.5926156195788334e-002 -1.3488966403363333e-003
      -1.5352556914321552e-001 8.2991817452393341e-002
      4.8480182893176786e-002 -4.4448551892901811e-002
      -1.6405131240149674e-002 3.7218138843655164e-002
      2.9179812810661371e-002 2.3406217103370076e-002
      1.5275060090832399e-003 1.6588366959110729e-002
      -1.5522040866603422e-002 3.2718001472568051e-002
      -1.7233299400917015e-002 -1.2000110231108233e-002
      -8.2172442300798954e-002 1.2513030294462893e-001
      -7.8058111288838536e-002 1.0640123310456458e-001
      5.6335635703275034e-003 -5.5807868491453416e-003
      4.3818226284959901e-003 -6.5058032187494605e-003
      -7.1997428647105734e-003 -3.1180825657475099e-003
      7.6582182282793542e-003 7.9088213734993390e-003
      -5.7507329237743831e-003 3.2654936494659912e-005
      -6.1219133179846554e-004 7.1440386782670017e-003
      1.9008246555611559e-003 1.8385239467471649e-003
      2.5376205811046795e-003 -5.4631106318227462e-003
      5.2864349618589508e-004 -2.1037093179557338e-003
      9.0239455492161446e-004 3.7785344345003333e-003
      -2.4754118401366502e-003 4.0098371082750517e-003
      6.5354626912160528e-003 -2.0734191434392747e-003
      2.1550468062972858e-003 -4.5468989271847662e-003
      -3.3964100192714216e-003 5.5215794185594158e-003
      1.8028007508686175e-003 -3.1522647597584880e-003
      -7.6852512468239152e-004 4.9130875154068153e-003
      -6.8171802638084389e-001 2.9344963237541922e-002
      -1.5246917390744233e-001 -1.6594322777935031e-001
      9.2391993662368915e-003 1.0846153517245018e-001
      7.9447435754828655e-002 -1.2482035332419088e-001
      1.2213202693364096e-001 8.1375965675797815e-002
      -1.2019823195259487e-001 -1.1097733665939888e-001
      -1.5213524051868613e-001 -1.2996257817249985e-002
      9.2768030255596670e-002 -1.0693163202634727e-001
      3.6933065912821816e-001 1.3718459475890357e-001
      -3.9386424689581229e-002 -8.8121884788189608e-002
      8.3225190934996640e-002 -1.1744937564446938e-001
      3.7229461666454668e-002 9.8446558840413582e-003
      -1.9983379924783209e-001 -8.7007513920505548e-003
      -7.5432657473636880e-002 3.4599849485782722e-002
      -8.2291147684397742e-002 8.5890163567527766e-002
      -4.9151805186822925e-002 -1.0612399127469861e-001
      3.7174263391806472e-001 1.3534731795001884e-001
      -2.5892290993246247e-002 -8.5973973137842941e-002
      9.3414980717707569e-002 -1.1734739342281945e-001
      4.6224511028686695e-002 6.1023113905086461e-004
      -1.9418143104534549e-001 -4.0525445226584789e-003
      -7.2882058308320771e-002 2.9957513014095386e-002
      -7.9980597381077517e-002 9.0668114209687539e-002
      -4.8574403725821474e-002 -9.7005920736324344e-002
      3.7269687611856739e-001 1.3590219753441532e-001
      -3.3212387939138208e-002 -8.1295898975424191e-002
      8.2203737060577348e-002 -1.2366056401042970e-001
      3.9584062183917308e-002 9.6552676227977842e-003
      -1.9652013995338249e-001 -2.2597472198728420e-003
      -7.5017259437845998e-002 2.6811399146653172e-002
      -8.3165586948711095e-002 9.5182925192692835e-002
      -4.8858705544307809e-002 -9.3790965389601647e-002
      3.7196653983507055e-001 1.4149055182146855e-001
      -2.9122679426232867e-002 -8.2858523598708100e-002
      9.0961850908186703e-002 -1.1885483306013121e-001
      4.8522384957041122e-002 -3.4982396274051164e-003
      -1.8503669773909756e-001 -4.4998602349720588e-003
      -6.3441763184154301e-002 3.2312562214719440e-002
      -8.1476880318159889e-002 9.1874624897732043e-002
      -4.5627659934925971e-002 -9.5743381327624930e-002
      3.7077968266199535e-001 1.3623303773993498e-001
      -3.8186325742421354e-002 -8.3920805176960905e-002
      8.8098197045816007e-002 -1.1561445511758565e-001
      3.9769182889803044e-002 -4.2865678053583631e-003
      -1.9296453662995353e-001 3.0398578783245637e-003
      -6.4343028767817542e-002 3.0337843522133288e-002
      -8.4175849270773428e-002 8.6494828965472031e-002
      -4.2317520826502322e-002 -9.7174102885202160e-002
      3.7845698050858390e-001 1.3304167218166443e-001
      -2.6198449997434467e-002 -8.0689352787189916e-002
      9.0435028066251893e-002 -1.1221485433134330e-001
      4.7911423508388042e-002 1.8189830342885676e-003
      -1.9752056807529686e-001 -5.1430238673519091e-003
      -6.5131946738447008e-002 3.5183159962585489e-002
      -8.0316525280890561e-002 8.5723921272840176e-002
      -3.7617118991923978e-002 -1.0348193485399788e-001
      3.8172523296687788e-001 1.3580918710092690e-001
      -3.0831313559708341e-002 -7.8796312339084462e-002
      8.5307169227591989e-002 -1.1453868491337536e-001
      3.7893095499117520e-002 4.1374594751704789e-003
      -1.9180690239676176e-001 -1.0999068052240178e-002
      -7.7660375625584852e-002 3.0716255472682596e-002
      -8.9565529310510622e-002 9.3672008489292163e-002
      -3.9482699506881450e-002 -1.0408968381188312e-001
      6.4870148318867893e-002 1.1041760239785320e-001
      -5.2516768498876175e-002 -8.5397984211996195e-002
      8.1771758849709011e-002 -8.9372741096087144e-002
      2.7638669745926343e-002 -6.2227728963463970e-003
      -1.6952221086292465e-001 8.8586289148221160e-003
      -4.7608468916284737e-002 1.1824274434330140e-002
      -7.5830403626321805e-002 8.3369157559577703e-002
      -5.3782734931732377e-002 -1.0859280697035985e-001
      -3.9774989229069457e-001 7.5878332210213922e-002
      -7.0347051714612960e-002 -7.4129605509518498e-002
      6.0478417511251992e-002 -4.0287882168334746e-002
      1.4020149580332014e-002 -3.8833277857779694e-002
      -1.1187317688511329e-001 1.2328090756195200e-002
      -6.7274241467686902e-002 -4.2800366392407904e-002
      -1.0094181334608011e-001 6.8978577724976897e-002
      -6.6851177432069572e-002 -1.0427924652375936e-001
      9.6311391620658479e-002 5.8364279422651821e-002
      -7.5459144648946833e-002 1.7270720959640851e-001
      -2.1377262911216808e-002 -7.7460147170069674e-002
      -1.2064031224923011e-001 4.9915690387273379e-002
      -1.0129806232566163e-001 -1.3044613504666558e-001
      1.3102580462971213e-002 6.6505100841747378e-002
      -1.6616755747790105e-002 6.2106697700285056e-003
      -1.5748079107765312e-001 7.4404645967290531e-002
      1.3079956246595201e-001 6.9962376005913485e-002
      -6.1845923406872783e-002 1.9380520693105852e-001
      -2.7862146229525101e-002 -7.5529458541805344e-002
      -1.2255817144170986e-001 7.1759011878363560e-002
      -1.1451322203321691e-001 -1.2917315708165875e-001
      4.2621148986721931e-002 8.0712310706114218e-002
      -2.2828790263866985e-002 6.0246337709886997e-003
      -1.5999657968655426e-001 7.3644125726565340e-002
      2.6538523295990596e-001 7.5719999214313508e-002
      -5.5028803353603689e-002 1.9366705662991790e-001
      -2.6451107981549576e-002 -8.0640133023557103e-002
      -1.1159016325017736e-001 6.5068127079014007e-002
      -1.2396848473790373e-001 -1.4063046822553757e-001
      1.2835611429551187e-002 9.5838000866842979e-002
      -2.5803104475475996e-002 9.8257961312494986e-003
      -1.4650895257378771e-001 8.2718859330607936e-002
      -2.5534966642365253e+000 -1.3672023955993806e-001
      5.6008476763446939e-002 -2.2222279950750174e-003
      -1.9943274299608727e-002 3.7358135969118306e-001
      6.4005326755057733e-003 -1.3966849580239732e-001
      2.8074140870969272e-001 1.8696440198251621e-001
      1.3996356359671266e-002 -2.0749680014219041e-001
      -3.9288398192616231e-002 1.2301144401039592e-002
      1.5735150487442962e-001 -5.0436365883174336e-002
      -1.2186931954395158e-001 -3.9475175338891798e-002
      1.3974819854211601e-001 1.3560782213042466e-001
      7.3402345564833160e-002 -9.6275444928524925e-002
      -1.1468277989782184e-001 1.0894917673255494e-001
      -2.0438372223482287e-001 -6.9368013584946500e-002
      7.1089852536820888e-002 1.3981041677619133e-001
      2.2369922422425953e-001 -4.6863376317830913e-002
      -1.0631771564325239e-001 4.7472134126995726e-002
      -1.2323850225899916e-001 -5.0197288255972743e-002
      1.3582167863089062e-001 1.4272007672510861e-001
      8.1941671016097839e-002 -9.2399523849778023e-002
      -1.1182048301623697e-001 1.0745984443260137e-001
      -2.0022183068769978e-001 -7.4070784502496864e-002
      7.1344003241396822e-002 1.2931674800174486e-001
      2.1384094495106437e-001 -3.3054714510215757e-002
      -1.0563968360042127e-001 5.1046339774679879e-002
      2.2213254813058025e-002 8.6422459084578643e-003
      2.9304231851872881e-002 4.6350948844381110e-002
      4.7331017033429477e-002 -9.2735995229062229e-002
      -1.7423592590944260e-002 5.0003476454897652e-002
      -1.6781169472751362e-001 -6.6765604658151012e-002
      -2.1601152076951419e-002 8.2185030690133706e-002
      1.1065804458788399e-001 -1.8213833934439844e-002
      -9.5443431857869312e-002 2.4302458956994472e-002
      -2.1183796681564170e-003 3.0103640261278657e-003
      -1.1131527053846980e-003 -6.3193299938630763e-003
      5.9362967254737433e-003 -7.8577151947462776e-003
      -7.5977329312605863e-003 4.0943846466443825e-003
      -5.7189908721334533e-004 3.1880575451156399e-003
      1.8439159580164665e-003 -2.5086763315129851e-003
      4.4350072854447819e-003 -3.5639961710115585e-003
      -4.8961128682056309e-003 -4.5345140406377171e-003
      -6.8439034033163674e-003 7.5338880126106511e-003
      3.7099815945338616e-003 -5.5871488521859981e-003
      5.6960509152932859e-003 6.3409103988963508e-003
      3.9092080028250717e-003 -3.0041431702013820e-003
      6.1913375036974274e-003 -1.9899407228638243e-003
      -4.5776454856388147e-003 -6.9988567757751658e-003
      1.9658293832099331e-003 7.1913178188217743e-003
      -7.1194178447747582e-003 3.8261879311903501e-003
      2.6108961510317198e-003 1.3446311194993486e-003
      4.9632016147163789e-003 5.2093084783597999e-003
      8.0743430542984610e-003 -1.4871955291345497e-003
      -2.8545070159458202e-003 5.3702117130776600e-003
      -4.1872312580125467e-003 3.2230873683991327e-003
      7.1960403192970366e-003 -2.1239867375329228e-003
      2.5052303605087342e-003 4.2219393125495955e-004
      1.1912129880793448e-003 5.0303551815713094e-003
      4.0294760602492524e-003 6.3732965295790261e-003
      -3.8430130955090960e-003 4.2079039885727096e-003
      2.7726558707059180e-004 -2.7672351063935696e-003
      5.1421129148360115e-003 3.4121378478872678e-003
      -1.9017965736870411e-003 -5.1029609725647342e-004
      1.3753133957230496e-003 -2.8008619388798588e-003
      -1.8873628426598404e-003 -1.2826783214036944e-003
      2.6727385599849691e-004 6.9196779940398452e-003
      3.3748401092404262e-003 -6.5128029201407048e-003
      5.7693286415727071e-003 9.9360513928335899e-004
      -5.2062598252139974e-003 5.6789905751978460e-003
      2.5583176409908156e-003 -1.1849515232097044e-003
      3.3620843572918098e-003 -4.5939933476665904e-004
      -5.2678064787180668e-003 1.8587222527936260e-003
      4.1026273809506271e-003 -3.3466470449857485e-003
      1.6782172108627709e-003 -6.8069580505376402e-003
      -5.6177952770803561e-003 -5.5934574635788234e-003
      -2.5358021574917598e-003 -6.0625160544414277e-004
      -3.5122347310399499e-003 5.4190487221493430e-003
      1.2245381581962071e-003 7.1651653955121649e-003
      -2.1207261048673703e-003 1.9003046961687017e-003
      7.1690858796545492e-003 2.9324992933254259e-003
      -4.5238413763003136e-003 1.9084596520818140e-003
      -5.1985308634719212e-004 -5.8675771033636316e-003
      7.0557850522964000e-003 6.0843196431676237e-003
      3.9611045843236927e-003 -3.1705385931012483e-003
      -1.6259154683590379e-003 -6.1879717013003273e-003
      -2.4135608485226991e-003 5.8659210402165676e-003
      7.2865095823030079e-003 -6.9423146986532479e-003
      -3.3653656111896266e-003 -3.1580612807633286e-003
      6.4205489553355736e-003 2.1733808333166365e-003
      -2.8774609176446630e-003 4.9796401646316603e-003
      -1.6415300831151364e-004 -2.7927510291516490e-003
      4.6520939223992138e-003 2.1195953521978336e-003
      -4.7318031251838456e-003 -6.8044538703409020e-003
      -1.3981287015822179e-003 4.4160220309900555e-003
      7.6759301799819435e-003 7.8010395564845876e-003
      2.5457916436319623e-003 -6.0717025337289916e-003
      -1.6754075941375939e-005 -3.5644893482792315e-003
      -4.8816837009182960e-003 -7.2411049826695143e-003
      -4.6399044120439365e-003 -1.4104480840714858e-003
      7.4714078872750020e-003 2.5687482543853630e-005
      7.7102241651226728e-004 3.5739531756749264e-003
      -7.5452095582099479e-004 1.0916034145576859e-003
      -3.2922936276516264e-003 -7.8031822823287304e-003
      3.1583717612637470e-003 -1.6464836018901968e-003
      -7.0310717006231496e-003 -2.2783163698972403e-003
      4.5641456243547072e-003 -1.2862392283344106e-003
      9.9761523490530590e-001 -6.7111572579215448e-002
      -8.6235311231734862e-002 1.1878304141082360e-002
      -8.0187567100512655e-002 -1.0070670385729451e-001
      -1.4543308033886237e-001 -1.2608338792775958e-001
      1.4968919838841578e-002 -2.1773628270634793e-001
      -8.9221246188950724e-003 -1.3531851716339924e-001
      -5.2801699000535003e-002 7.0853900138295081e-002
      -2.3268677006034952e-001 6.1810261148132831e-002
      9.9928746559054704e-001 -6.1827791957343989e-002
      -9.2962479180840246e-002 1.0792722825876198e-002
      -7.8520101454400068e-002 -8.9748996439701481e-002
      -1.3936910056662005e-001 -1.2122007854114533e-001
      8.5341549515968850e-003 -2.1788153563470430e-001
      -1.3056740215693906e-002 -1.4028413505121393e-001
      -4.6380276283969159e-002 7.3783275689892860e-002
      -2.3010803520091264e-001 6.1577037741934598e-002
      1.0036809357674268e+000 -7.0674164342339432e-002
      -8.7191894554677074e-002 9.9003200031263366e-003
      -8.5990913836218583e-002 -9.1697218673304812e-002
      -1.4298089935886393e-001 -1.2408947775659421e-001
      1.0884782361154375e-002 -2.2317984430944082e-001
      -2.3441236298501662e-002 -1.3045582489292981e-001
      -4.9793978240454097e-002 6.5958575958831325e-002
      -2.2462716732320545e-001 6.7953032733298738e-002
      -1.6809989829800265e+000 -4.6894474225791669e-002
      3.3381747657010505e-002 2.9171881142669793e-002
      7.2001992734352635e-002 2.2517165355610144e-001
      2.2268413294808422e-002 7.3800690935625990e-003
      7.8830842427736345e-002 1.0782290489902595e-001
      -2.1797725095383937e-002 -5.1792622398776460e-002
      -5.9462254588611672e-002 4.4918718436012675e-003
      8.5572160697599806e-002 -5.6654971394797839e-004
      -1.2495810013562547e-001 -4.9201577328028399e-002
      1.4254078851557406e-001 1.4240495966418582e-001
      8.1643842519796894e-002 -9.3836966604000385e-002
      -1.1879348464389168e-001 1.0711598847590034e-001
      -1.9593859279204062e-001 -7.3826952817946420e-002
      6.9887477746613122e-002 1.3788541259902937e-001
      2.1082939802265299e-001 -4.6905839580817510e-002
      -1.0856670102310757e-001 3.9644126668432360e-002
      -1.1605501282101818e-001 -4.6031309731237098e-002
      1.4586481651996708e-001 1.3229838125954368e-001
      8.0112041656906913e-002 -9.1655537549160712e-002
      -1.1890057616169770e-001 9.9883465311094571e-002
      -2.0432954903750450e-001 -6.8810977411332699e-002
      7.7506656184890652e-002 1.3817952216687557e-001
      2.1537892830568928e-001 -4.3652280109883590e-002
      -1.0279551773419089e-001 4.2588216078852721e-002
      -1.5198619280072542e-001 1.0505117554434156e-002
      4.0763358482617716e-002 4.6521982901631197e-002
      4.6716024436164245e-002 -6.8607937828389962e-002
      -2.3522314856165967e-002 4.2781597329282058e-002
      -1.7841001465587353e-001 -6.6293737641499068e-002
      -1.2479189897285872e-002 8.3537097907714811e-002
      1.0075237737133923e-001 -1.6585809561348516e-002
      -7.7591501510251779e-002 3.6650133922763811e-002
      -6.2777936874848107e-003 6.2254305525607624e-003
      4.2180982995008286e-003 -7.3268571426862855e-003
      -4.5816427508636711e-003 -6.8106364465844952e-003
      -4.8357934137523619e-003 -2.5309544985564923e-003
      5.5019671093528184e-003 2.8486510513717704e-004
      -5.2362196325215216e-003 -1.6729633789881570e-003
      -2.1064423354842693e-003 6.3294843698726401e-003
      -4.3629013269170696e-003 2.2244272186669233e-003
      -1.4632283181890645e-003 6.4080051867022418e-003
      1.1742967882530477e-003 2.1273384190055953e-003
      -3.5409376679003167e-003 4.6275432694588775e-003
      1.9315857648080612e-004 2.9444848292466074e-003
      7.5797972688346447e-003 -3.0692650209328430e-003
      3.2141231894851508e-003 4.0970041275917076e-003
      -5.1131394777588369e-003 -1.7095912060313869e-003
      -1.9196657062429216e-004 1.1759068756025863e-003
      -4.5373749762771158e-003 2.3325204943901966e-003
      -2.1854043118499731e-003 4.7038173923194988e-003
      -7.7224379024183653e-003 -4.0959661757693526e-003
      6.7279043099413762e-003 -7.8166672118675836e-003
      -1.5240876415568959e-003 8.1391607485504398e-003
      -7.3731588778390266e-003 8.5472504531492637e-004
      6.4395626571937797e-003 -7.8214655039115111e-003
      7.9170999394664564e-003 7.0957564059655701e-003
      -5.6824251337923414e-003 -6.2572054476136543e-005
      -7.1867455897045261e-003 4.8195519028238470e-003
      -7.6043196753074345e-004 6.9463319446238436e-003
      -6.0887255926483936e-003 2.1718455849347360e-003
      -2.2176076163018788e-003 6.8434113206991979e-003
      6.1217283940319146e-003 -4.0038401472951620e-003
      1.4132671135976211e-003 -2.3792748179502030e-004
      -8.6524171230673247e-004 4.1074414450916857e-004
      2.7136962193642306e-003 4.3007268567185107e-003
      -2.5780995666991637e-003 2.1527427126267237e-003
      -3.5199562081452487e-003 3.5315452104592356e-003
      -3.5536985997517007e-003 -1.3865288253622401e-003
      -3.7709041728774518e-003 4.4059003508109566e-003
      -2.5336484165912249e-003 -3.2010417758484792e-003
      2.8856105869710844e-003 3.9696437066610857e-003
      -5.5755302352553772e-003 -3.2866448430500638e-003
      7.2348839143813841e-003 -5.1349714327243584e-003
      -7.3569446075559741e-003 2.1772691241541652e-003
      -1.0911625192529784e-003 2.4767935217048986e-003
      3.2537627881043733e-003 1.3666197794090030e-003
      -1.4458624078460113e-003 -3.5533137651665432e-003
      4.9249612234000721e-003 4.8217695150021903e-003
      -3.3527319340521107e-003 3.2894545506003316e-003
      -3.8401118173772499e-003 5.9601751151269287e-003
      1.3199022979190976e-003 2.5910606896415080e-003
      -3.9218520600024023e-003 -2.8181154587448966e-003
      -6.3816372101932802e-003 -3.5066747160293638e-003
      -1.4762642040843719e-003 7.8820658648885728e-003
      6.6992877382334630e-003 6.3671100049448896e-003
      4.2886742741999467e-003 -5.9491530365327434e-003
      -6.9885498591194259e-003 -4.7796364999913056e-003
      -3.4750633589862323e-003 -6.4817715206577373e-003
      -3.6091532428138380e-003 3.5739686208138884e-003
      -2.3182987701250071e-003 7.0060641721748206e-003
      -7.3714698130949398e-003 1.1491702682189446e-003
      3.3154681182622251e-004 -8.7201520012592838e-004
      -5.5941318104571688e-003 2.4842478808761652e-003
      2.6891937660336982e-003 4.8407510700816635e-003
      -6.7479644299206357e-004 -8.3166994359597875e-004
      1.4631891435723170e-003 -6.6621593212270527e-003
      -3.1330514492488378e-003 -6.4167000346448440e-005
      -5.1900713168251175e-003 -1.4829112224660258e-003
      -3.7683043842128595e-003 4.1521291771402236e-003
      3.0160998888267266e-003 7.0822193534532040e-003
      -1.7994064271111255e-003 3.0013777507733280e-003
      -3.5943694488519218e-003 -4.6372873309477036e-003
      -4.4922219067004745e-004 5.8641553452843959e-003
      -2.4757774609679823e-003 -2.2408627461349721e-003
      1.0031898360311173e+000 -5.8999333214320437e-002
      -8.2331948278384304e-002 8.1017625186437098e-003
      -7.5514389504636167e-002 -9.4481363540821248e-002
      -1.4408066281853377e-001 -1.2672838090456479e-001
      2.0562639545720039e-002 -2.2432041295897220e-001
      -2.1816275116613795e-002 -1.3706389188800513e-001
      -4.9923132563673915e-002 6.9349921483213325e-002
      -2.3443064412850931e-001 5.8306772121088632e-002
      1.0069061079778052e+000 -5.9195333634311564e-002
      -9.1140876588439279e-002 9.8320703170995671e-003
      -7.2049974953295723e-002 -9.9402670913812288e-002
      -1.5295265026744900e-001 -1.1851558203910009e-001
      1.5098367723592064e-002 -2.1730634862813203e-001
      -2.1813024241552560e-002 -1.4265190587658197e-001
      -5.5932973831156245e-002 7.6587432995904078e-002
      -2.2933868352987005e-001 5.8871306836563914e-002
      9.9728026384767288e-001 -6.1846650365501188e-002
      -9.4738875782061943e-002 1.2323375454851834e-002
      -8.4972781798877003e-002 -9.2085505191137854e-002
      -1.3972057642822416e-001 -1.1844803402794674e-001
      2.1484906023906021e-002 -2.2858381312005904e-001
      -2.0298163089228435e-002 -1.4137968646709734e-001
      -5.1870517633838577e-002 7.6062506685334028e-002
      -2.3127921459207493e-001 6.2339137031677518e-002
      -5.8983691478462089e-003 -4.0250332209628269e-003
      5.2269606025530102e-003 7.3014375771528455e-003
      4.1553179183099927e-003 7.0019386681875028e-003
      -3.7936640804557038e-004 5.5247555607851944e-005
      -7.7854630787873337e-003 -2.9454043218497014e-004
      -4.4281894689220617e-003 1.4175953247936763e-003
      3.8968531603657940e-003 3.3794342736827017e-003
      1.4607819433765639e-003 -4.2600799050915186e-004
      -1.2390028100025283e-001 -4.0438592499132585e-002
      1.4633349646591237e-001 1.4519582471419062e-001
      6.9250709977745323e-002 -8.9424214156405460e-002
      -1.2311213665411520e-001 1.1445565862841697e-001
      -1.9603160545719334e-001 -7.0872414913185119e-002
      7.9099651559381742e-002 1.2788152895123198e-001
      2.2367206093046527e-001 -4.5007822017240295e-002
      -1.1120927315534608e-001 5.2131634835554268e-002
      -1.1992422391406815e-001 -4.1627980182384304e-002
      1.4125765212942443e-001 1.4271330193320136e-001
      7.9110258568901110e-002 -8.7561114202128740e-002
      -1.1620037377715341e-001 9.9025443576438305e-002
      -2.0769979206890843e-001 -6.1009542874258839e-002
      6.7584742182391230e-002 1.3217976192452111e-001
      2.1616160293959852e-001 -3.7954364883356101e-002
      -1.0415376377725315e-001 5.1240923430976741e-002
      -3.4793563509713071e-001 -2.5080385669537613e-002
      6.3069232059979108e-002 3.9719486555307437e-002
      6.9869889004635338e-002 -5.0716643022096497e-002
      -5.9814009139431634e-002 4.1892294285729957e-002
      -1.4109053991437728e-001 -1.9257404119064268e-002
      -6.3159282350163802e-004 8.3600546466548020e-002
      1.4093353416662169e-001 -5.3098288052254229e-002
      -6.6065674240059144e-002 -1.3754782085068532e-002
      -6.7193478562189782e-003 -4.1152281853009006e-004
      1.8575689670273130e-003 3.8115038421638017e-003
      4.9007748370438501e-003 -2.4464666531214934e-004
      -4.8786304477230419e-003 3.5999496608858459e-003
      2.4028450072883789e-003 -5.2981609211593117e-003
      -7.3513360602280326e-003 3.1951494782281415e-003
      -3.4386838898601791e-003 6.7781868499677761e-003
      -4.9730100830725748e-003 3.6734338477190909e-003
      1.1036382963814594e-003 -1.4508595657344628e-003
      1.3391266297488509e-003 -4.3100197375505753e-003
      -4.8475475478700434e-003 -5.6785696881867754e-003
      3.4913830570466090e-003 -2.0248815982791615e-003
      -4.0275502018957982e-003 -8.2045142861454407e-004
      4.1520395118571909e-003 3.6681948799072149e-003
      -6.3464473513075419e-003 -6.5753820249795179e-003
      7.4256794221527435e-003 6.6408829846080633e-003
      -2.1871113193340356e-003 7.7646130604506897e-003
      -6.6310674524364503e-003 4.7716778951935506e-003
      -2.6529404953145579e-003 6.5999803123418677e-003
      -4.6264402057613714e-003 5.8904953014297283e-004
      2.8164420934907557e-003 -4.4349147768362189e-004
      -5.5050810023048319e-003 6.8334021383475059e-003
      6.0362360756275575e-003 7.3000461900551497e-003
      -2.2630332105194719e-003 -4.6643980859762593e-003
      -2.8541175884841843e-003 1.4991274801996314e-003
      -1.8969909287623865e-003 -4.3105289272221339e-004
      7.6725283475658473e-003 -7.4383946185551959e-003
      -1.8204505212933734e-003 -5.3334271644503127e-003
      -4.7075308130713200e-003 5.5967412387944657e-003
      5.9515883877599438e-003 2.4253714798287375e-003
      6.8800852906371343e-003 -2.0290171091575586e-003
      1.3952349543411369e-003 2.9422100363901862e-003
      6.6651877652149768e-003 5.3595035567881354e-003
      -5.7544161442977843e-004 5.8254526371541906e-003
      -2.8959271112058782e-003 -4.1883066002402804e-003
      -7.2744421836274378e-003 -5.9415874299007321e-003
      -7.5249036612323695e-003 1.1194968150740191e-003
      -2.9260901555141078e-003 2.6909217850325747e-003
      -2.6914278611991963e-003 6.5268724342549414e-003
      2.4972539340304199e-003 -3.9798540026948397e-003
      -7.1298812533623513e-003 3.2452516931750397e-003
      -2.0312064510522717e-003 8.4194348529331156e-004
      7.6271787599745356e-003 4.8884017243014898e-004
      6.5731959346885136e-003 -1.1086220548816124e-003
      -1.3334824459708891e-003 5.2896656980703722e-003
      5.0440590537195584e-003 -5.2498469289990251e-003
      -7.3562069211887604e-003 2.3950193497998501e-003
      -5.5383828848089712e-004 1.2077670375009314e-003
      -4.1100366775478799e-003 4.5002033150038142e-003
      -1.0104637164885131e-003 -2.8837065936590696e-003
      -3.9495628851298837e-003 7.9692988909556024e-003
      -7.3409256946620448e-003 4.4393737863634639e-003
      -1.0765705286610351e-003 4.7351610959421014e-003
      5.3617765588912071e-003 1.5276890267634025e-003
      5.5522326072889247e-003 7.9349767231027537e-004
      -2.8205692715740122e-003 4.9599805657255568e-003
      4.7581793945394822e-003 -5.3720878800739514e-003
      2.0037353244903577e-003 5.1222818704097445e-003
      -2.9920934864326003e-003 1.8713535403863056e-004
      -5.8535167667232886e-003 -7.9514068285422707e-003
      -4.8694166869471117e-003 3.2487701909269472e-003
      -3.0363626938265218e-003 -6.7428615743469374e-003
      1.9264011471508543e-003 -3.2606826383409690e-003
      -6.8787044572771730e-003 6.7871937427242896e-004
      -1.4282023997920859e-003 -1.0359769745386447e-003
      -6.3369055202191172e-003 -1.9403635903997578e-003
      -7.1727056082894545e-004 3.6601819280069740e-003
      4.0916465554821672e-003 -5.2642839378918118e-004
      -1.2128606697715347e-003 8.9333856587909979e-004
      4.6520046848535834e-004 5.9367911094078928e-004
      -4.7148686912844105e-003 -3.9391178762485237e-004
      7.5052474258174452e-003 -5.0295626383100277e-003
      1.0081002553994409e+000 -5.8743351295561394e-002
      -9.4203029534113941e-002 9.8488350822483056e-003
      -7.2703635764890209e-002 -9.5195452087596319e-002
      -1.4271144724438592e-001 -1.2417642329983483e-001
      2.0438079722697108e-002 -2.1755776866245047e-001
      -1.4904329610711186e-002 -1.3787227157020418e-001
      -4.4842316453603960e-002 7.4353901732680347e-002
      -2.3347915141484468e-001 6.0674751281439815e-002
      1.0019898403516454e+000 -7.2030503000601639e-002
      -8.2477162958434852e-002 1.3755175949753024e-002
      -8.1774085847410430e-002 -9.7923233651057998e-002
      -1.5046703941936146e-001 -1.1218106075773601e-001
      8.1670285336528751e-003 -2.2593881596997756e-001
      -2.2379762809488318e-002 -1.4098432945093051e-001
      -5.7231642870122786e-002 7.6964764095502194e-002
      -2.2216235526753533e-001 6.1734981435472916e-002
      9.9699623273180038e-001 -5.9388499908112818e-002
      -9.0311233934022433e-002 1.0584552161484739e-002
      -7.8801826950991014e-002 -9.8628443390421608e-002
      -1.4012710413346446e-001 -1.2031401137561515e-001
      1.8677840917228308e-002 -2.1941474572544617e-001
      -1.1739333052755449e-002 -1.3287692371308354e-001
      -5.4754174912968460e-002 6.4373727130560568e-002
      -2.2903226478486990e-001 6.3843955307139169e-002
      -8.2376671355891755e-004 -2.0730970547531992e-003
      3.7728792606329187e-003 1.7356110034590245e-003
      4.8884747228717376e-003 -6.8513303160012287e-003
      -5.7266497914313054e-003 2.8077434844500718e-003
      -3.9367488993032667e-003 3.0702184987954810e-003
      -3.8916925784709734e-003 -4.0767031239196524e-003
      7.7426520912413184e-003 -5.9246332463825336e-003
      -4.2537887516214358e-003 4.9294664653151479e-003
      -1.2471498926350663e-001 -3.7354555651271860e-002
      1.3349595245031309e-001 1.3353190836866374e-001
      7.0578521359379892e-002 -9.3134599184638553e-002
      -1.0985330553289814e-001 9.9172559041084546e-002
      -2.0143444430472091e-001 -6.2759558843532473e-002
      7.1006501048393886e-002 1.3020977938696623e-001
      2.1359354019057170e-001 -4.7440570783034847e-002
      -1.0394934456835229e-001 4.0755895024201523e-002
      -1.1971909599208327e-001 -4.5577984503179216e-002
      1.4556305965449584e-001 1.4116441393252172e-001
      7.7244046579594244e-002 -9.6524750915748261e-002
      -1.1770412673331800e-001 1.1322988508304146e-001
      -1.9401254368029786e-001 -6.1847479957820993e-002
      7.2867224216107099e-002 1.3107047371586544e-001
      2.1376011754681784e-001 -3.4847933832088424e-002
      -1.0923993207406570e-001 4.9673863934175187e-002
      -7.8018830850038956e-001 -2.9091192759708583e-002
      3.9727731067355540e-002 -3.1109166021598154e-002
      1.2206748653310172e-001 -1.5172996515705143e-002
      -4.4328132173505362e-002 1.6846987025745209e-002
      -1.6700938247524383e-001 1.3453006438255501e-002
      -4.3619413776023214e-002 7.1703056097998236e-002
      1.1834841193123720e-001 -1.1219626920009346e-002
      -4.3809773845216365e-002 -7.1907199602855770e-002
      -2.8218802268492656e-003 -5.5112307265427918e-003
      -7.0005040243895237e-003 -6.4814612366629921e-003
      -1.3318834954593318e-003 7.5395477467561315e-003
      -4.9914935492192296e-003 -5.2049743489544385e-003
      -4.8637765796357407e-003 5.7304057082832038e-003
      2.7113953569534788e-004 3.8784860176932436e-003
      4.0812104278177084e-003 6.0834967228237660e-003
      3.2114392813490287e-003 5.4062523829827760e-003
      5.3694365438021951e-003 -7.3075367739179158e-003
      -3.1439242535582983e-003 -1.3570984502258730e-003
      6.7715570895618181e-003 2.4577904879578005e-003
      5.1301946162168252e-003 3.6258492421944160e-003
      2.0382780486541386e-003 -5.2292708775670063e-003
      -4.1461770234304338e-003 -2.2768970842203839e-004
      -2.3288059593702124e-003 -1.8205067809501396e-003
      -3.4012837326233389e-003 4.2360058462294469e-003
      3.9021778034922044e-003 -1.5049615230384675e-003
      1.6908669555132125e-003 -3.7015631765030814e-003
      -5.1840666428397547e-003 3.3648880324569129e-003
      7.6082934481696354e-003 6.0310314520367744e-003
      6.2678093824131760e-004 5.9982713607797961e-003
      -2.1185470529532149e-003 -3.2803789040421892e-003
      4.0882625953276019e-003 5.3278207980542404e-003
      2.7750120394927046e-003 -1.5831155099675670e-003
      -6.7252346198011506e-003 -1.9096177898440855e-003
      5.2951527949674504e-003 4.0688353201038755e-003
      5.2833269818738156e-004 3.3311342017963239e-003
      -6.7388225218155337e-003 8.2884443206361277e-003
      -6.7168535912433859e-003 -6.1344107174912017e-003
      -1.6110912072389853e-003 -6.8037283226893850e-004
      -7.2541725899693847e-003 3.9357609948413421e-003
      -1.5713467828080353e-003 -6.9966448461379069e-003
      -5.4613648420390008e-003 -7.1758060690060629e-003
      4.8074676279150587e-003 5.1735994737065853e-003
      5.2667846812632499e-003 -6.2316352682888279e-003
      6.9593730221638259e-003 5.5756803709763468e-004
      1.3170302162502866e-003 -7.3472318842555525e-003
      3.5114013449993861e-005 2.5410696028195499e-003
      6.4256193431490071e-003 5.5106817990861505e-003
      3.5572547704385487e-004 -3.8278244290029396e-003
      -6.7106137083185980e-003 4.7981777355798651e-003
      -3.9779307219719512e-003 1.1030593382985402e-003
      2.4508401737658599e-003 -2.6328241197298989e-004
      1.7766358233405760e-003 -6.2789928805791922e-004
      4.0714476015246454e-004 -3.4498791168870537e-003
      -1.8384288189572514e-003 3.8930951148033590e-004
      3.5706451381779542e-003 -4.2455036297325789e-003
      2.6283234264364349e-003 5.0602757983000636e-003
      -4.9782746054465978e-003 -6.0122094244937523e-004
      -3.0937343378655848e-003 5.1325259482250894e-003
      3.8865915805002165e-003 1.9934917035572598e-003
      7.7746640388185705e-003 -5.5834760779241068e-003
      1.9512872935980175e-003 8.0160932441632506e-003
      -5.3805353185312687e-003 4.9369857977845395e-003
      -5.3237578420319426e-003 3.3912630219946976e-003
      -6.4832850847699472e-003 -6.5331724907089902e-003
      3.5046164983413572e-003 -1.0086278491618025e-003
      -7.3879043580073458e-003 -6.9030901320480597e-003
      -1.9368708578960457e-003 6.3801571722895334e-003
      -4.0141011548019993e-003 2.9998376148297110e-003
      1.9341132889303479e-003 7.9792661834104904e-003
      7.5817369691605734e-003 -1.0428848493669899e-003
      5.0181224035130353e-003 -1.1128225569768187e-003
      -5.9152111523385490e-003 -1.6561169926725505e-003
      6.5294037357108434e-003 -8.0358330858720502e-004
      5.8275041764943632e-003 -4.4534533008141103e-004
      4.1146747146808436e-003 -7.2877484070115886e-003
      3.0399612187935105e-003 -4.9870281267914447e-003
      6.5655410950131053e-003 6.9404608335703133e-003
      -5.7242580371182072e-003 3.6803791155185011e-003
      4.0417005552629264e-003 -1.1125514610459779e-003
      7.8354852842299327e-003 4.4433078523619428e-003
      1.0074295949407026e+000 -6.7500734023973399e-002
      -8.9536372040993406e-002 1.5187602706953379e-002
      -8.2440326566348990e-002 -9.8476130311412877e-002
      -1.4515959858363750e-001 -1.1872430972131590e-001
      1.4530018010141128e-002 -2.2723419049197058e-001
      -2.3823296081214754e-002 -1.4123269696413240e-001
      -4.6020377706726019e-002 7.7399510476553759e-002
      -2.3751954756080026e-001 6.6609504864728289e-002
      1.0104785439590294e+000 -5.8707970427303177e-002
      -9.4651117401991086e-002 2.0021185148375423e-002
      -8.7520586587831059e-002 -1.0317126613149623e-001
      -1.4656427489828977e-001 -1.1993250757193574e-001
      1.4710223141742832e-002 -2.2610468466487793e-001
      -1.2343089696781126e-002 -1.4203761594943401e-001
      -4.3196751297011733e-002 6.4347559824227726e-002
      -2.3027549459477129e-001 6.5500600584672206e-002
      1.0004957895763622e+000 -5.9070893276908037e-002
      -8.9861288429296499e-002 1.0092513432743921e-002
      -8.7709899122758853e-002 -1.0490862799644572e-001
      -1.5013787377914836e-001 -1.1698363848806670e-001
      1.0404058734258996e-002 -2.2694317831665883e-001
      -1.3303937702169954e-002 -1.3971883374255620e-001
      -4.9330460486819348e-002 7.1838975133235103e-002
      -2.3348204026796401e-001 6.8493110869476251e-002
      2.8036682067283947e-001 1.0294603120565174e-002
      2.4228944918518176e-003 5.3313308338983956e-002
      -4.3146171844819094e-002 -4.8458886435735534e-003
      -2.4721480844636493e-002 1.0944607175733995e-002
      1.4632235536920377e-002 -2.3407552914639741e-002
      4.0383483360605897e-002 6.0210353477874413e-003
      -2.4246747901940364e-003 -1.9893147284166621e-002
      3.6636427815152470e-003 5.1704819963245975e-002
      -1.1405657779174816e-001 -3.7402580721261590e-002
      1.3950932525837023e-001 1.3514785469109553e-001
      7.2095175572565229e-002 -9.5343850279937234e-002
      -1.1875265989934704e-001 1.0710439064822286e-001
      -1.9904790766893582e-001 -7.3592177371358744e-002
      7.8266554255379164e-002 1.3747305082216649e-001
      2.1009963248187541e-001 -4.0320496939528744e-002
      -1.0474065878146337e-001 5.0484156527711536e-002
      -1.2181298377056737e-001 -4.5436355705336780e-002
      1.3953189282864858e-001 1.3268141701732589e-001
      7.4387456575787270e-002 -9.5236223465214445e-002
      -1.1839131615079314e-001 1.0213332344705983e-001
      -2.0703740934686371e-001 -7.2145268006483784e-002
      8.1397330752658106e-002 1.3087826561846463e-001
      2.1450968926910807e-001 -4.6958339912574240e-002
      -1.1419541186380615e-001 4.6722103572110200e-002
      -5.5210089726330669e-001 -2.6250494400558249e-002
      1.0144621389713331e-001 3.7348027840305241e-002
      7.1395281037359579e-002 -4.5875509886081779e-002
      -7.2532905642056167e-002 3.3476191663118472e-002
      -1.4227868221628184e-001 -1.2645436647434906e-002
      -2.6517270024135967e-003 8.1801747074051634e-002
      1.4314592820521596e-001 -2.3928805016697485e-002
      -5.8808524515468662e-002 -3.8098653834710818e-002
      -5.5422777486985508e-001 -1.8746686087705435e-002
      9.0519374228214669e-002 2.7757444248021852e-002
      7.4419939930240639e-002 -5.2553650988706756e-002
      -7.1181728189952262e-002 3.5137121730721449e-002
      -1.3535651999195122e-001 -1.0003005123271647e-002
      -1.8650474939127010e-003 7.1110789864261392e-002
      1.4000125843680264e-001 -2.4107031357167529e-002
      -4.7087059307554809e-002 -3.5906035573715127e-002
      -5.5592261641631457e-001 -2.4735635764292847e-002
      9.3862147608514593e-002 3.0667442624065788e-002
      7.6239305294065210e-002 -5.3516472876442490e-002
      -7.1952009056354224e-002 3.9021008548181038e-002
      -1.4344642696378287e-001 -1.8528552910109134e-002
      2.5831297838347831e-004 8.0398197753397044e-002
      1.4439965025385812e-001 -2.5386657977499349e-002
      -5.6243459268896408e-002 -3.8077884987211215e-002
      -5.4346305718929711e-001 -1.9531469684632600e-002
      9.4969542003752280e-002 3.2807572540073805e-002
      7.6110048973124941e-002 -5.5215350334366163e-002
      -6.0098944538323235e-002 3.6744897029071868e-002
      -1.3919917341022495e-001 -1.5627059153276387e-002
      -7.4886405785721828e-003 8.0269914530673947e-002
      1.3123127712568258e-001 -2.9842378301655089e-002
      -4.7328541594773309e-002 -3.8138819206107323e-002
      -4.4246784698145319e-001 -1.7325612475352140e-002
      6.7503870910655947e-002 5.9006224582372667e-002
      6.8627338135825430e-002 -4.1051118755459672e-002
      -7.8857593560278244e-002 3.5485727343287810e-002
      -1.4617020187941773e-001 -2.3008067387436722e-002
      1.6810306944195396e-002 7.8721386137682467e-002
      1.3389333834952483e-001 -4.6303825891126707e-002
      -5.1164196161741025e-002 -3.5675662945747000e-003
      -4.4809572588265817e-001 -2.0343090359331743e-002
      6.6191808943709754e-002 5.8640715181963975e-002
      6.8987051493865040e-002 -4.6407590696781971e-002
      -7.0523970920423812e-002 4.7885381321940826e-002
      -1.3211356567091201e-001 -3.3545550549598104e-002
      1.7155972082938700e-002 8.4254614755763360e-002
      1.3640445302306370e-001 -5.3218267610614309e-002
      -6.2781928581060145e-002 -5.7225700255687743e-003
      -1.1525476461364084e-001 -3.7782705354856450e-002
      1.4459068263210728e-001 1.3813624560138155e-001
      7.6535814111172634e-002 -9.1616024437920177e-002
      -1.2315891173240866e-001 1.0936849411535246e-001
      -2.0526735668133772e-001 -6.2400117408372188e-002
      7.4825030558915359e-002 1.4176177813625934e-001
      2.2023825550574366e-001 -4.7369855749004555e-002
      -1.0381563646463314e-001 4.4170214781366492e-002
      -1.2132838754564773e-001 -4.1052896732570475e-002
      1.4045401802184004e-001 1.4227515714870792e-001
      8.3343813198530903e-002 -9.8583157950538000e-002
      -1.1943881480376566e-001 1.0352448301272271e-001
      -2.0760052840774046e-001 -6.9275978523594642e-002
      8.0292864504155195e-002 1.2721729206259894e-001
      2.1714912738067149e-001 -3.3039652897451921e-002
      -1.1172937644159532e-001 3.9403921667945131e-002
      -1.2489980612688367e-001 -3.6568403220399587e-002
      1.4475740704629575e-001 1.4138350602222766e-001
      7.5113902174960917e-002 -9.1489702151400579e-002
      -1.1262273894505763e-001 1.0335834206906855e-001
      -2.0966654046473387e-001 -6.7173028813803132e-002
      6.9572871704861469e-002 1.2890118271161280e-001
      2.2257344549411434e-001 -3.7091067807185407e-002
      -1.0670355205383879e-001 4.2270684166675669e-002
      -1.2726637208445604e-001 -4.0528507281202185e-002
      1.3779702273655103e-001 1.3153741488446719e-001
      8.0211100303573313e-002 -9.2485267721529388e-002
      -1.2226006132788704e-001 1.0294382084412218e-001
      -2.0849154196595598e-001 -6.1219752676387289e-002
      7.0353146402372460e-002 1.3961883338608083e-001
      2.2321209262370206e-001 -3.9316518701003833e-002
      -9.9955262446638091e-002 4.1310113361164531e-002
      2.2706785176969824e-003 -6.9284352583749336e-003
      5.3599419649018043e-003 -6.7412515713044848e-003
      -5.3477650409983930e-003 -2.7684086090304437e-003
      -4.5204985438382075e-003 2.2004511909920776e-003
      -1.1724244324430163e-003 -2.7204109829524555e-003
      -2.2036345443832159e-003 -6.7004227672452422e-005
      -7.4941636182411691e-003 6.1891687701043808e-004
      -7.6079806111480457e-003 4.4549965068347800e-003
      -6.5438858358826697e-003 5.0899237418444111e-003
      7.7043213744242018e-003 -2.7625095044877097e-003
      -4.7117638252669146e-003 -6.9751780938493236e-003
      -6.9541391301368152e-003 -3.7010365558618492e-003
      3.8269916278822016e-003 -3.0996858932753227e-003
      1.5201749312716555e-003 1.8269032245655094e-003
      -3.4028766893301211e-004 -6.5970688073706549e-003
      8.9094193224630795e-004 -4.8736334489390158e-003
      -3.7556111940900777e-001 -8.4744510615665736e-002
      -1.6533459641930880e-002 -2.1265200143866618e-002
      -5.9744941675773156e-002 9.1897502050539884e-002
      -2.6405819747099477e-002 -8.0454081827401019e-002
      1.1931788201459938e-001 1.2341162805368445e-002
      3.4106189359965511e-002 -1.1380037055770154e-001
      -7.5314744907462924e-003 -2.2219905802987230e-002
      -4.6726085801213908e-002 -3.7571088708969213e-003
      9.2275816729306515e-001 -2.4893518590187649e-002
      7.5668378058596697e-003 1.8624355194338257e-001
      -9.2547439433906420e-002 -5.0964429461746751e-002
      -8.1478199111249969e-002 8.6834900648027152e-002
      2.2977267018035794e-002 -9.8986521723265275e-002
      1.4700672299604473e-001 5.1192674992452676e-002
      1.0110096322452879e-001 -9.4980811467995155e-002
      -4.0690850673917298e-002 1.2035502414306153e-001
      5.8325671847931115e-001 1.7330328155607624e-001
      3.0460824403992930e-002 7.5187124507431397e-002
      -1.5130838938595059e-001 -3.2670028224333944e-002
      -7.3115588983178492e-002 -1.3991415705328213e-002
      -1.1223046689503276e-002 -1.5261711632813260e-001
      1.2912091579563742e-001 1.1876659662490040e-001
      2.3681190799338497e-001 -3.1387826324179835e-001
      1.2551848598923976e-001 -1.1006954170989647e-001
      5.8159535772496340e-001 1.8088252182503534e-001
      3.5866331239810229e-002 7.5942228448734203e-002
      -1.5343209972028088e-001 -2.1000528960341058e-002
      -7.0257267035119975e-002 -8.3010552625589779e-003
      -9.1078422660901288e-003 -1.5506053816726367e-001
      1.2262099615573406e-001 1.1768183609367307e-001
      2.2831566854945590e-001 -3.1715805684285936e-001
      1.2258739121388652e-001 -1.1317071775616369e-001
      5.8928486793028945e-001 1.8068613644373982e-001
      4.3506304001862950e-002 7.3056103795798952e-002
      -1.5761925883373934e-001 -2.9591625977160713e-002
      -7.8910343584595727e-002 -8.9951495241612049e-003
      -6.1008017081495411e-003 -1.5549965506680485e-001
      1.2611569318524421e-001 1.1626659990171444e-001
      2.3695922154759705e-001 -3.1794129325928000e-001
      1.2871547654199847e-001 -1.1571482515898585e-001
      5.8286934658881751e-001 1.7436780715298100e-001
      3.5094384115653882e-002 8.7502881892024070e-002
      -1.4752691263337669e-001 -2.3711163648869025e-002
      -6.8648212498600036e-002 -7.2670312384903553e-003
      1.3111572190203286e-003 -1.4223166566085801e-001
      1.2568759263152715e-001 1.2491385267343104e-001
      2.2598193245417683e-001 -3.1801102105695900e-001
      1.1731554605488652e-001 -1.0766866314158771e-001
      5.9144145777723089e-001 1.7201253310875897e-001
      3.3346249792161317e-002 7.4870218631482827e-002
      -1.5268291970740511e-001 -2.9506134402120351e-002
      -7.4032964423948466e-002 -1.5847236341059157e-002
      1.4960801161714513e-003 -1.4825310880268808e-001
      1.3059297537480172e-001 1.2019675871324532e-001
      2.2812188149762919e-001 -3.1371028675425128e-001
      1.2511265846339711e-001 -1.1484389976875337e-001
      5.7899256825536172e-001 1.6600724250977555e-001
      3.2212556832723532e-002 7.3171508088941448e-002
      -1.5429203141856845e-001 -3.3734397756435199e-002
      -7.8999494321308650e-002 -7.2092053190142011e-003
      2.6794914142061694e-003 -1.4763949562513640e-001
      1.2465789439828938e-001 1.2310773553051653e-001
      2.3545988125724052e-001 -3.0507201074375467e-001
      1.2321277137725216e-001 -1.1024369462797920e-001
      5.8816855405360868e-001 1.7663359791599648e-001
      3.9859766336485497e-002 7.6594002356952545e-002
      -1.5812225928702589e-001 -3.1134615052133875e-002
      -6.9386647825182918e-002 -2.5638546415386819e-003
      2.6823950749068704e-003 -1.4501075614469697e-001
      1.2402476322140231e-001 1.2180725408831013e-001
      2.3131678182316184e-001 -3.1299244759348999e-001
      1.2018320794481595e-001 -1.2102723467244195e-001
      5.8121449172124340e-001 1.7437786126842769e-001
      3.5173675712948729e-002 7.3691666585431359e-002
      -1.5943477984451548e-001 -2.2872737042385665e-002
      -7.1392197692849352e-002 -9.8516066244869801e-003
      3.1435266992322162e-003 -1.5062231227522524e-001
      1.2753989555940734e-001 1.1388570722090217e-001
      2.2866011003439551e-001 -3.0534981279033246e-001
      1.2395424184830341e-001 -1.1464966115308967e-001
      5.8111386336305959e-001 1.7592910311182552e-001
      2.9798691792705907e-002 8.6923004042672031e-002
      -1.5102577858331839e-001 -3.4629244331105917e-002
      -7.9891659147707988e-002 -1.4867293419450547e-002
      -7.6721582106608127e-003 -1.4169459552359470e-001
      1.3075934118975022e-001 1.1822736302453750e-001
      2.3213426562903886e-001 -3.1939939433391740e-001
      1.1585280016804821e-001 -1.2000306147861486e-001
      5.9013474222357098e-001 1.7314672256446847e-001
      4.1769431839427634e-002 7.4473219372976171e-002
      -1.4882645901493569e-001 -3.0607858857651483e-002
      -7.3399947366985352e-002 -5.9127058191392736e-003
      -7.0444211105462990e-003 -1.4861154445583546e-001
      1.2367202758037078e-001 1.1829449154464607e-001
      2.3087757193858194e-001 -3.1097972564864662e-001
      1.2516394329297206e-001 -1.0836414719759496e-001
      5.9299286677106766e-001 1.7735835427969610e-001
      4.1454811019706536e-002 8.6747097534288414e-002
      -1.5165549834686626e-001 -2.5805250605070860e-002
      -7.4973988770032168e-002 -1.3404958248271422e-002
      -8.5113002894770199e-003 -1.4920602059103333e-001
      1.2040634998394338e-001 1.2375621076949271e-001
      2.2527806441156153e-001 -3.1462365581978191e-001
      1.1944067042838034e-001 -1.1412347297402312e-001
      5.8046182626251519e-001 1.7302024548917991e-001
      3.7429736494827087e-002 8.1329690579741792e-002
      -1.5995750822450228e-001 -3.3551449845070018e-002
      -7.0205173919019703e-002 -1.0898451903886330e-002
      -7.2522362866677985e-003 -1.4731986012911516e-001
      1.1794116059203431e-001 1.2143784660850450e-001
      2.2729890021507418e-001 -3.1204240721941845e-001
      1.2179894630598899e-001 -1.0714409502942929e-001
      6.5157264332216447e-003 -8.7346494094773058e-005
      5.9857907336566644e-003 2.4294839832525016e-003
      -7.7650825111315004e-003 -4.1854314650809068e-003
      -6.8642720839038711e-003 -4.2296726360667907e-003
      -4.2875709646802958e-003 5.7760695263690586e-003
      2.9583817039352121e-003 2.8331203015980449e-003
      -7.0813651285236996e-003 -3.3961123104138229e-003
      2.7252326397953107e-003 6.7653956201817558e-004
      -5.7795673563423976e-003 -5.4844967387228643e-003
      1.9374195481277208e-003 -4.8696933553813923e-003
      -7.5670856414433545e-003 -3.3795410460878829e-003
      -2.8795289978934230e-003 -5.6338185198550423e-003
      -4.5583937146111003e-003 -9.6469200436648391e-004
      4.3098700381021511e-003 7.1369400719120705e-003
      2.5226690080640364e-003 8.3965396974867632e-004
      4.6200204027287115e-005 4.5523649451047130e-003
      4.7726116436397646e-002 -5.9775203416122913e-002
      1.3747066193967348e-002 3.3115461826969315e-004
      -5.0441354648164662e-002 8.8140250634194242e-002
      -3.4203890462851945e-002 -7.1495077655158293e-002
      8.1580470103781624e-002 -1.5181950495141415e-002
      4.4750502097347572e-002 -9.7145572545022610e-002
      -3.3699733008267237e-002 1.0640948237034530e-002
      -2.3670830778766805e-002 3.9146265112278048e-002
      8.1047647989495986e-001 1.9821003604658934e-002
      3.1187735196013245e-002 2.3349187680174532e-001
      -6.7609482192867179e-002 -2.4591285827390057e-002
      -7.8656523191759864e-002 8.0740139754221701e-002
      -1.1921081580202163e-005 -1.0815575330039615e-001
      1.3643622307420950e-001 4.9214932849729782e-002
      2.9728844517588570e-002 -3.5331264779337436e-002
      -3.4382798274386880e-002 1.8525772601668694e-001
      -2.8877483574675800e-001 4.6517126901487169e-002
      9.3171497215539627e-003 1.0737141970879385e-001
      -1.5777626346813620e-001 1.1407441048252566e-001
      -1.6357930397552964e-001 -1.4936888282398192e-001
      1.2161886954345014e-001 -1.7608357295585422e-001
      6.9465752039372997e-002 -9.5862745704238722e-002
      1.4481453553714080e-001 -1.8942027675927797e-001
      2.0149319803740226e-002 -7.7060692917258589e-002
      -5.0335959655589024e-001 -1.7527194821680952e-002
      -1.1631969011931616e-003 7.6691197420314966e-002
      -1.9942679319730405e-001 1.6071439042969868e-001
      -1.5513631143958120e-001 -2.1967828433413908e-001
      1.9705826611276037e-001 -1.9550602668794190e-001
      8.5543543673403041e-002 -1.7612020425879280e-001
      8.3891404572385017e-002 -1.5101168002599141e-001
      5.7521076810094496e-003 -5.9249013755545518e-002
      -5.9151863834490226e-001 -2.3460999509484964e-002
      -9.0648014380075252e-003 7.6398823242806724e-002
      -1.9789654562898923e-001 1.7322555279625598e-001
      -1.5980251927993480e-001 -2.1810649245751135e-001
      1.9538919031393384e-001 -1.8045022382761153e-001
      7.8941774887808250e-002 -1.7142341183237739e-001
      8.7368784083846379e-002 -1.6024324507438503e-001
      1.5185097456259828e-005 -6.8232765770394041e-002
      1.3803106826121414e+000 6.3929062418437044e-002
      -5.6909081729940490e-002 8.5844084737428494e-002
      -1.9210835300369272e-001 -1.1572343879872464e-001
      -1.8001511102823500e-001 -1.1464159746468282e-001
      1.3289148371927979e-002 -3.1554164652803973e-001
      7.4184046379786234e-002 -3.5780457772127974e-002
      1.2226608811778984e-001 -1.5346435920967447e-001
      -1.3066287052509393e-001 -2.5706852303060915e-002
      1.3832048975435287e+000 7.5317173515960345e-002
      -5.2405478820664812e-002 7.5194813478564757e-002
      -1.9353467592432685e-001 -1.1300470518507050e-001
      -1.9875604798299509e-001 -1.1551902898168268e-001
      1.7552126432541042e-002 -3.2338009692992786e-001
      7.4038186267531433e-002 -3.9469792219756106e-002
      1.2373060189169939e-001 -1.5895520258047910e-001
      -1.2237991018705754e-001 -2.9299164800822557e-002
      1.3748445226746149e+000 6.4703631617586105e-002
      -5.3545012109106081e-002 7.8325877725594142e-002
      -1.9603247791280196e-001 -1.1648013180502803e-001
      -1.8997387572963312e-001 -1.2416175427084497e-001
      1.1364226481787917e-002 -3.2125670249592897e-001
      8.2024452698182107e-002 -4.4692325750407186e-002
      1.2574838109106776e-001 -1.5942402709729972e-001
      -1.2136533780714498e-001 -1.7674587578603830e-002
      1.3795673432398583e+000 6.8062084344559792e-002
      -5.1592065663310087e-002 7.7742607026725793e-002
      -1.8829951646877205e-001 -1.1298271971937951e-001
      -1.9263556333680290e-001 -1.1800249713861280e-001
      8.9647432390960527e-003 -3.1787140977263273e-001
      8.5513076839321647e-002 -4.7380590085051535e-002
      1.1883547171750762e-001 -1.7238904077997177e-001
      -1.3017915591421680e-001 -1.7738885047949758e-002
      6.8871447112530459e-001 7.5828916097935087e-002
      -1.6148874257765344e-003 7.9984005082646796e-003
      -3.8571186507985501e-002 -5.2624621747550331e-002
      -1.6546137162740665e-001 -1.2433870120863175e-001
      -2.2282047875740795e-002 -2.4961048762696877e-001
      8.1755313386377244e-004 -4.5347276989016007e-002
      4.0409276008553714e-002 -8.0714678789621130e-002
      -9.4660128838063351e-002 -4.2963545498564777e-003
      1.8511264870464114e-001 5.0577172269465086e-002
      -1.2715059081183261e-002 -2.7238804490538376e-002
      -3.3758013309186714e-002 1.0120814287776518e-002
      -8.8208341041580027e-002 -1.1512483363897554e-001
      -1.8653686619433153e-003 -1.9456106958951327e-001
      8.8479103924276725e-003 -7.4580560356442421e-002
      3.0549557911629260e-002 -6.1104857835312887e-002
      -6.2630608725279258e-002 -2.3328684104755137e-002
      3.1870426187981699e-001 1.0587791838106744e-001
      3.1523316193853346e-002 5.0516144526526465e-003
      -7.2437145437485181e-002 2.3834252023729210e-002
      1.3870747424108786e-002 -5.2365823510889233e-002
      1.4289997902157769e-001 -7.8886421590321040e-002
      5.2758989212337293e-002 -7.6679901240535760e-003
      2.4829627351449488e-002 -9.4860260008646460e-002
      1.4362215320823962e-001 1.3460577976525959e-002
      6.6015568860938456e-001 1.6118722272120614e-001
      -2.6970122618404410e-002 -2.9022269761868238e-002
      -9.1885262889773792e-002 6.8150566967266624e-002
      2.5660404472569618e-003 -3.7517485230025398e-002
      1.5911861592120513e-001 -7.0596234666262511e-002
      5.1717361505930211e-002 1.0781318697339805e-002
      2.3042129504374662e-002 -1.9853778642782222e-001
      1.8207778446397446e-001 -6.3288218682002864e-002
      5.9226848979508906e-001 1.5881856230811489e-001
      1.1498776961558225e-003 -5.2124882811338639e-002
      -9.0898548240488611e-002 4.1880466194929453e-002
      8.7883892837529488e-004 -4.9392015102931015e-002
      1.7006282519372443e-001 -5.7315529737076355e-002
      2.9331394536907078e-002 6.7283393819457457e-003
      3.5946987160393511e-002 -1.9623958919619153e-001
      1.8149880011448777e-001 -9.1686268955197478e-002
      -4.8697560879935953e-003 -4.3572792623466292e-003
      6.1645218443382790e-003 -2.9714118275348516e-003
      1.6983951167442873e-003 7.5340393630649758e-003
      -3.3146185835194967e-003 -5.9406717632389996e-003
      7.9207430837514555e-004 -6.6796656649839754e-003
      -1.4254555506093218e-003 4.6179971236150917e-003
      -6.6686329635290151e-003 7.2719908985189005e-005
      -1.4165211445763895e-003 3.3338889418843146e-003
      5.1196081196000992e-003 -4.8615308634045147e-003
      -4.9781134253362065e-003 5.2618377053458313e-003
      -1.5007648742479684e-003 3.8432094136509791e-003
      2.9051799081412470e-003 6.3881329380769958e-003
      4.0963693986194030e-003 -5.7921644332778873e-003
      3.0840920658009815e-003 4.3133502123012040e-003
      1.3202714566720197e-003 -2.8011419768972983e-003
      -2.0630485614780672e-003 -4.0864909601707987e-003
      -1.9163060308137075e-003 6.7067083452493886e-003
      -1.5761907415438659e-003 -5.7954402707015664e-005
      5.7185370122441658e-003 -2.3250065311567850e-004
      7.4673193319568327e-003 -6.1500518750802679e-003
      5.2831930125424951e-003 4.6988195033172116e-003
      5.4171943678812814e-005 -3.6417664371222662e-003
      6.5883845897516877e-003 2.1576276777728392e-003
      -1.4684823748693423e-003 -5.2403160177466462e-003
      -3.9622833881032566e-003 -5.4728610674414559e-003
      4.4420536729368612e-003 1.1534673912519738e-003
      3.6028758742318993e-003 9.8199550523014076e-004
      3.7523233302603964e-003 -2.9418227324034050e-003
      -4.1244485550794852e-003 8.0681271681229509e-003
      8.9425207553219855e-004 1.8112924389835552e-003
      -7.0357722388193905e-003 5.1168850183492993e-003
      6.8515305075482150e-003 -6.4654218751858525e-003
      -2.2117642999070162e+000 -1.9870320940936056e-001
      7.9355996272854570e-002 -8.5062480398695198e-002
      8.0272212348301800e-002 2.1441374045506589e-001
      -1.1677821000034849e-001 -2.3654321213946852e-001
      1.4811345449841940e-002 -2.8725488229092953e-003
      -1.0116848116019383e-001 -2.8915361772499965e-001
      -1.9366367303068673e-002 1.4809484369065481e-001
      -1.2460416077501668e-001 -5.9382052215230137e-002
      -2.2039371675978607e+000 -1.8931475920301188e-001
      6.9765454889040804e-002 -7.4246080120875954e-002
      8.3409136483982779e-002 2.0220423648470226e-001
      -1.2350759616627718e-001 -2.2862383493725394e-001
      1.9592152443709248e-002 -9.6208472224447138e-003
      -1.0145211510143293e-001 -2.8232668195522181e-001
      -8.9671077377489108e-003 1.4679061704128196e-001
      -1.2897709955128747e-001 -6.7779721615265492e-002
      -2.2080787530610784e+000 -1.9802858422352609e-001
      8.0848245801733234e-002 -7.3313475126809260e-002
      8.0664021954228463e-002 2.1426834376028264e-001
      -1.1629050256360676e-001 -2.3225151349023407e-001
      2.6135818034116579e-002 -1.3013456225119048e-002
      -9.7555803602473762e-002 -2.9102435263030280e-001
      -1.8539398174154134e-002 1.5058516811994488e-001
      -1.1777996478126068e-001 -6.5098001799417049e-002
      -3.9095081267862932e-003 -3.5234029886394235e-003
      -1.9588835059342635e-003 -6.1534474742964947e-003
      2.5283109901901709e-003 -2.1044319775214782e-003
      -2.1004244196501987e-003 -7.3339006182451740e-004
      -1.9691678208918059e-003 -1.4893773204588052e-003
      6.0662678169294982e-003 3.7455970542379360e-003
      2.0873972185097419e-003 -2.3965211960739266e-003
      3.4139234140399427e-003 -5.5695900332219392e-003
      -3.5165755140614038e-003 7.2386032259581193e-004
      -2.6275894987587618e-003 6.5129864562359042e-003
      7.8482528012905999e-003 7.3300564351209121e-003
      2.9423998398539430e-003 2.3501641350940202e-003
      -6.0834591018775093e-003 3.3563072419374638e-003
      -5.9189523744485719e-003 1.9179314516987373e-003
      -4.0181670781163619e-003 6.0002809760570132e-003
      -5.9465994533790473e-003 -6.5533304239546886e-003
      7.5008419310198370e-003 -1.5367824742565184e-003
      9.0261603569797557e-004 -4.4311601459980730e-003
      5.9624501651346969e-003 7.2615156120779505e-003
      -6.3968012764460055e-003 -5.9138366037041375e-003
      1.4994195359163747e-003 -4.6523231122857855e-004
      5.2132556799472764e-003 -3.9033314184227941e-003
      5.0724503395956728e-003 4.1891154094480633e-003
      -5.8745594840512103e-003 -3.2634870287106192e-003
      1.1185762025464538e-005 -7.6707969352200322e-003
      6.1576119005114479e-003 -5.6276572499484459e-003
      1.4416003277262226e-003 2.6913457772885269e-003
      -3.7787918353744757e-004 1.1073494231259211e-003
      -1.8727331077096039e-003 1.1824120655662730e-003
      7.5227185016206689e-003 5.2527838874611814e-003
      -1.3949444825317309e-003 -2.9782343709061532e-003
      7.4851791294238664e-003 5.4215591533159349e-003
      -4.7920972229458392e-003 1.9304673847216278e-003
      5.2255064355613426e-003 -2.5912598750071876e-003
      -1.1528288367410851e-003 -3.1358266266192330e-003
      7.5477136426767080e-003 7.1841916526141853e-003
      -7.6409054766500987e-003 -6.0817143886532311e-004
      -1.7056972661933579e-003 -5.7340900349089913e-003
      -3.8466117432099361e-003 4.6798173031457162e-006
      6.2100528965881169e-003 -6.0235939364073603e-003
      2.3955818913856848e-003 3.3934860725688800e-003
      -2.8794878713562155e-003 6.1403266518658423e-003
      3.6792639306837134e-004 6.8824761635719565e-004
      -5.9869027414812470e-004 -4.1647043224644856e-003
      -7.1978122634390603e-004 -1.6233479929318203e-003
      -2.9765765217364369e-003 -7.2953827914328656e-004
      9.5840877129967485e-004 -5.5981817750624689e-003
      2.7531103470306456e-003 -7.1141348596953403e-003
      -1.6189006904498925e-003 -5.5593664427672565e-003
      3.2724480807914662e-003 4.0459662187341634e-003
      3.9063053354431836e-004 3.9334426014282532e-003
      -5.0505570194247004e-003 3.2520973017330017e-003
      -6.1299354691066142e-003 -2.0286072991831391e-004
      -1.8878209569656828e-003 5.9762467166044955e-003
      6.0960375302560391e-003 -2.0021326511732713e-003
      3.0071117570193958e-003 -3.3995767040351211e-003
      -6.5332766994843266e-005 3.3496659217182351e-003
      -3.0293723926065261e-003 -7.0741138627300505e-003
      4.3474286935825035e-003 5.2469564079634283e-003
      6.3809470082078421e-003 5.5513921189922011e-003
      3.8542835510411572e-003 -7.1519972192713257e-004
      -5.1667349487469301e-003 -5.9216387990701676e-003
      -2.9244023275235447e-003 1.7776643201392265e-003
      -1.9014933449825267e-003 -5.1907702671332530e-003
      4.1914442191660767e-003 2.7078554797554839e-003
      -6.2396587344266535e-003 1.4794819169435883e-003
      2.5952126272582726e-003 -4.3886657164946422e-003
      -4.6421462653398809e-003 4.4305097319757483e-003
      2.9797409707859625e-004 3.8612115882042360e-003
      6.1121532270966283e-004 -5.0439433813441780e-003
      -3.4010372374009504e-003 -1.5736181041877783e-003
      3.8814610759097231e-003 7.0957269342666433e-003
      -2.7908119084290770e-003 -4.8546367890625270e-003
      -1.1258961323559068e-003 -2.5979280699157149e-003
      1.1270431896382885e-003 -2.7824094301464423e-003
      -1.2613054016150551e-003 6.7603514630575198e-003
      1.2294875507004126e-003 7.7135790208686999e-003
      -3.9397166509263278e-003 2.7889752491176228e-003
      7.8799441487826215e-003 -6.7506815979194871e-003
      -4.2177984176527926e-003 4.4495622369831725e-003
      -1.4390844260656116e-003 6.3886001398336320e-003
      -2.2108352564869180e-003 -2.0194026709775036e-003
      6.5260218852955174e-003 5.9242357169555365e-003
      6.0943900981124729e-003 -2.2205766233247895e-003
      -9.6509401308782287e-005 3.5550681809538623e-003
      4.5077151586868196e-003 7.4963764040764432e-003
      5.2624532529150798e-003 2.9633602194548679e-003
      5.5004558537939639e-003 2.6320590617264048e-003
      -6.3493257253813152e-003 6.6436949868251879e-003
      8.9378982078155674e-004 7.0611362738417591e-003
      1.9360843156315582e-003 4.7178400717705219e-003
      -4.2631831040400459e-003 3.5833858797137907e-003
      7.6035416570064598e-003 -6.0857714281269812e-003
      -4.6991980703377217e-003 1.2836472676631934e-003
      -1.5749647194210944e-005 -4.8405602485873198e-003
      -6.8334634708708663e-003 5.7773658033789810e-003
      -6.5072097590392118e-004 5.0047213506917944e-003
      -3.3836150029470336e-003 6.6258081734165896e-003
      2.1551462780856285e-003 5.3479591484784433e-003
      -4.4008830748744733e-003 -1.9787352585753895e-003
      -2.1506435275824021e-003 -2.3547931629683947e-004
      -4.6534867024842913e-003 6.9916940389427463e-003
      1.9039689122165164e-004 -6.6458275109378129e-003
      4.6398115512534411e-003 -1.1444438938277668e-003
      -2.2137925786044153e+000 -1.8948693881130679e-001
      7.1851538122322881e-002 -7.4585511572016275e-002
      9.4595513464010447e-002 2.1065110511731439e-001
      -1.2393067297571081e-001 -2.3669652449465584e-001
      1.2606141903267915e-002 -9.5053799210622902e-003
      -1.0699800903685944e-001 -2.8332455422439140e-001
      -1.0123252652700169e-002 1.5194897401633850e-001
      -1.1805647270382927e-001 -6.3155416802734538e-002
      -2.2037818430332363e+000 -1.9769568484334976e-001
      7.3782543379615442e-002 -7.8928441903211841e-002
      9.0841353734600130e-002 2.1007904175718456e-001
      -1.1589662121706493e-001 -2.3059763478632320e-001
      2.3351620198940857e-002 -5.0154001810670005e-003
      -1.0603948806858271e-001 -2.9229469197677749e-001
      -1.0345558231181240e-002 1.5896765057198264e-001
      -1.3077944528933214e-001 -7.1912359564140077e-002
      -2.2137012007988832e+000 -2.0067893797046052e-001
      6.8447275416481670e-002 -6.7097137943515975e-002
      9.1818692914771863e-002 1.9321121502764857e-001
      -1.1138440885798417e-001 -2.2414816577342084e-001
      2.3396343754444826e-002 -1.2027246708399079e-002
      -1.0899090929720130e-001 -2.7821905471776470e-001
      -2.0293071041531566e-002 1.5431416312437762e-001
      -1.3189662204787700e-001 -6.3086756179698847e-002
      7.3166596813494737e-004 -6.2715534034488204e-003
      6.4147397348604624e-003 -4.0858499751536886e-003
      5.5088882354104272e-003 -5.8540795472928247e-003
      -5.6654437150452670e-003 7.6419962592023530e-003
      -1.7307478688723781e-003 7.6267882611844784e-003
      4.4138314116983239e-003 -2.8894844428836025e-003
      -3.9081725297597167e-004 -7.3687278479010153e-003
      -4.3516261541447880e-003 -5.6722967009859779e-003
      -6.2912027027680938e-003 -3.1799587889041730e-003
      -4.0735157194381113e-003 7.1264234314819819e-003
      7.5605865908476557e-003 -4.3283760732242688e-003
      6.7373726425673944e-003 -2.6864732013096291e-003
      -1.3387595761002666e-003 7.7688531660488848e-003
      -5.2780548471133282e-003 3.6177427493588329e-004
      -3.7725689372106381e-003 3.7555245258250138e-003
      6.6801397903894369e-003 6.4656203884517170e-003
      1.0648388589560177e-003 -7.3178451547768336e-003
      -2.9609698624283309e-003 -6.5344891943732259e-003
      -4.0264583912460600e-003 -3.1698184890263234e-003
      6.4949800167836205e-003 -5.4479319112610003e-003
      -4.8284466957113012e-003 8.0795589093787274e-003
      -5.2149053540062182e-003 5.1595539068284907e-003
      -1.2236262047068296e-003 5.0444508113854391e-006
      -3.9763758909092239e-003 4.9691980917804788e-004
      4.8031066339276410e-003 -5.5344123333047257e-003
      2.8102689486413407e-003 4.9160563709278416e-003
      -2.6090729523808921e-003 -1.8694690628210976e-003
      -7.7377870451461666e-003 5.3840663943927718e-003
      1.6788264703136021e-003 -1.8423969823149874e-003
      2.1467477863494765e-003 -1.5243578474725425e-003
      9.7650697989760840e-004 1.6629583088780783e-003
      3.0020457179566308e-003 -6.4906395830382638e-003
      -1.3810583346506363e-003 2.3314149526172767e-003
      -4.2594691636037921e-003 -4.9298034837272570e-003
      3.2733265668508974e-003 -2.3213245046554329e-003
      -4.2391385674327396e-003 3.4838200067507613e-003
      6.3946475144289541e-003 -6.9141447458165252e-004
      3.7227123389328748e-003 2.2669977497195900e-003
      -4.9638024623092246e-003 -7.9405553380529595e-005
      -5.6988361961578518e-003 -2.7384665287637296e-003
      2.2414213964303963e-003 -6.1834593708831346e-003
      7.7186219342900535e-003 -5.3693498999802421e-003
      -4.3772087638340642e-003 3.5989741213564063e-003
      -5.7599570593753150e-003 4.7337489050779755e-003
      6.8804117540566525e-003 5.6681192156824338e-003
      3.3257559111401621e-003 -7.0247346446329325e-003
      4.0053119204643836e-003 3.7315586333008144e-003
      -3.4908082189148842e-003 -4.7438595237552636e-003
      1.8809881665801356e-003 7.3552467363238701e-003
      -4.5461262727688606e-003 5.7154518027190378e-003
      -2.1473146136489008e-003 2.5383215734004452e-003
      -2.1352617789463717e-003 -1.0305140817942720e-003
      -2.8606078793591053e-003 -4.8625049430081196e-003
      -5.9854185486307686e-003 5.5407356187090404e-003
      7.3120215017549390e-003 -7.1284341353444599e-003
      4.7842303829616663e-003 -5.9039105301621096e-003
      6.0963610537069345e-003 1.4177610281947452e-003
      -6.1413086833689585e-003 -2.2127470186670134e-003
      -4.4921330467788774e-003 -3.2328393806795065e-003
      -2.9631410670722916e-003 2.9069375040641473e-003
      2.1011069833522826e-003 -8.0291748276674433e-003
      7.2702705677121279e-003 4.8728960943673393e-003
      1.6654208859701749e-004 -1.7739424700670017e-003
      -6.0000897484584420e-003 -3.5112328009738350e-003
      5.9195158642074655e-004 -1.4180825959926946e-003
      7.6757840681000661e-003 4.3159712352693188e-003
      7.7066255457606926e-003 -5.8458187352551441e-003
      6.7353761398195947e-003 -8.4777707490735436e-003
      -6.9770681100201079e-003 5.1700021273488276e-003
      -1.0678502489257882e-005 5.4968129365820517e-003
      5.0608021304768833e-003 1.2322261873781814e-003
      -6.9542365040381081e-003 6.3380687826960448e-003
      -5.6164292437978008e-004 -4.8880990417229106e-003
      1.2273339263911877e-003 5.5008764583843357e-003
      -3.4333840408989542e-003 -8.3985763788710756e-004
      4.8983023897340786e-003 -1.7766687665625933e-003
      7.3154762882208174e-003 -6.8615371298326238e-003
      6.4194508974078053e-003 3.5945931927993217e-003
      1.7748919844283479e-003 5.9813551583852553e-003
      -4.9398305757071270e-003 5.1169360145418043e-003
      6.6379821063629373e-003 1.7325966221897800e-003
      -7.3118524739195431e-003 5.7835833484986467e-003
      -2.7654304384957975e-003 5.6344708382061624e-003
      -2.2131847941129663e-003 6.1938310083358523e-003
      -7.0725259028832079e-003 5.8270571527084753e-003
      1.5330677994379914e-003 2.0845603935444380e-003
      4.7190974675278882e-003 7.1021290546827943e-003
      -1.1793535933733287e-003 5.3213078886943030e-003
      -8.6558360117986550e-004 -3.4725530405504998e-003
      -2.8147621251623694e-003 2.3268711521282218e-003
      4.7495776428450025e-003 -1.5411347530832119e-003
      -5.3122430145581363e-003 -9.7961964802520613e-004
      7.4511826495008565e-003 -1.9828236250747709e-004
      3.5523141928610674e-003 6.3755477526101943e-003
      5.3097279409594174e-003 4.5830058661080449e-003
      4.9909463267741039e-003 2.8891221314336283e-003
      -4.6516712328652129e-004 5.2846454360360078e-003
      1.5324092128894068e-003 -2.2543850995125933e-003
      -5.9113907300306599e-003 -2.4365203266396591e-003
      7.5872648451972349e-003 -1.3563859652870889e-003
      -4.5684225743118853e-003 5.7735715972891425e-003
      -4.9778437223507678e-003 -2.0817074969861509e-003
      -7.8831740455720183e-004 -2.8615926027275467e-003
      -4.9748174120808012e-003 -6.7759862254433917e-003
      -2.2158070710869904e+000 -1.8730713225794690e-001
      7.2492933080549313e-002 -8.3048762779991722e-002
      8.8071419572201728e-002 2.1221165942817771e-001
      -1.2649480148103215e-001 -2.3575926466775379e-001
      1.5214700962255247e-002 -4.3965522162673952e-003
      -1.0823733739600305e-001 -2.8315713616707200e-001
      -1.7989993705212422e-002 1.4815886764177930e-001
      -1.1726505556478148e-001 -6.4254200077005288e-002
      -2.2102959839573435e+000 -1.8649953845867362e-001
      6.9584910307241801e-002 -8.3355567769715963e-002
      8.6416841439223444e-002 2.0554353399333725e-001
      -1.2406858631201872e-001 -2.2684706865174525e-001
      2.1274345141547881e-002 -1.8676476992678498e-003
      -9.9793053290033684e-002 -2.8409176095613203e-001
      -2.1132320582098765e-002 1.5797869921784108e-001
      -1.3152505428513545e-001 -6.5805155572650972e-002
      -2.2097649011942804e+000 -1.9349951798113346e-001
      7.3262823319635503e-002 -8.1106954433595682e-002
      8.4470982617433507e-002 2.0898741324396597e-001
      -1.2210150482126994e-001 -2.3193526804110948e-001
      2.4832847540827190e-002 -1.6212808079420663e-002
      -1.0378752446367911e-001 -2.8317867081196990e-001
      -2.2929154324450175e-002 1.5418879161352050e-001
      -1.2714352882755781e-001 -6.8993756685589491e-002
      2.8824671746216952e-003 -3.5533055449794865e-003
      5.8340452611305490e-003 3.7752829937229750e-003
      3.9317106323673370e-003 2.2839645476663457e-003
      1.3855279018397974e-003 -2.3246355469761122e-003
      7.1379052222322913e-004 2.5373344963264609e-003
      -6.0534873008813109e-003 -4.2604973210066868e-003
      4.4151042873831663e-003 -4.5842483447294542e-003
      4.4492988096388542e-003 -2.1961977766576518e-003
      -9.2439740242144847e-004 -7.4775530829995947e-004
      -7.2718853783244912e-003 1.6226850749074494e-003
      -7.5755347985697269e-003 2.8345783934962503e-003
      -5.8691209924756132e-003 -2.0161389799359069e-003
      9.6029196324158008e-004 -5.4376933620273868e-003
      -5.5299304086892454e-003 -3.8507840145666520e-003
      6.5226826257632560e-004 -7.4380638777461049e-003
      -2.3429856642054013e-003 6.4776471957222678e-003
      -5.1055623097369515e-003 -3.5751225422152555e-004
      4.0197324131078412e-003 6.2046528760342353e-003
      7.5659190310395155e-003 3.7102782747498540e-003
      -5.9209534423163160e-003 -2.4437579822689405e-004
      2.5550362741009885e-003 -2.2350950147003463e-003
      -2.3751772249569723e-003 -3.0274130976442092e-003
      3.0907983980308306e-003 -7.0280662751252910e-003
      -4.0411961965938926e-003 2.9893998132799623e-003
      -3.9950443364029451e-003 7.4496289984384576e-003
      4.8717409165749750e-003 1.7337898208094585e-003
      4.6453989197000308e-003 -7.6570105519464405e-003
      -5.5787428513898512e-003 -2.3465508923977071e-003
      3.9348179068114653e-004 -6.0137270766919947e-003
      6.5400565758521843e-003 6.0697895936269331e-003
      -2.3242725456826280e-003 1.5967637153826598e-003
      3.4797449360771603e-004 -4.5356807544080563e-003
      -1.9275675629951505e-003 6.6825465784759695e-003
      1.2476767857298855e-003 2.4539662767270039e-003
      6.9841980452073540e-003 2.9171106713349465e-003
      -2.4741565296014551e-003 -7.6187442566743513e-003
      -7.8056710264600921e-003 -5.9089934070089755e-003
      3.2050281102952096e-003 2.1632334946731098e-003
      -6.1241057115783886e-003 6.7757315718463109e-003
      5.6761387587387913e-003 -7.1805674672385305e-003
      3.7769117604374591e-003 -7.8383666561477224e-003
      1.9993039713669938e-003 -3.8344586191050222e-003
      -7.3970113579353684e-004 6.0616585442142433e-003
      7.4515143406724679e-003 -3.4834722553109638e-003
      2.8378352919708931e-003 -5.4619613699819916e-003
      -7.1368708020421523e-003 -6.7513017216800147e-003
      -3.6239803136775169e-003 4.5300271652644877e-003
      2.5882020158398263e-004 -1.6139959979581499e-003
      3.4022600724854519e-003 5.7205731627255681e-004
      8.9445378198366253e-004 -5.1118222010811869e-004
      7.1547929566851808e-003 9.5385504016273770e-004
      4.6379951174472175e-003 3.3734890257363804e-003
      4.9662939518663610e-003 1.1338857319927811e-003
      -7.0874776364666875e-003 -1.3863575794260939e-003
      -3.8536368886887022e-003 3.4198148125132444e-003
      -7.8298794588765909e-003 2.9443498421723871e-003
      -6.5621404291157518e-003 -2.1715806656459531e-003
      -2.5366025207937790e-003 6.6689205560015634e-003
      1.4602140253690804e-003 -9.2100031992743345e-004
      3.4356515308266249e-003 -4.3627183205212838e-003
      -6.3597456085382181e-003 -1.8220539787815379e-005
      6.3578911249349028e-003 7.8131236269470309e-004
      1.6684593167674176e-003 4.1356035920542935e-003
      -2.3544054147985288e-003 -5.3214395573617825e-003
      -5.6584340444043486e-003 5.0163054334484451e-003
