<?xml version="1.0"?>
<opencv_storage>
<DigitOCR type_id="opencv-ml-ann-mlp">
  <layer_sizes type_id="opencv-matrix">
    <rows>1</rows>
    <cols>3</cols>
    <dt>i</dt>
    <data>
      256 16 10</data></layer_sizes>
  <activation_function>SIGMOID_SYM</activation_function>
  <f_param1>5.9999999999999998e-001</f_param1>
  <f_param2>1.</f_param2>
  <min_val>-9.4999999999999996e-001</min_val>
  <max_val>9.4999999999999996e-001</max_val>
  <min_val1>-9.7999999999999998e-001</min_val1>
  <max_val1>9.7999999999999998e-001</max_val1>
  <training_params>
    <train_method>BACKPROP</train_method>
    <dw_scale>1.0000000000000001e-001</dw_scale>
    <moment_scale>1.0000000000000001e-001</moment_scale>
    <term_criteria><epsilon>9.9999999747524271e-007</epsilon>
      <iterations>1000</iterations></term_criteria></training_params>
  <input_scale>
    2.0143247783869072e+000 -1.1270626736212457e+000
    2.3478713763747794e+000 -5.5901699437494745e-001
    3.0879014127939923e+000 -3.6760731104690381e-001
    2.7648936784418594e+000 -4.2790021213981161e-001
    2.2581379479274331e+000 -6.0485837890913385e-001
    2.0532129324014190e+000 -7.9439786075054908e-001
    2.0207259421636903e+000 -8.6602540378443860e-001
    2.0207259421636903e+000 -8.6602540378443860e-001
    2.0173722798842255e+000 -8.7659628828302660e-001
    2.0069808240170177e+000 -9.1986621100779975e-001
    2.0283702113484399e+000 -8.4515425472851669e-001
    2.0143247783869072e+000 -8.8726210476566147e-001
    2.0475627875559659e+000 -8.0439966653984374e-001
    2.0422607627824680e+000 -8.1447304230015105e-001
    2.1310258370705570e+000 -6.9765726808857520e-001
    2.0949324644933949e+000 -7.3572032979232316e-001
    2.4623480450043700e+000 -5.1298917604257710e-001
    5.0043459373697941e+000 -2.0851441405707474e-001
    5.3886025124365080e+000 -1.9245008972987526e-001
    4.4410888800216073e+000 -2.3791547571544325e-001
    2.4623480450043700e+000 -5.1298917604257710e-001
    2.2000763928677070e+000 -6.4168894791974795e-001
    2.1120800019332000e+000 -7.1659857208447864e-001
    2.0655911179772888e+000 -7.7459666924148329e-001
    2.0655911179772888e+000 -7.7459666924148329e-001
    2.0655911179772888e+000 -7.7459666924148329e-001
    2.0949324644933949e+000 -7.3572032979232316e-001
    2.1032889605117644e+000 -7.2613547446239479e-001
    2.1213203435596424e+000 -7.0710678118654746e-001
    2.3902636515427829e+000 -5.4065487356324848e-001
    2.5466240628814965e+000 -4.8507125007266594e-001
    2.6460794662672251e+000 -4.5676371739136623e-001
    2.1748597846657285e+000 -6.6022529177352463e-001
    3.3158612339230094e+000 -3.3553357724220928e-001
    3.3158612339230094e+000 -3.3553357724220928e-001
    3.0237157840738176e+000 -3.7796447300922720e-001
    2.2581379479274331e+000 -6.0485837890913385e-001
    2.0655911179772888e+000 -7.7459666924148329e-001
    2.0207259421636903e+000 -8.6602540378443860e-001
    2.0091324675867477e+000 -9.0889325914638586e-001
    2.0091324675867477e+000 -9.0889325914638586e-001
    2.0069808240170177e+000 -9.1986621100779975e-001
    2.0143247783869072e+000 -8.8726210476566147e-001
    2.0869967789998034e+000 -7.4535599249992979e-001
    2.0592194189509323e+000 -7.8446454055273607e-001
    2.3281743107591937e+000 -5.6818539726861272e-001
    2.4370871833797700e+000 -5.2223296786709350e-001
    2.4889571739730312e+000 -5.0371752330406583e-001
    2.0143247783869072e+000 -8.8726210476566147e-001
    2.8097731536238246e+000 -4.1812100500354532e-001
    2.5170128198627704e+000 -4.9441323247304420e-001
    2.2000763928677070e+000 -6.4168894791974795e-001
    2.0422607627824680e+000 -1.2277877204823171e+000
    2.2000763928677070e+000 -1.5583874449479591e+000
    2.9091181680609211e+000 -2.5108460379097237e+000
    2.8097731536238242e+000 -2.3916521486202789e+000
    2.9091181680609211e+000 -2.5108460379097237e+000
    3.3158612339230102e+000 -2.9803276566808008e+000
    2.4370871833797696e+000 -1.9148542155126760e+000
    2.3478713763747789e+000 -1.7888543819998315e+000
    2.4889571739730316e+000 -1.9852396506689658e+000
    2.0012767316972169e+000 -1.0363754503432017e+000
    2.1032889605117644e+000 -7.2613547446239479e-001
    2.1120800019332000e+000 -7.1659857208447864e-001
    2.0372992503051970e+000 -8.2462112512353214e-001
    2.1120800019332000e+000 -7.1659857208447864e-001
    2.1631100510233399e+000 -6.6953406341198618e-001
    2.0794691194147759e+000 -7.5504533502560311e-001
    2.1213203435596424e+000 -1.4142135623730949e+000
    3.0237157840738176e+000 -2.6457513110645903e+000
    3.1574708299018974e+000 -2.8003759146153731e+000
    4.6957427527495579e+000 -4.4721359549995787e+000
    5.8847833304740949e+000 -5.7096409694480803e+000
    3.3158612339230102e+000 -2.9803276566808008e+000
    3.0237157840738176e+000 -2.6457513110645903e+000
    2.7228131746273654e+000 -2.2852182001336816e+000
    2.6110134630728781e+000 -2.1447610589527213e+000
    2.0372992503051970e+000 -1.2126781251816650e+000
    2.1748597846657285e+000 -6.6022529177352463e-001
    2.1871737044778410e+000 -6.5094455490411929e-001
    2.0794691194147759e+000 -7.5504533502560311e-001
    2.1213203435596424e+000 -7.0710678118654746e-001
    2.3281743107591937e+000 -5.6818539726861272e-001
    2.1213203435596424e+000 -7.0710678118654746e-001
    2.0035525268680168e+000 -1.0614058029241280e+000
    2.0475627875559659e+000 -1.2431631210161220e+000
    2.0207259421636903e+000 -1.1547005383792515e+000
    2.0723375882640833e+000 -1.3075463354523382e+000
    2.0592194189509323e+000 -1.2747548783981961e+000
    2.0949324644933949e+000 -1.3592121347010717e+000
    2.1412135161252430e+000 -1.4529663145135578e+000
    2.2425929397399225e+000 -1.6285496348111341e+000
    2.1032889605117644e+000 -1.3771534860493695e+000
    2.0012767316972169e+000 -1.0363754503432017e+000
    2.2000763928677070e+000 -6.4168894791974795e-001
    2.3685476328517558e+000 -5.4984141476915760e-001
    2.0069808240170177e+000 -9.1986621100779975e-001
    2.3281743107591937e+000 -5.6818539726861272e-001
    2.1519016905918606e+000 -6.7887374762719410e-001
    2.2915009806207909e+000 -5.8651513194460714e-001
    2.0532129324014190e+000 -1.2588150716508701e+000
    2.3094010767585034e+000 -1.7320508075688776e+000
    3.3158612339230102e+000 -2.9803276566808008e+000
    3.5068560300768357e+000 -3.1937438845342609e+000
    3.4066498437460142e+000 -3.0822070014844889e+000
    3.1574708299018974e+000 -2.8003759146153731e+000
    3.0879014127939919e+000 -2.7202941017470881e+000
    2.5170128198627704e+000 -2.0225995873897262e+000
    2.1871737044778405e+000 -1.5362291495737213e+000
    2.0655911179772888e+000 -1.2909944487358054e+000
    2.1032889605117644e+000 -7.2613547446239479e-001
    2.1631100510233399e+000 -6.6953406341198618e-001
    2.0422607627824680e+000 -8.1447304230015105e-001
    2.4370871833797700e+000 -5.2223296786709350e-001
    2.6832815729997477e+000 -4.4721359549995793e-001
    2.6832815729997477e+000 -4.4721359549995793e-001
    2.2915009806207909e+000 -5.8651513194460714e-001
    2.2277562337860259e+000 -6.2324132730918580e-001
    2.0475627875559659e+000 -8.0439966653984374e-001
    2.0207259421636903e+000 -8.6602540378443860e-001
    2.0372992503051970e+000 -8.2462112512353214e-001
    2.0143247783869072e+000 -8.8726210476566147e-001
    2.0869967789998034e+000 -7.4535599249992979e-001
    2.0475627875559659e+000 -8.0439966653984374e-001
    2.0372992503051970e+000 -8.2462112512353214e-001
    2.1032889605117644e+000 -7.2613547446239479e-001
    2.5779123745721946e+000 -4.7568621197463118e-001
    2.6832815729997477e+000 -4.4721359549995793e-001
    2.1120800019332000e+000 -7.1659857208447864e-001
    2.6832815729997477e+000 -4.4721359549995793e-001
    2.6832815729997477e+000 -4.4721359549995793e-001
    2.6832815729997477e+000 -4.4721359549995793e-001
    2.6832815729997477e+000 -4.4721359549995793e-001
    2.6832815729997477e+000 -4.4721359549995793e-001
    2.6832815729997477e+000 -4.4721359549995793e-001
    2.7228131746273649e+000 -4.3759497449368367e-001
    2.7228131746273649e+000 -4.3759497449368367e-001
    2.6832815729997477e+000 -4.4721359549995793e-001
    2.7648936784418594e+000 -4.2790021213981161e-001
    2.7228131746273649e+000 -4.3759497449368367e-001
    2.7228131746273649e+000 -4.3759497449368367e-001
    2.8577380332470410e+000 -4.0824829046386296e-001
    1.3000230306573499e+001 -7.7382323253413682e-002 1. 0.
    2.0022714374157440e+000 -9.5346258924559235e-001
    2.3281743107591937e+000 -5.6818539726861272e-001
    2.6460794662672251e+000 -4.5676371739136623e-001
    2.6460794662672251e+000 -4.5676371739136623e-001
    2.5779123745721946e+000 -4.7568621197463118e-001
    2.6110134630728785e+000 -4.6625240412015689e-001
    2.6110134630728785e+000 -4.6625240412015689e-001
    2.5779123745721946e+000 -4.7568621197463118e-001
    2.5779123745721946e+000 -4.7568621197463118e-001
    2.6110134630728785e+000 -4.6625240412015689e-001
    2.6460794662672251e+000 -4.5676371739136623e-001
    2.7648936784418594e+000 -4.2790021213981161e-001
    2.6110134630728785e+000 -4.6625240412015689e-001
    2.8577380332470410e+000 -4.0824829046386296e-001
    1.3000230306573499e+001 -7.7382323253413682e-002 1. 0.
    2.0532129324014190e+000 -1.2588150716508701e+000
    2.0592194189509323e+000 -7.8446454055273607e-001
    2.0173722798842255e+000 -1.1407759916011990e+000
    2.0001417384219207e+000 -9.8816526362511559e-001
    2.2135943621178655e+000 -1.5811388300841898e+000
    2.2744275165103058e+000 -1.6787441193290353e+000
    2.6110134630728781e+000 -2.1447610589527213e+000
    2.6460794662672247e+000 -2.1893157488758583e+000
    2.4623480450043695e+000 -1.9493588689617924e+000
    2.6110134630728781e+000 -2.1447610589527213e+000
    2.5170128198627704e+000 -2.0225995873897262e+000
    2.0283702113484399e+000 -1.1832159566199234e+000
    2.1871737044778405e+000 -1.5362291495737213e+000
    2.2000763928677070e+000 -6.4168894791974795e-001
    4.6957427527495588e+000 -2.2360679774997896e-001
    7.5510384595883115e+000 -1.3483997249264842e-001
    2.0207259421636903e+000 -1.1547005383792515e+000
    2.0035525268680168e+000 -1.0614058029241280e+000
    2.0012767316972169e+000 -9.6490128135401532e-001
    2.0243902652367178e+000 -1.1688443793331049e+000
    2.2135943621178655e+000 -1.5811388300841898e+000
    2.5170128198627704e+000 -2.0225995873897262e+000
    3.0879014127939919e+000 -2.7202941017470881e+000
    3.0237157840738176e+000 -2.6457513110645903e+000
    2.9642956276104591e+000 -2.5761140573281369e+000
    3.0879014127939919e+000 -2.7202941017470881e+000
    2.6110134630728781e+000 -2.1447610589527213e+000
    2.0655911179772888e+000 -1.2909944487358054e+000
    2.0949324644933949e+000 -1.3592121347010717e+000
    2.1032889605117644e+000 -7.2613547446239479e-001
    4.6957427527495588e+000 -2.2360679774997896e-001
    5.0043459373697941e+000 -2.0851441405707474e-001
    2.0869967789998038e+000 -1.3416407864998741e+000
    2.0173722798842255e+000 -1.1407759916011990e+000
    2.0372992503051970e+000 -1.2126781251816650e+000
    2.1213203435596424e+000 -1.4142135623730949e+000
    2.7228131746273654e+000 -2.2852182001336816e+000
    2.4370871833797696e+000 -1.9148542155126760e+000
    2.8577380332470410e+000 -2.4494897427831779e+000
    2.8577380332470410e+000 -2.4494897427831779e+000
    3.0879014127939919e+000 -2.7202941017470881e+000
    2.9642956276104591e+000 -2.5761140573281369e+000
    2.4623480450043695e+000 -1.9493588689617924e+000
    2.1748597846657285e+000 -1.5146344928922038e+000
    2.1412135161252430e+000 -1.4529663145135578e+000
    2.0869967789998034e+000 -7.4535599249992979e-001
    5.3886025124365080e+000 -1.9245008972987526e-001
    6.5592979993214540e+000 -1.5617376188860604e-001
    2.0532129324014190e+000 -1.2588150716508701e+000
    2.0051216473104119e+000 -1.0741723110591492e+000
    2.0012767316972169e+000 -9.6490128135401532e-001
    2.0532129324014190e+000 -1.2588150716508701e+000
    2.1748597846657285e+000 -1.5146344928922038e+000
    2.1120800019332000e+000 -1.3954814298487215e+000
    2.3902636515427838e+000 -1.8496087779795352e+000
    2.4130858436102400e+000 -1.8816324137675087e+000
    2.4889571739730316e+000 -1.9852396506689658e+000
    2.4623480450043695e+000 -1.9493588689617924e+000
    2.3902636515427838e+000 -1.8496087779795352e+000
    2.1631100510233399e+000 -1.4935759876113537e+000
    2.2425929397399225e+000 -1.6285496348111341e+000
    2.2277562337860259e+000 -6.2324132730918580e-001
    6.5592979993214540e+000 -1.5617376188860604e-001
    7.5510384595883115e+000 -1.3483997249264842e-001
    2.0207259421636903e+000 -1.1547005383792515e+000
    2.0022714374157440e+000 -9.5346258924559235e-001
    2.0143247783869072e+000 -8.8726210476566147e-001
    2.0091324675867477e+000 -9.0889325914638586e-001
    2.0001417384219207e+000 -9.8816526362511559e-001
    2.0005671345640721e+000 -1.0240998426935131e+000
    2.0207259421636903e+000 -1.1547005383792515e+000
    2.0372992503051970e+000 -1.2126781251816650e+000
    2.0422607627824680e+000 -1.2277877204823171e+000
    2.0326712241937579e+000 -1.1978241142570358e+000
    2.0207259421636903e+000 -1.1547005383792515e+000
    2.0207259421636903e+000 -8.6602540378443860e-001
    2.0326712241937575e+000 -8.3484710993672173e-001
    2.3094010767585034e+000 -5.7735026918962584e-001
    4.2264986855836719e+000 -2.5157730271331380e-001
    5.3886025124365080e+000 -1.9245008972987526e-001
    2.0051216473104119e+000 -9.3094933625126264e-001
    2.0794691194147759e+000 -7.5504533502560311e-001
    2.0723375882640833e+000 -7.6479125281174509e-001
    2.0723375882640833e+000 -7.6479125281174509e-001
    2.0723375882640833e+000 -7.6479125281174509e-001
    2.0869967789998034e+000 -7.4535599249992979e-001
    2.0723375882640833e+000 -7.6479125281174509e-001
    2.0723375882640833e+000 -7.6479125281174509e-001
    2.0723375882640833e+000 -7.6479125281174509e-001
    2.0723375882640833e+000 -7.6479125281174509e-001
    2.0949324644933949e+000 -7.3572032979232316e-001
    2.0794691194147759e+000 -7.5504533502560311e-001
    2.1310258370705570e+000 -6.9765726808857520e-001
    2.3094010767585034e+000 -5.7735026918962584e-001
    4.2264986855836719e+000 -2.5157730271331380e-001
    5.0043459373697941e+000 -2.0851441405707474e-001</input_scale>
  <output_scale>
    1. -431602080. 1. -431602080. 1. -431602080. 227158990.
    -2.1580103950000000e+008 227158990. -2.1580103950000000e+008
    227158990. -2.1580103950000000e+008 227158990.
    -2.1580103950000000e+008 227158990. -2.1580103950000000e+008
    227158990. -2.1580103950000000e+008 1. -431602080.</output_scale>
  <inv_output_scale>
    1. 431602080. 1. 431602080. 1. 431602080. 4.4022030561062097e-009
    9.4999999559779691e-001 4.4022030561062097e-009
    9.4999999559779691e-001 4.4022030561062097e-009
    9.4999999559779691e-001 4.4022030561062097e-009
    9.4999999559779691e-001 4.4022030561062097e-009
    9.4999999559779691e-001 4.4022030561062097e-009
    9.4999999559779691e-001 1. 431602080.</inv_output_scale>
  <weights>
    <_>
      1.5659004822646616e-001 -2.2531272955847944e-002
      -7.2364169438449795e-003 4.9863538441641882e-002
      6.2512630058553523e-002 1.0246200726733049e-002
      4.5422888597314956e-002 1.5104264578865848e-001
      -1.7907199794417517e-001 4.6374111038794262e-002
      2.3951825304082987e-002 7.6416546084576084e-002
      -1.0789961829326832e-002 9.8890409780110736e-004
      1.2930470011185883e-002 -2.2494356788555551e-002
      2.2087418796813890e-001 -4.6544859183091834e-002
      -2.1593555807964005e-003 8.1588120536774583e-002
      4.3234966844927621e-002 5.8512475844086101e-002
      5.0778540875917683e-002 5.2231312027106576e-002
      -1.3589629613969523e-002 1.4140398903334531e-001
      -6.9141044812036007e-002 2.5512141051730356e-003
      -7.9523029752273017e-002 8.9364492697625225e-002
      3.7860264428794012e-003 9.4177309552608446e-002
      7.3995782163595758e-002 -1.3864652707018632e-001
      -4.2243098808945945e-002 9.2955206360756520e-002
      3.8072253189385785e-002 5.6022382122535061e-002
      7.5470714729399518e-003 9.2999915279006872e-003
      -1.9899013407332383e-002 1.2884216992864783e-001
      -3.1828391700862414e-002 -2.6902918731920470e-002
      -5.5644231550973110e-002 5.0845431653411592e-002
      -9.1321470147043324e-002 4.1722178666755962e-002
      1.3227628906044181e-001 -4.0685015695949303e-002
      1.3615268232385570e-003 5.6699591876076781e-003
      7.5380150385742275e-003 6.4620308670946466e-002
      7.1559971370504507e-003 -3.6642046457492042e-002
      -1.0656950154051407e-002 5.9149563944753812e-002
      -6.8350574775430481e-002 -4.7750904271746629e-002
      -7.1216092669689007e-002 7.1263410713474210e-002
      5.3803380169441086e-003 2.6800556371761347e-002
      8.8473539193816364e-001 6.8239824122788992e-002
      3.8225280984402615e-002 5.2834526336869529e-003
      -7.4647501769061139e-003 5.0814259701350700e-003
      6.5692673199170090e-002 7.0777744452174884e-002
      -1.0604736931973481e-001 8.2510744730006122e-002
      -4.8964874265412101e-002 8.8656717867937954e-002
      5.6789766006445426e-002 -1.7042409032771592e-002
      1.1822122216871686e-003 -3.1841682842206349e-002
      6.8335829026199135e-001 7.5874400625668068e-002
      9.4160664209386319e-003 1.6174347640385018e-002
      6.9264910044657999e-002 1.2095206287208587e-001
      2.5637203644429781e-002 3.2855772361855204e-002
      -1.7404204650319163e-001 2.7740282243164879e-002
      -3.6315992503920647e-002 1.1537682675955136e-002
      -1.1923102735421492e-001 1.1700169664949354e-001
      -3.6698244017106349e-002 2.8566996539729425e-002
      9.8914779249945162e-001 1.2957081694277103e-001
      -2.3079433138849637e-002 -9.9658928499855637e-002
      1.6803598407773148e-002 4.8611581440706736e-002
      4.7103442795691217e-002 -2.9235884082141592e-002
      -1.5906281796896202e-001 2.0030133103734464e-002
      -9.6378271805915031e-002 -5.7130048958565341e-002
      -8.9563428100132736e-002 8.2034938655391368e-002
      -6.8682467346259492e-003 -6.3092044747224157e-002
      1.0807664925335565e+000 1.1731503680984302e-001
      -3.3426011006944790e-002 -9.1405860774777248e-002
      -7.9473552339012869e-003 3.6780798913681863e-002
      3.9667802645623432e-002 -3.9729258467864841e-002
      -1.6044065878202682e-001 -7.7947727397716148e-004
      -7.3760438672876766e-002 -7.7118946329907775e-002
      -4.8345058056112694e-002 6.5630369549139353e-002
      -5.1828771400424613e-002 -8.8888507620291643e-002
      1.0645462486477082e+000 5.9932430329836049e-002
      -1.2203739359165503e-002 -3.2140274127449478e-002
      6.4239074024892897e-003 6.0826062284265764e-002
      3.4271157344896802e-002 1.3010627841375149e-002
      -1.4515379413003551e-001 1.3466797732268351e-002
      -5.9484513420362373e-002 -4.1859420478179650e-002
      -6.5044776482577796e-002 6.0827250410160259e-002
      -5.5192109975836984e-002 -2.9041069874115030e-002
      9.9548154386645860e-001 9.4257322867818003e-002
      -3.6178004479477943e-002 -5.6643138924623748e-002
      2.4474104932670770e-002 4.5987606082386723e-002
      6.5191601222043205e-002 8.0147077434016365e-003
      -1.1647786282676316e-001 4.9022217605501892e-002
      -6.2523319729328022e-002 -4.2383089329797154e-002
      -7.6621924509211778e-002 5.9461075497515177e-002
      -9.6927269896679956e-003 -4.5616731925289186e-002
      1.0607249794305575e+000 6.4593546140127328e-002
      3.7224891772239678e-002 -2.4874613783198551e-002
      1.7413216928818726e-002 5.7167567003116086e-002
      2.3514534816191954e-002 1.7254308477348334e-002
      -1.1350580917992609e-001 3.3021908569933610e-002
      -2.7188452250217099e-002 -3.2185233944665513e-002
      -4.1600829517622104e-002 6.7385470548733145e-002
      -4.8699520283801263e-002 -6.6062447490533149e-003
      1.1300397704969052e+000 1.3342806020992820e-001
      -7.9859228141329813e-002 -9.1157064995605191e-002
      -9.3825737641663413e-003 3.8079357381581698e-002
      1.0522908416652341e-001 1.0890668868088335e-002
      -3.7499114225016152e-002 4.7723169522475593e-002
      -6.4856596787275525e-002 -3.3274921374652329e-002
      -6.3827981056610625e-002 3.2977256290738305e-002
      6.0080267667173788e-002 -3.5007947748033341e-002
      1.3744479152757303e+000 1.3852250457115226e-001
      -1.1160749069214010e-001 -9.2684684226915226e-002
      -1.1623034245413676e-001 1.6740856372576871e-002
      8.0806362601772083e-002 -2.9089851846485885e-002
      -5.5838116254501597e-003 -1.5950875700626019e-002
      -2.7247539725237906e-002 -1.0087747893937913e-002
      -4.6261577715046430e-002 2.8692948071751698e-002
      8.5314455262591113e-002 -2.4401157220763327e-002
      1.5081927798578847e+000 9.7256175315565171e-002
      -8.4661595468133663e-002 2.1599393602845149e-003
      -1.0295400074343475e-001 -2.1372683850508665e-003
      5.7661085956954614e-002 9.0871953000713962e-002
      -6.1426814973443523e-002 -4.9647564930617172e-002
      1.6849349312979500e-002 4.5984752470595240e-002
      -2.3827041343283062e-002 -2.8760471357307501e-003
      -2.1436684062788761e-002 1.6633619843020826e-002
      1.6172150556348261e+000 1.1703176772979094e-001
      -1.1998946807112208e-001 2.9094172905129626e-002
      -1.4317201978532931e-001 7.3826620139790539e-003
      6.3678218184540933e-002 1.3254460082533859e-001
      6.4419945515736862e-002 -6.1466016525281171e-002
      1.2560513479827790e-001 1.5562460894889729e-001
      2.4962139846295976e-003 -3.5183094429463525e-002
      5.8188357012752150e-002 8.2155260388259349e-002
      1.5936171817755016e+000 1.3451572704929546e-001
      -1.4373114720090244e-001 -1.1356274321586456e-003
      -1.4836678849668711e-001 -2.6341893016273495e-002
      1.6025411826089041e-002 5.9439916864117211e-002
      7.8561712224401947e-002 -1.0801159950862982e-001
      1.0656177297000530e-001 8.5780807986656410e-002
      4.7621398731834295e-003 -3.3517365580862012e-002
      3.0097679309311582e-002 4.3965659883643454e-002
      5.0522981911548581e-001 -8.8491185763289376e-002
      -1.1490932179111953e-001 2.4387523062281192e-002
      -1.1986259706781227e-001 6.5161572198581874e-002
      2.7526278877356296e-002 -8.4738103560097006e-002
      1.3548133483875135e-001 -3.8511808784434741e-002
      3.1810098576711895e-002 -8.4631159662558311e-002
      -4.4535094162678528e-002 5.3656078017481741e-002
      4.5568649706411370e-002 7.8888453014561752e-002
      -3.1622211950332951e-001 -1.0303701083534125e-001
      -5.2037954063685837e-004 9.3690974749646216e-002
      1.8696441092969789e-002 2.1764425700693969e-002
      1.9418642446403303e-002 5.0648001281392921e-002
      6.5598234688989163e-002 1.4630530935703559e-001
      5.3944154329898457e-002 2.0975456906179208e-002
      -6.5082588381762174e-002 3.3007803531166828e-002
      2.8575619767327573e-002 5.5665666341752199e-002
      -1.7202398856564627e-001 -1.2925226111707502e-001
      -1.3563168544415083e-002 1.7977379102944319e-001
      -9.3879525809639919e-003 2.2699819795959097e-002
      1.0377162704415545e-001 8.9619406921782080e-002
      1.9217088875235303e-001 1.5678650133541591e-001
      1.6398565009004207e-001 5.4830506743564059e-002
      -2.5331828801017107e-002 3.2224716269261107e-002
      1.0832537164227288e-001 9.1735851397720503e-002
      -6.2135451912003342e-002 -1.0728381019117429e-001
      -5.6279029203574076e-002 1.0177763297063740e-001
      2.1249479058026058e-002 4.6686852979360149e-002
      9.5939048324446219e-002 5.6643201508099331e-002
      1.2856138169831138e-001 1.4983354080975347e-001
      6.7616578098861263e-002 2.2480792654428197e-003
      -9.6202040490658100e-002 5.3515322780759565e-002
      1.1395441097467905e-001 1.0362889032455148e-001
      5.7271209099922038e-001 6.9756091466635334e-002
      3.1956550318884655e-002 -8.6598835862296025e-002
      1.9846275548077014e-002 2.6521360735054726e-002
      4.1534788217113296e-002 5.0721289171903189e-002
      -1.3071583081241450e-001 1.4959978303242740e-002
      -4.3029100974998860e-002 1.5174384434328607e-002
      -2.3296835200203772e-002 4.7228332100533670e-002
      1.1693707806540400e-005 -1.2271863610064307e-002
      9.6538049789048375e-001 1.9898329856016606e-001
      -7.6453693010041610e-002 -1.4531678935784875e-001
      4.3779445309171244e-002 5.3333428595419168e-002
      1.5793511892284007e-001 2.9658610086047851e-002
      -2.2616905862026884e-001 -6.2099822482143720e-003
      -1.1914005735992401e-001 4.6130952667658091e-002
      -1.0366651953843177e-001 9.2966556864517977e-002
      2.6020920545379404e-002 -2.8687674990898606e-002
      1.3834289063162093e+000 1.5017202700250898e-001
      -2.8149198475819641e-002 -1.8529525748699449e-001
      2.2723823158315077e-002 6.8018810393653970e-002
      9.5472303511789383e-002 4.2903663674885704e-002
      -2.6646386530893301e-001 -4.9014974284466641e-002
      -1.4854602997438970e-001 3.7950469401330705e-002
      -1.1770511999434458e-002 3.7286484351151977e-002
      -9.4588094054154040e-002 -7.6082831260583531e-002
      1.2169792845301057e+000 2.1078454838508190e-001
      -7.5455410914720550e-002 -1.9740154909284022e-001
      3.0417431238641428e-002 4.7003158601238146e-002
      1.4512336349595636e-001 6.5748156342995384e-002
      -2.5765650180571681e-001 -7.1214806705826349e-003
      -1.7429487233471022e-001 3.1547910364297833e-002
      -7.3763246591850365e-002 6.7845901416267076e-002
      -9.6957930542207003e-003 -7.7798426509036456e-002
      1.2195608277614187e+000 2.0523649754534259e-001
      -8.4976095166652166e-002 -1.9721729485402326e-001
      3.6502326393509643e-002 4.9604311581656832e-002
      1.4926632958434002e-001 5.2017369926208652e-002
      -2.5319364644422154e-001 5.5124183241376124e-004
      -1.7251518796620610e-001 2.9292245112396247e-002
      -7.0003597425696520e-002 5.8295311931197705e-002
      9.3055498117219611e-004 -7.5878268437268581e-002
      1.2151607088020846e+000 2.0901985150328575e-001
      -7.6829115182560720e-002 -2.0654059573547376e-001
      3.4234880999645223e-002 3.8878601692567225e-002
      1.3905773556600878e-001 5.8604017809028720e-002
      -2.5700244295639951e-001 -7.1543096801894167e-004
      -1.7610816942934840e-001 3.4269597477180599e-002
      -7.8681315427834256e-002 6.8776463390919376e-002
      -6.4157750276275698e-003 -7.9645368075196593e-002
      1.2025904679378265e+000 2.2371332245539471e-001
      -3.7159513133131657e-002 -1.6547928657534441e-001
      1.2481578551438185e-002 1.3710332816054063e-003
      1.3040282245989421e-001 1.0567771924644699e-001
      -2.3284320669968828e-001 2.1317309866833354e-003
      -1.3593075975134120e-001 7.5317426168361179e-002
      -2.4379570573011097e-002 1.9865327141730921e-002
      -1.4180870540738721e-003 -7.5222872400032628e-002
      1.2032585422817288e+000 1.5399819074793722e-001
      -2.7771442603280763e-002 -1.4421499477450361e-001
      5.6304776839848372e-002 9.8099360809819305e-002
      1.0194877819072959e-001 9.0904696042720362e-002
      -2.7014011818202066e-001 -2.6035777159460472e-002
      -1.0910508966472215e-001 5.7480151824590181e-002
      -7.6668557297587134e-002 8.9101114183362015e-002
      -6.5832030304644129e-002 -1.2640504590725653e-002
      1.1771119388352680e+000 1.7224546991734035e-001
      -3.9002911497807762e-002 -1.1613379269148710e-001
      5.9260369502208091e-003 4.0097308187796110e-002
      1.0512080741235158e-001 9.8416887855972357e-002
      -2.1213446274823392e-001 -2.5402177787869976e-002
      -1.0166641461834644e-001 9.7191968532566564e-002
      -2.8500741399769186e-002 3.6531041455302615e-002
      -2.3572778075939979e-002 -1.8996838155099546e-002
      1.8797081904515727e+000 1.5340801764573603e-001
      -3.5199879822779279e-002 -4.2808316189468149e-002
      -2.7640997554063736e-002 9.5745278355207995e-003
      4.3829589420754954e-002 2.5043227212543323e-001
      -2.8034149572810074e-001 -1.9321930477382496e-001
      1.2439127657916696e-001 2.1492567551019640e-001
      1.9898599139290270e-002 -8.3279528307871453e-003
      -1.3015427931753135e-001 -5.0071253584484283e-003
      1.9668953018433535e+000 1.7327941607425559e-001
      -2.3446482309317850e-002 -1.9713177011689956e-002
      -9.8700392047055732e-002 -4.6229406480451700e-002
      3.5628062593749885e-002 2.6811315026994248e-001
      -2.5581349071624326e-001 -2.2358831319268571e-001
      1.5380983376908866e-001 2.8571109098849595e-001
      9.0097366181035782e-002 -6.3761908708703838e-002
      -1.4814660212675460e-001 -2.3038030026695015e-002
      2.1249781247261983e+000 1.9593116428923446e-001
      -4.1713140109866279e-002 -5.0663357080878997e-002
      -6.4039378560397819e-002 -5.1787671083215581e-002
      -1.1926375898494684e-002 2.6500128083523800e-001
      -2.9005270029867558e-001 -2.8714419408231429e-001
      1.1886657948708189e-001 2.4390170813604223e-001
      1.0569815017929356e-001 -9.1273054279362956e-002
      -2.1167345585545266e-001 -6.5826117941726492e-002
      -7.2466258671934891e-001 -8.6859247949342661e-002
      6.2992224318529105e-002 3.0085648873892000e-002
      3.0956872568942495e-003 -2.5867634945322050e-002
      -8.6326280764043875e-002 4.2831613081833468e-002
      3.1382616636335833e-002 -2.9568136616132359e-002
      7.6275007655145804e-002 1.3753906909136052e-001
      8.3950796408665179e-002 -4.9955431227256819e-002
      3.2394333793336443e-002 2.0824005795116191e-002
      -7.5050159635814828e-001 -3.9375777713735474e-002
      1.5307133113771493e-002 6.8797903613329922e-002
      -5.8054497961860817e-002 -4.4491429426258881e-002
      1.3094128472733738e-002 -6.5785608735192722e-002
      1.0646104202193774e-001 -3.4992577728881397e-002
      5.0871812142346699e-002 2.7408756181934637e-002
      7.2742193016847145e-002 -7.0260015744075158e-002
      1.3781612702666393e-001 2.5005654350314856e-002
      -8.4414225732967396e-001 -6.8910449637483578e-002
      2.9551697805488050e-002 1.3345421561893356e-001
      -2.8696378136854734e-002 -9.3132404793320647e-002
      -1.5186854316968600e-002 -2.6358986748860155e-002
      1.0187393145339249e-001 6.9835046669146569e-003
      8.5426271000081710e-002 -2.9303891966546694e-003
      1.4365607661652630e-001 -1.3170746464539204e-001
      6.4686667647149429e-003 -7.0276932398433647e-002
      -7.5900199804706003e-001 -1.0704285301597487e-001
      6.5695139604378311e-002 1.6129018875983278e-001
      9.6219628137525128e-003 -4.5432429373038354e-002
      -1.6285940093528812e-002 1.3349003703522776e-002
      1.0375277738677187e-001 5.7946977792020529e-002
      1.3379282756752331e-001 -1.0121048250127046e-002
      1.0355914499735200e-001 -9.9259402927556500e-002
      4.7661314991436839e-002 -3.6857782295787083e-003
      -1.7213968982077432e-001 4.1863211418530041e-002
      1.5101649832983875e-002 -3.3122372841570977e-002
      2.7956138371441976e-002 2.2061241384758783e-002
      3.8194601512946749e-002 1.0694317360084448e-002
      -1.3133679985222504e-001 2.4273906313760585e-002
      -1.2863251809450449e-001 3.1196214192331859e-002
      5.2917345310365946e-002 -1.1232610977419767e-002
      2.7016880569883325e-002 -6.2022538541095115e-002
      2.4261543020906196e-001 1.8131585732693881e-001
      -1.1688905018686579e-002 -5.1242262362921266e-002
      6.3227574694195862e-002 3.0441239830338376e-002
      9.5017774944019778e-002 -6.2819423368776425e-003
      -2.4300641412564011e-001 -3.2141036378957093e-002
      -8.1937776788940264e-002 -1.2804054878201653e-002
      -3.1144531930619588e-002 5.0560277195275734e-002
      -1.8781094092808558e-002 -7.7981214549243283e-002
      8.2882921664780784e-001 1.1919633461213751e-001
      1.5040410358834045e-002 -8.0821545237710526e-002
      8.7523190638882486e-003 5.8337576999766870e-003
      5.1053115111576799e-002 4.6057646687760384e-002
      -2.3209265640293297e-001 -4.6108887033132817e-002
      -8.0239522273672995e-002 -4.0262654221007183e-003
      6.5912402348294236e-002 -3.6880353523608543e-002
      -5.2201698749082516e-002 -8.2754061438511481e-002
      6.7392515345693960e-001 2.1973292473447792e-001
      -3.2282937346021376e-002 -1.6999385915713805e-001
      2.6040090774170757e-002 -2.1038328862369358e-002
      1.0202964007779318e-001 2.7493885049969503e-002
      -2.3882309431468485e-001 -4.4811350763080723e-002
      -1.2363805713640279e-001 1.1199628115505756e-002
      3.5116701016103570e-002 -2.3216845702837705e-002
      -8.0796642303189656e-003 -1.3450517147274083e-001
      7.1424295205261890e-001 2.2215942130370203e-001
      -4.0316718244829249e-002 -1.3954747745408441e-001
      1.6316246662808440e-002 -2.1569525547387357e-002
      9.6457436299722407e-002 1.3303339037324696e-002
      -2.4628933998563857e-001 -2.1589884609973586e-002
      -1.3653048275634472e-001 -1.9700565301419733e-002
      3.2503245538929602e-002 -2.8659417833110271e-002
      -1.5127883918892245e-002 -1.3613829281488804e-001
      6.4944839214265826e-001 2.1870975720115937e-001
      -2.5041267505966254e-002 -1.2932935759394798e-001
      2.3727085301900128e-002 -1.6475215463273383e-002
      9.6385729540678658e-002 2.9580936425619979e-002
      -2.5084128975898345e-001 -4.2630298877092007e-002
      -1.1746492397014074e-001 -1.1693843786669030e-003
      4.3930241574830747e-002 -3.6290596711878988e-002
      4.8333695655671353e-003 -1.4717623756578821e-001
      6.3680485161159373e-001 2.2234646989622756e-001
      -3.5729897360244837e-002 -5.9003182436020221e-002
      -1.1337606716967439e-002 -3.4671842710586369e-002
      8.2431735044994930e-002 2.1071880717867503e-002
      -1.8672661119830933e-001 -4.3722869852697722e-002
      -1.1155745244825932e-001 -2.2427967450963274e-002
      4.0102621262182496e-002 -3.9518814831548135e-002
      -7.2041247583283664e-003 -1.2087503288681337e-001
      7.1081454560008739e-001 1.4210034577308681e-001
      -1.5147956146080966e-002 -3.7854758857012477e-002
      -1.0313470489923532e-002 2.4359521231283345e-002
      7.1841787724017336e-002 5.4970637677474184e-002
      -1.4357586228343255e-001 -8.5494189963115932e-002
      -5.0025322017645708e-002 7.5619153773328451e-002
      1.0383284070895950e-002 1.2416942507709512e-002
      -1.1528799715314111e-002 -1.7822177168523742e-002
      5.4860571336893937e-001 1.8212580062175501e-001
      -3.8306446690165828e-002 -3.4870355343643265e-002
      -2.3422620288108827e-002 -1.1365322728636815e-002
      1.0080940890134904e-001 3.5261569007560091e-002
      -1.2786687798449706e-001 -6.9192062735229917e-002
      -6.3723311586205172e-002 6.3555734333175046e-002
      -1.3780247061145107e-002 7.1463853299514818e-003
      1.6467851036965162e-002 -3.9255339871037069e-002
      1.5570994859799072e+000 1.1673588629707593e-001
      -7.8862988372237472e-002 -5.4873233705189997e-002
      -5.5564323791055199e-002 4.8197385746266891e-002
      3.5793969308480528e-002 1.4130417401217435e-001
      -1.5094445515359550e-001 -1.6148823515213420e-001
      8.2663766022026408e-002 1.5377453989158213e-001
      -1.1967633886976421e-002 2.7122318019083616e-002
      -1.3094980834050116e-001 3.1647197538652007e-002
      1.6986545393928267e+000 1.1877659928092739e-001
      -4.5533049202176913e-002 2.0425447657724773e-002
      -1.1935954762182344e-001 1.1097782090452193e-002
      2.6124928070020093e-002 2.0994049245853261e-001
      -1.3399560084645210e-001 -1.6912529051291642e-001
      1.4666421274401037e-001 2.0935160047791310e-001
      4.3027542069630650e-002 -2.9300640546069050e-002
      -1.2239171168596179e-001 3.6360035108799926e-002
      1.6993690360362166e+000 1.5466745300472406e-001
      -6.1993935133360094e-002 -3.0514675802024716e-002
      -3.1080605034044043e-002 1.8863536543830561e-002
      -5.0623144455785591e-004 1.7875608366732687e-001
      -1.5035032264211365e-001 -2.1207594972209645e-001
      5.8311066645599013e-002 1.8364812118999718e-001
      1.4183062585804736e-002 -1.5745065349154520e-002
      -1.5938706081393025e-001 3.2702096873218289e-002
      -7.8317280392602950e-001 -1.0953807786203106e-001
      1.1567275772028934e-001 7.9674311944680110e-002
      1.2500835475302127e-001 -3.7863306549094304e-002
      -3.2103367165970148e-002 1.4590197600354937e-001
      -5.6095813356606093e-002 5.7052081280057516e-002
      4.5155931608778871e-002 1.6410464186470505e-001
      6.9267285447282653e-002 -3.6000648337008834e-002
      4.6049946746300134e-002 6.3367949438360938e-002
      -7.6788826625109607e-001 -9.4249574170843106e-002
      8.7945038872048797e-002 2.0767450517008491e-002
      4.3224668266105090e-002 -8.7589086722930198e-002
      -8.4248179770728848e-002 4.1986023405953095e-002
      -1.8865696247538130e-002 1.3165909137739896e-002
      6.2269281532063202e-002 4.1174328910665442e-002
      1.2437359286966157e-001 -1.0521334018132478e-001
      -8.9060981450577670e-002 -7.3433600353107975e-002
      -1.0153943117699240e+000 -5.4173022222865170e-003
      6.8232880089653933e-002 3.9111877111802189e-002
      3.8825076742474499e-002 -1.4994376667241213e-001
      -4.4027200082711299e-002 5.8914682071613697e-002
      3.1798518106653462e-002 -4.3194616500596521e-002
      8.5321266096418977e-002 9.8032272950452443e-002
      2.2400593916395600e-001 -1.8316333084728098e-001
      1.8160210086516623e-002 -1.0926290625810053e-001
      -7.7635341707271344e-001 -8.4055898937563822e-002
      1.7692193503764886e-001 8.5816411337157214e-002
      1.5076091081527374e-001 -9.2163036242813676e-002
      -8.5613197772120911e-002 1.7692434562030906e-001
      -1.6377301663454055e-001 1.7695507214640454e-002
      7.9382136558284286e-002 1.4709289210890616e-001
      2.0402106337631098e-001 -1.2057358944723756e-001
      -1.4270581423263218e-001 -9.8407059531661026e-002
      3.8188506729339927e-001 1.2096289978758850e-002
      5.6925136802277045e-002 6.7859791617931819e-002
      7.8281475088942870e-002 -1.1264922766883777e-002
      3.9296284299802614e-002 1.3850933630103809e-001
      -4.0999744740361863e-003 1.2801294832261648e-002
      1.0999402495176883e-001 1.4427497640111614e-001
      8.8657832154647703e-002 -7.2419369066616113e-002
      4.5902144476445798e-002 7.4576269882076524e-002
      1.1834938727057097e-001 1.2691950379060776e-001
      -2.3262558528143733e-002 -4.5036702647069597e-002
      3.4096119771605496e-002 1.3626903431717447e-002
      2.7598483256776253e-002 1.8680131679703730e-002
      -1.0868093523226885e-001 2.2187011208517148e-002
      -4.8085820081083377e-002 4.4216561307863909e-002
      -3.0449115361783890e-002 3.7967982689813315e-002
      -3.9564438786228590e-002 -5.7215359292819873e-002
      2.8331371148927448e-001 1.1119247849661713e-002
      -2.8425429411143177e-002 -9.1282385709149441e-002
      -2.1152293386535674e-002 1.9281722658079554e-002
      -3.1113784313452162e-002 -1.3390651280162108e-001
      -4.5126774458840543e-002 -6.2734693474248843e-002
      -7.3011036978633120e-002 -1.1010994377786795e-001
      -2.2103476787855333e-002 5.0430068010258844e-002
      -8.5363499976603058e-002 2.5178643580376311e-003
      5.6537614079599041e-001 2.5610748995182158e-002
      -7.1344995514933146e-002 -1.3585394011465666e-002
      -1.1668764002635570e-001 -2.4905823882460383e-002
      -9.1602757526256570e-003 -6.4819868176250475e-002
      5.9189500492917067e-002 -1.4965183707893087e-001
      4.8613992511795337e-002 -2.3090442183115343e-003
      4.9164907065527140e-002 -2.9468306204773774e-002
      -6.1779179584168110e-003 -1.2190691732851869e-002
      6.5439980551027843e-001 -6.7961319605189434e-003
      -3.7911047732529624e-002 -4.0977309114391049e-002
      -3.7438262639437489e-002 5.0317585502206615e-002
      3.1368922736920019e-002 -5.3004069331119161e-002
      1.2486314728826806e-002 -6.2255264336901511e-002
      2.3032037723955380e-002 1.6530531253556888e-002
      -2.7085489748548863e-002 4.8392368659128007e-002
      1.1032562129501303e-002 4.6475868012401174e-002
      4.7506137118823805e-001 1.0322004295844510e-001
      -8.5564238646947871e-002 -2.6281445449456174e-002
      -1.1054668947911672e-001 3.2009084604747717e-002
      -2.5794438016732237e-003 -5.9413418361212306e-002
      7.6643876829085508e-002 -8.8660036529114555e-002
      2.1191677321105645e-002 -3.8497054387860670e-002
      -3.3991783854961689e-002 8.9568917026068944e-003
      3.1324147607084012e-002 2.5666309639037550e-002
      2.7977039353633715e-001 -4.9662057286593557e-002
      -8.3117298069129805e-002 1.7620827142495764e-002
      -1.1378448106020257e-001 4.9332165865831903e-002
      7.7224336021996465e-002 -4.3173084910163258e-002
      1.0630879827930319e-001 -5.7113272837114336e-002
      5.8021240744214685e-002 1.6354276296143010e-002
      -6.1767993089171976e-002 4.0999199612502618e-002
      8.0719700749287374e-002 6.7118271004457539e-002
      6.0854817799658301e-001 2.1860294773295069e-002
      -6.5900983636581034e-002 -1.4962453358336616e-002
      -1.3213880720712129e-001 -3.9065649386234920e-002
      -1.3163055814203622e-001 -2.3249298463894036e-001
      1.8836545392091344e-001 -1.6946054090157395e-001
      2.4762499090678593e-002 -2.4584346647347324e-001
      2.6396135597765231e-002 -3.5516789992255333e-002
      -1.3254943786131307e-001 -3.8427764312515975e-002
      1.9878829135947279e-001 -3.2379700158594385e-002
      1.5473425430858402e-002 8.7938860653179289e-003
      -1.4501823748945721e-003 5.2434373339736412e-002
      -3.8699119057631112e-002 2.1370711665054214e-002
      -1.8631836035856747e-002 8.0861096072089612e-003
      -2.2708205924316378e-003 -4.9185905320447039e-002
      -7.3108016474678392e-002 2.0174971486661100e-002
      -7.0979447853172006e-002 7.6477275176976056e-002
      9.9272628851135869e-001 -1.0839328090805497e-002
      -1.3002016679122705e-001 -5.9727193268673540e-003
      -1.5239414664237344e-001 4.1356375140434304e-002
      -6.9298984724115678e-002 -1.4621985348890038e-001
      1.4847070045182006e-001 -2.3089302010823770e-001
      1.0599239195864164e-001 -7.5215380314841429e-002
      -1.7581009382946703e-003 -7.4897763420722057e-003
      -1.1046738080693838e-001 7.8569014524931535e-002
      1.5565362810652599e+000 -5.7982132777220793e-002
      -1.3676963892055263e-001 2.6672889116019196e-002
      -2.6020560403541054e-001 6.9224931227504755e-002
      -1.8028392717977054e-001 -1.7868471584039525e-001
      1.2689680839949705e-001 -3.3769476318362057e-001
      1.5435793248197827e-001 -1.6760969842682552e-001
      -1.6980633379745140e-002 4.4315634574874530e-002
      -2.8274517582665204e-001 8.0723223612041400e-002
      1.5115654119070390e+000 -5.1131567576373715e-002
      -1.3879177931163278e-001 6.2987921501756541e-003
      -2.4317880657922400e-001 4.9350047013812272e-002
      -2.3150176083153221e-001 -2.1643964723211753e-001
      1.1517757831639432e-001 -3.7745254238719883e-001
      1.0149615778734260e-001 -2.1903738889948829e-001
      -1.7345234706142427e-002 3.0696700023943868e-002
      -2.8905840879410066e-001 6.1067625790887259e-002
      -5.6031805742399010e-001 1.0992354524079319e-002
      -2.6952913930920461e-002 4.5833944570836505e-002
      -7.7672022368903582e-002 -6.5731972750793941e-002
      -2.9894002904950799e-003 -3.3717315911389142e-002
      1.8169672038567733e-001 -5.9994925196261657e-002
      3.3439206715758528e-002 3.5498410053429845e-002
      1.3550134824685178e-001 -1.2631138833750075e-001
      1.5828776373832343e-001 2.5375619031961626e-003
      -1.0417320647830499e+000 -1.6223020033597810e-001
      3.1090822381416966e-001 1.4369633338105620e-001
      2.7404602999404626e-001 -7.1529114491139315e-002
      -1.6591663476373145e-001 2.7177910279884143e-001
      -3.3791040672241140e-001 8.6419871716102103e-002
      6.3300915419739201e-002 1.9442509386875881e-001
      1.9656892470849835e-001 -1.1769969334718579e-001
      -2.1172645731990636e-001 -7.2789121762600884e-002
      -8.4739583671846219e-001 -1.1298430095879985e-001
      2.4087771858945081e-001 1.3426147026446225e-001
      1.9937654628812962e-001 -1.0623502060377336e-001
      -1.4842427636913291e-001 2.2616523269329902e-001
      -2.2457228184389841e-001 -1.3332889237133048e-002
      1.4487835317171360e-001 2.0535833900756334e-001
      2.3880976370890505e-001 -1.4999635068267497e-001
      -1.8852272066735865e-001 -9.9583280367490770e-002
      -8.1125107676403196e-001 -9.0897365227760998e-002
      2.3518592363848204e-001 1.4262665160867241e-001
      1.8011294093967303e-001 -7.7296580474392418e-002
      -9.2505376021009209e-002 2.5073433670133055e-001
      -2.6850566914186014e-001 9.0255567717761359e-002
      6.8687528403022807e-002 1.8701066556887638e-001
      1.7712145408627053e-001 -1.1329237311936723e-001
      -1.3152033255607817e-001 -4.8038018781743318e-002
      -3.3969985529453644e-003 -2.2411652468475367e-002
      4.8679084674152252e-002 2.0817515463963876e-002
      1.1626253956435595e-002 -7.5983333279171280e-003
      -1.2192175928938927e-002 1.9098936607782051e-002
      -6.7900130784385275e-003 -1.2477614731888687e-002
      2.1559115395066910e-002 3.3354945493087026e-002
      5.9072853562939266e-002 -4.4751000516020212e-002
      -1.0006858559926313e-001 -1.0686734850375910e-002
      -1.5253682917489725e-001 -6.7786305348241207e-003
      6.6009413508216269e-003 6.0946031923035722e-002
      -2.2514016960602696e-002 -1.5703321226090708e-002
      8.5147286475776282e-002 1.2823071797519323e-001
      -1.1693165810228497e-002 -6.7870725559182110e-002
      1.2488253644610366e-001 1.4011662468350602e-001
      2.9380921407373865e-002 -2.9740879233975736e-002
      1.1039060607098761e-001 3.6414430915229369e-002
      -4.8993890737396878e-001 -5.6374921115891458e-002
      -3.2785262554005247e-002 -5.3042996032957458e-002
      -1.6774574882239823e-002 3.2897088380960037e-003
      3.7251818210703509e-002 -1.0656965844953084e-001
      1.2095806462782302e-001 9.8495457015315646e-002
      -3.7741388111885064e-002 -6.4194027101714971e-002
      4.2516746164733533e-002 -3.8158505312433574e-002
      1.1549399314314308e-001 2.9901682344933563e-002
      2.9618918720466109e-001 5.6253518903343590e-002
      1.8071247514304750e-002 4.8677734909343899e-002
      4.2701981770409431e-002 -1.1980962566826918e-002
      -1.3698953098125177e-001 -1.9136133862765570e-002
      -8.6720078896037500e-002 -5.5345635526669920e-002
      1.4479372194144781e-002 -3.7667675344740775e-002
      -8.4034467517010825e-005 -1.9965906525635031e-002
      -1.7486915062561526e-001 9.9121034033697688e-004
      -1.8114092502719500e-001 -5.1358149694312238e-002
      -7.8767100890302616e-002 -1.8121255981856505e-002
      -6.1180958041485378e-002 -4.8593094688721479e-002
      3.3768346383964427e-002 -7.5465301577832614e-002
      1.5650925578805361e-001 2.3568023022662442e-002
      -2.8058800089062998e-002 -8.2411213069807185e-002
      6.3495903662984200e-003 1.5739857790512634e-002
      8.1388434570331125e-002 3.2048475881255910e-003
      -4.0962568675173183e-001 -1.1221642461264890e-001
      1.1783076688243131e-004 5.5474067619197640e-002
      1.4004566642776167e-002 -2.0316887380916214e-002
      -3.1353243497743155e-002 -2.1953009069535505e-002
      1.0081284959484529e-001 7.6432950732950094e-003
      4.9457964251019386e-002 -1.3255339276303379e-002
      -1.1095464321776161e-002 -1.0198157445832252e-002
      -1.7935892530927599e-002 2.6537923985389390e-002
      1.2195166924295919e-003 -8.4110913515767632e-002
      2.1514159643034221e-002 -6.0447360965535678e-002
      4.0498656998790000e-003 1.7943858188350210e-002
      -2.7019647608259218e-002 -1.1935262663127395e-001
      5.3401768787179615e-002 8.7019390039437025e-002
      -6.2960578912120230e-002 -1.5233121110557990e-001
      -6.2665452644103836e-002 6.9127161826259470e-002
      -2.5297188481364846e-002 3.3393105407565939e-002
      1.4515792924365256e-001 5.5333326348956970e-002
      -1.3893611626181840e-001 -9.3176943065238580e-003
      -1.2118680361137522e-001 -3.4130964880929725e-002
      1.1571556043757406e-001 -2.7737945470653886e-003
      1.2939107394063010e-001 -6.9230749839117381e-002
      2.3898951778008416e-002 9.5032595423375416e-002
      4.0915038023682154e-002 -6.7475455073487137e-002
      1.3024296050888862e-001 5.9452961955558875e-003
      5.6648273513749892e-001 -3.7379791556804827e-002
      -7.3020209252782520e-002 -6.2768866324012865e-002
      -8.9468129777090233e-002 4.4942329217062087e-002
      2.1821032229553402e-004 -7.4841263087199031e-002
      1.4325307931400261e-001 3.9055542885405256e-003
      -2.5978086630792725e-002 -6.7844252076594780e-002
      -5.7009385869305054e-002 2.7841929689636353e-002
      -3.1760535025727503e-002 9.3965071414549323e-002
      7.2945091241299820e-001 8.0585831880436633e-003
      -1.3409722529671894e-001 -7.3815258030723245e-004
      -2.3635464658188071e-001 -3.9904004831058167e-002
      -5.8584073772475459e-002 -1.7603278587041801e-001
      2.3641706474522023e-001 -2.1928879569208007e-001
      9.0992668457962445e-002 -1.2718597858863834e-001
      1.3331213579709950e-002 -3.4261246449516218e-002
      -8.1414118009175029e-002 5.2750176204818283e-002
      1.0418110612507689e+000 -1.7215964989536935e-002
      -1.0351572274723647e-001 2.6649058099718875e-002
      -1.3263572655261097e-001 5.7296118985265071e-002
      -4.7629616064557817e-002 -5.2426333787453483e-002
      6.9173998405379342e-002 -1.1449900209145224e-001
      2.5257178765367521e-002 -5.0994989321646152e-002
      -4.6050934011212533e-002 4.7438012748732009e-002
      -1.3516034835677609e-001 9.5499035124969114e-002
      1.3235039880739117e+000 -4.6620726603313761e-002
      -1.4234582926234304e-001 1.5520412013638093e-002
      -1.8942144359287685e-001 7.2905879800181844e-002
      -1.5977173863983041e-001 -1.7915409970029617e-001
      9.2453804773480280e-002 -2.9504613353111259e-001
      4.4915646736604267e-002 -1.6685821589716776e-001
      -7.5895757286807822e-002 8.0294786480030467e-002
      -2.3069745222224572e-001 1.0909104889923528e-001
      -7.8151253874395399e-001 -2.8665869596895679e-002
      4.5396141530876795e-002 9.1967042638220392e-002
      4.9987554521365885e-002 -3.1570455645701725e-002
      1.2303615424257038e-001 1.3819421630362025e-001
      3.1216678873016931e-002 5.3172164934454189e-002
      7.5438843681495948e-002 1.2951774752567108e-001
      9.3757944561802059e-002 -7.8364587490881085e-002
      1.7642637982024567e-001 3.8193973167147309e-002
      -9.3200032102789254e-001 -1.1836625513541309e-001
      3.5988508900244348e-001 1.3453460315877694e-001
      2.7945584275935303e-001 -7.3258622575267995e-002
      -2.3320428517005512e-001 2.8218340533918995e-001
      -4.1588915695992995e-001 3.7894387788872733e-002
      4.9075061956978222e-002 1.8187187544640421e-001
      2.3742270378716027e-001 -1.3340137305195282e-001
      -2.8531905569116567e-001 -8.1550650467302602e-002
      -1.1196205467334910e+000 2.9672741082726030e-002
      1.5807034412093765e-001 1.2178830095238767e-001
      1.0691165971143050e-001 -1.3067363875830915e-001
      -8.9976371375891137e-002 1.3111104685138369e-001
      -5.1679587787393261e-002 -3.9285673159265656e-002
      1.5821975557650292e-001 1.9401194378162021e-001
      2.4178781029264235e-001 -1.9209230441835459e-001
      -3.1454659714286376e-002 -1.0786618448765127e-001
      -9.0819664171451542e-001 -2.9631458324957633e-002
      1.8147070475366239e-001 1.2552751620289726e-001
      1.0320558419345988e-001 -1.3423981132092783e-001
      -9.3550259235611777e-002 2.0446783544947841e-001
      -1.4638700743017258e-001 4.1075765300600454e-002
      1.0061871963176883e-001 2.3203756517444665e-001
      1.9597842911982497e-001 -1.4758916131874211e-001
      -7.5217894839417293e-002 -9.8358667225070473e-002
      -6.1453851904555512e-001 -3.9886666690049609e-002
      5.4454226045370417e-002 2.6248302765605764e-002
      6.2254783588803007e-002 -5.5077060834155755e-002
      1.8331073686151670e-002 7.5378914778274709e-003
      1.1622966106413808e-001 9.5810235547167610e-002
      -1.4930349409397661e-002 9.0224739280000000e-004
      7.6048464208763350e-002 -1.0401060012035364e-001
      7.5306679068047999e-002 -2.1469953046522196e-002
      -1.5212694912953792e-001 1.2738415143263548e-001
      -3.9462553796080636e-002 -1.0040042568536866e-002
      2.1505517391560203e-002 -1.0868993960604126e-002
      3.4917005279760494e-002 5.1731271572583282e-002
      -4.1609794009737688e-002 -4.8374771114456608e-002
      5.2859061095582131e-003 9.9061909215595351e-002
      -1.6020908376911124e-002 -3.1244304806011352e-002
      1.7624934408881833e-003 -1.1190134109775075e-002
      -3.4174407917614091e-001 7.1839656518043374e-002
      -3.4772531761731458e-002 2.7732974360000075e-002
      3.6870847760953257e-002 -1.5408560976060038e-002
      1.2105370734399618e-001 1.0639350738586892e-001
      2.3382517483862868e-002 1.6685199040623586e-002
      5.7599835237578154e-002 1.0998950966307032e-001
      -2.9679680404624841e-002 -6.0110580452878487e-003
      1.2197540801445871e-001 -1.0692487277910348e-003
      1.5749751353650984e-001 4.4397117397436660e-002
      -3.5589203030633565e-002 -2.6681533455681118e-003
      -5.7436076592537423e-003 -1.7799960590742219e-002
      9.1358025465656217e-002 6.8418041407110997e-002
      1.3164060267771423e-002 5.7568365825432045e-002
      -2.0796160448410556e-002 9.2975684449778620e-002
      4.0821763076742512e-002 -5.0373913345698559e-002
      1.4618125498111104e-001 1.5799795749161471e-002
      -2.0501130752872998e-001 6.0787754101588994e-002
      6.9580386020793089e-003 5.4664181597051303e-002
      2.8552175698974253e-002 -1.7404245201236592e-002
      3.7768666660451998e-002 2.0600660833067847e-002
      1.0107302919465438e-001 7.5008395682031923e-002
      3.2372738465374980e-002 7.7689684860269045e-002
      1.4304495748298547e-002 -3.4176777795928266e-002
      1.2788599173589651e-001 1.5667116132819663e-002
      -2.9417035838436495e-001 4.9695739247911319e-002
      2.4625497910583345e-002 1.8067314815155427e-002
      2.5323150285057872e-002 -1.3823474030301337e-002
      1.4086041218455436e-001 4.5106532270109509e-002
      1.2222911723262754e-001 1.5194494194120792e-001
      -3.2375028803926557e-002 7.3494908405695433e-002
      2.7217508384837219e-002 -2.4473960006739282e-002
      2.2395687829982452e-001 -1.7574990040110604e-002
      -1.2782311908687660e-001 -3.8885703751131005e-002
      -9.2169647557301428e-003 -2.2350072304355571e-002
      -2.6115646572621096e-002 -1.8257942986163272e-002
      -4.3173506861656202e-003 -3.1660375432829607e-003
      7.8461473039979968e-002 4.3730368519467065e-002
      -1.1369795824925897e-003 2.9868986864209409e-002
      4.2323137394172775e-002 -4.4711145383184984e-002
      9.1734049730674408e-002 1.5103773653999302e-002
      4.2184774059241670e-001 3.8383190842479729e-002
      3.8865933831189151e-002 1.6085282407981516e-002
      6.7240429949956423e-002 -2.2413852199848212e-002
      -5.9391129164896354e-002 1.0120476680518377e-001
      -1.2973257874008462e-001 -5.8267612054267587e-002
      -1.1251258997519078e-002 1.0565045620127483e-001
      9.1702844436132830e-002 -4.6388234978504236e-002
      -8.7835904424462874e-002 8.9490444091853052e-003
      3.0252499999845200e-001 6.1551267315940489e-002
      -1.2611649144279774e-001 -5.1489887264548354e-002
      -1.4134164261841736e-001 -5.1662214932367029e-002
      2.6530367147272648e-002 -1.1127317690082364e-001
      2.1227393082834758e-001 -1.2714139086250334e-001
      3.7548583543237320e-002 -5.8766032823888897e-002
      1.1663533058593482e-001 -1.1687252205283301e-001
      7.5190095015036318e-002 -1.1637422166450424e-002
      3.5486832579174321e-001 6.0918029091608997e-002
      -6.3971747048110331e-002 -3.7043596357260859e-003
      -1.0312612012221013e-001 -3.2006608015266995e-002
      6.4313503425946231e-002 8.0504355181501928e-003
      1.5244360863594375e-001 2.9049125963074240e-002
      -1.5690081508651511e-002 5.4002958976960370e-002
      5.5500970855904296e-002 -6.8301380034557574e-002
      1.2181371430177981e-001 5.8482647956042237e-002
      1.3039979279251761e+000 -2.9898769382532643e-002
      -9.3121203047585741e-002 6.5852476905069795e-003
      -1.2239893573493084e-001 1.0327666577233904e-002
      -5.8610341704042244e-002 2.9966930656451854e-002
      1.8872256547897908e-002 -1.5452593571682213e-001
      5.7725718296031223e-002 -9.2570802481892027e-003
      2.5357837252170608e-002 -2.9774860130444721e-002
      -1.3894895176860927e-001 4.3541017594654584e-002
      1.2552113720693046e+000 -5.5039328917695265e-002
      -7.1313277388483545e-002 7.7229046452941281e-003
      -1.5787212983493215e-001 1.8583801107502112e-002
      -1.0258078191828079e-001 -6.6817811024095675e-002
      1.8477216861108429e-002 -2.0296615731853634e-001
      8.8900353211792779e-002 -9.6622696596174978e-002
      -1.4123408576177750e-003 8.8613275737840034e-003
      -1.6338168827981070e-001 4.8309490331530772e-002
      -6.0402964225649958e-001 -3.8081090637072448e-002
      8.2389640447458043e-002 3.3179376854453248e-002
      8.6964084996620006e-002 -7.1448247191177511e-002
      -2.9429335182554264e-002 1.3076249047497571e-001
      -1.1598275710446936e-001 -9.0912678099785385e-002
      5.6958773923279561e-002 1.1564569568307903e-001
      1.2052914313930972e-001 -9.4784284615978195e-002
      -6.7876669255223412e-002 -3.0585451810149881e-002
      -1.0281536672431928e+000 4.0736457216636802e-002
      1.9992092431849307e-001 7.1832257630004809e-002
      1.3377359518598456e-001 -1.1296098969195442e-001
      -1.8235234892253679e-001 7.4030373366147942e-002
      -1.7728353578815173e-001 -1.0327264531315186e-001
      8.1042818733871605e-002 1.0131932120284327e-001
      2.0713898499771363e-001 -1.6322965315199017e-001
      -1.3176894537678391e-001 -1.2027664969464007e-001
      -1.0418269403555891e+000 -5.9528437202352215e-002
      2.5747079791560684e-001 1.4123838032934963e-001
      1.9301562617335322e-001 -1.2676846410309542e-001
      -1.3636148146470128e-001 2.4399220429877508e-001
      -2.0216631713170580e-001 3.1037822688586816e-002
      1.2987878585856041e-001 2.4797751001100604e-001
      2.4616612836452112e-001 -1.4573861170372895e-001
      -8.2973313968798784e-002 -8.6720654598592281e-002
      -8.8396106751666559e-001 4.1121104240735831e-003
      6.0383379362145675e-002 3.3705419248007053e-002
      2.0536819069506575e-002 -1.2459080574757844e-001
      -8.6276208257796971e-002 -1.7290947286913629e-002
      -2.8474836457624886e-002 -7.7037050675258345e-002
      4.8874002518064188e-002 5.3315834696482073e-002
      2.0213316817093110e-001 -1.3538511231212022e-001
      -9.1430153628496338e-002 -1.5156154749212705e-001
      8.1727999151274489e-002 6.8257093572537064e-002
      4.0823464069556059e-002 -1.5236857429424410e-003
      1.4772230058213544e-002 -4.6871245834687617e-002
      -3.7328625426219383e-002 5.6012958663448555e-002
      -1.3211579236783601e-002 1.5034293981763267e-002
      1.6956642624221859e-002 1.0092058711796840e-001
      1.2186087178604729e-001 -1.0451843973091543e-001
      -1.4707378482455326e-002 -1.3908069694914741e-002
      -1.2461801482905245e-001 7.9959687408723348e-003
      -9.2394588006057348e-004 1.8141748187821563e-002
      -4.1880512709270165e-002 -4.4881619800181356e-002
      -5.5163932367591144e-002 -9.6547530030684892e-002
      7.9661194783974890e-002 -5.5110261853557829e-002
      4.6050550316563237e-002 -1.5141901909194228e-001
      1.0343314786855033e-001 -1.0937748514635987e-001
      -7.4071310059840328e-002 -5.0065353554028164e-002
      3.3525280663006418e-001 1.7419607843865887e-002
      1.9676181119026755e-002 8.8882886150166235e-002
      4.4273422782981856e-004 1.9468047989666167e-002
      -1.3359464572276178e-001 -5.7904426832423020e-003
      -7.2025067077479216e-002 -1.2845282974346678e-001
      5.5035522566208583e-002 -1.7910024903610999e-002
      1.9107388408830004e-002 -1.4211927277713605e-002
      -1.4547624912890836e-001 3.5925612380711368e-002
      1.9841948115429781e-001 2.9336447521234554e-002
      3.3352614956666894e-002 -9.7137773874804629e-004
      7.6907705812426216e-002 -2.4082614713480360e-002
      -1.1291770468794690e-001 -6.0986946927625102e-002
      -1.1722756137539492e-001 -7.1321593735851188e-002
      2.3969168827480434e-002 -9.9531404420993799e-002
      -1.2295127353757060e-002 7.6173187343461955e-003
      -2.6840531662266665e-001 -5.6871419893846129e-002
      -1.4458528361976203e-001 -9.4284389115378980e-002
      2.1302192594837406e-002 1.2831117845301365e-002
      -1.0150486889518708e-003 -3.0165349837977230e-002
      -2.6562765754306029e-002 -4.3357842721064403e-002
      7.9153238961204422e-002 -9.6420809365522567e-003
      -3.8136751379847021e-003 -3.9699949570673118e-002
      5.3100880187884759e-002 -4.2089772883778520e-002
      -2.5470399308041871e-002 1.1050078988443372e-002
      2.4910820841050615e-002 -1.5380830034643434e-002
      -3.4208399995973311e-002 3.7531496887990623e-002
      2.4269178767184995e-002 4.1787555658125641e-002
      -3.7690789179869989e-002 1.3609660986969540e-003
      8.5572032063485990e-003 2.4944531138183366e-002
      8.3886729204256674e-002 1.5666392064853107e-002
      -1.3866916785739557e-002 -1.5731086975700845e-003
      -5.2225977044672911e-002 1.7945758508593406e-002
      -2.2928326252615622e-001 -9.7281919817320830e-002
      2.1866771203875500e-002 6.9051323105305609e-002
      1.0608869362605845e-002 -9.1883964781334787e-003
      -7.9963427526735676e-003 5.9016609604308358e-002
      4.5714752094139451e-002 6.9910638145922438e-002
      7.3004202286773678e-002 6.2373234853456173e-002
      9.0605045936776839e-003 -1.1056475833922049e-002
      4.4785362607610563e-004 3.6158070653229686e-002
      3.7866583260980058e-001 4.1673574264000535e-002
      -3.9528979496973864e-002 -1.5698092803589775e-002
      -6.1010774351070760e-002 8.5593371014900891e-003
      4.0420435039760498e-002 -1.5381716291910355e-002
      8.9858032012091346e-002 -6.3691535409208674e-002
      3.1195270487032762e-002 -1.6043650193220832e-003
      7.2298853035676500e-002 -4.8710954385375982e-002
      6.7851105237053382e-003 1.5739882953891993e-002
      3.7395701431448852e-001 -7.0853800327479260e-002
      -1.3232259066089868e-002 7.1669919168944381e-003
      -4.2466681338632670e-002 7.1112454174550394e-002
      -3.0558722031404535e-002 -1.0336810334310940e-001
      1.5541166122633090e-001 2.5849833099441779e-003
      5.9368383548410668e-002 -3.2001378362848727e-002
      -7.4283894313048040e-004 1.3326433684938225e-002
      5.2117139099768096e-002 1.1469963140702111e-001
      8.0206022330282112e-001 5.3353658193276031e-003
      -1.4672894278345763e-001 5.5101802449873585e-003
      -2.5525755821802237e-001 -5.3273438802497394e-002
      -7.5943122708506394e-002 -1.5038090789678810e-001
      2.7480885931293209e-001 -2.8322286465160706e-001
      1.8538275999836734e-001 -1.3920428838471605e-001
      6.1520419548084647e-002 -6.9555514733623050e-002
      -9.3754155199093428e-002 5.1610716663354816e-002
      1.3879707305103084e+000 -5.5680770805313390e-002
      -1.3700643078304162e-001 2.9378075786125026e-002
      -2.6782666365645424e-001 5.0185454005338817e-002
      -2.5588462240768445e-001 -3.0572164767383742e-001
      1.6236215656536784e-001 -3.9417188410438309e-001
      1.0454881725840832e-001 -2.9004376107394314e-001
      -4.0564110334321828e-002 4.6886444784379651e-002
      -3.0524752980886211e-001 7.6000576772846579e-002
      1.4498934160387906e+000 -6.7140027266251789e-002
      -1.5529747055665144e-001 -1.8197977550972678e-002
      -3.0506470710840777e-001 4.4447015481510345e-002
      -2.7129653414847393e-001 -3.3885339999946179e-001
      1.1849130679122129e-001 -3.9966753770419949e-001
      4.7896755967423515e-002 -3.0132690467795381e-001
      -3.1469206042055962e-002 5.7868719687410010e-002
      -3.4645787203708311e-001 4.4098334379161948e-002
      -7.1776601320485378e-001 7.4181977948923061e-002
      7.7200723955429462e-003 -4.0427573504707073e-003
      -3.0120216709425714e-002 -9.1279875170619681e-002
      -1.5435790490247632e-002 1.7893941108161393e-002
      1.8638132600264139e-002 -1.0454117301811076e-001
      4.1740092818473892e-002 9.3421268406318744e-002
      1.8929029509683182e-001 -1.3797459784887300e-001
      2.9291183769666742e-002 -1.0070950170463168e-001
      -9.6842434662267807e-001 5.7947427709488020e-002
      1.3886936477858711e-001 4.4551109374125562e-002
      6.5507973750037501e-002 -1.6308873093507206e-001
      -1.3515756431391779e-001 7.8978773033909627e-002
      -1.0773946377827655e-001 -1.4214353086945508e-001
      1.1529147164885484e-001 1.5106581941052999e-001
      2.6428999019525173e-001 -1.9955593065367871e-001
      -8.2284852278893553e-002 -1.6307798133954560e-001
      -1.1244273312026307e+000 1.2869527871286995e-001
      4.7480444771931987e-002 -2.7567007370498144e-003
      -6.0180992203648295e-003 -2.2211590695931016e-001
      -8.3378147322881513e-002 2.7909787771972592e-003
      4.3732340161812135e-002 -1.9044767079061456e-001
      1.3325033137962039e-001 1.1178884878210793e-001
      2.9183561192346080e-001 -2.7055264084277797e-001
      4.1569253225253150e-002 -2.0230340527183738e-001
      -1.1269561600548301e+000 1.3052555672100755e-001
      5.5349415973103597e-002 5.7436760693597389e-003
      -8.2476594825753660e-003 -2.1500325048888425e-001
      -8.6993116134439191e-002 4.8134164622125374e-003
      4.6116726398828932e-002 -1.8274884442574682e-001
      1.2546823873424218e-001 1.2077112124630576e-001
      2.9938518416018867e-001 -2.5867934775915014e-001
      4.3429784190084794e-002 -2.0801446329826623e-001
      -8.3550833498391885e-001 4.0977109269646372e-002
      5.5283662040771030e-002 -1.5867259554483944e-003
      7.7263765099648982e-002 -7.5065324911267203e-002
      -4.5923515027468373e-002 -9.2599372258670126e-004
      -4.4815926617487359e-002 -6.9396269249452150e-002
      6.8832111785314412e-002 9.8580362800074248e-002
      1.4998245564680171e-001 -1.0480651122762233e-001
      4.0920352976569971e-002 -6.4771688326280830e-002
      -5.5485799623778309e-001 6.9587398437641848e-002
      3.6834929530040930e-002 2.5812495264492637e-002
      3.4110988360673535e-002 -4.9206252486054487e-002
      4.2619624091278757e-002 5.6606258149380424e-002
      4.3724512823179629e-002 -5.1672442492841877e-002
      6.5345828225069430e-002 1.4541701339973603e-001
      1.4609266132124868e-001 -9.5579524483547021e-002
      8.6634864841446335e-002 -1.0570892635409153e-002
      -5.2895113282349626e-001 3.5322308915497196e-002
      -2.4730246440277999e-002 -6.0757367259646486e-003
      1.3574495550034578e-002 -1.9857853115996343e-002
      4.1210706497192037e-002 -4.5004466672652378e-002
      1.2266540106321144e-001 4.4171888399698236e-003
      2.3994112412624183e-002 5.4188483666922221e-002
      3.5295517633946047e-002 -5.2112949798593003e-002
      1.2714202220352733e-001 9.2182946689687191e-003
      -4.2587310432418979e-001 2.9410437173416192e-002
      5.0677429910965993e-002 -3.6064034337421502e-002
      4.0753908185811864e-002 -4.2025022907420349e-002
      -4.8330014922689686e-003 2.0649999552747902e-002
      -1.0995246508761094e-002 1.7363918649666306e-002
      -2.7358801639566496e-002 1.7676009162253068e-002
      7.1599525909216727e-002 -7.5362928659497147e-002
      -1.9300359915581395e-002 -4.7882682987351370e-002
      -2.0871833101313361e-001 6.6459972093537517e-002
      -4.2791243760670852e-002 -1.8490752728816364e-002
      -4.0598741395955290e-002 -7.7301418168470248e-002
      8.3320836927257183e-002 -1.5978787991528978e-002
      7.0967870356058060e-002 -1.9558657387704709e-002
      3.9786285918078645e-003 6.6018330482892379e-002
      4.7115908590105664e-002 -6.4197162516517609e-002
      8.9508168508483504e-002 -9.0215736301485286e-003
      7.1105627712652636e-002 -2.9034514076143492e-002
      4.5732017731843114e-002 6.1464634966223966e-002
      2.5491304487226269e-002 -4.9808106964971635e-002
      -3.7940671725832840e-002 7.3622888023536961e-002
      -1.8912357441295984e-002 -5.7891458018393523e-002
      1.4690380996143002e-001 1.0186115837923100e-001
      1.4458355232036055e-001 -1.2321795360844189e-001
      -2.4659596486099698e-002 -2.1941552832557949e-002
      -3.1275697830953442e-001 4.2012083957416811e-002
      -6.3424913376812584e-003 3.2732283943492743e-002
      3.7012747541106096e-002 -6.0391121151945421e-002
      3.6304127001999019e-003 6.6805115558018366e-002
      -7.2414160054878218e-002 -7.6186209968558849e-002
      8.4264173802061748e-002 8.0273705765936967e-002
      8.1699874870117040e-002 -8.8700793040084783e-002
      4.5977384418448168e-002 -2.5269801209308199e-003
      -3.9618895221996858e-001 8.0503688708928781e-002
      -1.3114372538334801e-002 6.2849149647939634e-003
      -5.1574726779699584e-002 -1.2268865582713118e-001
      -2.4093116408837077e-002 5.5049574919851456e-002
      3.2484418683519652e-002 -7.8165160817921547e-002
      4.7405159290231133e-002 1.0164424645944337e-001
      1.7262761432055440e-001 -1.9380360107801686e-001
      9.5154217792707795e-003 -1.2604069104452084e-001
      -1.8555556766735141e-002 4.1186284516403403e-002
      4.3738970398810875e-002 -1.2580528550619301e-002
      -4.5364139857456749e-002 -2.3433846960044042e-002
      -1.1816160210690045e-001 -8.4249285089385104e-002
      -3.7578262047281041e-002 -1.9802183390668843e-001
      4.3119821886848653e-002 -1.3370488831480301e-002
      1.2839990692959588e-001 -7.2406449020083877e-002
      -7.9217369171387969e-002 -2.7746025622518877e-002
      -1.2857171312406560e-001 8.7308428720316359e-004
      -3.4866567208612455e-002 -2.2140662075955445e-002
      -1.0034338199604681e-001 -1.3482386421179732e-001
      -4.0633035291014259e-002 -4.6379650121105467e-002
      4.6353344894610779e-002 -8.4204229059815186e-002
      -1.0238859035058778e-002 -5.2314847368500700e-002
      1.5771340054382588e-001 -1.3768798518191910e-001
      -7.5398577122078966e-002 -9.9865269050242594e-002
      1.0190652979043526e+000 -1.8727267964523942e-003
      4.8601376987697405e-003 -2.4400720611781053e-003
      -1.4402447592855505e-001 5.8404412075379164e-002
      -1.6930967385527509e-001 -1.6620140396166039e-001
      2.2804818978317842e-003 -2.1106716622339453e-001
      3.1690500201641762e-002 -1.3869011406654799e-001
      -5.6251714215628185e-003 4.4596222950400770e-002
      -1.7898670348626208e-001 2.0174749620244289e-002
      1.1573587183972778e+000 -3.1708708904684600e-002
      -4.3340494941669798e-002 -4.3304255190008871e-003
      -1.3700378999758972e-001 6.6835752966214718e-002
      -1.0792954564066976e-001 -9.2410168015781960e-002
      -5.8350217157480344e-002 -2.0124278178006041e-001
      3.6452043517361928e-002 -8.1057881919073732e-002
      -5.7140619306429476e-003 4.9331031173006849e-002
      -2.0232108915895200e-001 2.9796080199024633e-002
      -7.3794810681868483e-001 1.2140323372480241e-001
      5.9659908134474908e-002 -5.9126705569443997e-004
      1.9163481760986586e-002 -7.2912940202236709e-002
      -4.6057764745832369e-002 -3.0304396856847538e-002
      -2.4232030340295762e-002 -1.3261330712472652e-001
      2.3649347050918954e-002 4.5486111089924647e-002
      1.3597936340219061e-001 -1.2473462910878672e-001
      4.6271778865578740e-004 -7.4301849599726591e-002
      -1.1258476686336985e+000 1.2991704396987239e-001
      4.1703647412309183e-002 -1.8192061607602966e-003
      -3.5374155738466515e-003 -2.2648966125370329e-001
      -8.0768490603923521e-002 1.3783428811129221e-003
      4.2353252786384722e-002 -1.8872570390610763e-001
      1.2973903128493303e-001 1.1555617539466700e-001
      2.9922305479836270e-001 -2.6596835045407130e-001
      5.1928434458271860e-002 -1.9918396428356727e-001
      -1.1275090293880450e+000 1.3749628423883165e-001
      4.7109154248126534e-002 -1.0641022194574758e-003
      -5.6611259081769671e-003 -2.1482016198971032e-001
      -7.7910168655865031e-002 7.0687033238822717e-003
      4.4468457209797869e-002 -1.9116912574523862e-001
      1.2323911164503015e-001 1.1447141486343967e-001
      2.9072681535443373e-001 -2.6924814405513242e-001
      4.8997339682919500e-002 -2.0228514032983447e-001
      -1.1198195191827198e+000 1.3729989885753610e-001
      5.4749127010179283e-002 -3.9502268723929455e-003
      -9.8482850216358130e-003 -2.2341125900653008e-001
      -8.6563245205340783e-002 6.3746090622800429e-003
      4.7475497767738399e-002 -1.9160824264477980e-001
      1.2673380867453993e-001 1.1305617867148107e-001
      2.9937036835257480e-001 -2.7003138047155312e-001
      5.5125425011030571e-002 -2.0482924773265665e-001
      -1.1262350405241908e+000 1.3098156956677756e-001
      4.6337207123970214e-002 1.0496551223832426e-002
      2.4406117872725097e-004 -2.1753079667823838e-001
      -7.6301114119345120e-002 8.1027273479508024e-003
      5.4887456694908320e-002 -1.7834025323883287e-001
      1.2630570812082276e-001 1.2170343144319756e-001
      2.8839307925915475e-001 -2.7010110826923212e-001
      4.3725494523919495e-002 -1.9678308571525854e-001
      -1.1176629293357783e+000 1.2862629552255506e-001
      4.4589072800477664e-002 -2.1361120367088689e-003
      -4.9119458953012975e-003 -2.2332576743148969e-001
      -8.1685866044693495e-002 -4.7747775461809530e-004
      5.5072379592059427e-002 -1.8436169638066299e-001
      1.3121109086409738e-001 1.1698633748301190e-001
      2.9053302830260708e-001 -2.6580037396652401e-001
      5.1522606932430062e-002 -2.0395832234242417e-001
      -1.1301118188576456e+000 1.2262100492357220e-001
      4.3455379841039962e-002 -3.8348225792503680e-003
      -6.5210576064645732e-003 -2.2755403078580455e-001
      -8.6652395942053678e-002 8.1605532674269340e-003
      5.6255790890094130e-002 -1.8374808320311117e-001
      1.2527600988758514e-001 1.1989731430028305e-001
      2.9787102806221827e-001 -2.5716209795602724e-001
      4.9622719846285093e-002 -1.9935811720165003e-001
      -1.1116928695035853e+000 8.6524569784149657e-002
      4.9966227627106757e-002 -3.3056818107106672e-002
      -1.0570255918273798e-002 -2.1941430675211590e-001
      -7.2596655276298772e-002 -6.5643157343450720e-003
      3.6120159244787335e-002 -1.2945268694269477e-001
      5.2854033577198166e-002 4.6383286110658555e-002
      2.8713482069912405e-001 -2.5931190292131961e-001
      1.3875804346581481e-002 -2.0596254928349711e-001
      -1.1186469318359511e+000 8.4268833136580817e-002
      4.5280137003570003e-002 -3.5959153878627879e-002
      -1.1882776475763395e-002 -2.1115242874236759e-001
      -7.4602205143965067e-002 -1.3852067717293257e-002
      3.6581290869112680e-002 -1.3506424307322290e-001
      5.6369165915202669e-002 3.8461739243250380e-002
      2.8447814891035766e-001 -2.5166926811816287e-001
      1.7646838250068800e-002 -1.9958497576414480e-001
      -1.1279905237499486e+000 1.3254286552562192e-001
      4.1041514801022139e-002 9.9166733744803972e-003
      -3.2548047712144521e-003 -2.2844887736047537e-001
      -8.7544560768453045e-002 5.0246516699057546e-004
      4.5904141265227134e-002 -1.7780318310156965e-001
      1.3137745667904588e-001 1.1501694179430411e-001
      2.9454541243401661e-001 -2.7148948154619007e-001
      4.2262748637081182e-002 -2.0911748405228564e-001
      -1.1245301872858120e+000 8.5842199043968420e-002
      5.4072812695201214e-002 -1.5924582712021188e-002
      -3.4020500546855421e-004 -2.1212807270247785e-001
      -7.3334672284384381e-002 -9.0433871710888444e-003
      2.4094259405725415e-002 -1.2183545279050180e-001
      4.4407956430215785e-002 2.6917879693854712e-002
      2.7990548678319183e-001 -2.5128212499070884e-001
      2.2418623295103243e-002 -1.8861952252956871e-001
      -1.1302832287431046e+000 1.3738169306507014e-001
      5.4854731189029247e-002 2.9196034260538448e-002
      -2.9590669016680477e-003 -2.1294432894589768e-001
      -7.9429598503842638e-002 3.1123087366260239e-003
      4.3083627126484572e-002 -1.7496372816972008e-001
      1.1408564178078978e-001 1.0587893416348274e-001
      2.8095967769562868e-001 -2.6074751983835426e-001
      4.9832872418980254e-002 -1.9859382394086766e-001
      -1.1428142692516541e+000 1.3304358427455296e-001
      5.0829656664149826e-002 2.3778627305991812e-002
      -1.1261076779304468e-002 -2.2069052818589677e-001
      -7.4660783652830173e-002 5.6188150810111354e-003
      4.4342691129293774e-002 -1.7307756770780183e-001
      1.1162045238888080e-001 1.0356057000249450e-001
      2.8298051349914161e-001 -2.5816627123798941e-001
      5.2191148296588885e-002 -1.9161444599627381e-001
      -1.1038685488900806e+000 4.2304107973824147e-002
      6.0793854792708331e-002 -1.4930404503336835e-002
      -4.7773529203757074e-003 -2.0017674846168498e-001
      -8.7292543490409311e-002 -3.1950501757861995e-002
      6.3000125090464298e-003 -9.9418129889900148e-002
      3.3617659217911627e-002 -1.2227247221155859e-002
      2.5956125911105671e-001 -2.4337404547968369e-001
      -6.9779672579650381e-003 -1.8413533596009671e-001
      -3.1555066270359022e-001 1.4606479806612147e-001
      1.7160917479826392e-002 -6.6054202469023299e-002
      2.9904314578503392e-002 -5.2530368987699326e-002
      -1.2549756366266009e-002 -2.5932675732231143e-002
      -1.4406491743650793e-004 -8.6618534766214839e-002
      -4.6312378643855588e-002 1.3635384734238013e-002
      5.5350490613182944e-002 -4.6267906805372107e-002
      5.7979487051706614e-002 -3.2196649985444477e-002
      4.2337186012322992e-003 -5.2618640599358373e-003
      -1.6881408820219026e-003 -6.9085450733327258e-004
      3.3801700250766207e-004 5.7960703698903765e-003
      -2.7497029780888618e-003 1.3461092144755617e-003
      -4.2635487469359660e-003 -4.7835105935539564e-003
      6.1378849264220221e-003 -5.5062433391992400e-003
      -3.0767965173052734e-003 3.3996724191047255e-004
      2.1060202715994509e-003 4.5088856711979824e-003
      -1.1498739036715899e+000 3.6049259863629807e-002
      -8.2709995345902579e-002 -4.7105352471070693e-002
      -4.6281425475499342e-002 -6.0066314442189517e-002
      3.5604371895287944e-002 -2.1008438037215343e-001
      1.6777606790859675e-001 -4.1895146301242352e-002
      -7.3743116058947497e-002 -1.5307402892219371e-001
      4.8826695266915243e-002 -7.0592930845082766e-002
      8.5142215539226088e-002 -9.1311493411982414e-002
      -1.1559593959367207e+000 3.9304176150806398e-002
      4.8897683774227090e-002 -2.6270542639757821e-002
      1.4204866093081098e-002 -1.3762674973141698e-001
      -1.1904160538331870e-001 -1.1422018218187423e-001
      5.4853263034655632e-002 -1.4426021025954247e-001
      1.3063943022462355e-002 -1.0262831079132454e-002
      2.4411653070458147e-001 -1.7161835335507553e-001
      -1.8602051105244797e-002 -1.4044264898702144e-001
      -1.2356296947984018e+000 1.0177274701368764e-001
      5.4335358935075337e-002 6.6486791947051446e-003
      -1.3533195594690307e-002 -1.9002110205686812e-001
      -7.1995019671613897e-002 -5.3624101455289591e-002
      1.1207438834800182e-001 -1.6807949084948587e-001
      1.0366591231271877e-001 6.4027640727341711e-002
      2.6114223757383337e-001 -2.2804321891438262e-001
      4.2321252106418197e-002 -1.7213475112582619e-001
      -1.2381724296089467e+000 1.0247411353726286e-001
      5.3660272340935913e-002 1.5026062098305105e-002
      -1.3987999942105816e-002 -1.8547092880457977e-001
      -7.6389462487242987e-002 -5.0821068977225464e-002
      1.0135443622350190e-001 -1.5965111962262074e-001
      9.4799242089532387e-002 7.6337480410046982e-002
      2.6251432773282934e-001 -2.3153717339029473e-001
      4.1078127580962874e-002 -1.7551314845538210e-001
      -1.3071475145531137e+000 1.0262132619133560e-001
      3.5385411857492118e-002 6.0973977319470664e-003
      -2.3572506870296456e-002 -1.4717663780575016e-001
      -8.8414737008945893e-002 -8.3920785101522857e-002
      1.2966825511206215e-001 -1.5594194798771785e-001
      2.6352770578432858e-002 5.1964416164690629e-002
      2.1995522839290624e-001 -1.8490476260921235e-001
      3.2069917779393213e-002 -1.4195820313461299e-001
      -9.8946466560864410e-001 1.4788287575851977e-001
      4.6063649625309858e-002 5.0225639948693482e-003
      -1.8329976848686463e-002 -2.2019416577544257e-001
      -8.5320803109939877e-002 1.7996766678998275e-002
      4.0148563399877296e-002 -1.7922370999289236e-001
      5.1285212172934760e-002 1.3388656783352865e-001
      2.9744522645123972e-001 -2.5045399501600846e-001
      3.6430529353417486e-002 -2.0484734492764034e-001
      -1.3647450099423539e+000 9.1651948740019515e-002
      3.8204161692992046e-002 1.2665356801790430e-002
      -2.0976946568499667e-002 -1.6123319459329769e-001
      -8.0612135633854068e-002 -8.9423876028751556e-002
      1.4062186417437678e-001 -1.5857734621899511e-001
      8.1004260246742080e-002 4.0453150104524119e-002
      2.2406569446560226e-001 -1.8983352568439829e-001
      4.7068896724246370e-002 -1.4039802460829523e-001
      -1.2169157561871327e+000 6.1712331825641197e-002
      3.4366524118539757e-002 -1.8814963763785386e-002
      -2.2573226172996189e-002 -1.5154281589291194e-001
      -7.6356451670104797e-002 -9.2995354692180066e-002
      1.0317751574610121e-001 -9.7974428718658260e-002
      -5.2600106765860445e-002 -1.2173565770880837e-002
      2.1599805135594191e-001 -1.9249011998361704e-001
      -7.6696935255038722e-003 -1.3322855781733758e-001
      -1.3031773141665097e+000 1.0412614775965573e-001
      2.7223084024791001e-002 8.1225074974530711e-003
      -1.5803619598214583e-002 -1.4998658491725539e-001
      -9.3388576677276264e-002 -8.6066795582194280e-002
      1.2981792437371936e-001 -1.4865754128888659e-001
      2.3665928354079799e-002 6.0654425214955877e-002
      2.2066149505908841e-001 -1.9530028275090566e-001
      2.9382627889535936e-002 -1.4381555901281884e-001
      -1.3613499566058918e+000 9.4961876551998545e-002
      3.9220373832154203e-002 1.0741622827447160e-002
      -6.5960263990089219e-003 -1.5143814318528717e-001
      -8.7393210123139844e-002 -8.3464830838288318e-002
      1.4052734734889527e-001 -1.5446514023952990e-001
      8.2995141967095662e-002 3.8114570312197213e-002
      2.1662361640900757e-001 -1.9200440324382415e-001
      3.8093110791444479e-002 -1.4570415794449401e-001
      -1.3750607749353254e+000 9.5420213420102845e-002
      4.1798269376614204e-002 2.8892353983697650e-002
      -1.7359790839650616e-002 -1.5156823102645822e-001
      -7.9868256383627503e-002 -8.8283088913457347e-002
      1.4025042868764764e-001 -1.5493307325413475e-001
      7.3389747509448863e-002 2.6275132889648008e-002
      2.1972313740521068e-001 -1.9194048856646154e-001
      4.8779351026695977e-002 -1.3612268368084809e-001
      -1.1295350316633506e+000 9.2701840832279725e-002
      4.4560267731364081e-002 -5.2116538350010172e-003
      -9.5279744760536911e-003 -2.0436971354164257e-001
      -6.5744831408076423e-002 -4.8131749114628340e-003
      2.7493217373214755e-002 -1.2300273986810768e-001
      5.2920916412850884e-002 2.2313434035842582e-002
      2.7879266596630109e-001 -2.4663326299669475e-001
      1.7163769613440068e-002 -1.9164477389301554e-001
      -1.3698830390063013e+000 1.0615610016262339e-001
      5.4700255683396759e-002 8.1911249895986315e-003
      -5.9726225828926165e-003 -1.3311864261221326e-001
      -6.9790152658953011e-002 -9.7012332555480696e-002
      1.2896526277170173e-001 -1.4003864376174949e-001
      4.9397114417550285e-002 1.1672680323270285e-002
      2.0513828157578859e-001 -1.6878468223145698e-001
      5.2509775016341569e-002 -1.4202680592773237e-001
      -1.1152540314112960e+000 3.8034175205572278e-002
      6.0972585903389949e-002 -2.0331300314124317e-002
      4.6861247075000801e-003 -1.8845727763353909e-001
      -8.3742889990024924e-002 -3.3661500885034161e-002
      1.1379657782101871e-002 -1.1187386508125316e-001
      2.9233821963366872e-002 -1.0442370399138897e-002
      2.5997399127605153e-001 -2.3990521326028466e-001
      -1.1119721042336763e-002 -1.8147798658023051e-001
      -3.0465148722764912e-001 1.4668776394143981e-001
      1.0245384506362530e-002 -5.5922671408296924e-002
      3.5970635345698825e-002 -4.5307618527960454e-002
      -6.7650474602313935e-003 -1.3910724274298769e-002
      8.5106981957939216e-003 -9.1446007195126244e-002
      -4.7538156616156728e-002 1.0811794874627136e-002
      5.4148093061790921e-002 -4.9908702752018079e-002
      5.5870238286201336e-002 -4.0835505890720276e-002
      -1.9163060308137075e-003 6.7067083452493886e-003
      -1.5761907415438659e-003 -5.7954402707015664e-005
      5.7185370122441658e-003 -2.3250065311567850e-004
      7.4673193319568327e-003 -6.1500518750802679e-003
      5.2831930125424951e-003 4.6988195033172116e-003
      5.4171943678812814e-005 -3.6417664371222662e-003
      6.5883845897516877e-003 2.1576276777728392e-003
      -1.4684823748693423e-003 -5.2403160177466462e-003
      -1.2436753294554443e+000 -6.4172774398396276e-002
      5.7301407908522638e-002 7.1882627117522161e-003
      2.4520789425259246e-002 -8.8286540459025162e-003
      -1.1090374845089146e-001 -2.3107928311122239e-001
      -5.7898660681173851e-002 -9.8892990376473894e-002
      -6.2676792438950857e-002 -1.4552430672867242e-001
      -5.7231701376194148e-002 7.0896336702462565e-002
      -8.5196731057357922e-002 -6.8069709129396555e-002
      -1.2264815377099025e+000 2.5165305492770237e-002
      1.2932491784262873e-001 3.3795606224096331e-002
      2.9275900176380452e-002 -4.6902711296062986e-002
      -1.2983995503695095e-001 -1.6693416258084506e-001
      3.4647339693524806e-002 -4.5708950236910836e-002
      1.1261840102578189e-002 -1.0086736273066708e-001
      8.5594077335619162e-002 -3.9343553802451865e-002
      -1.9881509152111315e-002 -1.1078718555800661e-001
      -1.2384312687453629e+000 -1.4486803644018409e-001
      1.3779707399366450e-001 2.2130228956199021e-002
      1.5029297856100918e-001 7.3245749870435070e-002
      -2.6997996187488588e-001 -2.5273196493060995e-001
      -4.2030988650929253e-002 -1.1536319800247047e-001
      -7.7873639411587689e-002 -2.0960308089988477e-001
      -9.9706416230351310e-003 8.7178787270607086e-002
      -1.9260843775221698e-001 -2.1386911741646700e-003
      -7.0263727704179413e-001 -8.5214540445930881e-002
      5.8894622684466297e-002 -2.6832741832276321e-003
      3.4070623265177145e-002 2.1304628485326800e-003
      -1.8571330102372563e-001 -2.2982665252258988e-001
      -5.1952224094543538e-002 -8.2303526003726299e-002
      -5.5849693106189389e-002 -2.2786807490161465e-001
      5.8316463712199763e-002 1.5622550842283653e-002
      -1.4470744427013588e-001 -5.7951152067257393e-002
      4.1977728888853004e-002 4.2991680542567905e-002
      5.4364603823006848e-002 5.6368870910627658e-002
      -1.6594551052884893e-002 -4.7588946750215494e-002
      -1.0635006767425814e-001 -9.4881632298458394e-003
      -9.3798379496539602e-002 -7.1415574060462991e-002
      5.0438013522045994e-002 7.4703845535087857e-003
      8.3159566575012764e-002 -2.8153713165805557e-002
      -1.4099513518976195e-001 -6.0866583809364480e-002
      -5.6415663428244067e-001 7.6792302836611898e-002
      5.4691813491805269e-002 6.9736464421935582e-002
      1.4494820438126807e-001 -2.2093797373870887e-002
      -1.5177463922222028e-002 1.2122931369897150e-001
      -7.3058152114544625e-002 1.0160866372894653e-001
      1.5688262676681246e-003 1.0968457346477480e-001
      5.0120878306002779e-002 -2.8226262414389434e-002
      6.6950965558569588e-003 -8.6148188616584118e-002
      2.1668776931366704e-001 7.8753855835522343e-002
      2.1529600999147597e-002 1.3374911639643714e-002
      3.5395836542214711e-002 -4.0202676063519738e-002
      -4.5781113283870044e-002 -1.6494397955466089e-002
      -1.6810369556722347e-002 -7.9551140557566652e-002
      6.3314152587154032e-002 -1.2601666378634234e-002
      1.0102320737343320e-001 -7.0503080048725589e-002
      -2.5339327400166770e-002 -5.5422318380130058e-002
      1.0022440949067636e-001 7.9475073062877932e-002
      4.6354433199929795e-002 2.2435793342426631e-002
      6.7111005609678129e-002 -1.7830911701775039e-002
      -7.1648004073075044e-003 1.5418677787394202e-002
      -6.5561619714962202e-002 1.2094710787067715e-002
      2.0961427850929238e-002 3.2408675566005185e-002
      6.2660196619288275e-002 -4.1437274555851361e-002
      4.8934014791327397e-002 3.4997192782051292e-003
      -1.0887365623817102e-001 1.5172673581725065e-002
      -3.0700808866081088e-002 -7.3578778057450653e-002
      -7.3912259220979909e-002 -8.6778699007951307e-002
      -1.0290452591611873e-002 -1.2702626346465573e-001
      9.1264228023208258e-002 -8.5548462368289585e-002
      -5.1383224669343606e-002 -1.5339387906057692e-001
      1.1144174445962535e-001 -1.0559291458760856e-001
      1.9785607706103266e-002 -1.3061252743574292e-001
      4.8359601733979143e-002 2.3689515656450272e-001
      -1.3854612909331715e-002 -2.7882771434359743e-002
      -3.0927480716731383e-002 -4.8355666005490801e-002
      2.8057758792486953e-002 -3.7528719514765489e-002
      -2.4114249468269382e-002 -4.1141103003980564e-002
      -5.5238892246547787e-002 1.8267075460091639e-002
      3.6530757224245515e-002 -4.8694550032270391e-002
      1.4546942443521341e-001 -6.4412235940627852e-002
      -2.4935224817229318e-001 1.2271046978869624e-001
      2.9714670607608476e-002 2.0388682962039738e-002
      2.4471478851768879e-002 -4.0099092017473574e-002
      3.3209676768696662e-002 3.3002025353186991e-002
      9.4607256415706525e-002 -1.6638450138164125e-002
      6.3004096546830937e-002 9.3927112404067356e-002
      8.6944689007216955e-002 -6.8482941514064061e-002
      1.2019970412072016e-001 -3.1752723649947391e-002
      -3.3607631479154049e-001 1.4677367297712071e-001
      -7.4508010735305399e-002 -5.9807475612490085e-002
      -9.6698057859724365e-002 -5.1726349040802311e-002
      1.3271060454054415e-001 2.3486530241454823e-002
      1.0517045947491541e-001 1.3924905103742736e-003
      -1.7624587936317621e-002 5.4807710244321343e-002
      3.1973512139590135e-003 -3.4695789337844195e-002
      2.1273473607695931e-001 -1.3771632581198623e-002
      -1.6308251835558801e-001 3.6491427471117957e-002
      2.0964182616065523e-002 2.4269019492446704e-002
      -7.0060041680288909e-004 -1.2375827482318753e-002
      1.8117755945026954e-003 -3.1598498197979982e-002
      8.3147106886256206e-002 8.7309531235941762e-002
      -2.9356997761755370e-002 -4.2910626792266975e-002
      8.6960939553200500e-002 -6.2005890682391929e-002
      2.5858790125817575e-002 -4.8991440017338704e-002
      -7.4577165927635880e-001 3.9582653490011638e-002
      1.8403330074491683e-002 5.2087519555481805e-002
      3.2668106264709443e-003 -1.5854115616110918e-002
      5.7338332492965299e-002 7.8931429897546677e-003
      1.1318692103554626e-001 6.3648580571647836e-002
      -2.8087195252921082e-002 2.9482982881763965e-002
      5.9526762824381907e-002 -7.9514577241626666e-002
      1.5648394673224064e-001 5.3544965820200921e-002
      -2.3444542030932289e-001 -5.7563335067010286e-002
      -3.2387049873505318e-002 1.4172081190042901e-001
      9.6923396090295068e-006 3.0443742202520183e-003
      9.4639769306933214e-002 8.7893368210665554e-002
      1.9069980909810033e-001 1.3897864440116472e-001
      1.1626849120236361e-001 7.6214783199111430e-002
      -6.5990596804964058e-003 2.0146137752775394e-003
      1.6809120901338409e-001 1.1761616193044398e-001
      -1.0814195208217232e-001 1.3603733684713092e-003
      -7.3300398668560598e-002 3.6052086322986732e-002
      -5.4097756140002860e-002 -6.2109822427101535e-003
      1.1166196730773936e-001 8.7599173625843400e-003
      1.0350364008842966e-001 1.1473256955356624e-001
      -1.1321879636782262e-003 9.0081092181125338e-002
      -1.0533437285618124e-002 1.9951918313057884e-002
      9.1019973918444824e-002 4.8591547698658338e-002
      -1.1089984571586775e+000 -5.7727311059117381e-002
      5.4919811288730164e-002 -1.3807851744240518e-002
      1.2180692104336782e-001 5.5439350267551028e-002
      -6.9607576695570994e-002 -1.9395290774349927e-001
      -7.7777099483179624e-002 -3.4028018976810709e-002
      -5.7925137395970223e-002 -2.0053301541897584e-001
      -7.8727436715342478e-002 8.9588808012964274e-002
      -2.2390561496906370e-002 -2.2234760288819298e-002
      -1.2649723217041533e+000 -5.4640592190712996e-002
      1.0131436488561849e-001 -2.5859839673761480e-002
      8.7362872248795534e-002 -8.6595409227944679e-003
      -1.8483984639333367e-001 -2.7417474434089834e-001
      -2.6686103016030579e-002 -1.2019304416411217e-001
      -1.0610163312275936e-001 -2.1264288308247456e-001
      1.5805106070165015e-002 3.2377593729504751e-002
      -1.0994509819637635e-001 -9.2881510319447358e-002
      -1.0318087614939191e+000 -7.8769353270776402e-002
      1.4115345393887566e-001 9.9632068726574610e-002
      1.2433143232363524e-001 2.0037231198614287e-002
      -1.4690271331857557e-001 -9.7080908277262568e-002
      -1.1255070767172880e-001 -2.6527945751185104e-002
      2.5747168796611451e-002 -7.8319589737134723e-002
      -1.0215277890545181e-003 6.8996363923222739e-002
      -1.1257200232730052e-001 -5.1870742480840448e-002
      -1.1673893370001496e+000 -6.4249445073191885e-002
      8.9271141509597557e-002 -1.1347079134886352e-002
      5.1368814003955848e-002 -6.2732575114571740e-002
      -1.4389719976282481e-001 -2.3200356435416306e-001
      4.0302173015300022e-002 -6.4675839972090851e-003
      -9.0746160026083406e-002 -1.8864740467622815e-001
      5.6287838957584366e-002 -3.1407857044226294e-002
      -3.5180899705152362e-002 -3.6099160875085454e-002
      -4.2929654152078461e-001 3.9768635088718420e-003
      -2.1490353145305070e-002 1.1736346331185813e-002
      -5.7517568144561694e-002 -4.2752815096787890e-002
      -6.4011566688562699e-002 -1.4168663526095310e-001
      8.5533103193639409e-002 -7.6014247381091544e-003
      -3.7012542625153938e-002 -1.7963278790634485e-001
      4.6747865919582070e-002 -4.3421835722116456e-002
      -7.8262310967838838e-002 -8.5747099529127180e-002
      -3.7219976575002467e-001 8.1526784006211495e-002
      -2.0610021938438836e-002 -1.0234802720980408e-002
      -2.2480470870351238e-002 -5.3588304827869186e-002
      -1.4758325082574951e-002 -2.3048450064909468e-002
      1.1607240515656618e-001 2.6418475441208528e-002
      2.7046255331553144e-002 -3.5317882631559633e-002
      3.4691224062955391e-002 -5.4364762770221613e-002
      7.4276631373738508e-002 -4.7637067399559259e-002
      2.6427874965789977e-001 5.2059521207709174e-002
      4.4009273725459805e-002 -3.2728938181447925e-002
      1.0130013145863424e-001 -4.3813160315732534e-002
      1.4967754943966032e-002 1.2067419856930663e-001
      -1.6822750555938484e-001 4.7357915238952310e-002
      -5.7118354199368157e-002 9.8810967943540176e-002
      3.0557266078246801e-002 -3.3798264085385547e-002
      -6.9254329974181045e-002 -3.5313465856387415e-002
      -3.0008517042400006e-002 5.3802660043684829e-002
      2.5061244682495449e-002 2.6286679184055466e-002
      2.2653236893190102e-002 -2.1273857735140136e-002
      -1.0470314823310923e-002 1.9802499499990148e-002
      -1.1721623910615974e-002 3.1560814945151894e-002
      -3.7114880163537943e-002 -1.7673859807196054e-003
      4.4844556668707083e-002 -2.4065704343864073e-003
      -2.2194654362850549e-002 -2.0704974799398528e-002
      1.7458224223722313e-001 -4.6357024956292438e-002
      5.0178510078983739e-002 6.0691687049365679e-002
      6.1005182451160218e-002 1.4726000637717975e-002
      -1.2670951720393575e-001 2.5951319933695309e-002
      -1.0280326974764442e-001 -7.0629273688994437e-002
      7.7459916829879967e-003 5.8913466623060247e-003
      9.4408079258875600e-003 -2.5995730529316894e-003
      -1.3624982608586389e-001 5.7119577746920662e-002
      -4.1685814428698753e-001 -6.3469790221321737e-002
      -3.0389473572937697e-002 3.4798810916018261e-002
      -4.8606893370810041e-002 3.2714337936051628e-002
      -6.8104133075949605e-002 -5.0828579437861773e-002
      1.0997556833007888e-001 -4.4756422459192917e-002
      3.5294804696940081e-002 -4.1253909474666332e-002
      -1.9492366474837666e-002 6.2878332823559794e-003
      2.3075140403939702e-002 6.5707101354790298e-002
      2.1343174865737349e-001 2.2777208385593838e-002
      4.3987409937513322e-002 4.9267753362888453e-002
      -6.3036016077619873e-003 3.9610890612364232e-002
      -8.2254736425764349e-002 -8.1736443920352817e-003
      -1.2783497585622774e-001 -2.1863272572855700e-002
      4.2730948864217163e-003 2.1223318790661510e-002
      -7.9061754010367503e-003 4.1670315182055093e-002
      -1.3638145964157974e-001 4.0486780893260063e-002
      -4.1307724835223503e-001 2.0425171492068109e-001
      -4.2449021966549851e-002 5.0611251860492236e-002
      1.7278633295488843e-002 -4.4131003940792744e-002
      3.8881597620323900e-002 -2.6342267151243933e-002
      9.5758224359590222e-002 3.8400981630172727e-002
      3.4540250885809892e-002 2.0563377668481538e-002
      1.9610904695484863e-002 -2.5328888861803359e-002
      1.6588272050967928e-001 -5.3829525427858113e-002
      2.2329426594707663e-001 8.7151399581295048e-003
      2.0665626618465514e-002 7.4433671619686642e-002
      2.6571397065262889e-002 -9.0019024726039152e-003
      -2.5344324452073280e-002 -1.0005327556105283e-002
      -2.9128752287259588e-002 1.6127210095466566e-003
      -2.7425742122168840e-002 1.2166205561399851e-002
      9.0593295754269228e-003 2.7113861789656808e-002
      -8.7761443487099869e-002 3.9341094744044403e-002
      -4.7960829254669163e-001 1.3562816672911165e-001
      9.4366440903608591e-004 -5.2724736780571893e-002
      -1.9470309010604810e-003 -7.2196495420613752e-002
      5.6536975132975918e-002 7.4826656513562101e-002
      5.5130581363521086e-002 -1.7856254254792033e-002
      -6.0286995572783140e-003 7.2751414579728349e-002
      7.3594957019617685e-002 -9.6019742312892023e-002
      1.3698547083722909e-001 -2.0451192442236558e-003
      -3.8028670193527131e-001 -4.8452852163284120e-002
      -5.1072470176994997e-002 8.9615795653757893e-002
      -2.3499804940525122e-002 -1.7951771754071970e-002
      1.0467015359324824e-001 7.8225279757163771e-002
      1.9809691099828888e-001 1.5282547734030033e-001
      5.2082313252013894e-002 5.8104140978851589e-002
      -8.1732308974271466e-003 -2.5469348196192513e-002
      1.0793549041658407e-001 7.1833846796521647e-002
      -1.2994087098377258e-001 -1.2996521558190133e-001
      -4.0834327906635118e-002 1.7906620153223807e-001
      -1.6619351916814334e-002 1.4310000550518622e-002
      9.2774804167073815e-002 1.0287049420173747e-001
      2.0908732899996171e-001 1.7709713748634917e-001
      1.4214465753170444e-001 7.7108583257201671e-002
      -2.7667014175697183e-002 2.1705627557353550e-002
      1.5596612256649683e-001 1.3957622624075697e-001
      -7.9072947586813680e-001 -9.1449984062773285e-002
      5.1414643707782544e-002 -3.0321645064686768e-002
      3.7303110384322470e-002 2.0685596298810091e-003
      -1.7195711210100839e-001 -2.3677141347536496e-001
      -6.0635840384459391e-002 -1.0241395351561779e-001
      -7.0412238259805221e-002 -2.6982419309044764e-001
      -9.7737378928127658e-003 2.4570937644471432e-003
