<?xml version="1.0"?>
<opencv_storage>
<DigitOCR type_id="opencv-ml-ann-mlp">
  <layer_sizes type_id="opencv-matrix">
    <rows>1</rows>
    <cols>3</cols>
    <dt>i</dt>
    <data>
      256 16 10</data></layer_sizes>
  <activation_function>SIGMOID_SYM</activation_function>
  <f_param1>5.9999999999999998e-001</f_param1>
  <f_param2>1.</f_param2>
  <min_val>-9.4999999999999996e-001</min_val>
  <max_val>9.4999999999999996e-001</max_val>
  <min_val1>-9.7999999999999998e-001</min_val1>
  <max_val1>9.7999999999999998e-001</max_val1>
  <training_params>
    <train_method>BACKPROP</train_method>
    <dw_scale>1.0000000000000001e-001</dw_scale>
    <moment_scale>1.0000000000000001e-001</moment_scale>
    <term_criteria><epsilon>9.9999999747524271e-007</epsilon>
      <iterations>1000</iterations></term_criteria></training_params>
  <input_scale>
    2.0312015226903570e+000 -1.1929278784054478e+000
    2.1343672769426978e+000 -6.9451633614802077e-001
    3.2437617673349051e+000 -3.4497148954196610e-001
    2.9719626285948890e+000 -3.8682688181711256e-001
    2.4571909803047727e+000 -5.1484001492099996e-001
    2.1888594868976350e+000 -6.4970908579342501e-001
    2.0976705483678848e+000 -7.3251987403322960e-001
    2.0933120849258624e+000 -7.3764330611673257e-001
    2.0809425926347225e+000 -7.5310303352494712e-001
    2.1067524290009612e+000 -7.2231511851461527e-001
    2.1114801231761420e+000 -7.1723293072967365e-001
    2.1316898188498814e+000 -6.9702873441758029e-001
    2.1600691233179368e+000 -6.7202150503224700e-001
    2.1316898188498814e+000 -6.9702873441758029e-001
    2.2528754005342773e+000 -6.0791875887432878e-001
    2.1541010921383230e+000 -6.7700320038633011e-001
    2.4241350235737369e+000 -5.2715317179301902e-001
    4.2531660713798818e+000 -2.4978911847786608e-001 1. 0. 1. 0.
    2.7365451294073373e+000 -4.3437224276306940e-001
    2.4640790075490093e+000 -5.1237198410939722e-001
    2.2135943621178655e+000 -6.3245553203367588e-001
    2.2135943621178655e+000 -6.3245553203367588e-001
    2.2135943621178655e+000 -6.3245553203367588e-001
    2.2135943621178655e+000 -6.3245553203367588e-001
    2.2365751949221009e+000 -6.1772076812134213e-001
    2.3699623173613267e+000 -5.4922936243611697e-001
    2.2973736160918392e+000 -5.8345996599157823e-001
    2.8317538389536332e+000 -4.1352595743449883e-001
    2.8577380332470410e+000 -4.0824829046386296e-001
    2.8577380332470410e+000 -4.0824829046386296e-001
    2.3932411756584910e+000 -5.3942896340239010e-001
    2.7707100360357257e+000 -4.2660138650073876e-001
    8.9310056396989470e+000 -1.1340959542474853e-001
    8.9310056396989470e+000 -1.1340959542474853e-001
    2.6341623315223357e+000 -4.5993310550389988e-001
    2.2973736160918392e+000 -5.8345996599157823e-001
    2.1854983862503929e+000 -6.5218047081757757e-001
    2.1854983862503929e+000 -6.5218047081757757e-001
    2.1854983862503929e+000 -6.5218047081757757e-001
    2.1854983862503929e+000 -6.5218047081757757e-001
    2.3069650051233470e+000 -5.7857217588807752e-001
    2.3268946049775860e+000 -5.6879645899452103e-001
    2.3069650051233470e+000 -5.7857217588807752e-001
    2.7824944350166949e+000 -4.2399915200254401e-001
    2.8066885815677565e+000 -4.1877575661487160e-001
    2.7824944350166949e+000 -4.2399915200254401e-001
    2.0091324675867477e+000 -9.0889325914638586e-001
    2.3532868990487321e+000 -5.5657102850517626e-001
    2.2880215766121470e+000 -5.8834840541455202e-001
    2.4853279621975997e+000 -5.0495552247824249e-001
    2.0147135728490047e+000 -1.1288791924058710e+000
    2.6533431525261624e+000 -2.1984843263788205e+000
    4.5542300892341379e+000 -4.3229041164476421e+000
    3.4588245932564785e+000 -3.1403931227661994e+000
    4.0089186286863674e+000 -3.7416573867739431e+000
    2.4436967544349715e+000 -1.9239263336503902e+000
    2.3814483610392010e+000 -1.8371173070873836e+000
    2.1854983862503925e+000 -1.5333179154328149e+000
    3.0034071561236169e+000 -2.6220221204253797e+000
    2.1991973757009444e+000 -6.4230526528408538e-001
    2.2880215766121470e+000 -5.8834840541455202e-001
    2.3372480557066306e+000 -5.6390746740858388e-001
    2.0347898934778801e+000 -8.3006508352986541e-001
    2.0198014504012658e+000 -8.6883522707736993e-001
    2.2528754005342773e+000 -6.0791875887432878e-001
    2.0976705483678848e+000 -7.3251987403322960e-001
    2.0911775762796583e+000 -1.3509671008663824e+000
    4.1496790239200303e+000 -3.8927941319630759e+000
    3.6994873829426314e+000 -3.4058772731852796e+000
    5.3319035640528893e+000 -5.1372467672700060e+000
    4.4256591310867641e+000 -4.1868140351233514e+000
    5.8471353071272070e+000 -5.6707931311979740e+000
    2.7040619028921169e+000 -2.2619692425780089e+000
    2.9567039404833526e+000 -2.5671699292768158e+000
    3.0530408919874130e+000 -2.6798914496333959e+000
    2.0044593143431828e+000 -9.3541434669348533e-001
    2.3478713763747794e+000 -5.5901699437494745e-001
    2.2834331777865144e+000 -5.9079302853841564e-001
    2.0139413540697850e+000 -8.8869158163714324e-001
    2.0385894327999292e+000 -8.2190748560505089e-001
    2.1600691233179368e+000 -6.7202150503224700e-001
    2.0559710905871591e+000 -7.8975397447951201e-001
    2.0171596353142247e+000 -1.1398552859870856e+000
    2.2248708975397871e+000 -1.5997881215643230e+000
    2.1398266546446330e+000 -1.4503269548146958e+000
    2.1661894674410958e+000 -1.4991406473084408e+000
    2.1316898188498814e+000 -1.4346610844323013e+000
    2.1482821693319916e+000 -1.4662878298615181e+000
    2.0608824470428373e+000 -1.2790556139583324e+000
    2.4640790075490093e+000 -1.9517070234396121e+000
    2.3372480557066306e+000 -1.7733405882980466e+000
    2.0608824470428373e+000 -7.8182683308450496e-001
    2.3992558564407398e+000 -5.3697631072721319e-001
    2.4503974655279857e+000 -5.1730613161146366e-001
    2.0025849979991150e+000 -9.5043319746307198e-001
    2.3587731342088563e+000 -5.5412448232208056e-001
    2.0625716183134752e+000 -7.7919372247397956e-001
    2.2700086659705114e+000 -5.9812926754143636e-001
    2.0117530851686265e+000 -1.1144473440061122e+000
    2.6247949459044642e+000 -2.1623310744832014e+000
    3.9234254347972395e+000 -3.6494084203034642e+000
    4.1496790239200303e+000 -3.8927941319630759e+000
    5.2239452486024467e+000 -5.0249378105604485e+000
    2.7477403519260086e+000 -2.3159525823376357e+000
    3.7338291614026020e+000 -3.4434202266268441e+000
    2.2700086659705114e+000 -1.6718793984290752e+000
    2.2287239965467553e+000 -1.6060963403686142e+000
    2.0335704689567691e+000 -8.3279552538229584e-001
    2.2656447723614535e+000 -6.0057567775295673e-001
    2.2700086659705114e+000 -5.9812926754143636e-001
    2.0017053785582086e+000 -9.5954765765806194e-001
    2.5975461539752907e+000 -4.7003216119552876e-001
    2.5975461539752907e+000 -4.7003216119552876e-001
    2.5975461539752907e+000 -4.7003216119552876e-001
    2.7591270276823461e+000 -4.2919753763947605e-001
    2.3320381162846937e+000 -5.6635211395485419e-001
    2.1570662718411957e+000 -6.7451119929002468e-001
    2.1454276559092884e+000 -6.8449358545677297e-001
    2.1370794401599271e+000 -6.9200667586130982e-001
    2.1426092732951916e+000 -6.8699535429464875e-001
    2.2173066679567324e+000 -6.2999665645119851e-001
    2.1114801231761420e+000 -7.1723293072967365e-001
    2.2528754005342773e+000 -6.0791875887432878e-001
    2.7040619028921173e+000 -4.4209266031410810e-001
    3.1058987489442358e+000 -3.6481985305059278e-001
    3.1819805153394642e+000 -3.5355339059327379e-001
    2.0497806247879549e+000 -8.0039052967910618e-001
    2.8577380332470410e+000 -4.0824829046386296e-001
    2.8577380332470410e+000 -4.0824829046386296e-001
    2.8577380332470410e+000 -4.0824829046386296e-001
    2.8577380332470410e+000 -4.0824829046386296e-001
    2.8577380332470410e+000 -4.0824829046386296e-001
    2.8577380332470410e+000 -4.0824829046386296e-001
    2.8577380332470410e+000 -4.0824829046386296e-001
    2.8577380332470410e+000 -4.0824829046386296e-001
    2.8846927969382015e+000 -4.0294121608025674e-001
    2.8577380332470410e+000 -4.0824829046386296e-001
    2.8577380332470410e+000 -4.0824829046386296e-001
    2.8846927969382015e+000 -4.0294121608025674e-001
    4.4256591310867641e+000 -2.3884509596341269e-001
    8.9310056396989470e+000 -1.1340959542474853e-001 1. 0.
    2.0497806247879549e+000 -8.0039052967910618e-001
    2.7365451294073373e+000 -4.3437224276306940e-001
    2.8317538389536332e+000 -4.1352595743449883e-001
    2.8317538389536332e+000 -4.1352595743449883e-001
    2.7255366514447528e+000 -4.3695111396177788e-001
    2.6631634154560553e+000 -4.5231505627586971e-001
    2.5547983011164677e+000 -4.8257301243311057e-001
    2.4926120858896321e+000 -5.0247894429838613e-001
    2.5074937193291729e+000 -4.9751859510499458e-001
    2.6436772809071996e+000 -4.5739813272838847e-001
    2.5630941849349700e+000 -4.8007160924178804e-001
    2.5385690047463623e+000 -4.8756642789572990e-001
    2.4640790075490093e+000 -5.1237198410939722e-001
    3.2653446712483953e+000 -3.4208372746411764e-001
    4.0089186286863656e+000 -2.6726124191242440e-001
    3.4588245932564785e+000 -3.1843147049027898e-001
    2.0256815859918142e+000 -1.1736091728365274e+000
    2.0012205671729304e+000 -9.6566833717550926e-001
    2.0412414523193152e+000 -8.1649658092772615e-001
    2.0439899062476079e+000 -8.1110710565381261e-001
    2.2528754005342773e+000 -1.6449566416599484e+000
    2.5000000000000004e+000 -2.0000000000000004e+000
    4.5542300892341379e+000 -4.3229041164476421e+000
    4.2003733831184862e+000 -3.9470175282637201e+000
    3.8437506809366204e+000 -3.5630958693126766e+000
    3.4588245932564785e+000 -3.1403931227661994e+000
    2.5466240628814960e+000 -2.0615528128088303e+000
    2.0849500138044283e+000 -1.3370155644079191e+000
    2.3478713763747789e+000 -1.7888543819998315e+000
    2.2926681095070043e+000 -5.8590407242956777e-001
    2.9719626285948890e+000 -3.8682688181711256e-001
    3.6994873829426322e+000 -2.9361010975735174e-001
    2.0008168266626032e+000 -9.7182531580755016e-001
    2.0000100781814929e+000 -9.9683041991902976e-001
    2.0124611797498106e+000 -8.9442719099991574e-001
    2.0008168266626032e+000 -9.7182531580755016e-001
    2.0911775762796583e+000 -1.3509671008663824e+000
    3.2874537167989617e+000 -2.9482719841133544e+000
    4.3656412506539928e+000 -4.1231056256176597e+000
    5.3319035640528893e+000 -5.1372467672700060e+000
    4.5542300892341379e+000 -4.3229041164476421e+000
    3.8829013735766034e+000 -3.6055512754639891e+000
    2.4053511772118195e+000 -1.8708286933869707e+000
    2.2613350843332269e+000 -1.6583123951776997e+000
    2.0998950078743439e+000 -1.3699315051370720e+000
    2.1789005611781351e+000 -6.5712874067277083e-001
    3.3101093947099387e+000 -3.3626508136735883e-001
    3.3101093947099387e+000 -3.3626508136735883e-001
    2.0954763256405888e+000 -1.3603965352174616e+000
    2.0012205671729304e+000 -9.6566833717550926e-001
    2.0000907091185809e+000 -1.0095695960312836e+000
    2.0004940101347417e+000 -1.0224747162910901e+000
    2.4640790075490093e+000 -1.9517070234396121e+000
    3.3815786958698144e+000 -3.0541559967459118e+000
    4.0089186286863674e+000 -3.7416573867739431e+000
    7.0343875464461476e+000 -6.8892335177099566e+000
    7.0343875464461476e+000 -6.8892335177099566e+000
    5.8471353071272070e+000 -5.6707931311979740e+000
    2.6533431525261624e+000 -2.1984843263788205e+000
    2.2027298799385351e+000 -1.5628892957659131e+000
    2.3992558564407398e+000 -1.8622795457135266e+000
    2.2099278321959974e+000 -6.3491577401186583e-001
    3.2653446712483953e+000 -3.4208372746411764e-001
    3.2653446712483953e+000 -3.4208372746411764e-001
    2.0312015226903570e+000 -1.1929278784054478e+000
    2.0000907091185809e+000 -9.9052111308729729e-001
    2.0053527300749683e+000 -9.2946507489189012e-001
    2.0110662298337409e+000 -1.1108746793367332e+000
    2.2210653192626153e+000 -1.5935262290582572e+000
    2.3873057832029656e+000 -1.8454252641584830e+000
    3.1430927854685606e+000 -2.7838821814150108e+000
    2.7824944350166954e+000 -2.3584952830141512e+000
    2.9567039404833526e+000 -2.5671699292768158e+000
    2.4115285243458517e+000 -1.8794611197679574e+000
    2.3873057832029656e+000 -1.8454252641584830e+000
    2.0642871125925697e+000 -1.2877219607125077e+000
    2.3478713763747789e+000 -1.7888543819998315e+000
    2.5800611265260285e+000 -4.7505887409050684e-001
    4.5542300892341414e+000 -2.3132597278649608e-001
    4.5542300892341414e+000 -2.3132597278649608e-001
    2.0032733246124987e+000 -9.4440028160303513e-001
    2.0770484911967291e+000 -7.5828754440515500e-001
    2.1724654575812159e+000 -6.6208471088189447e-001
    2.1724654575812159e+000 -6.6208471088189447e-001
    2.1163353105546321e+000 -7.1216362831362223e-001
    2.0890725544918336e+000 -7.4278135270820755e-001
    2.0468359094785846e+000 -8.0573858023918887e-001
    2.0412414523193152e+000 -8.1649658092772615e-001
    2.0312015226903570e+000 -8.3827364428490925e-001
    2.0528252642264420e+000 -7.9506248328770135e-001
    2.0809425926347225e+000 -7.5310303352494712e-001
    2.2287239965467549e+000 -6.2262765617814109e-001
    2.2973736160918392e+000 -5.8345996599157823e-001
    3.6994873829426322e+000 -2.9361010975735174e-001 1. 0. 1. 0.
    2.0911775762796583e+000 -7.4021047541327589e-001
    2.2135943621178655e+000 -6.3245553203367588e-001
    2.2135943621178655e+000 -6.3245553203367588e-001
    2.2135943621178655e+000 -6.3245553203367588e-001
    2.2135943621178655e+000 -6.3245553203367588e-001
    2.2135943621178655e+000 -6.3245553203367588e-001
    2.2135943621178655e+000 -6.3245553203367588e-001
    2.2135943621178655e+000 -6.3245553203367588e-001
    2.2135943621178655e+000 -6.3245553203367588e-001
    2.2613350843332274e+000 -6.0302268915552726e-001
    2.2973736160918392e+000 -5.8345996599157823e-001
    2.3069650051233470e+000 -5.7857217588807752e-001
    2.3699623173613267e+000 -5.4922936243611697e-001
    3.6339166216781158e+000 -2.9994232432898732e-001 1. 0. 1. 0.</input_scale>
  <output_scale>
    1. -431602080. 1. -431602080. 227158990. -2.1580103950000000e+008
    227158990. -2.1580103950000000e+008 227158990.
    -2.1580103950000000e+008 227158990. -2.1580103950000000e+008
    227158990. -2.1580103950000000e+008 227158990.
    -2.1580103950000000e+008 227158990. -2.1580103950000000e+008 1.
    -431602080.</output_scale>
  <inv_output_scale>
    1. 431602080. 1. 431602080. 4.4022030561062097e-009
    9.4999999559779691e-001 4.4022030561062097e-009
    9.4999999559779691e-001 4.4022030561062097e-009
    9.4999999559779691e-001 4.4022030561062097e-009
    9.4999999559779691e-001 4.4022030561062097e-009
    9.4999999559779691e-001 4.4022030561062097e-009
    9.4999999559779691e-001 4.4022030561062097e-009
    9.4999999559779691e-001 1. 431602080.</inv_output_scale>
  <weights>
    <_>
      9.2252701438507101e-001 -2.0043790104973699e-002
      3.3810069336307570e-002 -5.1651258935938530e-003
      -2.4225474371885720e-002 -2.1358153622596673e-002
      2.9201442469844050e-002 -2.2423986738424998e-002
      -4.4039256664274995e-002 -1.2562611698256369e-002
      4.3838010461824638e-002 6.7431774867061672e-002
      3.2031655312382341e-002 -4.1272486059272556e-002
      1.0174903262047445e-001 2.1169761244191097e-002
      1.4419928192826157e+000 -8.4409297619665146e-004
      2.2342418100871800e-002 2.8759785257638976e-002
      6.1880403008295760e-002 1.3760026595816860e-001
      6.2435663347187420e-002 -1.2623107100385379e-002
      -1.1285380517177036e-001 9.3222868395458278e-003
      -6.6061302335304129e-003 -4.6967082929589357e-003
      -7.3950393462303143e-002 8.3298438291562582e-002
      1.5843869416490594e-001 4.4955172655765603e-002
      -5.7886962212970772e-001 6.6076162109310124e-003
      -2.3794620874033570e-002 1.5786837570423064e-002
      -3.1359878193138860e-002 2.9039917301651834e-002
      8.1318234778464074e-002 4.8202188584901835e-002
      3.8627045932465333e-002 9.9503755811036806e-002
      -4.1440866242636036e-002 -1.0184376825610157e-001
      -1.0463689730628956e-001 -3.1576824609427304e-002
      2.0216971063164384e-002 -4.4927196604071829e-004
      4.4813688188465811e-001 -6.2649614708422868e-002
      7.5336038188138993e-003 -3.5384806703418420e-003
      3.6148996211073932e-002 -4.1776362992283156e-002
      1.9336288156567905e-002 3.2146003981020056e-002
      1.8177215808472067e-002 2.4636391862799159e-002
      -4.2149608305065922e-002 -7.2695299250301507e-002
      2.6567594449636764e-003 1.2745606792719643e-002
      -9.3024305844005853e-002 -1.3468651643573254e-001
      1.2239438873709421e+000 2.6001883455172663e-002
      7.2452887728410506e-002 -2.3800134853572776e-002
      4.4570994060192985e-002 -4.0843023814283494e-002
      4.7263665191274250e-002 8.0814812387666034e-003
      9.1790226485470944e-002 4.0956830500047996e-002
      6.8851374564037242e-003 1.3813805892505315e-002
      2.4004194766348189e-002 -2.0025938621125342e-002
      1.3867169438830733e-003 -2.1273972736638339e-002
      2.0276897209582700e+000 7.7791780796675744e-002
      2.3599086725996747e-002 -8.0932211777676746e-002
      9.9482539613400256e-003 9.8269394631731472e-003
      1.0376885277101834e-001 4.1517040345290940e-002
      -1.3844405485712011e-001 9.3801212320614967e-003
      -6.0004096548798028e-002 -2.8819173729470623e-002
      -4.8232979760731071e-002 2.4341914291957690e-002
      -5.4610143515804760e-002 -1.7857399097908283e-001
      2.2140771382827604e+000 9.2375345760413730e-002
      1.7575658533602514e-002 -6.5947168607134343e-002
      3.6253151049384348e-002 3.6771239054023366e-002
      1.2224288095671232e-001 -4.5959559610895357e-003
      -3.3665561761643779e-002 3.5814255451016394e-002
      -1.4695057171912256e-002 -1.9027627976561604e-002
      -9.0368689922644643e-002 1.4895135698151965e-002
      5.7935483962826891e-002 -9.5692621991841850e-002
      2.2101615279237210e+000 6.3490949661585319e-002
      -1.0034457310666984e-002 -5.7977671014239722e-002
      1.9918384720245268e-003 -1.4070403550538074e-002
      7.4041730752300070e-002 1.1509110754883046e-002
      -5.5661687438763652e-002 3.4264006288659811e-002
      -6.5606152386888800e-002 -6.7023880439245107e-002
      -6.0780272033716179e-002 4.6282007588330738e-002
      -3.7580103037809051e-002 -1.6963230593361137e-001
      2.1221456730870365e+000 9.3892577375348146e-002
      1.9236803049642648e-002 -4.4067497757646901e-002
      6.2007457869218630e-002 2.8845222312470296e-002
      1.5968014635686639e-001 4.7536500596120260e-002
      -4.6059562034408731e-002 4.4269687495160900e-002
      -5.9075625035518574e-002 3.2226649854768079e-002
      -6.2023053235682399e-002 3.2589783360924295e-002
      6.2556617430279154e-002 -9.9946885510393019e-002
      2.3623371488992664e+000 8.6369617250532132e-002
      -2.4930935430430245e-002 -5.9448817908828666e-002
      2.2789914176456424e-002 3.2691764686998584e-003
      1.0418970473766075e-001 2.8216052992131049e-002
      -5.3644204872471853e-002 5.1429931752602347e-002
      -7.1138919888547480e-002 -6.2672186708430055e-002
      -8.6207053309953041e-002 6.4473595357610311e-002
      -2.6135906252828325e-002 -1.6008250018448331e-001
      2.5820048529958521e+000 8.5982872816149511e-002
      1.9206297954280489e-002 -2.2793096255692348e-002
      5.8541178508687772e-002 5.2083039347059601e-002
      1.3979235490564007e-001 4.7441650466594293e-002
      -6.1208122639014359e-002 4.8880685537302695e-002
      1.1783731413467545e-003 2.8249382852053626e-002
      -8.1919611511161727e-002 4.7280036796437018e-002
      9.1479194786414600e-002 -6.3343097421993580e-002
      2.3148755127551821e+000 1.0410334759199608e-001
      -2.0898539032749852e-002 -8.4929387463190453e-002
      2.7769926097750632e-003 -3.0815717922995103e-002
      7.9244352147030295e-002 8.0258651538558153e-003
      -6.7450971233825189e-003 4.0966799132678963e-002
      -5.2742053093709246e-002 -3.4219406030890662e-003
      2.0239071581548227e-003 2.6392172889141613e-002
      -5.0462249285096003e-002 -1.5957949932191062e-001
      2.2650845638665578e+000 1.4839347193090960e-001
      4.6639886671554900e-002 -8.5034359476969620e-002
      -4.0281189709556889e-003 1.4087002305915308e-002
      4.0991875206232771e-002 -3.5016215388183967e-002
      -5.4273439062545892e-002 -5.7051787527448673e-003
      -1.7138573567478079e-002 -2.2300591834430478e-002
      -5.4607115009456871e-002 5.6080525923822080e-002
      -9.7799689907294429e-003 -1.4785189478849309e-001
      3.0672180014661548e+000 3.9136214426068870e-002
      3.3483974379934091e-002 3.4503378776942144e-002
      1.6690075979215669e-002 5.9790285259201735e-002
      1.2351648271148216e-001 5.8017302149130411e-003
      -2.1866318955458569e-002 5.9098242237292245e-003
      4.3648927314273868e-002 4.8492741346321457e-002
      -1.1729655051137261e-002 4.5826747532907589e-003
      8.9337663366267001e-002 -1.8550253156375440e-002
      3.8693620133333613e+000 2.3978028266785308e-002
      9.1356157067739394e-003 2.3821283138518279e-002
      3.9558781957881151e-002 3.2794897543316465e-002
      8.9587919174407712e-002 3.2367144672973781e-002
      -6.8789690772735210e-002 -6.0935760059753090e-002
      1.0799349567851968e-001 1.6421849340222314e-001
      5.4109541306633889e-002 -4.1404184743394801e-002
      1.2737210115640352e-001 -8.0637367717786394e-003
      4.2668734285188163e+000 8.2733328066729769e-002
      -2.2371922510127207e-002 2.2558190532330050e-002
      -1.3769906139664348e-001 -5.1861597964109100e-002
      1.2687619477997689e-001 -6.5338974878362908e-003
      6.8270133341163247e-002 -9.1365881957464326e-002
      1.3519580802766507e-001 1.9278730969513921e-001
      7.9038325314727403e-002 -1.0499074355599707e-001
      1.6401937890722579e-001 -2.3805296507844451e-003
      1.2141528918884446e+000 -1.2279545564872880e-001
      -1.0091644927682521e-001 2.6224425899496143e-002
      -3.5698227521626436e-002 7.6398195455340184e-002
      -8.8176564859716963e-002 -2.9656922551441808e-002
      -6.0255760389901901e-002 -1.2188775590896449e-001
      8.6897991544809903e-003 -4.3854667183556538e-002
      -9.1391065947667202e-002 1.4162940512069730e-001
      -6.6767794459499499e-002 2.7145604019583474e-002
      -3.1471092959922356e-002 1.0071567695263202e-001
      -4.3574500313921051e-002 -1.6395390746201069e-003
      -7.2525472530113794e-002 1.0492917770649045e-001
      4.3661719833560167e-002 6.4171515498522957e-002
      -4.8439042252173461e-003 5.6969406628663018e-002
      -4.5871674466638909e-002 -4.0877985763446763e-002
      -1.0202997176072828e-001 8.3147974249819616e-003
      4.4235790777490243e-002 9.4233208189851175e-002
      1.4209841410670449e-003 -1.0526544797000094e-003
      1.4200425774193710e-003 5.6857784452764735e-003
      1.8873706391780759e-004 7.1787919945878395e-003
      5.6636149096858657e-003 -6.5183046597727780e-003
      5.9762970801387162e-003 -1.4642033131198199e-003
      7.6327925254897448e-003 1.7175476678756829e-004
      -2.1016642716474771e-003 2.7096502264957923e-003
      3.2695433105053693e-004 -4.5689324006158811e-003
      -7.1530809183460997e-003 7.3979814100477012e-003
      3.7239639825443517e-003 -4.9504272859837535e-003
      -2.6086920635034184e-003 -4.0993264443526314e-003
      1.3581009513022730e-003 5.4343947004542609e-003
      7.1132841266037918e-003 -5.1504799529257508e-003
      -6.7896315117076103e-003 -1.0486686533333199e-003
      -9.5115982902549932e-004 1.7447227764387952e-003
      -1.3377828612986628e-003 1.9354980158524928e-003
      7.6149792514748138e-001 1.4225340466550937e-001
      3.7808612111076535e-002 -8.3651599729691495e-002
      6.9513529775666771e-002 -8.9981570863688742e-002
      1.0204406006385748e-001 -1.8501695237712446e-002
      2.5236477761871285e-002 9.9002890075499908e-002
      -6.6492016391604028e-002 -4.1616486444206298e-002
      -9.9968158416076178e-003 5.0003522830454825e-002
      -2.1020242359946678e-002 -1.0241058911634564e-001
      2.7454916880143694e+000 5.7459220633645107e-002
      7.3499800179291808e-002 -1.0235173567237532e-001
      7.5697329098097052e-002 5.6778618120020614e-002
      1.2635125581713158e-001 -6.1913621040850207e-003
      -2.2803657041120332e-001 -7.0219499830601925e-002
      -5.2973151768651089e-003 5.1779335756639504e-002
      -2.1593070943607285e-002 8.4484793429417837e-002
      4.1283456177576686e-002 -1.5313818511690119e-001
      2.3892145703455361e+000 1.7908817103961755e-001
      -2.3990993248180111e-003 -1.8326053586161681e-001
      1.5051474022329542e-001 2.0889465939987844e-002
      1.7370456448660648e-001 2.3737073048734129e-002
      -1.4512234614721270e-001 2.4995487920415369e-002
      -1.3424376336255267e-001 1.8460741983354189e-002
      -6.5014837934111447e-002 8.4726661438851505e-002
      2.9328885285793829e-002 -2.1440646559786788e-001
      2.3865429129351710e+000 1.7348949873492459e-001
      9.1247551076413698e-004 -1.8233048573440999e-001
      1.5768265707776241e-001 2.7897239712223739e-002
      1.7302811484959951e-001 2.9265487427171003e-002
      -1.5247788836879683e-001 1.1363370453750138e-002
      -1.3152023180007816e-001 9.7901423958937535e-003
      -6.9550071058557289e-002 8.9046481153821092e-002
      1.6462614454454776e-002 -2.1264314637330115e-001
      2.3891244561664839e+000 1.6794144789518528e-001
      -8.6082087411674425e-003 -1.8214623149559298e-001
      1.6376755223263106e-001 3.0498392692641946e-002
      1.7717108093798312e-001 1.5534701010384636e-002
      -1.4801503300730218e-001 1.9036092956746600e-002
      -1.2974054743157409e-001 7.5344771439927426e-003
      -6.5790421892403028e-002 7.9495891668751248e-002
      2.7088962489847410e-002 -2.1072298830153322e-001
      2.3847243372071505e+000 1.7172480185312838e-001
      -4.6122875707598014e-004 -1.9146953237704370e-001
      1.6150010683876620e-001 1.9772682803552811e-002
      1.6696248691965221e-001 2.2121348893204804e-002
      -1.5182382951947931e-001 1.7769420156314004e-002
      -1.3333352889471622e-001 1.2511829508776200e-002
      -7.4468139894541735e-002 8.9977043128473308e-002
      1.9742632481047805e-002 -2.1449008793946114e-001
      2.5078956301258031e+000 1.9940926550550600e-001
      2.2938024228226706e-002 -1.8983927876247325e-001
      1.5344178166814537e-001 -2.1445973177592025e-002
      1.6538731021267664e-001 2.8752036384472442e-002
      -1.3455968517420624e-001 1.5364478996564436e-002
      -1.1671896000673350e-001 3.7147320164115732e-002
      -3.9575805346007444e-002 3.1782692659449240e-002
      2.9569174999543719e-002 -2.0415651107708688e-001
      3.0453770237836459e+000 8.6379198103431337e-002
      1.1124153164447963e-002 -1.4131343811171340e-001
      1.0588018437650124e-001 1.2615373790136450e-001
      1.5709438852998606e-001 4.7235851952727531e-002
      -2.1718978507396844e-001 -5.5403700013476831e-002
      -2.5002099385187666e-002 8.2630403200067662e-002
      -2.1531240576220221e-002 5.9037931130268360e-002
      5.2891258865674036e-002 -2.0126372866962070e-001
      2.8565114673062864e+000 1.2718592075129628e-001
      -1.0334314976254791e-002 -1.7201044891920442e-001
      1.1787241609190034e-001 4.7000968306675599e-002
      1.5966954083035656e-001 1.1761312007227449e-002
      -1.2777871558329307e-001 -3.3815379948438154e-002
      -8.0776280313454227e-002 4.7066906420615132e-002
      -1.6804282853931884e-002 5.0901743124182150e-002
      6.6023178667936319e-002 -1.9891263716692861e-001
      4.5981751333691125e+000 1.3221992913985109e-001
      2.5150919533779671e-002 -9.5670809254680328e-002
      -2.0662770217728249e-002 -1.9023148859795693e-002
      8.8902774415183572e-002 9.2834121107510201e-002
      -3.1116475491975926e-001 -2.4401790171374388e-001
      1.5210809271334494e-001 2.5640933323889703e-001
      1.5146177175061543e-001 -4.2272315175862642e-002
      5.0941034000293118e-003 -2.0249685364185338e-001
      4.7850597882594776e+000 1.3042454514052493e-001
      2.8100646978494202e-002 -8.3172306725046510e-002
      -2.2490593867377218e-002 -5.9525833382667009e-002
      9.2115087465237680e-002 8.8335785604677558e-002
      -3.1920762184309681e-001 -2.5480316993872021e-001
      1.5673045929588175e-001 2.7947471091962323e-001
      1.7313817625269121e-001 -4.9855464958955285e-002
      6.3673818797843002e-003 -2.0364408135714332e-001
      4.7750104772376787e+000 1.2659130312788744e-001
      2.2037793197593872e-002 -8.4054210428523526e-002
      -2.4650482522324938e-002 -6.4012406521031767e-002
      8.5366065290501267e-002 1.0122356217651382e-001
      -3.1264794041110544e-001 -2.5434030502957322e-001
      1.5932974061807836e-001 2.7019569423279094e-001
      1.7296530656537626e-001 -6.4198566799341203e-002
      7.9932674106796189e-003 -2.0809596639644398e-001
      6.9902278809022833e-001 -1.2263332672992797e-001
      7.6585288124386933e-002 4.1388975462446492e-002
      7.1473991920725954e-002 5.4738389410448791e-003
      -8.7493748983683678e-004 -1.0833111928889793e-002
      -7.1298669306037718e-002 7.0076572751072708e-002
      -2.3410731836418626e-002 -2.7502566914955090e-002
      9.4481008068397238e-002 6.5856234146366682e-002
      -1.9303915434157180e-002 -6.4088130696543816e-002
      -8.0315611930867181e-001 -8.1805006274749098e-002
      6.9851875130324242e-003 4.2875618940046135e-002
      8.3471930276225209e-002 1.7734819023096826e-001
      -8.6808465242293353e-002 9.3642469311939522e-002
      -2.6438929108959991e-001 -1.1388724224577838e-002
      2.9543857409256736e-002 -5.7302861881639890e-003
      -4.2489400426522737e-002 1.4190329773393429e-001
      1.4905441880073750e-002 1.1997164347310911e-001
      -2.1721330289708090e+000 5.5907592798301979e-002
      -1.6752162844986155e-002 1.1196506643154273e-001
      8.0713616410677761e-003 1.2676918509066826e-001
      1.7335110474145269e-002 1.2840262181372925e-001
      -2.0694120827752507e-001 4.9668251435140913e-002
      4.5270485471405629e-002 1.9705637446534620e-002
      -2.8172830081239381e-001 1.3012097959998423e-001
      -1.6495901087254572e-002 2.2067021655848354e-001
      -2.1754298315814578e+000 5.1885000805097684e-002
      -1.3290403872038501e-002 1.0495683311406660e-001
      1.4794144185499493e-002 1.2966177739359447e-001
      9.0079975838591366e-003 1.2892127226625691e-001
      -2.0198861941048404e-001 5.9373017555451359e-002
      5.2363034947711502e-002 1.2215664302049685e-002
      -2.8724493599630907e-001 1.3458694192491080e-001
      -2.3174413250497114e-002 2.2035091404894167e-001
      8.1972001647792880e-001 2.0370384997309230e-002
      4.9487282250710272e-002 -6.7106022604578902e-002
      5.1619080648508030e-002 7.6615109678403195e-002
      1.1785032406031914e-001 1.6917627771852385e-002
      -5.2347137823583245e-002 4.4771737757987755e-002
      -3.7699687024710757e-002 -9.7606372205962202e-002
      -1.0644864979183358e-001 1.3698688856279151e-001
      5.6694722333523614e-002 -3.3540478276515934e-002
      1.8856337389232543e+000 8.0808798710714169e-002
      2.7189366373244851e-002 -1.1460457490114299e-001
      1.2614691139322609e-001 7.3075136401355295e-002
      1.3605757943752436e-001 -1.3667401891108273e-002
      -2.0499443005598506e-001 -2.1531969131846455e-002
      -5.2670983672090513e-002 1.7960725039063263e-003
      -1.3335529379230440e-001 1.3743640198293283e-001
      4.4637814487981167e-002 -8.8561712970218087e-002
      1.8184673941905838e+000 1.8976365667683406e-001
      -6.7126563233549557e-003 -1.5755938384350301e-001
      1.5253493596570919e-001 5.0011235403242212e-002
      1.7137390580499470e-001 6.1640655434853191e-002
      -2.0554324387337858e-001 3.1834005362877095e-002
      -1.2047902573470387e-001 7.9412057239026702e-003
      -1.3110646130277182e-001 1.2360637518380188e-001
      1.1070659902063346e-002 -1.4559447680077983e-001
      1.8177370579070868e+000 1.9535201096388730e-001
      -2.6229478104497113e-003 -1.5912200846678701e-001
      1.6129304981331880e-001 5.4816966353539796e-002
      1.8031222857811838e-001 4.8487148184650213e-002
      -1.9405980165909364e-001 2.9593892347777748e-002
      -1.0890352948101217e-001 1.3442368791969030e-002
      -1.2941775467222191e-001 1.2029807488884112e-001
      1.4301705511444895e-002 -1.4754689273880331e-001
      1.8165502007340120e+000 1.9009449688235378e-001
      -1.1686594126638073e-002 -1.6018429004503984e-001
      1.5842939595094777e-001 5.8057344296085230e-002
      1.7155902651088042e-001 4.7698820006696958e-002
      -2.0198764054994967e-001 3.7133610461074253e-002
      -1.0980479506467544e-001 1.1467650099382691e-002
      -1.3211672362483418e-001 1.1491827895658110e-001
      1.7611844619868422e-002 -1.4897761429638068e-001
      1.8242274985806000e+000 1.8690313132408312e-001
      3.0128161834873390e-004 -1.5695283765526877e-001
      1.6076622697138412e-001 6.1456945082327359e-002
      1.7970126712946535e-001 5.3804370846343964e-002
      -2.0654367199529300e-001 2.8950728715397847e-002
      -1.1059371303530491e-001 1.6312966539834932e-002
      -1.2825739963495150e-001 1.1414737126394930e-001
      2.2312246454446474e-002 -1.5528544626517590e-001
      2.5529825731611666e+000 1.9817054899461381e-001
      2.9337983940835564e-002 -1.7433444583608459e-001
      1.1984556743868895e-001 6.8400250203862742e-002
      1.5706540173330588e-001 2.7654468979318031e-002
      -1.3169906134037965e-001 -2.5117794425039544e-002
      -7.0979154655918364e-002 8.4985646829818781e-002
      -3.8194239128313288e-002 2.4325512377763814e-002
      5.9068225031864638e-002 -1.9595019637458813e-001
      2.1557924036525304e+000 1.8153320523378472e-001
      1.2933397354881015e-001 -1.6101834238166055e-001
      1.4703443080880302e-001 1.5746368697223431e-001
      1.3829694268367493e-001 -1.6760148131737464e-002
      -1.2846694712050002e-001 -2.1373146499892984e-002
      -8.8198548569910856e-002 7.1130477682393889e-002
      -7.0939965628748367e-002 1.4165633103637454e-001
      1.0544961882811889e-001 -1.6537871220115888e-001
      1.9314820126893508e+000 1.4802527645853270e-001
      3.1560714665105148e-002 -9.4285421785735499e-002
      5.3462353381871330e-002 7.9215261624801636e-002
      1.2602926849155094e-001 2.3202267169829968e-002
      -8.7263106010332797e-002 -3.1758239782514019e-002
      -7.6937701868086433e-002 8.9233123982966581e-002
      -1.2211008933527655e-001 1.2364945691532653e-001
      7.0540260503515667e-002 -1.0232304391258241e-001
      4.3996252637294955e+000 1.1511554761575973e-001
      2.2208305852711857e-002 -6.9861620974808122e-002
      -3.4259079675033416e-002 2.5933400151848890e-002
      8.1017596813249521e-002 3.2475810122028957e-002
      -2.2103882908470923e-001 -2.4659580311223031e-001
      8.6500208079832580e-002 2.0773240628117409e-001
      9.0304174263465334e-002 1.1959656271944164e-002
      4.6623392829129369e-002 -1.6297408896889912e-001
      4.5915812303443078e+000 1.1553543187439333e-001
      1.8612447591341945e-002 -6.8609913023531019e-002
      -4.0807963631294734e-002 -8.5251265804416904e-003
      7.8508883492062656e-002 4.9556857399014984e-002
      -2.3345448264449820e-001 -2.5815743484449993e-001
      9.0849325319408883e-002 2.2834366673570336e-001
      1.0610453831990363e-001 -5.0183789329708425e-003
      4.2868359512838197e-002 -1.6901585166208780e-001
      4.5734080525965570e+000 1.0392554507657843e-001
      4.2161336025812353e-002 -7.5166562125223838e-002
      -1.6500454372461310e-002 -6.3527915897900161e-002
      8.3732258429575407e-002 8.0464865555764611e-002
      -2.1876920961999954e-001 -2.4685769488711271e-001
      6.7494079826188991e-002 2.6830881659774386e-001
      1.5160689614400058e-001 -5.5630342042096756e-002
      5.8142224253827382e-002 -1.9040470805840190e-001
      -2.1884906566604787e+000 1.0778378557421900e-001
      -4.7154886173032345e-002 -3.6460134448846680e-002
      -5.0521583217236182e-002 -1.9241639740291885e-002
      5.4560658384740508e-002 1.1976272611772629e-002
      2.6855869067542833e-002 6.9402304719829236e-002
      -2.0327295890131977e-002 9.0415422795082547e-003
      -5.1106365372743422e-003 -3.2514012741217367e-002
      -7.0749223523034727e-002 -5.3839745957239811e-003
      -2.9815296401560296e+000 8.1848879679167860e-002
      -7.2748645598799622e-002 -3.3922993382246830e-002
      -6.8902183114125617e-002 -1.4489705267037456e-001
      -5.0215128523033274e-002 7.8774966959436546e-002
      -8.9960324842747269e-002 1.5432872101161564e-002
      5.0967136079420848e-002 9.2219888543195516e-002
      1.0221743677520621e-001 -1.5040702025060121e-001
      -1.6688860030892588e-001 -3.0464359943194436e-002
      -2.6511465725857772e+000 2.8861103848151742e-002
      5.0742263457876434e-002 3.9286424628529104e-002
      1.0194327586798384e-001 -8.1199456257239511e-002
      -1.4794479817223255e-001 5.6162261551305437e-002
      -2.8785666408647748e-001 -1.0200894577403970e-001
      -1.0008968642251327e-002 5.1019701645046503e-002
      1.5584762020795570e-001 -2.9416851965216945e-002
      -1.5183493308873244e-001 -2.2120762825704809e-002
      -2.2619394230320666e+000 3.1715529996385217e-002
      3.8683933345902671e-002 -4.3259561951580809e-005
      -2.9538998464519276e-004 -1.0234653305075714e-001
      -9.8334868789524132e-002 6.2775459335596634e-003
      -2.0216278850198216e-001 -6.8982993398906650e-002
      -3.3623565048432023e-003 3.9564744422190629e-002
      1.2880461817701847e-001 -6.4285931886107678e-002
      -1.2478226783167791e-001 -5.6175456216550068e-002
      -8.5301818059941170e-001 1.0054719390397636e-001
      7.9439116489951039e-003 -1.6096563411344789e-002
      1.1224651379078170e-002 -5.3651426362660681e-002
      1.1901745676583786e-002 8.8930599006764199e-002
      -1.1550763887436886e-001 1.1427625604177741e-003
      2.3138473884040854e-002 1.2113921689162511e-001
      6.2046864224781964e-002 -6.3753105768741547e-002
      -1.4772128029632256e-001 -6.1041709639116939e-002
      -7.3965856131716912e-001 1.0984803674009323e-001
      1.3382925743990673e-002 2.2101765758268535e-003
      4.8634863871003832e-002 -5.6848559961039234e-002
      1.5367591636026851e-002 6.8058810196820946e-002
      -3.9405829831438352e-003 1.5016054977145058e-002
      -3.3433771260984776e-002 2.2902089621520912e-003
      -2.0758987131555315e-002 2.5017604904927028e-002
      -8.3476922309644583e-002 -3.4552483777294453e-002
      8.3109448927284318e-003 -3.7825623886821966e-002
      -2.1251615821556324e-002 1.3719250758076817e-002
      2.4680095232151929e-002 7.0303866053718536e-002
      -7.3686026301490445e-002 -2.0451952915665733e-002
      -1.5584514170677558e-001 -5.4211698411049766e-002
      -1.5188020848869767e-003 -5.8357931120250887e-002
      2.6210320659588397e-002 8.2152743914210652e-002
      -2.2094335545573288e-002 -1.2291800070871607e-002
      -7.6290953028255531e-002 -9.2680908701422746e-002
      -9.4301198728661204e-002 -2.6713302484937761e-002
      -1.5405711768423027e-002 2.7433129377239854e-002
      -7.3673310202985107e-002 -5.0899801419570852e-002
      -1.5888886668610050e-001 -5.6835974268557493e-002
      -1.5096776869877683e-002 -1.4904242326820002e-001
      4.7796211667159506e-002 6.0753799232165513e-002
      -8.1582407082451819e-002 -7.3528963027065811e-002
      -4.1256692454666744e-001 -8.8899888660164666e-003
      -1.7441337877050406e-002 -8.2555524480611275e-003
      4.3338584506891722e-002 2.0466171141717858e-002
      -2.1744518384860669e-002 4.6531782079549992e-002
      -1.4848174967349106e-001 -4.3401269209140066e-002
      -2.5750598191853359e-002 3.0220904832979331e-002
      2.9411450271886061e-002 7.0335836426741599e-002
      -7.0386368574006888e-002 -8.5180405164840614e-002
      2.0989344623126867e+000 -1.4077625879985944e-001
      9.9609111365146163e-002 8.5150885275876043e-003
      1.4330480707886356e-001 6.5756197273975817e-002
      1.8716832130457248e-002 -5.6309205507313581e-002
      -1.0021807972749235e-001 2.7592444687512666e-002
      -3.3741079014213970e-002 -3.1400484993955848e-002
      7.9846768395937490e-002 6.6714697070213144e-002
      1.2187565777015616e-001 -6.2878194099880200e-002
      7.0347262392673660e-001 -2.6529399787586443e-002
      3.7826244313224580e-002 -1.5702037744444633e-002
      6.7214636808132236e-002 8.8614409874643890e-002
      -5.6271957520979063e-002 -2.9068515420498105e-002
      -1.0397207667410746e-001 -1.1390769933125747e-001
      -5.5222662305813991e-003 -3.0669179241669828e-002
      -6.1547653644191375e-002 7.2730611165445228e-002
      2.9307350734158411e-002 1.7200561677390758e-002
      1.4520274958539998e+000 5.4687530839930235e-002
      -1.7465580082025547e-001 -1.0938980779176798e-001
      -1.3135538282882972e-001 -5.6741500211717755e-002
      -9.9106131563589297e-003 -4.6272540824386560e-002
      2.3788693327208815e-001 -1.0950302888383114e-001
      -4.6754604113432484e-002 -1.5520897155364410e-001
      -2.1379364811508036e-001 2.7466770855495610e-002
      -6.0720853355932594e-002 1.4344045576430420e-002
      -3.2773467770113290e-001 1.1092711439829191e-001
      3.2124626964720182e-002 -8.6503717445464590e-002
      3.9998768049074769e-002 -7.6732414879426294e-002
      -9.9109200508173942e-002 -2.1129267760051078e-002
      -7.8632921646190179e-002 -2.7757644284914718e-002
      -1.1312016009369512e-002 -6.7536218599390310e-002
      -6.8991012058885151e-002 -2.3542722500933120e-004
      -1.0608344871889824e-001 -5.1753200073150811e-002
      4.4716091709757384e+000 -1.6778019740088168e-001
      -1.8996344775809754e-001 -6.7101244057205967e-002
      -1.8066427314392786e-001 4.6395952679423383e-002
      -1.9691936799569548e-001 -2.3449102341617212e-001
      5.0556279931828610e-002 -4.0611874037821821e-001
      6.1869962173986097e-003 -2.6039921989587184e-001
      -1.5005722930547410e-001 1.3036293610446212e-001
      -7.1248448661607053e-002 -4.7200561428662496e-002
      4.9142717542344112e+000 -1.4507620082178999e-001
      -2.1278790093425728e-001 -5.0652024876120340e-002
      -2.3345846039622031e-001 3.4407818225032506e-002
      -1.8060361942426190e-001 -1.8343829641001241e-001
      4.2025943848739880e-002 -3.8859771294386086e-001
      3.3688936746717711e-002 -2.0133975829053616e-001
      -1.0522894352658629e-001 8.0267942770119435e-002
      -4.9688853406592466e-002 -5.6751359866791105e-002
      5.1297575605062766e+000 -1.3897700734153046e-001
      -1.8871620057316593e-001 -5.9900349405611099e-002
      -1.9798267809074729e-001 3.0777585190440174e-002
      -1.8989056070039206e-001 -1.9376851179111421e-001
      6.4637837650445224e-003 -4.3080949699265653e-001
      5.7881448685237862e-002 -1.7627695847669869e-001
      -4.1922359545491977e-002 5.1905943980736814e-002
      -3.2067386350037239e-002 -4.9172927382082982e-002
      -2.2683342827108217e+000 8.7245903315862863e-002
      -6.9399635019872452e-002 -4.8470960531174521e-002
      -4.9993379525652394e-002 -1.3235842945406937e-001
      -5.5991249722180989e-002 1.1357249169761505e-002
      4.5988301189763763e-002 -4.6833414001817522e-002
      -2.0128130468204889e-002 8.1309177004182647e-003
      4.7264938752469891e-002 -6.2326575950211668e-002
      -1.7084457496989996e-001 -2.2799650463724803e-002
      -3.5615525146539246e+000 -2.4061739538782524e-002
      1.1395550075072675e-001 7.2527337269595954e-002
      1.2219629759409051e-001 -1.0745478402803554e-001
      -2.0175342218648890e-001 1.5685683232190589e-001
      -4.3232682584478493e-001 -4.1034229259741414e-002
      1.9564046492537492e-002 1.5694605538155762e-001
      2.5682543973605221e-001 -6.3881332806776006e-002
      -2.4983101965018958e-001 -9.9142505907391779e-002
      -2.8857075484962746e+000 2.8194674553514001e-002
      5.3095230607579725e-003 -3.5259515615391521e-002
      -1.7336121655105050e-002 -1.9795132245982375e-001
      -1.2362720027786110e-001 7.3182737982472879e-002
      -1.6505438577700710e-001 -6.4800442359559868e-002
      7.9264369616678793e-003 9.6212974864075110e-002
      2.6263723855491261e-001 -1.5192088405076964e-001
      -2.3388029846227515e-001 -1.4970574251441904e-001
      -2.3301095412538508e+000 -1.1530421212267433e-001
      3.0044709751288229e-001 7.6360326568866141e-002
      2.9714930152003743e-001 -1.0028429165229236e-001
      -1.8310205300753499e-001 7.3684066555700728e-002
      -4.5664167477668938e-001 -8.3359843518213891e-002
      6.9069390567956052e-002 2.0975727478093698e-001
      4.3547184056588195e-001 -2.6139132951149505e-002
      -7.4624861436037970e-002 -1.1001092121754143e-001
      -5.8613112833289382e-001 1.1690074751624943e-001
      -7.6537738621786505e-003 -5.5509528732285325e-002
      -6.0535699707861823e-002 -6.3875459121418038e-002
      9.2782673019209436e-002 -9.2641183582043724e-003
      1.1644424485703819e-001 -4.6953875616828546e-002
      2.2519754015200587e-002 3.2131408469553036e-002
      -1.2163309054679147e-002 -1.0677446913274836e-001
      -1.1987129060998086e-002 1.8001264535442135e-002
      4.5252538592120611e-001 3.7611527698416421e-002
      1.0766127805433037e-001 2.3227652339679824e-002
      5.1635415293216282e-002 1.3844191900655655e-002
      1.1469442541696691e-001 -2.1585938282787105e-002
      4.6584126281784655e-002 2.0059753630313849e-002
      1.2320823502030839e-002 8.0986830947946009e-002
      8.2615131966888300e-002 -4.8759055186359136e-003
      1.4733900501312683e-001 -3.8786932391978682e-002
      2.9264863803763347e-001 6.0192355447234690e-002
      -3.0917586553351008e-002 -2.8960557699609004e-002
      -5.6197328158418103e-002 -8.9101766717991138e-002
      8.8265482148421365e-002 1.8035272441949936e-002
      9.5750405239698744e-002 9.7706412385244381e-003
      1.4576665417328829e-002 1.7388463254156390e-002
      3.5010974915377899e-002 -1.1025257886523906e-001
      -1.2305680915432592e-002 8.0913636171582818e-003
      2.3362753582678215e-002 1.1956283643974091e-002
      2.1475915660042186e-002 3.9718653853637424e-002
      5.7156992755142119e-002 -2.5079234349598824e-003
      -2.5054621714380304e-002 -4.5514032456088427e-002
      1.0257251523862550e-001 -4.6605266837306642e-004
      3.4820867363050236e-003 -3.7902779027031021e-002
      8.7911790770348108e-002 -7.3464232695925951e-003
      5.8593212945304059e-003 -2.0977700728200487e-003
      -1.5373556184650372e+000 5.3511853481629124e-002
      -1.1780246642496640e-001 4.4751267070798344e-002
      -1.0952360517128251e-001 -6.9975601658941622e-002
      6.6768950676883113e-002 6.6269116220939672e-002
      1.1266044391263406e-001 7.3341420692779061e-002
      3.3980108218278654e-002 -1.3734521715392533e-002
      -8.8453505416381514e-002 -9.7820491522074421e-002
      -1.3583952707690383e-001 8.5642758712436345e-002
      2.1397371692818742e-001 -3.5756788307044853e-002
      -2.6976746678970490e-002 6.5515413426120428e-004
      -3.3939657415563255e-002 7.8936277686116295e-003
      6.3502435375699176e-002 -8.6096101749324722e-002
      8.0490533873343831e-002 1.2218332581202153e-002
      -2.4841838149455328e-002 -1.5072459035729077e-001
      4.5807899362172007e-002 3.9553115875961470e-002
      4.6901127260814780e-002 -1.0128316301306006e-002
      1.7886956227963620e+000 -3.0653816444742119e-002
      1.2650902689021248e-001 -1.7866001002501197e-002
      2.7262269237765022e-002 -5.7747944355322503e-002
      4.5208081297753923e-002 -8.5326219179591309e-002
      -1.1517306860745136e-002 -4.1772249792527374e-002
      2.9675409620313790e-002 3.8456346045377947e-002
      1.5601597427617689e-001 -5.9757452683797882e-002
      5.2638971289641609e-002 -1.4539124238372331e-001
      2.9262392941076615e-001 8.1937642249831577e-002
      -2.2349408580526885e-002 -2.0166598112203279e-002
      -4.9262769201161370e-002 -6.3003785943535284e-002
      7.9967486378083805e-002 1.7008276590325225e-002
      1.3453045739824784e-001 5.8328651736667708e-002
      4.2043026559932327e-002 5.6059881720946662e-002
      -4.8038175892876740e-002 -6.3451547729704030e-002
      -3.2117419134189348e-002 1.7516809717749121e-003
      1.2706568635641931e+000 -3.9691416924168076e-002
      1.3286739116302448e-001 2.5227673878712668e-002
      1.5010753821639755e-001 7.8566009116483621e-002
      1.9714489328916861e-002 -3.7193506346460486e-002
      2.7981312422126696e-002 -2.9430199873628133e-003
      5.6395396716188810e-002 1.9646486882901321e-001
      1.1519611537221226e-001 -3.9111305024007094e-002
      2.1549505660880472e-001 2.5536995714617670e-002
      3.2675050644501415e+000 -4.6783228405627448e-003
      -9.9516453060449331e-002 -1.5108689293459225e-002
      -2.5994383659161102e-001 -3.7770926668950620e-002
      9.1904254661257321e-003 -1.0673256082363841e-001
      2.9113541511528351e-001 -1.5643038943529958e-001
      8.0781564730026872e-002 -9.0512445149695114e-002
      -7.1103948600499775e-002 -8.0980787688384001e-002
      2.8894649857097492e-002 3.7950659539359763e-002
      4.1961848865179361e+000 -1.8224756200577166e-001
      -1.1969491094777003e-001 -3.1913327507233679e-003
      -3.9564547982488298e-002 2.2128248429624520e-002
      -1.5502623570142315e-001 -9.6420552002812368e-002
      -4.3795523894175889e-002 -2.9184058196431706e-001
      -5.8766987431847460e-002 -1.4239689202198030e-001
      -8.9614713857432041e-002 1.0994682260821473e-001
      -2.3947702137398292e-002 2.8940246334404718e-004
      4.5668561049334011e+000 -1.9411112222127019e-001
      -1.3486257535699150e-001 1.6362874276650962e-002
      -1.5440980831306680e-001 6.8184482909838404e-002
      -2.0443815888792047e-001 -1.5524357415435777e-001
      -4.6174079447360308e-002 -4.4374478198979900e-001
      7.0256099512170295e-002 -2.0432312439715181e-001
      -1.5225520844677859e-001 1.5808722448445714e-001
      -1.1732048872136034e-002 3.4081137126599478e-002
      -3.1527641892464535e+000 9.0240224438066605e-002
      -4.4730852184712656e-002 -8.4493154130568914e-003
      -2.8668480092005608e-002 -7.5182888780741142e-002
      -4.3075336319701469e-003 1.1316344548106681e-001
      -1.3425827559338492e-002 5.8811096945430456e-002
      1.8122584604321913e-002 1.3655517027179119e-002
      -2.0072171840353207e-002 -5.1091850986906530e-002
      -1.5794706165940187e-001 -3.3110000042456760e-003
      -3.1718481824401161e+000 -5.2908742756871269e-002
      2.0157222132714955e-001 7.2670119910090883e-002
      2.5065628293655323e-001 -8.4018154392149658e-002
      -2.5105443243676612e-001 1.3652461549220607e-001
      -4.8849741070867542e-001 -9.0233874285484059e-002
      2.7000747922958618e-002 1.5124910050808066e-001
      3.5274215003159831e-001 -5.6524879075094169e-003
      -1.7697302302321913e-001 -9.8763494320683529e-002
      -2.6360904908966711e+000 -2.0111994575118110e-002
      1.5605860139008143e-001 4.8649230476503318e-002
      1.2600563423407388e-001 -1.3477743602729594e-001
      -1.7206260075224813e-001 6.8468472612840198e-002
      -3.1370183524102452e-001 -9.4913940600211744e-002
      2.4219855478118950e-003 1.1500329774831741e-001
      3.2733362190659293e-001 -6.1341727728560655e-002
      -1.4600737806756675e-001 -1.0757478531322115e-001
      -3.3358606843564420e+000 -4.7190947475342374e-002
      1.0412989643684711e-001 6.2900060311189623e-002
      1.5962630444955853e-001 -1.0988713706077563e-001
      -1.9098646824227239e-001 1.2234902711319923e-001
      -4.2332293033321877e-001 -7.0389043733676299e-002
      -1.4402887889973043e-002 1.4226906088889826e-001
      2.8664592404043948e-001 -4.0245596526323910e-002
      -2.0515664035775383e-001 -7.7110770747415583e-002
      -8.2916155627032484e-001 7.0866986091641812e-002
      2.6940074559137613e-002 1.1728738441281483e-002
      -7.9357797881605241e-002 -1.3023517989848885e-001
      7.5301694499184266e-002 9.9761810570200976e-002
      -9.5027200671235108e-003 5.9855022213097388e-002
      3.4190415013259527e-002 1.2422244772428694e-001
      1.2079000843219408e-001 -1.1284841229269979e-001
      -9.1956624273175983e-002 -5.1978499730953233e-002
      -1.4441617618943061e+000 1.1837549794425581e-001
      1.6815664073039836e-002 1.5849955516117700e-002
      -1.8168368376894863e-002 -1.0587331754609394e-001
      7.8477531685574364e-002 8.2208074794413916e-002
      2.9001661825484287e-002 1.4635569989399327e-001
      2.5224117986874763e-002 6.6164840917199541e-002
      4.3501527931844048e-003 -1.3589315069240032e-001
      -1.0480614623409028e-001 3.7350156026092825e-002
      -5.8134357640827250e-001 1.7902648825099010e-001
      1.9609762061732275e-002 -1.4472322619467699e-002
      -4.4452280254896073e-002 -5.1642612099576643e-002
      7.8869214701136392e-002 3.1776461854399390e-002
      7.0718510649604674e-002 7.3402760692090896e-002
      -3.6033060264122174e-002 -2.6519849308260508e-003
      -1.9031579425033394e-002 -9.0896236198923244e-002
      -4.5783457276447476e-002 6.1685593156830480e-003
      -1.1074203574614927e+000 1.7325864820866516e-001
      -7.7048490393520824e-002 1.6491252225456408e-002
      -9.3319303754003338e-002 -9.5671514266383248e-002
      9.4727386994249541e-002 1.0971135849383565e-001
      2.3304324975063909e-002 1.0588209835870090e-001
      2.8415345303490172e-002 2.5658935871415746e-002
      -4.2978786089476834e-002 -1.5653916117772318e-001
      -1.5126700918251140e-001 3.7342211840281539e-002
      -1.2982772198167265e+000 2.4339830751861008e-001
      -7.5014127988876578e-002 -5.7559646844598409e-003
      -1.2921948963621924e-001 -9.0944156073195698e-002
      1.0237631205314851e-001 1.2717652780813685e-001
      6.3230107740915129e-002 1.1070544210932230e-001
      -1.6665776694808513e-002 3.6165135356795136e-002
      -1.2805982436368019e-001 -1.1675754632451062e-001
      -1.3151505156395951e-001 4.5224203444839808e-002
      -6.3587339193495118e-001 1.2632700951366785e-001
      -4.9016586663927358e-002 -3.1119005365213136e-002
      -4.0284353704670005e-002 -7.0911975162101987e-002
      2.5929610632618855e-002 2.5671302358742789e-002
      4.4472612457788552e-002 2.8874377354621797e-002
      -2.1780553700001301e-002 -8.2071594969202202e-002
      -4.1612191871865482e-002 -8.5128645323958377e-002
      -1.2076037570785719e-001 -1.4567674004517292e-002
      6.5873898689612964e-002 1.4228050459063182e-001
      -2.7901960684335574e-002 -5.9285393742668495e-002
      -2.7676525469266574e-002 1.7684267837892696e-002
      1.0575592403043942e-001 4.8369832587386887e-004
      1.2344616001870286e-001 4.6853260371340112e-002
      2.6242809637078458e-002 3.6899374636365875e-002
      -9.6807425418553070e-002 -1.4561603899668357e-001
      -4.0706953378702310e-002 5.8463043728394684e-002
      6.1305963332520509e-002 3.1369940055879793e-002
      -7.9927016063661913e-002 -1.7466031486149079e-002
      -1.0746761855705414e-001 -9.8618174015103199e-002
      -1.7674021036213579e-002 4.7225577172504809e-003
      -2.2503123545167269e-002 1.3110461865282853e-002
      5.4379186990202817e-003 -5.9568150826316661e-002
      -3.0927684157729625e-002 -7.2060148311526503e-002
      -1.4114915838700612e-001 -9.0429102417060019e-003
      -8.1512133666226588e-002 -4.0498179940246177e-003
      1.9914355738209620e-002 1.0337788784253697e-002
      -6.8807617277127104e-003 9.0517599062161003e-002
      5.9679512570473617e-002 3.7814166492873183e-002
      -3.9831069141920583e-002 7.8460423933286207e-003
      -9.3161366818810917e-002 -1.3026668288817510e-002
      -8.5981719074321727e-002 3.4597783586160523e-002
      5.4143596221752015e-002 7.7920380451078297e-002
      2.4957138816256985e+000 -2.9140248526018667e-002
      8.8455321786084687e-002 1.2332418332446807e-002
      6.2457103860461938e-002 -6.5988576018484110e-002
      7.3620830040557181e-002 1.3220705159854825e-003
      1.4319804043289353e-001 5.7736869967980045e-003
      2.7201960222724135e-002 1.1257138604042552e-001
      5.7427127401136632e-002 -9.6718570796871406e-002
      2.7024948977827670e-002 3.1105011058400502e-002
      4.1909712998201751e+000 -2.2990704395598940e-001
      -8.4411919657418011e-002 -2.5216294178649387e-002
      -4.8566218736902589e-002 2.7930590613351212e-002
      -1.8583539721289105e-001 -1.4900134599067233e-001
      -2.6528683302119035e-002 -3.0622019231273145e-001
      4.4704652784931603e-002 -1.5749515882196408e-001
      -2.6943477436181824e-002 7.6411721919027994e-002
      -4.7816274307595108e-002 7.8891831838003336e-003
      4.0421505716674044e+000 -1.6617362623876397e-001
      -3.9370086463640971e-002 1.4823499681493988e-004
      7.4532528260822023e-003 1.0855369498294420e-002
      -1.5693658736131386e-001 -5.8667958927741251e-002
      -1.5063234301518888e-001 -2.9810439756164875e-001
      2.0736794408912664e-002 -8.5245787143389193e-002
      -3.7229674816853825e-002 6.8030744351019148e-002
      -2.1957572036173399e-002 -5.7725136712685282e-002
      -2.4378213077806627e+000 2.1281851510241059e-002
      -3.5701823378980813e-002 4.1289734369756505e-002
      1.9770669936689442e-002 -2.8499258772586255e-002
      -6.4120135413669288e-002 7.2765877723431155e-002
      -2.2289045208824326e-002 3.2877977636178946e-002
      1.0443085473488309e-002 2.2617976038260615e-002
      4.6312613387012397e-002 2.9432902554583249e-003
      -1.1864527692222621e-001 1.8472820646619412e-002
      -3.0785310640589998e+000 1.1781014947079843e-001
      -1.7587789133328390e-002 -3.9151539597150627e-002
      -1.2486548099894729e-001 -2.1634615517916525e-001
      -1.1046348198464719e-001 7.7574796994926393e-002
      -9.2645865926781354e-002 -8.4335218933743877e-002
      -3.2963594080684611e-002 2.2862302659318674e-002
      2.0878798524875433e-001 -1.4468069541242495e-001
      -2.4072951751500923e-001 -1.4689110868840274e-001
      -2.8369975238476584e+000 -8.8174133765047957e-002
      2.5867270523324382e-001 7.5884437858061579e-002
      2.9860149144739534e-001 -7.9690865943193884e-002
      -2.2403072667867152e-001 1.1147876445253366e-001
      -4.8006035184032203e-001 -6.8404716966387183e-002
      8.1039289676934537e-002 1.9481995799353341e-001
      3.6012832999472449e-001 -1.9097036115084737e-004
      -1.2827745922248598e-001 -9.2034129475953796e-002
      -3.5722969067452257e+000 1.4222111357943040e-001
      -5.7115599142372880e-002 -3.4397158038465131e-002
      -1.1684517999615059e-001 -1.8871640858970515e-001
      -1.5678663117562999e-001 1.0998690172549334e-001
      -1.4249648261674647e-001 -7.5933610900312101e-002
      -1.6192578669404514e-002 1.1845884888302769e-002
      1.3226335383140281e-001 -1.0142432569039485e-001
      -2.9805811396295262e-001 -1.1418164335306782e-001
      -6.9304730088755739e-001 8.0400436898521041e-002
      -2.9133674088706377e-002 -3.1931957311533941e-002
      -1.2742875716537269e-001 -4.8837740337206829e-002
      8.7620819353116441e-002 -3.5266015147313542e-003
      1.1197614064866952e-001 -2.4298038305151589e-002
      -1.2214901796670177e-004 7.1414064128614966e-004
      1.3548207746658986e-002 -7.0775000265602031e-002
      -1.2131237818643892e-002 -3.2584793430051488e-002
      -5.5252036390297732e-001 7.5308737785046848e-002
      -3.7529762670234099e-002 -1.4260542998200976e-002
      -2.1694561623905758e-002 -4.3190060058013326e-002
      6.2155911190724222e-002 -1.7982581043526926e-002
      1.8438906327800753e-001 8.4460791331362292e-002
      -3.9195113045365389e-002 -1.3533976757528873e-001
      -4.8475577122570175e-002 -9.7964630949117240e-002
      -6.1664331581342595e-002 1.8934284408320658e-002
      3.8070657719671896e-001 4.9595457527886598e-002
      -5.3370345472288049e-002 -3.8229518055928044e-002
      -9.3024737123879625e-002 -9.5146121767244657e-002
      8.5701975190360144e-002 -1.3808953176300400e-002
      1.7896895966771106e-001 2.7794918929042352e-002
      -2.4773495002981292e-002 -8.7484259893443758e-002
      -2.0469243844153085e-003 -9.0956894936033775e-002
      -4.3253816863177044e-002 -3.3948254641801526e-002
      1.1363378274001270e+000 3.0182993473820800e-002
      1.1889523288114724e-002 1.0224317744834963e-002
      3.8411735082026499e-002 1.8593299146797380e-002
      8.3061259477102845e-003 7.3504077356699579e-004
      -3.9731696266093394e-002 -8.6401113276007580e-002
      1.4378542911166017e-002 3.6921897418858540e-002
      6.9274948014818760e-002 2.1451040937635053e-003
      4.6285015732711460e-002 -5.9781254428817859e-003
      -3.4682820248409976e-002 -3.5021946075438799e-002
      8.3379673117929716e-003 5.5017421969598627e-002
      3.5974386777423983e-002 -1.2833572307288836e-002
      -1.7938902662819903e-002 -6.4823389022058225e-002
      1.0972139023079897e-001 -1.2086666127948845e-002
      1.2328961492078719e-002 -5.0997153884654998e-002
      8.5270470861828998e-002 7.9493140442582402e-004
      3.5279578521779883e-003 6.2992945246898840e-003
      9.6963522370356126e-001 -7.2848848828491121e-004
      2.8470304128830861e-002 3.9767954370007385e-003
      2.2129805714516806e-002 -3.7292455442343019e-002
      6.6477737184694352e-002 -1.0155769433372769e-001
      4.5877461886898868e-002 -8.4090830620828491e-002
      2.2431092781762960e-002 -4.5909023040469642e-002
      2.9656723427205333e-002 -2.1687574659794689e-002
      5.9566568962082699e-002 -4.7786604739432029e-003
      1.5040146924498762e-001 -9.1447188702841964e-002
      -8.5268838097307693e-003 3.4223605757174821e-003
      6.3948429093155082e-002 -2.4782816787568392e-002
      -7.9122307725151123e-002 -9.3484168367359941e-002
      -8.1101796576092511e-002 -1.0488309160362316e-001
      4.4736016755876186e-003 -7.9181995963590088e-002
      5.0593266584226443e-002 1.0022859964047387e-001
      -7.3903285009252515e-002 -6.3826021491575874e-002
      1.2171897948851478e+000 5.5754543140157480e-002
      -1.3541021335556317e-002 -7.4661436465670195e-002
      -2.9124061810994525e-002 -4.5759220604559066e-002
      1.0401201614852813e-001 9.2811974187061511e-003
      7.5228924162292599e-002 9.0437785163931927e-003
      1.9447030923563834e-002 4.7060889616289230e-002
      -1.1556816162216231e-002 -9.2332377946465066e-002
      2.6186726575320961e-002 -2.6396321277767833e-002
      6.9937421675782097e-001 5.8370264918212574e-002
      7.6568139156834761e-002 -1.3170763674623749e-002
      -4.6851186019355971e-002 -2.1035734881780850e-002
      -1.6245618924897957e-002 -4.6441573676215223e-002
      8.9745523031335123e-002 -2.0183669828499992e-002
      1.3031874651715739e-002 4.0672457663991503e-002
      1.2501656949465735e-003 -2.8595431584285180e-002
      2.0472989069080457e-002 -2.2943492565562780e-002
      3.5433310577109536e+000 -6.4277769079392477e-002
      -7.1224764159257437e-002 1.8364179468186251e-002
      -1.3275053529047118e-001 -4.4765244466458626e-003
      6.5011878761769559e-003 -1.1912831923344538e-001
      1.7073428356033907e-001 -1.9997774901301141e-001
      8.5116267842469173e-002 -1.2382647894844919e-002
      -9.5594991788232414e-002 3.6687945164974622e-004
      7.2082359224906134e-002 8.5075060281478529e-002
      5.0653314329321093e+000 -1.8198240272042041e-001
      -2.7872472848413371e-001 -1.9316904515207269e-002
      -3.2121728825034190e-001 1.0486664367801820e-002
      -1.9457295264445060e-001 -1.9018859078810069e-001
      4.2534399793663108e-002 -4.5785575041306092e-001
      1.9864519931459542e-002 -2.5821345406727142e-001
      -1.4580828477168697e-001 8.7772125814455537e-002
      -6.5678802208373008e-002 -4.5148686097854669e-002
      4.8984174719746809e+000 -1.9723577658063876e-001
      -2.4429670540129722e-001 -2.9789142346925462e-002
      -3.1649076875217774e-001 3.2722431332935886e-003
      -2.1144782877261084e-001 -2.2195688194337085e-001
      8.7522706192550648e-002 -4.3834430091706234e-001
      6.7783063855577858e-003 -2.7971033153439839e-001
      -1.4453058348734465e-001 9.9055376030408912e-002
      -6.8324837377211609e-002 -6.7671259139986508e-003
      -1.5282858778074766e+000 4.7557103252892086e-003
      1.3995906551917947e-001 2.9183881003206343e-002
      1.0340761305020355e-001 2.4859291044895350e-002
      -8.4251358422543721e-002 -1.1194489210331508e-002
      -1.3202914582016595e-001 -2.3618659704644968e-002
      1.6401710524753872e-002 1.0881771489816458e-001
      1.3992026146510653e-001 -3.5094157932490912e-002
      -4.0132904639112923e-003 -4.0552756977984125e-003
      -2.6716445762620435e+000 1.0788905593851889e-001
      -3.8409999384774587e-002 -5.7956454882727569e-002
      -1.7223082956264485e-001 -2.1936870506801287e-001
      -5.7431341772766181e-002 2.2883668260371342e-002
      1.8749595490273538e-002 -9.7797181629845756e-002
      4.1893219310376102e-002 1.7947186560717695e-002
      1.5726417614505345e-001 -1.7062673413405841e-001
      -2.1182670023681605e-001 -1.2119922192108999e-001
      -2.6794009822408626e+000 9.9855280954443737e-002
      -3.8387431814496192e-002 -6.0422892556496972e-002
      -1.6993854855942275e-001 -2.1926107825329005e-001
      -5.7069998024212296e-002 1.7912601059208267e-002
      1.0760093812345686e-002 -9.6350272264970796e-002
      4.5023995807655141e-002 1.1352401357015698e-002
      1.6167423293228600e-001 -1.7726457710710389e-001
      -2.2128145331915883e-001 -1.2496127487669119e-001
      -2.6819298110930627e+000 1.0168555896258108e-001
      -3.0518460613324708e-002 -5.1922515750087377e-002
      -1.7216810882163319e-001 -2.1214842178286425e-001
      -6.0684966835769974e-002 1.9935038744223466e-002
      1.3144480049362507e-002 -8.8651445900103085e-002
      3.7241903162277497e-002 2.0334673821213897e-002
      1.6922380516901403e-001 -1.6539128402347694e-001
      -2.1942092235432714e-001 -1.3067233290311994e-001
      -2.5303470924886415e+000 1.2762220358064924e-001
      1.6736119977472770e-002 -5.6973246843970690e-002
      -1.5262796577190990e-001 -2.3076360768167054e-001
      -6.2239789283935795e-002 -1.3978732631456332e-002
      1.6278077618370499e-002 -1.1062828954321820e-001
      7.5129881096826820e-002 4.7673959714831612e-002
      1.7921270105193951e-001 -1.9452343137336606e-001
      -1.8843364237645832e-001 -1.2609614381980008e-001
      -2.2830694136823362e+000 7.0651425701977175e-002
      -3.3214296650166439e-002 -5.6660403753607319e-003
      -4.6212056147126944e-002 -1.7043417335631302e-002
      2.2136012427868997e-002 8.3630887321599900e-003
      -5.9984671508423550e-002 -4.4087544705873234e-002
      1.4626946997581313e-002 -8.6569829336737968e-003
      3.0980239629977376e-002 1.6734232733460923e-003
      -7.7760583779275860e-002 -3.5719691243483440e-002
      -1.6170918805191425e+000 4.9709037267614498e-002
      9.3178050273331064e-003 5.8026044909678720e-002
      -4.2797028530750125e-002 -5.7724415173821236e-002
      7.8058913323840518e-002 2.0439428746492926e-002
      1.1544938144974731e-001 6.5355827920388632e-002
      5.6946398902384600e-002 1.0814234699704485e-001
      3.0858307947940276e-002 -1.0007007973982850e-001
      -9.1851370511758009e-003 3.7047510729273626e-002
      -8.2008625239592681e-001 -2.3914304894283914e-003
      9.7821636837705991e-002 3.9046581015626247e-002
      2.4595163497717388e-002 -2.5659519311901604e-002
      2.6617108798156985e-002 -3.1288738552824713e-002
      3.6658288393037641e-002 1.1117478559105477e-002
      8.9033893691236030e-002 8.4370749522182736e-002
      1.1196078604537649e-001 -7.8186997604967612e-002
      4.7465186898277695e-002 -1.8069959227010870e-003
      -7.7015142487813326e-001 5.0798563886616750e-002
      1.2523237752975910e-001 2.6909178089536329e-002
      4.6060582312514045e-002 -1.8871638285313283e-002
      9.2252376293339614e-002 -1.9876716478325816e-002
      9.0290717357901271e-002 3.6146788032681829e-002
      6.5330823632277629e-002 1.5151253125613734e-001
      1.1709132811909015e-001 -1.0295906806729987e-001
      7.4299562549271780e-002 3.9316363097561466e-002
      -4.1181089547000560e-001 1.6924330006672140e-002
      3.4206096456714519e-002 -1.3043314378312541e-002
      3.3688865271558288e-002 -4.2234947544250306e-002
      3.9671537354236355e-002 -4.3311993143972036e-002
      7.3122480961832395e-002 -1.3420790267488795e-002
      3.2468584890467528e-002 6.1827077225269290e-002
      9.9097325155578897e-002 -7.5410996958270499e-002
      4.8514157901603142e-002 -9.1535580923330466e-003
      -1.1508391281390118e+000 1.1039027774303257e-001
      5.2901655508039658e-002 9.0514061752864795e-003
      9.8630059578060550e-002 -5.8432047181156091e-002
      6.2676182710944245e-002 -1.0059945805495948e-002
      2.6594457650049631e-002 3.6466522970920484e-002
      2.1230154507220433e-002 1.2557447710794020e-001
      5.3167862907559003e-002 -5.9326108539271595e-002
      5.0372022525374975e-002 2.9011150381844604e-002
      -4.2923130860548703e-001 9.9143351094516788e-002
      1.1978289019486117e-001 -4.3959603202269803e-003
      1.9594626531240583e-002 -1.2042979345419168e-001
      1.7732252685083505e-001 2.9034765567232100e-003
      2.2720025486071535e-001 1.1092706882298087e-001
      4.2755494335962270e-002 1.5052309006363757e-001
      1.2893946052309263e-001 -1.9091695387719831e-001
      7.9670837585798140e-002 -1.2073581267942567e-003
      2.9828292036081089e-001 -2.4893049619007412e-002
      -2.3479849142803804e-002 -5.7188147835072436e-002
      -7.8291328707666669e-002 -1.6210482561223896e-001
      -8.8174136308738021e-002 -2.6205600052623183e-002
      2.9218956228263711e-003 -1.8977642045954696e-001
      6.3299129408388138e-002 1.0055513676694394e-001
      2.2320337263343307e-001 -1.8203204891411293e-001
      -8.6686043676077434e-002 -1.0289446542922043e-001
      8.7787225445041539e-001 -6.1167206009644731e-002
      -6.6052491022530295e-003 1.2518448478907629e-002
      -7.6780166928422751e-003 -7.0373677452886127e-002
      -5.6631855197907838e-002 4.2863399739317548e-002
      -2.7452709996506016e-003 -9.7553141655713299e-002
      1.9340032838141435e-002 7.0814545623256064e-002
      4.1530756868231815e-002 -5.9681874241903958e-002
      -8.5561010525148931e-002 -3.2727900491097077e-002
      3.0760760448111681e+000 -8.2873084735712421e-002
      -1.7068764166749706e-001 -2.5056202072050452e-002
      -1.6904456068174856e-001 8.9842902958952670e-002
      -2.0860849758102265e-001 -1.4484845429440651e-001
      -2.0544258791923016e-002 -3.7231382060141333e-001
      -2.3442757754010279e-003 -1.8041163992968742e-001
      -1.4944863475290912e-001 1.0744351526381456e-001
      -9.0809760828187824e-003 4.2675235130369152e-002
      2.7001312662380439e+000 -9.1687404151137131e-002
      -4.9741839815383361e-002 -1.0981258751359328e-002
      4.2717225957474514e-002 1.7120483091008522e-002
      -1.6766129177231623e-001 -3.3968164389014677e-002
      -4.9947248733414669e-002 -1.5691874761460900e-001
      -5.2696363636647488e-002 -1.3089533225833208e-001
      -3.5668489548830340e-002 5.1613027462119418e-002
      -6.4942576693467799e-002 -6.0592393780276373e-002
      -1.4928076694000378e+000 1.2755079886650958e-001
      1.3624351354827870e-002 -3.5550745528082892e-002
      -8.6162712061068639e-002 -1.4114538704190160e-001
      1.3316741907760924e-002 5.8823489274008940e-002
      3.5316530255526814e-002 1.5304095380798299e-002
      -5.7188797854427062e-003 8.7379231830816168e-002
      8.3611476904361742e-002 -1.3376415300816699e-001
      -1.0275714302938103e-001 -4.7772947471517273e-002
      -2.1537283608736404e+000 8.7252555895469056e-002
      3.6819177817032249e-002 -7.0616330729375509e-002
      -1.3658752185711504e-001 -3.0764134728989695e-001
      -5.5280767508940648e-002 -3.6991745484621356e-002
      2.9807770069618086e-002 -1.3758988727540986e-001
      1.3869617217745919e-001 1.4221634737214925e-001
      2.7968318614122717e-001 -2.9962095539296646e-001
      -1.9464268232544857e-001 -1.6349454556237322e-001
      -2.1553897216279911e+000 9.4831796164428120e-002
      4.2224684652850043e-002 -6.9861226788072467e-002
      -1.3871123219144499e-001 -2.9597184802590387e-001
      -5.2422445560882158e-002 -3.1301385041851926e-002
      3.1922974493031289e-002 -1.4003330911454012e-001
      1.3219625253755554e-001 1.4113158684092184e-001
      2.7118694669729942e-001 -3.0290074899402736e-001
      -1.9757377710080093e-001 -1.6659572160864047e-001
      -2.1477002114226629e+000 9.4635410783132604e-002
      4.9864657414902806e-002 -7.2747351441008079e-002
      -1.4289839130490328e-001 -3.0456294504272369e-001
      -6.1075522110357924e-002 -3.1995479303454193e-002
      3.4930015050971597e-002 -1.4047242601408128e-001
      1.3569094956706615e-001 1.3971635064896346e-001
      2.7983049969543927e-001 -3.0368398541044789e-001
      -1.9144569177268983e-001 -1.6913982901146260e-001
      -2.1541157327641356e+000 8.8317081492373814e-002
      4.1452737528693655e-002 -5.8300573344782426e-002
      -1.3280604510454044e-001 -2.9868248271443193e-001
      -5.0813391024362234e-002 -3.0267361017783507e-002
      4.2341973978141698e-002 -1.2720443660813477e-001
      1.3526284901334848e-001 1.4836360342067936e-001
      2.6885321060202122e-001 -3.0375371320812689e-001
      -2.0284562225980091e-001 -1.6109366699406444e-001
      -2.1455436215757193e+000 8.5961807448151836e-002
      3.9704603205201201e-002 -7.0933236605324052e-002
      -1.3796205217856916e-001 -3.0447745346768335e-001
      -5.6198142949710636e-002 -3.8847566120352388e-002
      4.2526896875292819e-002 -1.3322587974996558e-001
      1.4016823175662366e-001 1.4364650946049398e-001
      2.7099315964547294e-001 -2.9945297890541933e-001
      -1.9504850985129035e-001 -1.6826890362123012e-001
      -2.1579925110975933e+000 7.9956516849168255e-002
      3.8570910245763361e-002 -7.2631947147865500e-002
      -1.3957116388973240e-001 -3.0870571682199816e-001
      -6.1164672847070833e-002 -3.0209535098307354e-002
      4.3710308173327522e-002 -1.3261226657241404e-001
      1.3423315078011097e-001 1.4655748627776524e-001
      2.7833115940508285e-001 -2.9081470289492289e-001
      -1.9694839693743527e-001 -1.6366869848045593e-001
      -2.1488165252993432e+000 9.0582872255389316e-002
      4.6218119749525340e-002 -6.9209452879853861e-002
      -1.4340139175818994e-001 -3.0610593411769688e-001
      -5.1551826350945157e-002 -2.5564184420831870e-002
      4.3713211834028209e-002 -1.2998352709197411e-001
      1.3360001960322379e-001 1.4525700483555884e-001
      2.7418805997100487e-001 -2.9873513974465782e-001
      -1.9997796036987142e-001 -1.7445223852491873e-001
      -2.1557705876317108e+000 8.8327135607820503e-002
      4.1532029125988544e-002 -7.2111788651375547e-002
      -1.4471391231567948e-001 -2.9784405610794856e-001
      -5.3557376218611522e-002 -3.2851936403779945e-002
      4.4174343458353554e-002 -1.3559508322250244e-001
      1.3711515194122884e-001 1.3733545796815069e-001
      2.7153138818223888e-001 -2.9109250494150041e-001
      -1.9620692646638405e-001 -1.6807466500556642e-001
      -2.1264268147481658e+000 9.4816178533924614e-002
      3.7891257699675024e-002 -6.2953733962585065e-002
      -1.3474228030678684e-001 -3.0550493662977168e-001
      -6.2369586657328842e-002 -4.0292819552584375e-002
      3.1707278139954720e-002 -1.2156237401478195e-001
      1.3034657966712523e-001 1.1451516881278771e-001
      2.7126829268711744e-001 -3.0117873755617652e-001
      -2.0166447030825391e-001 -1.7125823651225977e-001
      -2.1468503371293792e+000 8.7095996903861314e-002
      4.8127785252467477e-002 -7.1330235863830888e-002
      -1.3410559148609949e-001 -3.0557917792321448e-001
      -5.5565125892747508e-002 -2.8913035598432450e-002
      3.3986395648574919e-002 -1.3358431540311300e-001
      1.3324728396219240e-001 1.4174424229189483e-001
      2.7374885008642502e-001 -2.9672241779981456e-001
      -1.9499722502171563e-001 -1.6178915105007177e-001
      -2.1439922125818831e+000 9.1307628619088907e-002
      4.7813164432746379e-002 -5.9056357702518082e-002
      -1.3693463081803070e-001 -3.0077656967063365e-001
      -5.7139167295794352e-002 -3.6405288027564577e-002
      3.2519516469644204e-002 -1.3417879153831050e-001
      1.2998160636576481e-001 1.4720596151674128e-001
      2.6814934255940581e-001 -3.0036634797095013e-001
      -2.0072049788630703e-001 -1.6754847682649990e-001
      -2.1014159656123303e+000 7.4845260469683234e-002
      4.3748672923913143e-002 -7.8258963537018084e-002
      -1.1255446806968097e-001 -3.0442934228012247e-001
      -4.8632099930776038e-002 -3.2183115095809824e-002
      3.4745186686223589e-002 -9.7035164974945368e-002
      1.1774913512897089e-001 1.2307012356096032e-001
      2.6644271290500587e-001 -2.9382381647125916e-001
      -1.9575788716291517e-001 -1.5843907516044392e-001
      -1.5765797263405561e+000 2.6373683197428912e-003
      7.5392765624998248e-002 -3.3009777403314886e-002
      3.7836895868747986e-002 -1.8282995615245565e-001
      -6.8646681677067917e-002 -2.7323866910841949e-002
      1.5063273787103068e-003 -2.6043098429568388e-002
      6.7254454981897166e-002 7.1832448659081324e-002
      1.5450968022395697e-001 -1.7883008051768254e-001
      -1.1299453548256712e-001 -9.7959778755156601e-002
      -2.1784412398233370e+000 5.2526805377534791e-002
      -1.5717137851780246e-002 1.0331683864165987e-001
      2.9796878397610940e-003 1.1937980693630473e-001
      7.9201187850358769e-003 1.2484222243731326e-001
      -2.1365464879843346e-001 5.3250458357959177e-002
      5.2976765528779203e-002 2.1320998099887224e-002
      -2.8100843255519842e-001 1.3411289832949139e-001
      -1.5681175758544882e-002 2.2030949398818142e-001
      4.2337186012322992e-003 -5.2618640599358373e-003
      -1.6881408820219026e-003 -6.9085450733327258e-004
      3.3801700250766207e-004 5.7960703698903765e-003
      -2.7497029780888618e-003 1.3461092144755617e-003
      -4.2635487469359660e-003 -4.7835105935539564e-003
      6.1378849264220221e-003 -5.5062433391992400e-003
      -3.0767965173052734e-003 3.3996724191047255e-004
      2.1060202715994509e-003 4.5088856711979824e-003
      -1.1370252953830655e+000 1.5676804627008746e-002
      -2.8850999653765086e-002 -3.6671904067537307e-002
      -3.8515357527428962e-002 -4.3323417773496527e-002
      -1.0839342389981084e-002 -7.8625392764337970e-002
      1.5642716877351698e-001 -3.8846754407662720e-002
      -3.9964912660870530e-002 -2.1496216939060699e-002
      -1.2686375726464144e-002 -4.3888534870082645e-002
      -4.6195027097697301e-002 2.5080966884528390e-003
      -2.2663469283749547e+000 7.5612651132775821e-002
      3.2048226528327006e-003 -6.4688445206710229e-002
      -1.1623547514873384e-001 -1.6917405746160716e-001
      -9.2953649869939078e-002 -1.3782947774417176e-001
      1.4697081816218480e-001 -1.4865570543111209e-001
      3.9252124874655986e-002 5.8983650820805977e-002
      1.3266943191296329e-001 -1.9110278911367259e-001
      -1.1852627527703161e-001 -6.3837419768748793e-002
      -2.1615097191280306e+000 7.1977796708614719e-002
      3.5156833460034058e-002 -5.9559343218929861e-002
      -1.6111186549434389e-001 -2.6424176559051887e-001
      -5.0520703773786819e-002 -8.6256117558771481e-002
      6.0495040558009090e-002 -1.4668092711823791e-001
      1.0053663587851901e-001 9.3266556513597512e-002
      2.0669277192456773e-001 -2.4126243217921720e-001
      -1.7709765528654242e-001 -1.3369902594043975e-001
      -2.1640524539385755e+000 7.2679163232189883e-002
      3.4481746865894426e-002 -5.1181960315329914e-002
      -1.6156666984175930e-001 -2.5969159233823053e-001
      -5.4915146589416021e-002 -8.3453085080707382e-002
      4.9775088433509453e-002 -1.3825255589137261e-001
      9.1669965655332461e-002 1.0557639619630289e-001
      2.0806486208356381e-001 -2.4475638665512942e-001
      -1.7834077981199767e-001 -1.3707742326999567e-001
      -2.0371774141500540e+000 4.4887890775239442e-002
      -1.1377300361114161e-003 -6.3393722787168677e-002
      -2.5861830955143141e-002 -2.3350889650649284e-001
      -4.6996745488838851e-002 -9.1836988817238313e-002
      9.8483127108234841e-002 -1.4289513842605830e-001
      2.1508713910392965e-002 1.0107873598512812e-001
      1.9767305683323752e-001 -2.1098491599540270e-001
      -1.4918662803696855e-001 -6.8948013483317624e-002
      -1.6149255590556004e+000 3.2438999950438724e-002
      -1.5951543448478010e-002 -6.3796410288617073e-002
      1.1380412195768352e-002 -2.1730261752663366e-001
      -5.7050794576757685e-002 -7.9932472530680462e-002
      2.9598992451309633e-002 -1.5817494101929072e-001
      4.9696242780257173e-002 1.1203837007612841e-001
      2.1274840234263753e-001 -1.9073150910856623e-001
      -1.4628904843229282e-001 -5.5568059334845168e-002
      -2.2034391700241982e+000 4.9732045948586594e-002
      -9.0221489399946158e-003 -1.4844364851767508e-003
      -9.7861001658863245e-003 -1.5036769258470381e-001
      -3.6955060318939303e-002 -2.3619994960911762e-002
      -4.4313276930669408e-002 -1.9467556165324765e-001
      4.9562733292225221e-002 1.4573578717180075e-001
      7.5021319505438652e-002 -1.1244990824648453e-001
      -9.1806200113869210e-002 5.8763946579692271e-002
      -2.6308353785099161e+000 5.6615093127787654e-002
      -6.3999144033477923e-002 -1.2172329827661393e-002
      -1.6687189299392672e-002 -1.5753056623604661e-001
      -4.4729243310268389e-002 -2.2345739641531286e-002
      9.8738912226405129e-003 -9.8829023092987731e-002
      1.3000071678717693e-002 5.3421259200684780e-002
      8.6729051346034022e-002 -1.4252839555744509e-001
      -1.6396724680986388e-001 3.5878639242214364e-002
      -2.6966639529501828e+000 6.6889333029565776e-002
      -4.7465784678976754e-002 -5.4463699202016184e-003
      -5.6566880305212244e-002 -1.5422317079570749e-001
      -4.2630609246721858e-002 -4.5740732721575299e-002
      1.2018495473075394e-002 -9.4833476569720618e-002
      -5.6079681864145995e-003 6.3679792062066656e-002
      8.5930057747919814e-002 -1.3231907469284510e-001
      -1.6440820662303254e-001 1.7387612715820462e-002
      -2.3881780267960697e+000 3.8160890878837034e-002
      -2.1547197447388824e-003 -3.7444607410755733e-002
      -3.1492506021249156e-003 -1.6469727468242273e-001
      -4.9311109024980704e-002 -5.2048386629703708e-002
      2.9521983365634781e-002 -8.3811765115078388e-002
      1.5241137768018338e-002 4.9490804618472210e-002
      9.5587200259558747e-002 -1.4142039496831066e-001
      -1.3978612092192400e-001 1.7478789281344040e-002
      -2.6724295754085849e+000 5.4355712504737655e-002
      -2.1031262461949043e-002 -7.5486733750089255e-003
      -6.5831161398671137e-002 -1.4595612444042469e-001
      -4.4477513696675304e-002 -3.1237790974697768e-002
      1.5593875712647063e-002 -7.8829157242632258e-002
      3.6969646616335443e-002 2.2843974505511080e-002
      8.2977512748995327e-002 -1.2832615633147285e-001
      -1.4644161122607080e-001 1.2526257095961611e-002
      -3.1908361592299004e+000 1.5378604846871452e-001
      -3.4371872971610963e-002 -3.6208340222026042e-002
      -8.6088105555575486e-002 -1.9419854123738287e-001
      -6.9602920414321048e-002 -5.5316743985775818e-003
      -6.8405800466228198e-002 -1.0316870580289786e-001
      1.0170494330076238e-002 6.9627268486381261e-002
      1.0514471122360060e-001 -1.5195340799553997e-001
      -2.2694752343503580e-001 -3.2823339554825796e-002
      -3.3334376173623146e+000 1.2788525670927536e-001
      -4.8374362452719082e-002 -2.4461985875836551e-002
      -1.0393648746908155e-001 -1.6683280648871385e-001
      -7.4354842047851505e-002 4.2537814560488815e-002
      -9.9509064193190767e-003 -7.1079508437046524e-002
      1.4531032320585415e-002 5.4554754319560535e-002
      6.7762142333858508e-002 -1.3871057859209757e-001
      -2.2865831590252403e-001 -4.2612675573548191e-002
      -2.9195822799552755e+000 6.8625935095415480e-002
      -7.1719633578634062e-002 -6.7070313552603476e-003
      -1.5839383846023920e-002 -1.2730300318567953e-001
      -9.0602066307022777e-002 8.9354362282247385e-002
      -8.7094143321505293e-002 -9.8872996649833067e-003
      -2.2578510220260604e-002 5.9921066723087245e-002
      1.4057378201741577e-002 -1.0794739014840705e-001
      -2.1537839717064441e-001 -2.2395955086374531e-002
      -2.3428328664154359e+000 1.6504502720229822e-001
      -2.3818445415005313e-001 -2.3370376928150371e-002
      -1.0489057936274955e-001 -2.1520640557374869e-002
      -9.9720037544183918e-002 1.3857287252966238e-001
      -7.4028299463323677e-002 -3.6064424227613516e-004
      -1.9587248185842143e-001 -9.9031550025280635e-002
      -7.8986053478161844e-002 2.7118022452529020e-002
      -2.5005611116619503e-001 -3.8184548847996290e-002
      -3.2194970906675731e+000 1.9268811436744873e-001
      -2.2870113764924682e-001 4.5620990397648668e-003
      -5.6125787981474599e-002 5.6169370104007590e-002
      -1.3768221767621083e-001 1.8428822196275474e-001
      -2.0403917120706297e-001 3.8874300620679648e-003
      -1.0456966352900134e-001 -5.3692216031816571e-002
      -2.4702601219029749e-001 9.5703445257063355e-002
      -2.7628953428586339e-001 7.1108036277267445e-002
      -1.0829697640445717e+000 -1.3234073250876610e-001
      -4.5842298496789627e-002 -2.2188192328246054e-003
      -1.8572796947153834e-002 -1.0123039722532788e-001
      -1.5309101752270798e-001 -2.2158742693684504e-002
      -8.1778664999101872e-002 -1.0672947746387698e-001
      1.3648197888611746e-002 -7.8652622676491493e-002
      1.3488110613897640e-002 1.9796315983118953e-002
      -9.4666680004822756e-002 3.9564431662852846e-003
      -8.2214154934363359e-001 -3.0510234339277792e-001
      2.6590939030344932e-002 -1.1509595131437388e-002
      1.3647970070819093e-001 -7.8713039523394146e-002
      -2.0482321223958846e-001 -2.1865221596961709e-001
      -1.1606112462850629e-001 -1.8595043191951890e-001
      -1.2269009727837583e-002 -1.7969764590772311e-001
      1.2122162791957794e-001 2.6453770590477533e-002
      -9.4383007646647740e-002 -5.7907048840749167e-002
      -1.1145893629536228e+000 -2.5580210734938152e-001
      3.0987919997332036e-002 -1.4751423184673283e-002
      3.1747705486038801e-002 -8.3496894434121519e-002
      -2.2446992617198946e-001 -2.5091466442997978e-001
      2.9767567922908855e-002 -1.7829522675688678e-001
      1.9204938564250665e-002 -1.4066288978457916e-001
      1.2551611831946655e-001 -4.5002104685227728e-003
      -7.7467191323938672e-002 -5.6768890327786682e-002
      -1.2617182591436502e+000 -1.9256471292871427e-001
      8.1394571771579702e-002 6.6984179846870828e-002
      7.3507914974414473e-002 -4.7226849333931543e-002
      -1.9501404609791961e-001 -1.8633314132066645e-001
      3.8500630654095168e-002 -1.4863089351924696e-001
      -5.6735012100421388e-002 -1.5912498450754520e-001
      8.2917357507599154e-002 -5.2405773386236991e-003
      -1.5147080665060486e-002 7.4862992016671290e-004
      1.9313000107821868e-001 2.5100087631236685e-002
      5.6455142742490833e-002 -3.2234964473537533e-002
      5.0174285755846537e-002 -5.7593951698381246e-002
      -8.3699174684125258e-002 -4.5445118254735149e-002
      -1.8071283584142850e-001 -1.3885318719177714e-001
      4.8544176722833794e-002 1.2293286844262080e-001
      1.8174596374111460e-001 -3.3271217563491183e-002
      -9.1635229779517321e-003 -9.9655514151267069e-002
      2.9629939906957103e-001 -9.8768851403377350e-002
      9.3293140688653201e-002 1.7926906270408285e-002
      1.5016940051142198e-002 -8.5346371265695914e-002
      6.8992984634023813e-002 -8.4253288553342298e-002
      4.1185853624138097e-002 4.9951836662460260e-002
      7.3163535474867536e-002 1.2627145535480447e-001
      1.8732157098792770e-001 -1.8947689262025805e-001
      7.0122493569562475e-002 -1.9536026296305960e-002
      -8.8777327727882793e-001 1.1688512948190564e-001
      5.8384405855034988e-002 -4.1228155397137811e-002
      5.9222033400315455e-003 -2.2185541553979990e-002
      9.1759419671509357e-002 4.8640980590828539e-002
      -1.1772055330017672e-001 9.2077974168432691e-002
      -1.1738522865166167e-002 1.5173445606578417e-001
      1.3443446820147825e-001 -4.8319482619813017e-002
      1.0651193625605954e-001 -8.6105432773223457e-003
      -9.8437201349149062e-001 -3.9089658448752784e-002
      6.7409919770093155e-002 -2.3483187535321335e-002
      7.5039886385382532e-002 -7.7808510268117482e-003
      6.0050495194011039e-002 -1.0421473564285442e-003
      -5.4165019343484049e-002 7.4396543900460951e-002
      -4.2325746995829416e-002 -5.1104701167352662e-002
      1.3267031399725404e-001 -2.2544752016878862e-003
      8.7966403194440740e-002 -1.3536659050876631e-002
      5.3938632801302122e-001 -7.8949558057347935e-002
      1.4409754383744111e-002 -4.1291486755459857e-002
      3.3059555071390585e-002 -8.1639027882201953e-002
      7.4994416927085208e-002 -4.3602876308955422e-002
      3.6405256201926653e-002 8.2532791550781581e-002
      -4.3904716101294088e-002 2.3303419641199023e-002
      2.4716951199058423e-001 -1.2461988806690441e-001
      5.9410280698578434e-002 -5.3442553743569259e-002
      -4.6588288390882249e-001 -6.1846914363065476e-002
      -1.9078508392517842e-003 2.0633940052620864e-003
      5.2431666842845219e-003 8.2863197341788897e-004
      -7.6910053791327926e-002 1.8454686911842016e-002
      -1.6158981002058087e-001 -1.0922818989614119e-002
      1.2061325591782371e-002 6.2794242648149742e-002
      5.2383511373535342e-002 -2.0249316308391031e-002
      -4.0726347704222246e-002 -3.3988750417110650e-002
      -9.5239373405498806e-001 3.0327352936617511e-002
      -1.2391610940080624e-002 -9.2098376590736396e-003
      -3.4236982834007057e-002 -1.1756378341602543e-001
      4.8141246514997571e-002 9.2879291608049225e-002
      1.2072292712454930e-001 1.5539336102417439e-001
      4.4437708103162200e-003 5.5329150037957395e-002
      8.5893302153850271e-002 -9.7253122384848845e-002
      -8.4731488657769319e-002 -6.4363845893302948e-002
      -1.4564593660249514e+000 1.3707031587702045e-001
      3.8978448413022039e-002 1.1694275917255284e-002
      -2.7563146679283258e-002 -6.3932946669544161e-002
      2.6039219514458159e-002 3.2471220708375388e-002
      4.0182201306469385e-002 2.5332849721076293e-002
      2.8774768274140931e-002 6.7022136454590528e-002
      -8.7504412999702026e-003 -8.5973227753914166e-002
      -2.0622321254743427e-002 1.1940532741243787e-002
      1.9239940991597618e-001 -3.6484514399565370e-002
      -2.4160872652413602e-002 -1.0194953537448054e-002
      -6.4249534006464187e-002 -8.2820486326337150e-002
      2.0006801767717509e-002 4.0861877050385638e-002
      -5.5477692118607272e-002 -7.2444499977303192e-002
      7.6871493447117648e-002 1.7595358163856137e-001
      1.3295838670650967e-001 -8.1462342088932160e-002
      -1.0026022436500337e-002 -1.0632604241327828e-002
      -1.5623167271228351e+000 1.8470866867592226e-002
      -6.2806801468934581e-002 1.1347891547667558e-002
      -1.1015302435364042e-001 -2.3537586325466184e-002
      -8.4847471720667006e-002 6.1780025270312740e-002
      -1.0426283030647102e-001 -5.9568035420198395e-002
      1.7024067351384495e-002 -6.8804907554213868e-002
      -6.2320872990063864e-002 -1.0601155525377121e-002
      -1.9427556588118369e-001 -7.1790656062788857e-003
      -3.3285173587373342e+000 1.7114010853616918e-001
      -3.1469743869105415e-001 -1.8354696619858973e-002
      -1.1318359871806351e-001 3.3212343023712614e-002
      -1.4272407205903709e-001 2.2121543854455311e-001
      -1.7478449269319696e-001 2.1298324666573276e-002
      -1.6654211313920747e-001 -1.1647178422654714e-001
      -2.1993353141677663e-001 7.8066895936415068e-002
      -3.1884401084816621e-001 4.3537540089432114e-002
      -3.2838479781156438e+000 2.0435119930824619e-001
      -2.1544688762213732e-001 4.0384505370609919e-002
      -9.5173490575734890e-002 1.1309116538407177e-001
      -8.5271423196942184e-002 1.8159814035821009e-001
      -1.5991703046902545e-001 6.2073123981585890e-002
      -1.8922665577324416e-001 -1.8298085809273151e-001
      -2.9096205251449203e-001 1.5603107316615969e-001
      -2.2598211856963860e-001 1.1662569389007656e-001
      -1.9683676065374947e+000 -5.8999068184363075e-002
      -1.7526633908696038e-001 1.4637627404188766e-002
      -1.3283298055199458e-001 -1.6237985046365821e-002
      -9.3164689118217334e-002 -1.1132001570764015e-003
      6.2677499023575653e-002 -6.7255552216499828e-002
      -4.0410035046944445e-002 -2.0889632262128316e-001
      -1.9173608923574226e-001 5.5478268862933958e-002
      -1.2685041843802022e-001 5.8975689818901396e-002
      -9.2330732179764030e-001 -3.3921496880622520e-001
      -3.6894916112732559e-002 -1.9485733810793392e-002
      6.3755586686657637e-002 -7.7481094297633821e-002
      -2.4504623743873452e-001 -2.8975887471843209e-001
      7.0217645638678064e-002 -1.8085823809798915e-001
      -6.5771052544004630e-002 -2.4489944924473236e-001
      8.5901178846808535e-002 5.8915468359513876e-002
      -7.9801821631503359e-002 -5.4264458971177508e-002
      -1.0112593885433765e+000 -2.8911760313192236e-001
      4.3318794654168590e-003 3.8111773485410949e-002
      3.3941694336160240e-002 -1.0110704407361798e-001
      -1.9527823116806692e-001 -1.9675005898017611e-001
      2.2498071080611112e-003 -1.5866975071726738e-001
      -6.7561975483195723e-003 -1.9374164462012239e-001
      6.2579239565720216e-002 4.5733151372726370e-002
      -1.1098753562678296e-001 -5.6999162855658488e-002
      -1.0661652336189480e+000 -2.8861382176938388e-001
      6.2973326020377265e-002 -9.9123527256871433e-003
      1.3089638408897028e-001 -4.4149316246504332e-002
      -2.5329092711005374e-001 -2.4488354872813639e-001
      -4.0400914306112444e-002 -1.9828916988157505e-001
      -1.5692805917355390e-002 -1.7435950574718362e-001
      1.0916617758999607e-001 7.5225269418045304e-002
      -9.8886421261609084e-002 -4.7691525433473311e-002
      -4.6790139507023948e-001 -5.4962423589466305e-002
      -3.4288455443162821e-002 -1.0242235064958133e-002
      9.2304725831679404e-004 -5.7944040443598896e-002
      1.1844414246066113e-002 -6.8439935950018113e-002
      1.5136231290495294e-001 -1.3040635506678165e-002
      -3.2786113711158063e-003 -1.0043715747231823e-002
      6.0976921548387408e-002 -4.7923802462225863e-002
      1.0051498713213189e-002 -2.7842259174078732e-002
      -1.4186384746516179e+000 1.2159936011129542e-001
      1.8314747151292884e-002 1.0331499465946128e-002
      -1.5097227313749049e-002 -2.3235096141563969e-002
      1.0495916016823016e-001 5.9332231371187073e-002
      3.2756057633333453e-002 1.0897072973388554e-001
      9.4309913434768352e-003 2.8971229692919466e-002
      -7.9271904875891544e-002 -5.2727835162892603e-002
      -4.2149650079895677e-002 6.6620992153006597e-002
      -5.4119507222925478e-001 -4.4527894262678209e-003
      -9.0056718700932178e-003 2.5155875306763936e-003
      -1.1856974265831845e-002 -1.0411866649622022e-001
      -1.6374552456779257e-002 3.5454500482348945e-002
      4.3557573540855564e-002 6.3766432941742363e-002
      -1.9169624798787255e-002 -4.4627894605902621e-003
      1.0348930795847555e-001 -7.8301076921745275e-002
      -6.0091148959888360e-002 -4.2810773794195428e-002
      -4.2465997753235912e-001 3.6415470842234586e-002
      -7.7086342530176906e-004 2.8387076928903517e-002
      1.6854277084174304e-003 -5.5564336104221193e-002
      -2.4425786252524621e-002 4.3745703459736607e-002
      -2.1176938813043510e-002 -2.7657610543423482e-002
      -1.6556618814749413e-003 1.6742810333337740e-002
      5.3268685732705531e-002 -4.1846255929745432e-002
      -5.7797597981582217e-002 -2.5834624115749133e-002
      -2.8710340558860076e-001 -2.5431874728936942e-002
      8.9135617162832293e-003 7.3520022415612299e-002
      3.6438658463790713e-002 -1.3918896394986155e-002
      -2.6819570684356826e-002 3.1146798170602903e-002
      -3.9879844432418529e-002 -4.2168049056541965e-002
      5.5153428823622834e-002 1.0933694929790702e-001
      6.9068980041276304e-002 -5.4824892686579862e-002
      5.2065295730127680e-003 5.4342099221037631e-002
      -9.2380939992929387e-002 -4.7771283690932365e-002
      -2.3437171466718833e-002 1.9301272723750075e-002
      7.0988120113862435e-002 -2.4439371561979617e-002
      -6.5525214564334244e-002 1.8764329296545193e-003
      8.2242216322528455e-002 3.1772467098406983e-002
      -7.0239559158948714e-003 1.7053310902439389e-002
      8.1281199306337093e-002 1.0549084144097354e-002
      -3.7575361942198918e-002 -7.9210776567003487e-004
      8.9196787331584135e-002 1.5822065701955167e-002
      3.5163333958662557e-002 -4.3492995360449567e-003
      -7.3093254787462989e-003 8.4493751112165710e-003
      -4.4246719889081250e-002 2.2685521527408929e-003
      6.5786838094316430e-002 -7.9816566751853488e-002
      4.1121878524949473e-002 7.3505840891947963e-002
      6.0631796398609078e-002 -3.9603762138747209e-002
      2.2585366954592796e-002 -8.5802925841225019e-003
      -1.0750489054591035e+000 -1.3069836573604639e-002
      -1.1470132696110377e-002 -3.4910599918281555e-002
      -2.3795078156230519e-002 -3.4675996652331793e-002
      4.6932535329836222e-003 -3.7995494639564885e-002
      1.3426598598368153e-001 5.0298321817840566e-002
      -5.2517934681026453e-002 -1.0289479024264500e-001
      -1.4665452714140692e-002 -9.8771537819050001e-002
      -2.0621269059725974e-003 5.0234638815743686e-002
      -7.6451062544886028e-001 8.2142364603079915e-002
      6.7512096809816693e-002 -1.0951635797050743e-002
      -2.9449973987194094e-004 3.7664084473276419e-002
      1.0523598711680565e-001 5.1415303008341285e-003
      5.8620469792502530e-002 1.5674305490166181e-002
      1.2492888225097419e-002 6.1239466125849559e-002
      -8.9338877841003486e-003 -2.2953990861833903e-002
      4.8184982783382971e-002 4.6425741392298686e-002
      -8.1914972659812746e-001 1.2822203435628063e-001
      1.6651943872551707e-002 6.4884244811589655e-003
      1.5446705022796107e-002 -3.5024183682318223e-002
      5.3091575134717274e-002 7.8583827750441995e-002
      5.3884879842550464e-002 1.2048779218872212e-001
      -3.8929628414053627e-003 8.9389449487392553e-002
      -4.1494911034775379e-002 -6.1575386783884245e-002
      -6.5866138654881931e-002 4.1529963208213880e-002
      -2.8878275775868305e+000 1.3453738075509142e-001
      -2.7751733491845604e-001 1.6936024952627141e-002
      -1.3289009442735292e-001 1.1082922850957617e-001
      -1.2732708460948161e-001 2.0681057147306853e-001
      -1.8431301845110273e-001 1.5414453429465810e-002
      -1.8751911472219782e-001 -2.1347318431054563e-001
      -3.0662937935147827e-001 1.7879962052768331e-001
      -2.4054242692117711e-001 1.0820303698068673e-001
      -2.8953311432943742e+000 1.2933223109235065e-001
      -2.7302024456969903e-001 1.3479312756256866e-002
      -1.2537508634601477e-001 1.0365362291828682e-001
      -1.3042614282992587e-001 1.9963712081670759e-001
      -1.6978930989871829e-001 9.3891139142498799e-003
      -1.8549986832877477e-001 -2.0918219695147988e-001
      -3.0603874887804672e-001 1.7628049733910864e-001
      -2.3437212700102966e-001 1.0577085122342605e-001
      -1.9511049575971444e+000 -1.8380897677969896e-001
      1.1381613119576688e-002 4.2737986825225747e-002
      6.9780227705380102e-002 4.4190957036532988e-002
      -1.7325529044648505e-001 -1.8298528082151162e-002
      -1.3850223013588206e-001 -9.2566443785952385e-002
      -4.0876583206828502e-003 -1.0650138141106436e-001
      -1.4443646303797898e-002 1.2434870902078864e-001
      -9.9551390152592151e-002 2.8373375773651571e-003
