<?xml version="1.0"?>
<opencv_storage>
<DigitOCR type_id="opencv-ml-ann-mlp">
  <layer_sizes type_id="opencv-matrix">
    <rows>1</rows>
    <cols>3</cols>
    <dt>i</dt>
    <data>
      256 16 10</data></layer_sizes>
  <activation_function>SIGMOID_SYM</activation_function>
  <f_param1>5.9999999999999998e-001</f_param1>
  <f_param2>1.</f_param2>
  <min_val>-9.4999999999999996e-001</min_val>
  <max_val>9.4999999999999996e-001</max_val>
  <min_val1>-9.7999999999999998e-001</min_val1>
  <max_val1>9.7999999999999998e-001</max_val1>
  <training_params>
    <train_method>BACKPROP</train_method>
    <dw_scale>1.0000000000000001e-001</dw_scale>
    <moment_scale>1.0000000000000001e-001</moment_scale>
    <term_criteria><epsilon>9.9999999747524271e-007</epsilon>
      <iterations>1000</iterations></term_criteria></training_params>
  <input_scale>
    2.0312015226903570e+000 -1.1929278784054478e+000
    2.1343672769426978e+000 -6.9451633614802077e-001
    3.2437617673349051e+000 -3.4497148954196610e-001
    2.9719626285948890e+000 -3.8682688181711256e-001
    2.4571909803047727e+000 -5.1484001492099996e-001
    2.1888594868976350e+000 -6.4970908579342501e-001
    2.0976705483678848e+000 -7.3251987403322960e-001
    2.0933120849258624e+000 -7.3764330611673257e-001
    2.0809425926347225e+000 -7.5310303352494712e-001
    2.1067524290009612e+000 -7.2231511851461527e-001
    2.1114801231761420e+000 -7.1723293072967365e-001
    2.1316898188498814e+000 -6.9702873441758029e-001
    2.1600691233179368e+000 -6.7202150503224700e-001
    2.1316898188498814e+000 -6.9702873441758029e-001
    2.2528754005342773e+000 -6.0791875887432878e-001
    2.1541010921383230e+000 -6.7700320038633011e-001
    2.4241350235737369e+000 -5.2715317179301902e-001
    4.2531660713798818e+000 -2.4978911847786608e-001 1. 0. 1. 0.
    2.7365451294073373e+000 -4.3437224276306940e-001
    2.4640790075490093e+000 -5.1237198410939722e-001
    2.2135943621178655e+000 -6.3245553203367588e-001
    2.2135943621178655e+000 -6.3245553203367588e-001
    2.2135943621178655e+000 -6.3245553203367588e-001
    2.2135943621178655e+000 -6.3245553203367588e-001
    2.2365751949221009e+000 -6.1772076812134213e-001
    2.3699623173613267e+000 -5.4922936243611697e-001
    2.2973736160918392e+000 -5.8345996599157823e-001
    2.8317538389536332e+000 -4.1352595743449883e-001
    2.8577380332470410e+000 -4.0824829046386296e-001
    2.8577380332470410e+000 -4.0824829046386296e-001
    2.3932411756584910e+000 -5.3942896340239010e-001
    2.7707100360357257e+000 -4.2660138650073876e-001
    8.9310056396989470e+000 -1.1340959542474853e-001
    8.9310056396989470e+000 -1.1340959542474853e-001
    2.6341623315223357e+000 -4.5993310550389988e-001
    2.2973736160918392e+000 -5.8345996599157823e-001
    2.1854983862503929e+000 -6.5218047081757757e-001
    2.1854983862503929e+000 -6.5218047081757757e-001
    2.1854983862503929e+000 -6.5218047081757757e-001
    2.1854983862503929e+000 -6.5218047081757757e-001
    2.3069650051233470e+000 -5.7857217588807752e-001
    2.3268946049775860e+000 -5.6879645899452103e-001
    2.3069650051233470e+000 -5.7857217588807752e-001
    2.7824944350166949e+000 -4.2399915200254401e-001
    2.8066885815677565e+000 -4.1877575661487160e-001
    2.7824944350166949e+000 -4.2399915200254401e-001
    2.0091324675867477e+000 -9.0889325914638586e-001
    2.3532868990487321e+000 -5.5657102850517626e-001
    2.2880215766121470e+000 -5.8834840541455202e-001
    2.4853279621975997e+000 -5.0495552247824249e-001
    2.0147135728490047e+000 -1.1288791924058710e+000
    2.6533431525261624e+000 -2.1984843263788205e+000
    4.5542300892341379e+000 -4.3229041164476421e+000
    3.4588245932564785e+000 -3.1403931227661994e+000
    4.0089186286863674e+000 -3.7416573867739431e+000
    2.4436967544349715e+000 -1.9239263336503902e+000
    2.3814483610392010e+000 -1.8371173070873836e+000
    2.1854983862503925e+000 -1.5333179154328149e+000
    3.0034071561236169e+000 -2.6220221204253797e+000
    2.1991973757009444e+000 -6.4230526528408538e-001
    2.2880215766121470e+000 -5.8834840541455202e-001
    2.3372480557066306e+000 -5.6390746740858388e-001
    2.0347898934778801e+000 -8.3006508352986541e-001
    2.0198014504012658e+000 -8.6883522707736993e-001
    2.2528754005342773e+000 -6.0791875887432878e-001
    2.0976705483678848e+000 -7.3251987403322960e-001
    2.0911775762796583e+000 -1.3509671008663824e+000
    4.1496790239200303e+000 -3.8927941319630759e+000
    3.6994873829426314e+000 -3.4058772731852796e+000
    5.3319035640528893e+000 -5.1372467672700060e+000
    4.4256591310867641e+000 -4.1868140351233514e+000
    5.8471353071272070e+000 -5.6707931311979740e+000
    2.7040619028921169e+000 -2.2619692425780089e+000
    2.9567039404833526e+000 -2.5671699292768158e+000
    3.0530408919874130e+000 -2.6798914496333959e+000
    2.0044593143431828e+000 -9.3541434669348533e-001
    2.3478713763747794e+000 -5.5901699437494745e-001
    2.2834331777865144e+000 -5.9079302853841564e-001
    2.0139413540697850e+000 -8.8869158163714324e-001
    2.0385894327999292e+000 -8.2190748560505089e-001
    2.1600691233179368e+000 -6.7202150503224700e-001
    2.0559710905871591e+000 -7.8975397447951201e-001
    2.0171596353142247e+000 -1.1398552859870856e+000
    2.2248708975397871e+000 -1.5997881215643230e+000
    2.1398266546446330e+000 -1.4503269548146958e+000
    2.1661894674410958e+000 -1.4991406473084408e+000
    2.1316898188498814e+000 -1.4346610844323013e+000
    2.1482821693319916e+000 -1.4662878298615181e+000
    2.0608824470428373e+000 -1.2790556139583324e+000
    2.4640790075490093e+000 -1.9517070234396121e+000
    2.3372480557066306e+000 -1.7733405882980466e+000
    2.0608824470428373e+000 -7.8182683308450496e-001
    2.3992558564407398e+000 -5.3697631072721319e-001
    2.4503974655279857e+000 -5.1730613161146366e-001
    2.0025849979991150e+000 -9.5043319746307198e-001
    2.3587731342088563e+000 -5.5412448232208056e-001
    2.0625716183134752e+000 -7.7919372247397956e-001
    2.2700086659705114e+000 -5.9812926754143636e-001
    2.0117530851686265e+000 -1.1144473440061122e+000
    2.6247949459044642e+000 -2.1623310744832014e+000
    3.9234254347972395e+000 -3.6494084203034642e+000
    4.1496790239200303e+000 -3.8927941319630759e+000
    5.2239452486024467e+000 -5.0249378105604485e+000
    2.7477403519260086e+000 -2.3159525823376357e+000
    3.7338291614026020e+000 -3.4434202266268441e+000
    2.2700086659705114e+000 -1.6718793984290752e+000
    2.2287239965467553e+000 -1.6060963403686142e+000
    2.0335704689567691e+000 -8.3279552538229584e-001
    2.2656447723614535e+000 -6.0057567775295673e-001
    2.2700086659705114e+000 -5.9812926754143636e-001
    2.0017053785582086e+000 -9.5954765765806194e-001
    2.5975461539752907e+000 -4.7003216119552876e-001
    2.5975461539752907e+000 -4.7003216119552876e-001
    2.5975461539752907e+000 -4.7003216119552876e-001
    2.7591270276823461e+000 -4.2919753763947605e-001
    2.3320381162846937e+000 -5.6635211395485419e-001
    2.1570662718411957e+000 -6.7451119929002468e-001
    2.1454276559092884e+000 -6.8449358545677297e-001
    2.1370794401599271e+000 -6.9200667586130982e-001
    2.1426092732951916e+000 -6.8699535429464875e-001
    2.2173066679567324e+000 -6.2999665645119851e-001
    2.1114801231761420e+000 -7.1723293072967365e-001
    2.2528754005342773e+000 -6.0791875887432878e-001
    2.7040619028921173e+000 -4.4209266031410810e-001
    3.1058987489442358e+000 -3.6481985305059278e-001
    3.1819805153394642e+000 -3.5355339059327379e-001
    2.0497806247879549e+000 -8.0039052967910618e-001
    2.8577380332470410e+000 -4.0824829046386296e-001
    2.8577380332470410e+000 -4.0824829046386296e-001
    2.8577380332470410e+000 -4.0824829046386296e-001
    2.8577380332470410e+000 -4.0824829046386296e-001
    2.8577380332470410e+000 -4.0824829046386296e-001
    2.8577380332470410e+000 -4.0824829046386296e-001
    2.8577380332470410e+000 -4.0824829046386296e-001
    2.8577380332470410e+000 -4.0824829046386296e-001
    2.8846927969382015e+000 -4.0294121608025674e-001
    2.8577380332470410e+000 -4.0824829046386296e-001
    2.8577380332470410e+000 -4.0824829046386296e-001
    2.8846927969382015e+000 -4.0294121608025674e-001
    4.4256591310867641e+000 -2.3884509596341269e-001
    8.9310056396989470e+000 -1.1340959542474853e-001 1. 0.
    2.0497806247879549e+000 -8.0039052967910618e-001
    2.7365451294073373e+000 -4.3437224276306940e-001
    2.8317538389536332e+000 -4.1352595743449883e-001
    2.8317538389536332e+000 -4.1352595743449883e-001
    2.7255366514447528e+000 -4.3695111396177788e-001
    2.6631634154560553e+000 -4.5231505627586971e-001
    2.5547983011164677e+000 -4.8257301243311057e-001
    2.4926120858896321e+000 -5.0247894429838613e-001
    2.5074937193291729e+000 -4.9751859510499458e-001
    2.6436772809071996e+000 -4.5739813272838847e-001
    2.5630941849349700e+000 -4.8007160924178804e-001
    2.5385690047463623e+000 -4.8756642789572990e-001
    2.4640790075490093e+000 -5.1237198410939722e-001
    3.2653446712483953e+000 -3.4208372746411764e-001
    4.0089186286863656e+000 -2.6726124191242440e-001
    3.4588245932564785e+000 -3.1843147049027898e-001
    2.0256815859918142e+000 -1.1736091728365274e+000
    2.0012205671729304e+000 -9.6566833717550926e-001
    2.0412414523193152e+000 -8.1649658092772615e-001
    2.0439899062476079e+000 -8.1110710565381261e-001
    2.2528754005342773e+000 -1.6449566416599484e+000
    2.5000000000000004e+000 -2.0000000000000004e+000
    4.5542300892341379e+000 -4.3229041164476421e+000
    4.2003733831184862e+000 -3.9470175282637201e+000
    3.8437506809366204e+000 -3.5630958693126766e+000
    3.4588245932564785e+000 -3.1403931227661994e+000
    2.5466240628814960e+000 -2.0615528128088303e+000
    2.0849500138044283e+000 -1.3370155644079191e+000
    2.3478713763747789e+000 -1.7888543819998315e+000
    2.2926681095070043e+000 -5.8590407242956777e-001
    2.9719626285948890e+000 -3.8682688181711256e-001
    3.6994873829426322e+000 -2.9361010975735174e-001
    2.0008168266626032e+000 -9.7182531580755016e-001
    2.0000100781814929e+000 -9.9683041991902976e-001
    2.0124611797498106e+000 -8.9442719099991574e-001
    2.0008168266626032e+000 -9.7182531580755016e-001
    2.0911775762796583e+000 -1.3509671008663824e+000
    3.2874537167989617e+000 -2.9482719841133544e+000
    4.3656412506539928e+000 -4.1231056256176597e+000
    5.3319035640528893e+000 -5.1372467672700060e+000
    4.5542300892341379e+000 -4.3229041164476421e+000
    3.8829013735766034e+000 -3.6055512754639891e+000
    2.4053511772118195e+000 -1.8708286933869707e+000
    2.2613350843332269e+000 -1.6583123951776997e+000
    2.0998950078743439e+000 -1.3699315051370720e+000
    2.1789005611781351e+000 -6.5712874067277083e-001
    3.3101093947099387e+000 -3.3626508136735883e-001
    3.3101093947099387e+000 -3.3626508136735883e-001
    2.0954763256405888e+000 -1.3603965352174616e+000
    2.0012205671729304e+000 -9.6566833717550926e-001
    2.0000907091185809e+000 -1.0095695960312836e+000
    2.0004940101347417e+000 -1.0224747162910901e+000
    2.4640790075490093e+000 -1.9517070234396121e+000
    3.3815786958698144e+000 -3.0541559967459118e+000
    4.0089186286863674e+000 -3.7416573867739431e+000
    7.0343875464461476e+000 -6.8892335177099566e+000
    7.0343875464461476e+000 -6.8892335177099566e+000
    5.8471353071272070e+000 -5.6707931311979740e+000
    2.6533431525261624e+000 -2.1984843263788205e+000
    2.2027298799385351e+000 -1.5628892957659131e+000
    2.3992558564407398e+000 -1.8622795457135266e+000
    2.2099278321959974e+000 -6.3491577401186583e-001
    3.2653446712483953e+000 -3.4208372746411764e-001
    3.2653446712483953e+000 -3.4208372746411764e-001
    2.0312015226903570e+000 -1.1929278784054478e+000
    2.0000907091185809e+000 -9.9052111308729729e-001
    2.0053527300749683e+000 -9.2946507489189012e-001
    2.0110662298337409e+000 -1.1108746793367332e+000
    2.2210653192626153e+000 -1.5935262290582572e+000
    2.3873057832029656e+000 -1.8454252641584830e+000
    3.1430927854685606e+000 -2.7838821814150108e+000
    2.7824944350166954e+000 -2.3584952830141512e+000
    2.9567039404833526e+000 -2.5671699292768158e+000
    2.4115285243458517e+000 -1.8794611197679574e+000
    2.3873057832029656e+000 -1.8454252641584830e+000
    2.0642871125925697e+000 -1.2877219607125077e+000
    2.3478713763747789e+000 -1.7888543819998315e+000
    2.5800611265260285e+000 -4.7505887409050684e-001
    4.5542300892341414e+000 -2.3132597278649608e-001
    4.5542300892341414e+000 -2.3132597278649608e-001
    2.0032733246124987e+000 -9.4440028160303513e-001
    2.0770484911967291e+000 -7.5828754440515500e-001
    2.1724654575812159e+000 -6.6208471088189447e-001
    2.1724654575812159e+000 -6.6208471088189447e-001
    2.1163353105546321e+000 -7.1216362831362223e-001
    2.0890725544918336e+000 -7.4278135270820755e-001
    2.0468359094785846e+000 -8.0573858023918887e-001
    2.0412414523193152e+000 -8.1649658092772615e-001
    2.0312015226903570e+000 -8.3827364428490925e-001
    2.0528252642264420e+000 -7.9506248328770135e-001
    2.0809425926347225e+000 -7.5310303352494712e-001
    2.2287239965467549e+000 -6.2262765617814109e-001
    2.2973736160918392e+000 -5.8345996599157823e-001
    3.6994873829426322e+000 -2.9361010975735174e-001 1. 0. 1. 0.
    2.0911775762796583e+000 -7.4021047541327589e-001
    2.2135943621178655e+000 -6.3245553203367588e-001
    2.2135943621178655e+000 -6.3245553203367588e-001
    2.2135943621178655e+000 -6.3245553203367588e-001
    2.2135943621178655e+000 -6.3245553203367588e-001
    2.2135943621178655e+000 -6.3245553203367588e-001
    2.2135943621178655e+000 -6.3245553203367588e-001
    2.2135943621178655e+000 -6.3245553203367588e-001
    2.2135943621178655e+000 -6.3245553203367588e-001
    2.2613350843332274e+000 -6.0302268915552726e-001
    2.2973736160918392e+000 -5.8345996599157823e-001
    2.3069650051233470e+000 -5.7857217588807752e-001
    2.3699623173613267e+000 -5.4922936243611697e-001
    3.6339166216781158e+000 -2.9994232432898732e-001 1. 0. 1. 0.</input_scale>
  <output_scale>
    1. -431602080. 1. -431602080. 227158990. -2.1580103950000000e+008
    227158990. -2.1580103950000000e+008 227158990.
    -2.1580103950000000e+008 227158990. -2.1580103950000000e+008
    227158990. -2.1580103950000000e+008 227158990.
    -2.1580103950000000e+008 227158990. -2.1580103950000000e+008 1.
    -431602080.</output_scale>
  <inv_output_scale>
    1. 431602080. 1. 431602080. 4.4022030561062097e-009
    9.4999999559779691e-001 4.4022030561062097e-009
    9.4999999559779691e-001 4.4022030561062097e-009
    9.4999999559779691e-001 4.4022030561062097e-009
    9.4999999559779691e-001 4.4022030561062097e-009
    9.4999999559779691e-001 4.4022030561062097e-009
    9.4999999559779691e-001 4.4022030561062097e-009
    9.4999999559779691e-001 1. 431602080.</inv_output_scale>
  <weights>
    <_>
      1.2755225694396193e+000 8.4201688481241425e-003
      1.4653281257046501e-002 4.4256619218617311e-003
      3.0502320295956321e-002 -2.3220855912643730e-002
      2.5520667318675395e-002 -2.0685810644869761e-002
      -3.5991357146869761e-002 -2.8757414646062331e-002
      2.3337603605978606e-002 1.0204006208940904e-001
      9.1073703387853450e-002 -5.3702198712539631e-002
      1.2888332595741891e-001 -2.3358248378105261e-002
      1.1016878188515664e+000 -3.1820701140783655e-002
      -4.4629238925076607e-002 6.5153928717718787e-004
      6.8218911362276077e-002 7.7071590404917276e-002
      5.3126131350600903e-002 3.0301322421932852e-002
      -7.3809149685557712e-002 4.8394206521263285e-002
      1.5600729932322374e-003 -2.2369746611241807e-002
      -9.1293690806618991e-003 7.9577303483421499e-002
      5.2591064360598176e-002 3.5084015670929933e-002
      -7.1925433545265494e-001 4.6997916944089481e-002
      -1.8921968861946505e-002 -6.9437488126998246e-003
      -6.4751564432873623e-002 5.3949552591015006e-003
      2.1305611625168516e-002 6.1671817483364921e-002
      1.3786933145316104e-002 1.2129136387515313e-001
      8.7989959332574752e-003 -1.3381133534803233e-001
      -1.4303489412443032e-001 3.1902659294254690e-002
      -5.9866168250624609e-002 2.6510793862979584e-004
      -1.3511195422768085e-001 -1.1773724142862885e-001
      4.0412893226343269e-002 4.1676948238419049e-003
      1.3709831988219359e-002 -3.4523761943845356e-002
      9.8363115915304448e-003 -6.6669981662515990e-002
      6.2724673454934460e-002 7.1980246423646744e-003
      -2.0821256667238275e-002 -7.1463504772108874e-002
      1.4652115965936940e-002 -1.2446293136307423e-002
      -3.1892818516434364e-002 -8.3699501322533398e-002
      5.4327807959400409e-001 8.3857362675713656e-002
      4.2507126898222704e-002 1.7600744110395479e-002
      8.6905440439613763e-002 -6.2170056813822074e-002
      5.9772566710084414e-002 -2.0320281822427712e-002
      2.1100036758254951e-002 4.6905948530536243e-002
      2.0903426518809928e-002 2.0782097592631606e-002
      2.3629498356647101e-004 -5.7642511654731998e-002
      4.8041521516188471e-002 -8.7028264601646241e-002
      1.1413284474443139e+000 5.6656130981734283e-002
      -1.7504493920650351e-002 -5.9896074319782363e-003
      7.2564408552858325e-002 2.6275117124504112e-002
      1.0594394791192727e-001 -7.4567832010701010e-002
      -9.8342695644427353e-002 3.5867108467384349e-003
      -3.8201715417323326e-002 -7.2013469376701819e-002
      -8.0653160278825603e-002 5.7390720223151087e-002
      -1.0104142145975294e-002 -2.0646825142241776e-001
      1.3119695814414591e+000 9.4631206771895141e-002
      3.8529744674909903e-002 -3.7914841215894467e-002
      7.4687209410436148e-002 -1.4859055561803974e-002
      9.6186077292164857e-002 -7.4458184139801570e-002
      -3.5884009950162735e-002 8.1832635662282081e-003
      -2.8081030973034497e-002 -2.6319828393260528e-002
      -6.2298377596632960e-002 2.3923671482304950e-002
      -3.5834885059516006e-003 -1.7680803070083151e-001
      1.2759083525970498e+000 4.6820019666108784e-002
      -6.4820241556124175e-002 4.6333033328227261e-003
      4.9715932874462229e-002 -1.3640206676320791e-002
      4.5652611725237921e-002 -1.0019998872202822e-001
      -2.8832447951027945e-002 -1.1003603332025569e-002
      -7.5304342094589000e-002 -9.7675978355577744e-002
      -6.2800096147988232e-002 4.6888439602626418e-002
      -3.1758653087462826e-002 -1.8297673647396642e-001
      1.2833604125822524e+000 1.0927627862287552e-001
      3.3841259864059621e-002 -2.2698807524093804e-002
      1.1036154286184628e-001 1.3152998715506868e-002
      1.6006597899882330e-001 -3.1318097778972785e-002
      -4.1030832411810284e-002 3.2622436535963355e-002
      -4.4311546112862928e-002 3.0826339194696184e-002
      -4.3173325986662528e-002 4.0017359584412646e-002
      5.0562964385075501e-002 -1.4368590477943019e-001
      1.4956128725052045e+000 6.1125595660677517e-002
      -7.0644791653120986e-002 9.2049046471543263e-004
      5.3302621783955492e-002 2.9964411862797725e-002
      9.8336360460539618e-002 -7.6949499017314488e-002
      -4.1146767700174773e-002 9.6910646594666819e-003
      -4.1020781122937826e-002 -8.5034056470676855e-002
      -8.7801294664707069e-002 6.8513872342183951e-002
      1.4886486489958639e-002 -1.5586983497240359e-001
      1.7054838199174791e+000 6.9983928308324034e-002
      7.9483437087319933e-002 4.3351850383448111e-002
      8.4716593861134545e-002 4.5373943296541687e-002
      1.1795770484926268e-001 -4.8812035340966967e-002
      -6.0565808528794063e-002 2.5955144741004590e-002
      1.8847473614284974e-002 4.8226788295877253e-003
      -3.8613058461308934e-002 8.3655084981950262e-002
      3.7921738156671145e-002 -1.2960460071292906e-001
      1.0666728359072668e+000 1.8285732001140065e-001
      -2.1655052668759257e-002 -4.9419361353336994e-002
      7.6724153527918060e-002 -6.6758930795502713e-002
      9.0897579036281734e-002 -6.2912613036677736e-002
      1.4274627765072667e-003 6.0315400473101279e-002
      -6.7505503694519770e-002 -1.3855347624442568e-002
      -2.8890809114051993e-002 -1.1196405282991113e-002
      -3.7556986083889285e-002 -1.8444929754883421e-001
      1.2578354937204488e+000 9.9145985681533835e-002
      -2.3203556111298210e-002 -1.7973491006024332e-002
      4.2810567024210794e-002 -3.6479705982872271e-002
      6.1198149898617410e-002 -5.6928230218188401e-002
      -3.8537341159806400e-002 -4.9223860388941665e-003
      -4.9312651887158392e-004 -2.3444857940585744e-002
      -4.9968898466882100e-002 2.9262171398296656e-002
      -6.6111054556513477e-002 -1.5926883942160130e-001
      2.2475285596110237e+000 8.3660839954210822e-002
      -2.0117519225985845e-002 4.0858913605724134e-002
      8.1758199759960570e-002 2.1510690851621415e-002
      1.2490974259524715e-001 -6.5803269762519361e-003
      -1.0699184337210494e-002 5.3760143744428106e-002
      3.1234810337248498e-002 5.2924842958796216e-002
      -2.4785916279861157e-002 -1.8379152337381448e-002
      1.9450745563606212e-002 -6.1186392675326627e-002
      2.8657099851484245e+000 4.8780975547889044e-002
      1.5503796495175552e-002 6.0255259809382962e-002
      8.1771082644132437e-002 2.6899054496223533e-002
      7.9139122360319628e-002 1.3897782174441277e-003
      -7.2878274999379308e-002 -4.9476971863498413e-002
      4.0588492236613524e-002 1.5838961909880780e-001
      7.9326346266063455e-002 -1.9257380783354275e-002
      7.9836131075523217e-002 -6.3276368842454342e-002
      3.5317711801286413e+000 1.5782018768514100e-001
      -1.5044964895663994e-002 2.0187786669560240e-002
      -6.1587953558044646e-002 -7.9166803176814765e-002
      1.5500783959695005e-001 -3.6477149072231624e-002
      3.8207545175973766e-002 -4.5596638572346679e-002
      5.1765589488052315e-002 1.8132395490137418e-001
      4.0824622086073951e-002 -1.1740031215046627e-001
      1.5744989835985965e-001 -6.7771772330122368e-002
      1.4094535711733618e+000 -1.6720328490354489e-001
      -1.1495641599441356e-001 2.3887761857986122e-003
      -6.6869736316595901e-002 9.4318161579878962e-002
      -6.7404877480766831e-002 -7.1621452071441452e-002
      -8.6968405009599126e-002 -1.7298220482288804e-001
      -1.1972682882944150e-002 -5.2160547839479598e-002
      -7.8959154014297636e-002 8.7341430412579732e-002
      7.0699729848800732e-003 2.4857403489902761e-002
      -4.2466290109979488e-001 9.1970195968103075e-002
      -1.0482145549572054e-001 -4.9785671991589417e-003
      -1.0758040524207599e-001 9.4352996755402804e-002
      2.4555736866677232e-002 9.7017006203646089e-002
      4.1828639762112221e-002 4.8229279550385730e-002
      -2.5958505137997769e-002 -9.4940281912902061e-002
      -1.2232946427368419e-001 1.7966727003911425e-002
      -2.4509248344706261e-002 3.3368962090587637e-002
      1.4209841410670449e-003 -1.0526544797000094e-003
      1.4200425774193710e-003 5.6857784452764735e-003
      1.8873706391780759e-004 7.1787919945878395e-003
      5.6636149096858657e-003 -6.5183046597727780e-003
      5.9762970801387162e-003 -1.4642033131198199e-003
      7.6327925254897448e-003 1.7175476678756829e-004
      -2.1016642716474771e-003 2.7096502264957923e-003
      3.2695433105053693e-004 -4.5689324006158811e-003
      -7.1530809183460997e-003 7.3979814100477012e-003
      3.7239639825443517e-003 -4.9504272859837535e-003
      -2.6086920635034184e-003 -4.0993264443526314e-003
      1.3581009513022730e-003 5.4343947004542609e-003
      7.1132841266037918e-003 -5.1504799529257508e-003
      -6.7896315117076103e-003 -1.0486686533333199e-003
      -9.5115982902549932e-004 1.7447227764387952e-003
      -1.3377828612986628e-003 1.9354980158524928e-003
      1.0884571791954567e+000 8.2323340952178303e-002
      3.5197641460117654e-002 -6.9339371605478929e-003
      1.0298069721587592e-001 -8.9479810111318586e-002
      1.4998992722549193e-001 -4.5471673688864851e-002
      -3.1787366423963063e-002 3.3988685053566968e-002
      -2.8592332982660222e-002 -4.4119617643392527e-002
      -4.0626189504281457e-002 8.3002704683937511e-003
      -1.7584267958109190e-002 -1.5375650854737211e-001
      1.4421951985063766e+000 -3.1517094239008770e-003
      -1.2404303068979626e-002 2.1973594019738495e-002
      2.2574122703193167e-001 2.3582293175863824e-002
      1.4725100722041759e-001 -3.4039943059655672e-002
      -2.0690691968951352e-001 -2.4425933799930560e-002
      -2.8750928931614930e-002 9.2748403152727352e-002
      5.5813026121389869e-003 6.9299193142213944e-002
      1.5467204832764699e-002 -2.1844963074504758e-001
      1.1585431494735661e+000 1.5054214360300777e-001
      -7.6257543915110318e-002 -1.1557318428188564e-001
      2.2313703240277996e-001 6.2681854147835581e-003
      1.8690025664027057e-001 -5.6058837300444760e-002
      -1.4400971000977400e-001 4.0548197128774527e-002
      -1.6366385527636784e-001 2.8683426294391436e-002
      -7.3343896517947621e-002 7.7563466167024905e-002
      2.3108608785305941e-002 -2.4757635227885325e-001
      1.1558714920632005e+000 1.4494347129831464e-001
      -7.2945969079528730e-002 -1.1464313415467890e-001
      2.3030494925724729e-001 1.3275959187019322e-002
      1.8622380700326366e-001 -5.0530422922007871e-002
      -1.5136525223136080e-001 2.6916079662109012e-002
      -1.6094032371389322e-001 2.0012826706930654e-002
      -7.7879129642392908e-002 8.1883285881994519e-002
      1.0242337953966790e-002 -2.4581303305428648e-001
      1.1584530352945139e+000 1.3939542045857539e-001
      -8.2466653331460707e-002 -1.1445887991586186e-001
      2.3638984441211550e-001 1.5877112167437740e-002
      1.9036677309164721e-001 -6.4261209338793410e-002
      -1.4690239686986409e-001 3.4588802165106160e-002
      -1.5916063934538927e-001 1.7757161455029712e-002
      -7.4119480476239147e-002 7.2332696396926258e-002
      2.0868685989359738e-002 -2.4389287498251855e-001
      1.1540529163351796e+000 1.4317877441651838e-001
      -7.4319673347368928e-002 -1.2378218079731242e-001
      2.3412239901825113e-001 5.1514022783484938e-003
      1.8015817907331630e-001 -5.7674561455973987e-002
      -1.5071119338204339e-001 3.3322129364673332e-002
      -1.6275362080853151e-001 2.2734513819812997e-002
      -8.2797198478376827e-002 8.2813847856646819e-002
      1.3522355980559625e-002 -2.4765997462044648e-001
      1.3272964323481740e+000 1.7823824382242898e-001
      -2.9882374732985093e-002 -1.0387517948737442e-001
      2.0586634496295542e-001 -2.7283794516545175e-002
      1.7200729465627321e-001 -4.9831216142840994e-002
      -1.3415172057186825e-001 3.2660040811048063e-002
      -1.3307684569000158e-001 5.6548270848918308e-002
      -3.1028166133651735e-002 1.6977679872884986e-002
      7.6048872980441469e-003 -2.5568844515768852e-001
      1.7855648802699529e+000 -7.0766764837490925e-003
      -2.1495605857791481e-002 -3.5855721371004810e-002
      2.3635906611966806e-001 1.1921864159928262e-001
      1.4402558402345497e-001 -1.0370037897263422e-001
      -1.8312958970863247e-001 -5.1992826889760091e-002
      -9.8700896343061048e-002 9.0160381733010400e-002
      -2.8950665480650239e-002 1.1289954215353408e-001
      7.2928414364254193e-002 -2.1535669474894123e-001
      1.4233956440487063e+000 7.3187148535333119e-002
      -1.5766316456604246e-002 -6.9953031730472237e-002
      2.2031233084088767e-001 9.4659731643899243e-003
      1.4555411897246207e-001 -9.7851019902367956e-002
      -1.1888188818758914e-001 -1.5993456225028213e-003
      -1.4608067841425310e-001 6.2966028367244284e-002
      -2.4115013611705930e-002 9.1698356121402771e-002
      6.7095098927771296e-002 -2.1894301119113604e-001
      2.9046666544918671e+000 1.8243442692271555e-001
      -6.2973001287331604e-002 5.2299323525891457e-002
      2.0659156768581180e-001 -4.7577058420786834e-002
      1.0455332076209023e-001 -6.2074499001200330e-002
      -3.4100903036628150e-001 -2.2556060345118115e-001
      4.0998776693979444e-002 3.4207953992031420e-001
      1.1767523371510634e-001 -9.8934140278509400e-002
      1.2014867284543500e-002 -2.3945361312831093e-001
      3.0762729917786293e+000 1.7941525744815962e-001
      -9.1880150680577772e-003 8.6850671562720680e-002
      2.0280142213733465e-001 -6.2284231347454436e-002
      1.0026369522690110e-001 -6.4947680977343034e-002
      -3.5159536487593701e-001 -2.3465389875339709e-001
      6.0742505052781913e-002 3.6372573057440860e-001
      1.4930699013249907e-001 -9.8181427239273089e-002
      9.9488770508962855e-003 -2.4753210561107392e-001
      3.0662236807568286e+000 1.7558201543551955e-001
      -1.5250868848957823e-002 8.5968767859243664e-002
      2.0064153348238678e-001 -6.6770804485819568e-002
      9.3514673052164710e-002 -5.2059904405507923e-002
      -3.4503568344394597e-001 -2.3419103384425027e-001
      6.3341786374982181e-002 3.5444671388757532e-001
      1.4913412044518434e-001 -1.1252452907965971e-001
      1.1574762581791839e-002 -2.5198399065036975e-001
      4.3921754162460891e-001 -9.2750948258688959e-002
      8.0288156418606163e-002 1.3698140966963462e-002
      7.9459339673834770e-002 1.2188025696726165e-001
      4.8355798663553169e-002 1.3965315784644362e-003
      -7.8981393012039852e-002 7.0928840380553762e-002
      3.4292111210854431e-002 -1.5817304596940803e-002
      1.9098404355919169e-002 8.5547427196110970e-002
      1.1877192286287633e-001 9.5251065666872789e-002
      2.1855568178052770e-001 -6.3355349269724040e-002
      1.0500985575619870e-002 1.9436442706306567e-002
      6.5032540492737378e-002 1.6132526435404912e-001
      -8.6346626725112452e-002 8.0871292153135543e-002
      -2.4173392138398578e-001 -5.3616867188450393e-002
      -7.5944906219348463e-003 4.5070215998910514e-002
      -2.4162275955095032e-003 9.5573022700427585e-002
      -1.4230763172724016e-002 8.7479209846912237e-002
      1.2478726586066013e-001 3.2791148783161854e-002
      -3.7614008477014564e-002 4.7876999845451899e-002
      -2.5071642676364202e-002 6.6423429360819283e-002
      -6.3644326460630008e-004 7.2056843500721543e-002
      -2.2127413404282304e-002 4.4830298241657039e-002
      4.9076890765944570e-002 2.1315543315924224e-002
      -1.2139804401596183e-001 1.8634329359802929e-002
      -2.1678675005272794e-002 7.2287089960445458e-002
      1.2149046325001314e-001 2.8768556789956934e-002
      -3.4152249504066819e-002 4.0868766527976878e-002
      -1.8348860131933552e-002 6.9316021663745495e-002
      -8.9635561548924870e-003 7.2575493953249429e-002
      -1.7174824537241045e-002 5.4535064361967374e-002
      5.6169440242250290e-002 1.3825570171438201e-002
      -1.2691467919987853e-001 2.3100291684729587e-002
      -2.8357187168514413e-002 7.1967787450903556e-002
      4.9207623806182715e-001 -8.5904858030576861e-002
      -2.6527335572801212e-002 -6.9275088237941993e-003
      1.5452817452050224e-001 6.0323941095239746e-002
      1.2595702550685622e-001 -4.4418025895495714e-003
      -1.1429449787915685e-001 4.0751298274979871e-002
      -6.7199245826231983e-003 -7.5885873373520860e-002
      -1.1903517492917622e-001 1.8296747724511830e-001
      3.3277220445621959e-002 -1.2183890508581918e-001
      1.3341830119774132e+000 4.9876754343840431e-002
      -4.8309019623833951e-002 -9.5911864520678691e-003
      2.1167904823768305e-001 5.7880268152175167e-002
      1.3654896610711995e-001 -5.1930411971635705e-002
      -1.5880406034051606e-001 1.2956074870712913e-002
      -4.7544211835503246e-002 6.8071005528865516e-003
      -7.5714168402894508e-002 1.0664086060673379e-001
      5.5792414894804215e-002 -1.9971831238124380e-001
      1.1654935379726585e+000 1.5592314448504468e-001
      -8.4738738508961173e-002 -1.0641408515516167e-001
      2.1612507713281734e-001 2.0808379211305638e-002
      1.8000430924713989e-001 -3.0930772780958835e-002
      -1.5921911171871431e-001 4.6005421115185248e-002
      -1.4859424204150271e-001 1.8428097562763923e-002
      -1.0009553012112117e-001 8.9252300272066099e-002
      3.6610621019930998e-003 -2.1465405768354243e-001
      1.1647632016891625e+000 1.6151149877209803e-001
      -8.0649029996056956e-002 -1.0797670977844555e-001
      2.2488319098042645e-001 2.5614110161603944e-002
      1.8894263202026368e-001 -4.4084280031161674e-002
      -1.4773566950442871e-001 4.3765308100086046e-002
      -1.3701874578781079e-001 2.3929260630830521e-002
      -9.8406823490569964e-002 8.5943999977105223e-002
      6.8921077113749353e-003 -2.1660647362156565e-001
      1.1635763445160872e+000 1.5625398469056434e-001
      -8.9712676312244152e-002 -1.0903899135669835e-001
      2.2201953711805592e-001 2.8854488104150661e-002
      1.8018942995302561e-001 -4.4872608209114748e-002
      -1.5566350839528456e-001 5.1305026213382642e-002
      -1.3792001137147405e-001 2.1954541938244296e-002
      -1.0110579244318350e-001 8.0564204044845433e-002
      1.0202246819798561e-002 -2.1803719517914283e-001
      1.1712536423626743e+000 1.5306261913229369e-001
      -7.7724800567259236e-002 -1.0580753896692736e-001
      2.2435636813849172e-001 3.2254088890393537e-002
      1.8833167057161060e-001 -3.8767057369468380e-002
      -1.6021953984062889e-001 4.3122144467706132e-002
      -1.3870892934210347e-001 2.6799858378696313e-002
      -9.7246468453300636e-002 7.9793296352213550e-002
      1.4902648654377029e-002 -2.2434502714793852e-001
      1.5019549424666152e+000 1.1856306054193305e-001
      -1.1247672302774821e-001 -7.8023479017899078e-002
      1.9283755672627484e-001 1.9891422698237862e-002
      1.5595303419080356e-001 -6.5763324818451499e-002
      -1.2353565231349885e-001 -8.3764766905420653e-003
      -1.0102243057897213e-001 9.2257224756085374e-002
      -2.8268071621167366e-002 1.7450940732602373e-002
      -2.4671339543859951e-002 -2.4893561291721081e-001
      1.3219701481762920e+000 -2.8491793096690535e-002
      -1.8340417039442829e-002 -8.1858758618366750e-002
      2.4463579508405184e-001 5.3735981560672816e-002
      1.6245956443700846e-001 -1.0935654138266820e-001
      -8.7686881861471333e-002 5.9461604681147855e-003
      -1.1808826228009801e-001 7.0877412013694741e-002
      -4.4392093069614252e-002 1.1045349842973284e-001
      5.0007278849508114e-003 -1.4033245116936188e-001
      1.3170489298672898e+000 6.8377130902469774e-002
      -5.0971611113687136e-002 -4.1525470460878892e-002
      1.7944029402591355e-001 4.6596054602905557e-002
      1.4023827522313650e-001 -7.9869504379678755e-002
      -4.7768061687650194e-002 -1.3448179857089192e-002
      -1.0210959063761312e-001 7.6354806396811886e-002
      -9.3857943633267507e-002 8.0758146382094373e-002
      4.7727313442604266e-002 -1.0244407699340070e-001
      2.5172287484631228e+000 1.5120660978510711e-001
      -7.7945326320282088e-002 5.3533653866048601e-002
      1.8073438413580786e-001 4.8473624405145223e-002
      1.0518658327976198e-001 -1.0769063570691143e-001
      -2.4748085454342270e-001 -2.1555511410843917e-001
      1.1245246754853670e-002 2.4685360883516655e-001
      -3.5476287178198861e-003 1.8595900101579382e-002
      6.7640866779715425e-002 -1.3157020053517618e-001
      2.6930736960932871e+000 1.5028584856327526e-001
      -3.1690693770326614e-002 7.6183681861759833e-002
      1.7207959139340856e-001 3.9803129483882378e-002
      9.5379051198799775e-002 -8.8836180640432444e-002
      -2.6235549771626271e-001 -2.2535143369707386e-001
      3.0792579725305417e-002 2.6563913021409125e-001
      2.1518682833305564e-002 1.0373163827652963e-002
      6.0726595148599898e-002 -1.4381329222049907e-001
      2.9441351237203421e+000 1.4849814746817366e-001
      5.3234719825082329e-002 6.4333107658216426e-002
      1.9973359926729378e-001 1.6900486295761564e-002
      8.0896147881317132e-002 -1.4270780307606989e-001
      -1.8373234712633141e-001 -2.2829106607895469e-001
      8.9662652767449058e-003 2.9631876881387031e-001
      8.5593861073526400e-002 -3.5297260800274503e-002
      7.3552850881619447e-002 -1.3383635870458238e-001
      -1.6251209387639556e+000 7.8833319134795313e-002
      -9.7008246816870175e-002 -1.7135240859352405e-002
      -3.9069784380123727e-002 1.1232225688298554e-002
      7.7287046943965473e-002 9.4585167073909793e-002
      1.6098532163557357e-002 3.2747880679169741e-002
      -3.9011615514839032e-002 3.8764270737693493e-002
      -6.7893916271834166e-004 1.5494301215500514e-002
      -6.2593274885245118e-002 -2.1941835747551916e-002
      -1.8815228790405134e+000 1.1339278669227573e-001
      -2.5614307006411305e-002 -1.5562743193873820e-002
      -7.7679508379229073e-002 -1.8645847667753190e-001
      -6.0037894821494325e-002 9.6735760151602887e-002
      -1.4130774282616773e-001 -1.1791949976140116e-002
      3.4948066300095532e-002 9.9821370631268350e-002
      1.2233494482777393e-001 -2.4289277125790804e-001
      -1.8224223936142031e-001 -3.5864761589627855e-002
      -2.9950267627599869e+000 -1.4143881457440397e-002
      4.6600601401404124e-002 9.9450410838957705e-003
      6.2695803298826278e-002 -8.6265148969111666e-002
      -1.5458546061842654e-001 1.2354544516802480e-002
      -2.3071413355414580e-001 -1.0263103930245683e-001
      -1.2036461277288121e-002 5.2083300514258586e-002
      1.6096347635508854e-001 -9.7123788610844877e-002
      -1.7648679115886456e-001 -5.4087894468848569e-002
      -1.9304225613576111e+000 6.0361348502163039e-003
      1.6085291623633945e-002 -1.0682780909278888e-002
      -1.0919251093968615e-002 -1.3022824644640388e-001
      -8.1862658717054296e-002 -8.9764586974357078e-003
      -1.1011587932733027e-001 -4.3405084530837551e-002
      -7.8690018539716890e-003 4.3549511995535521e-002
      1.8377034330437858e-001 -1.2976085016300304e-001
      -1.2434270287876908e-001 -6.8203428317709036e-002
      -4.4907983359419085e-001 7.3530024394990404e-003
      -6.4036037329492854e-002 1.4354884048945190e-002
      2.4390851878861173e-002 -5.1518402807305373e-002
      6.0698817796721385e-002 6.1774847013527111e-002
      -1.1095052072195719e-001 -8.6368137567424137e-003
      3.4141553801163738e-002 1.4589905651737420e-001
      3.9293661753085435e-002 -5.0706778607910785e-002
      -1.2738667504591114e-001 -7.1944614876919860e-002
      -6.7198948197414610e-001 8.6669164645709729e-002
      2.1497023108003582e-002 -1.4901833734325329e-002
      4.5904541944036162e-002 1.6595490048925295e-002
      5.3854270569994818e-002 4.2360039715843234e-002
      7.4362303673469007e-002 5.2324638645373595e-002
      -6.0930291137496545e-003 1.4712116205302713e-003
      6.0622227461595724e-003 5.5930229919067591e-002
      5.2580818700955503e-002 2.4973159504614612e-002
      -4.6100479559526547e-001 -8.3328950354704112e-002
      -6.7202494027556242e-003 1.4455004845665219e-002
      1.8839705045718524e-002 3.0224981388511089e-002
      -8.5456380190544690e-002 -7.9724009321814365e-002
      -1.2744953957437077e-001 -3.7168972917411967e-002
      -1.4894545740713277e-003 -5.9173365803638731e-002
      2.8050590690397600e-002 5.4229421531630517e-002
      -4.4552497027616544e-002 -3.5756106047703823e-002
      -1.0893580166255763e+000 -8.5642413010293600e-002
      -9.1958435080150239e-002 -7.8298192423604546e-003
      -4.1236331547836305e-002 6.6969088506927427e-002
      -5.0408556784666082e-002 -7.4322519416978053e-002
      -1.0448754392012169e-001 -5.2128243445517274e-002
      -3.1621776777415386e-002 -7.2582180598391721e-002
      2.2855122504315899e-003 6.1361056519028623e-002
      -3.1970835241570877e-002 -2.8194932775066076e-002
      -9.6078031024701216e-001 8.8514900931805397e-003
      1.0063933148490641e-003 -1.1669931225500797e-002
      3.6145734047283211e-002 2.1095007950989553e-002
      -1.0770837695066805e-002 -4.8198597757221746e-002
      -7.8232286738107851e-002 -4.8303415176285489e-002
      -1.7756249651986192e-002 -2.3700886809893764e-002
      4.5109852741056708e-002 3.4428987824118580e-002
      -3.8076327451557500e-002 -1.1224945612359857e-001
      1.7468155585641372e+000 -1.0932043352562711e-001
      1.3035796987192688e-001 6.6994601426796606e-003
      2.0916072566564689e-001 1.1070773698667571e-001
      1.8800680351845372e-002 -1.0485910104268829e-001
      -5.9160802342157093e-002 8.7211925195563714e-002
      -4.4433405322514136e-003 -3.2587825326375532e-002
      6.8354444935214836e-002 4.7288055303838290e-002
      1.9543176626350361e-001 4.8244520367336594e-003
      -2.0910587334384636e-002 -1.3011927785568836e-001
      -1.6627600721220971e-002 6.2037752099444454e-003
      6.9978924836750347e-002 2.3318893906389037e-002
      -6.5985565704193366e-002 -6.4967158910065465e-002
      -7.7028074227318194e-002 -1.0200562659966182e-001
      -4.9328050104705742e-003 -6.0716473116596448e-002
      -1.5630197698454130e-002 5.8130859375197581e-002
      -2.2539961212237520e-002 -5.6716401941591693e-002
      1.6289769104033658e+000 1.0974887880980301e-001
      -6.8976695352328435e-002 -1.3354707704270632e-002
      -1.1616974630991407e-001 1.8226216609418332e-002
      2.5677653500445993e-003 -9.2781182690317543e-002
      1.7627998036396886e-001 -1.2934637507846983e-001
      -3.5417200605599539e-002 -1.2477111015014691e-001
      -2.4628853879458529e-001 -3.5401180985094982e-002
      -2.1077180428730812e-002 5.5337283224163009e-002
      -1.1836642456930273e+000 2.7128224815636769e-002
      6.4417973153213737e-002 -2.4200479015850079e-002
      8.6318186991161550e-003 -4.4566176205299311e-002
      -1.2719772165736304e-001 9.2720196695585608e-003
      -2.5679451420161831e-002 -1.1451248127437846e-002
      6.8401865170535500e-003 -6.8042453536472342e-002
      -5.9731531845163503e-003 -1.3916070780759454e-002
      -5.4219363392566895e-002 -9.4002887874550189e-002
      2.8541362949727129e+000 -1.9409995557535256e-001
      -1.2784022088710895e-001 -3.1101975543808058e-002
      -1.5912867418097654e-001 3.4080547103315130e-002
      -2.0739598509853080e-001 -3.2787968416616220e-001
      2.1666606521982965e-002 -4.2456907483289485e-001
      -4.1986664725288655e-002 -2.8221047202178007e-001
      -2.0613087961072826e-001 1.0576958393470513e-001
      -2.3663941984348433e-002 -1.9744042865887296e-002
      3.1852566807900997e+000 -1.8439137802797564e-001
      -1.7382569131071432e-001 2.0895107297795701e-002
      -1.9867513463517089e-001 5.1978508878558365e-002
      -2.1391549419429057e-001 -3.1600790155359937e-001
      6.2513956980929458e-002 -4.1769095416474666e-001
      2.5506469306689098e-002 -2.7141307455978347e-001
      -1.2893806598912610e-001 5.1759316609479224e-002
      -4.3701371493738851e-002 -5.8557241092981549e-002
      3.3087589086649514e+000 -1.4957480617606436e-001
      -8.5888579065123219e-002 4.3991426743982084e-002
      -1.2140121609030170e-001 4.5587907417718537e-002
      -2.2105479564380792e-001 -3.2840075452997319e-001
      -5.4200337782699852e-003 -4.7179080517150290e-001
      1.8944993809117030e-003 -1.6026342200734872e-001
      -8.7374602629088222e-002 1.8725298337769439e-002
      -5.1675296692359493e-003 -4.0075667047070204e-002
      -2.0117470999258527e+000 1.1477116529774767e-001
      -4.6353018634535038e-002 1.6504094774559920e-002
      -4.3503317259831392e-002 -8.9800548063695876e-002
      -4.9038356932328213e-002 1.9373600087212905e-002
      -7.4993464286182880e-003 -7.7104156066917631e-002
      -2.4214689109368755e-002 2.6054040772233299e-002
      -8.2785707707612628e-003 -7.3270464034178653e-002
      -1.2481635494634423e-001 7.8929579441829774e-003
      -3.4099460139470144e+000 -1.2588953437390018e-002
      1.3160927379783163e-001 5.8906493645341118e-002
      1.7276010010920889e-001 -6.3238504221268615e-002
      -2.0406323671031520e-001 1.5074815202499411e-001
      -4.3954039345521473e-001 -6.8666207554013828e-002
      4.8947077133380520e-002 2.1495559677970505e-001
      2.3329393136381002e-001 -1.3601778602375644e-001
      -2.0025755862000869e-001 -2.5336447394380374e-002
      -2.8814651712966519e+000 3.4128530199640572e-002
      1.7276375721776243e-003 -1.2163935904302682e-002
      2.3236380849788489e-003 -1.6479758690247737e-001
      -1.0278410069733694e-001 7.5275189870581821e-002
      -2.3213706872298187e-001 -9.0014598856283101e-002
      2.0219772648026233e-003 1.2598118881714704e-001
      1.9861772067122763e-001 -1.8526460905238512e-001
      -2.0894820727882024e-001 -6.7686420139671813e-002
      -2.7077147889581896e+000 -1.2087171167755388e-001
      3.2948400700713154e-001 1.0967028879127910e-001
      3.6302035272930622e-001 -6.0599885932485817e-002
      -1.5550872610949323e-001 5.3311658058015750e-002
      -5.1073511400601834e-001 -6.7237335097090623e-002
      8.5249619231334034e-002 2.3394058879587079e-001
      3.7647262163303052e-001 -8.5055579342866727e-002
      -5.0098160515925111e-002 -3.3494491542935191e-002
      -1.2670344479151546e-001 1.4922502274283617e-001
      2.4996215788611897e-002 -1.6642508392796500e-002
      -1.2559005158916345e-001 -7.9383342036155102e-002
      7.4409352259302980e-002 -5.7761192357937155e-002
      1.0627098502924576e-001 -7.3253970245215377e-002
      9.3061967159142021e-003 5.2075233797139665e-002
      2.0381109394372064e-002 -7.9006105581694422e-002
      -7.6752128200794651e-003 -3.4821688894533812e-002
      -2.5879906520497675e-001 3.0286333792819340e-002
      8.3745090351927010e-002 -2.3559908851057638e-002
      1.0169065941196850e-001 1.0470763891388979e-002
      1.3847419497728514e-001 4.4632341840589652e-002
      -4.5004730804475155e-003 5.0393006638187944e-002
      6.9356482139359852e-003 7.0993894995763571e-002
      9.5790639068912012e-002 -3.6685492386581614e-002
      1.0079692219121884e-001 -2.0122446230341668e-002
      -5.0390791050526695e-001 1.0215239568254977e-001
      -9.7136882783497164e-003 -3.0907312232359724e-003
      -3.5005396332249146e-002 -4.6912729564244041e-002
      4.4622508804888543e-002 2.9754563040681588e-002
      5.2090046988785596e-002 -1.5974110717508531e-002
      -5.2475293056802536e-003 7.4827148411339773e-003
      -6.4687583112593445e-003 -4.7389109097992099e-002
      -1.7201932169106766e-002 -4.6071202247505487e-002
      -1.0242153733613986e+000 -4.2076192586440561e-002
      -7.5469180447114027e-003 -1.5315242513360052e-003
      -5.9573532286705443e-002 -1.5800486907300501e-002
      -1.5661274131449347e-002 -7.3806708250925739e-003
      4.3222876763500721e-002 2.8329083002167646e-002
      -5.3704386852419317e-003 -2.3023652200336888e-002
      2.2023828323571804e-002 2.7211444572147889e-002
      -6.0922706204703672e-003 3.0150198691460031e-002
      -1.2457049257550090e+000 9.7257405490466742e-002
      -9.6159812808934084e-002 2.3086417567412799e-002
      -1.9064391931796440e-001 -4.8689445655920573e-002
      5.5878768448642474e-003 1.1963828016732794e-001
      9.5347137707409116e-002 2.2279977908172075e-002
      1.8781066355720973e-002 1.4195273484834833e-002
      -7.8992114306112401e-002 -5.5787340041915767e-002
      -1.0853338323984726e-001 -1.9349089709030796e-002
      -1.2835580401564323e-001 -6.3587266867838957e-002
      -2.0350659480100411e-002 -2.4797135663732903e-002
      -7.1356057883459501e-002 2.4583026658759936e-002
      7.6676023836054666e-002 -7.7126408810641575e-002
      7.1440541712696273e-002 1.0955764521536179e-001
      -3.5983252121682296e-002 -2.0130459624616395e-001
      -5.1232342059702576e-002 6.7080989805417782e-002
      5.1665577727950135e-002 2.9393974739710046e-002
      9.1106596716962385e-001 -4.0045565489464252e-002
      6.2784829035280210e-002 1.6483242707731341e-002
      1.0850224251090339e-001 2.8313021199157410e-002
      3.7971223853941881e-002 -9.2819985794830195e-002
      1.3963694174068530e-003 3.6181427140571591e-002
      2.1429416717695011e-002 5.9172364031445955e-002
      3.8589796872154691e-002 1.0043040895590856e-002
      1.2582781538511451e-001 -9.9518179338576960e-003
      4.4511697079960505e-001 1.1033220865341087e-001
      3.9565906898431421e-003 1.0422178108649917e-003
      -3.3400478011388499e-002 -8.6484601011877257e-002
      8.6334593617820476e-002 4.3227119765872950e-002
      1.2705627508896858e-001 1.8300113598596086e-002
      2.5064982707633288e-002 1.0196097539510972e-001
      -8.0873013153174543e-003 -7.9398993076705088e-002
      -2.5302402241588001e-002 -7.0229931436267823e-002
      1.4135216986664443e+000 -2.9369102211287631e-002
      2.5743288660169145e-002 3.7885221511429583e-002
      1.4128756967379327e-001 -2.0478351972604260e-002
      3.4986603972109911e-002 -9.2335090258847410e-002
      3.8235872239659937e-004 6.3666111714731563e-002
      4.6520232342010623e-002 1.3238270372201769e-001
      1.5786692942104127e-001 -2.3374475137688925e-002
      1.0676371252646946e-001 -2.6453510677428942e-002
      2.6769353520550889e+000 1.5760593431678644e-002
      -9.6159157506545342e-002 2.7449149062208243e-003
      -1.9495194342585292e-001 -2.0521311378276529e-002
      2.6506011026282601e-002 -1.1969164788054755e-001
      2.7263259547313989e-001 -1.2951073276265615e-001
      2.8781822587844539e-002 -1.1029392721403955e-001
      -8.7849633236655233e-002 -7.9070016280344865e-002
      3.6940653816205087e-002 3.9094445337828784e-002
      2.3056099152524072e+000 -1.8633082110973689e-001
      -1.5348486516847942e-001 1.2808337448896436e-003
      -5.3892043760833674e-003 8.0408169996053575e-002
      -1.4733913375975358e-001 -1.7720138669737168e-001
      -7.3372173764602561e-002 -2.7735183262300456e-001
      -5.0318621025298264e-002 -1.4010493661728374e-001
      -1.3329108974458106e-001 9.8800284536483138e-002
      -1.8992672838721043e-003 -1.1946533650251501e-002
      2.7930535983500318e+000 -2.2104425816813031e-001
      -1.2853391170350234e-001 4.6294485606706154e-002
      -5.6212895581429882e-002 5.6109576541173239e-002
      -2.0404328068115324e-001 -2.2350431031093013e-001
      -4.6098523626514273e-002 -3.8972605470102745e-001
      -4.6621725632219578e-003 -1.9518119035880629e-001
      -1.2282928664343436e-001 8.6075412922193104e-002
      -1.0135097107692821e-002 -6.4626838959092820e-003
      -2.3328319525972039e+000 7.5077760368492452e-002
      9.2971978764834727e-003 1.6052903515757409e-002
      -1.5671358699788522e-002 -3.8453079440988622e-002
      2.2623227362721910e-003 1.5878935424162893e-001
      -3.1495703824909647e-002 3.0361100095889389e-002
      2.6555943856892545e-002 7.8851403653150423e-002
      3.4690539736281840e-002 -7.1623432715602883e-002
      -1.0660111115890009e-001 4.0453080432395965e-004
      -3.6494751283302014e+000 -1.0917534666264254e-001
      2.2778159151446853e-001 1.0445671246488467e-001
      2.8047536711181997e-001 -9.1470075328472039e-002
      -2.4603254424090293e-001 1.2913583675650236e-001
      -5.3465473303774758e-001 -1.0132752174249490e-001
      3.9799952311968437e-002 1.8292671584373738e-001
      3.6474454966755365e-001 -9.0104394549515535e-002
      -1.9845743164997512e-001 -6.6469091372686528e-002
      -3.2989243838999629e+000 -2.7225045012613212e-002
      1.8916347033891351e-001 6.5373786496577574e-002
      1.6748179852386974e-001 -1.1319859710238535e-001
      -1.5162527511448756e-001 4.5685120434465196e-002
      -3.6449357505862967e-001 -7.5199003873411871e-002
      2.6997248872836208e-002 1.1777419122612465e-001
      2.7917817978159443e-001 -1.1536018994406047e-001
      -1.4307201409763604e-001 -8.7464174527760022e-002
      -3.3839580380364707e+000 -4.8078531454431389e-002
      1.1351790250976677e-001 5.4817654885067624e-002
      1.4460460551682924e-001 -7.9413988517608405e-002
      -1.7331013610862864e-001 1.0018449755676163e-001
      -4.5073334930512426e-001 -7.7199951878456283e-002
      -2.7950349138620994e-004 1.4854454902639547e-001
      2.2727142410500545e-001 -1.0876763664211814e-001
      -1.8316955632659429e-001 -2.3435470528875676e-002
      -3.7850726145405050e-001 9.9057381290876392e-002
      7.1144420419444049e-002 -3.1258683680918577e-003
      7.8753899130901035e-003 -1.3607966199558011e-001
      7.8665379959147852e-002 9.7885072219688812e-002
      -4.0457156862424596e-003 5.1554088575874041e-002
      3.1234726356885546e-002 1.5005868596146923e-001
      1.6445738793772000e-001 -1.7347393725258506e-001
      -5.3835090264217386e-002 -2.7020218936000998e-002
      -3.1798923079713959e-001 9.9765011681888921e-002
      6.7537439798018670e-002 1.1462049678414084e-002
      -6.2791446857545910e-002 6.1669628956426451e-004
      1.0578617199531665e-001 6.8941990837017325e-002
      4.2155301853186493e-002 6.5466496815157982e-002
      5.0909419086191794e-002 7.1799194812401532e-002
      -3.3999356854303329e-003 -5.1320934058987952e-002
      -6.7489742300632805e-003 3.1025543468347454e-002
      -5.8398720705960550e-001 1.0059974472860618e-001
      3.8460471340441942e-002 -3.8704173870237647e-002
      -5.3384829939055807e-002 -2.9808795706772907e-002
      9.5542148680651695e-002 9.0692562545373737e-002
      8.2807226642244533e-002 6.6321033721258429e-002
      -2.4810560096569043e-002 6.2546461887815520e-003
      -4.0580140849675289e-002 -3.3289377199702298e-002
      -3.4442821447651630e-002 5.5168294778687427e-002
      -4.9080181718050137e-001 1.5468398001374847e-001
      -3.8959319405990858e-002 3.9661533850139229e-002
      -1.4439563422754426e-001 -5.5727955568707507e-002
      8.6425731891946717e-002 1.5506312705345823e-001
      2.2186159780577887e-002 8.2814813031352588e-002
      9.1340223252548008e-003 8.4545157464648010e-002
      -4.5501683441780558e-002 -1.0289203507236877e-001
      -8.9980035700993097e-002 5.7423152891787649e-002
      -7.6930534917863269e-001 1.8325756168012111e-001
      -6.5006357484056310e-002 -9.0930791421832424e-004
      -1.4149338672126657e-001 -7.2905326528565684e-002
      1.0138755645883435e-001 1.5593163209006472e-001
      8.7629182968511216e-002 7.7954829559252092e-002
      -1.1926391189503201e-002 6.7719931665281882e-002
      -1.0078622686983466e-001 -9.1122286251741777e-002
      -9.6562752086152781e-002 3.8376422383117760e-002
      -9.3585479405741157e-001 3.5770892970907485e-002
      -2.9876469718370012e-002 -2.4508325668039680e-002
      -9.6007056398810089e-002 -5.6867850397917953e-002
      5.4867880192158262e-002 7.6394981682640681e-002
      3.8202902954045499e-002 2.9105736112624941e-002
      -4.6187205730425070e-002 -5.6385640810372693e-002
      -4.8862453189450455e-002 -5.4593482032277887e-002
      -9.4792439330937978e-002 3.4648447783355504e-002
      4.3178740155680806e-001 4.8830755942082124e-002
      -6.8280854074009148e-002 -2.3673880900819958e-002
      -8.5647877059543867e-002 -1.5544736327298159e-002
      9.3831139878363640e-002 8.3540483018576764e-002
      1.1131124981586693e-001 4.5994658061886788e-002
      5.2256448653700882e-002 5.6274790775287499e-002
      -5.3522101739404658e-002 -9.7827489047965427e-002
      -8.4258433919141493e-002 1.1840177480104739e-002
      4.6772533432777041e-001 -7.7838770546455160e-002
      -1.8972790555555379e-002 1.4468559110514768e-002
      -1.1771340824285664e-001 -3.0352889250405364e-002
      2.7489693938743979e-003 8.4558838033448758e-003
      2.9598511126148898e-002 -6.2538426625433213e-002
      1.7117530122299444e-002 -5.5992082052418256e-002
      -1.5371941878673369e-002 -6.0793978321378568e-002
      -5.9426455399571698e-002 6.5246879427984916e-003
      -1.0115553414749671e-001 -7.2685728307121930e-002
      2.2081879874438829e-002 -5.6139186416050112e-002
      9.6023648898282930e-003 9.5070928268595534e-002
      2.1597930786429423e-002 -3.2296515741635889e-002
      9.5972307696282175e-004 -7.3106465608935318e-003
      -7.9907663196276041e-002 -6.9831448345945221e-002
      -1.3131531383638012e-001 1.0709753060458128e-001
      2.7871012570623707e-003 1.2366590272906576e-001
      2.2138726062242231e+000 3.8824997739470235e-002
      8.2635187504956298e-002 -3.9156173226274496e-003
      1.1117629675361462e-001 1.5804983322391088e-002
      1.1273865938086974e-001 -3.7831750762711489e-002
      1.0512343341742848e-001 -3.7124215377836059e-003
      5.3601221659103047e-002 9.6228940659950565e-002
      -8.4167723058510644e-003 -5.5027011597022786e-002
      1.0825248750535958e-001 8.3894699250526811e-002
      2.6183451285871451e+000 -1.9775298347718953e-001
      -9.9093512163586334e-002 5.3874969762980895e-002
      1.8089565809212883e-002 2.8400578578600063e-002
      -1.7856724866704696e-001 -1.9661922369960849e-001
      -1.0226866925804530e-001 -3.1658905602850662e-001
      7.3752304232192253e-003 -1.0836404904260721e-001
      -4.5499820772399946e-002 3.5002807528946252e-002
      -2.4133304243284297e-002 -4.5960286454453235e-002
      2.3642837182526040e+000 -1.5124785588304226e-001
      7.9940665045441939e-003 1.1572060301987005e-002
      7.9929076078380151e-002 2.9028818009499999e-002
      -1.7046281498320820e-001 -1.6919963952898173e-001
      -1.4391948942509999e-001 -2.6939175004351518e-001
      1.9091225356461489e-002 -7.5260369174282124e-002
      -3.0857167136970568e-002 2.3349452882924178e-002
      -1.0430267584645107e-002 -5.5695521542424499e-002
      -2.2330446587849688e+000 3.1533010537468917e-002
      -4.7478494429631132e-002 2.0936243730728925e-002
      -1.7288374455012589e-002 -4.3722725247178809e-002
      -8.2895109269519221e-002 5.6942008991859659e-002
      -7.2753505470198265e-002 -3.3661604782410190e-002
      1.9815903829416174e-002 2.6100051217527388e-003
      6.6239896508422991e-002 -3.0629556276727619e-002
      -1.3045957894377602e-001 -2.7720663694357967e-002
      -3.4438053583511028e+000 9.8838370073862244e-002
      -1.0412330996950221e-002 -2.3559199659107386e-002
      -6.2040203949370730e-002 -2.1571335943424561e-001
      -9.2051740052963182e-002 7.4934028405986397e-002
      -1.4762719567298163e-001 -8.4721135223215352e-002
      -2.7339888252119447e-002 4.3802476945788905e-002
      1.9313533115059864e-001 -1.9495365126614547e-001
      -2.5807720860483152e-001 -1.4513478741943034e-001
      -3.0511559854313055e+000 -1.3432082927043909e-001
      2.9301123509701243e-001 1.2483249401106619e-001
      3.3885420595644694e-001 -8.1333279331834540e-002
      -2.1833566893677075e-001 9.5695830027024364e-002
      -5.1841863769463548e-001 -7.7835144613015425e-002
      9.3842223092669014e-002 2.3253524607969883e-001
      3.7795802924834343e-001 -8.0789084568876554e-002
      -1.3247104293712456e-001 -5.4717635229214918e-002
      -3.7508940259218435e+000 7.9200418080507082e-002
      -4.3840631170344292e-002 -1.5673264835126394e-003
      -8.3365920739072993e-002 -2.3285977386689599e-001
      -1.6266024088156614e-001 1.1212139562415331e-001
      -1.7908724395590478e-001 -1.0413095337764912e-001
      -1.4199497565214585e-002 4.7336297923433787e-002
      2.0066901523541902e-001 -1.7475262071714140e-001
      -3.4591006296977878e-001 -1.5422470751895184e-001
      -3.7597456712904714e-001 6.3706230277961268e-002
      -6.2209080310227857e-002 -3.4095692136430051e-003
      -1.0576400488828752e-001 1.6225989273194179e-002
      1.0307751242836519e-001 -1.5177152260225995e-002
      2.3772291208893837e-002 -9.3707084980792568e-002
      -5.5193197709911277e-003 -2.5352683665275197e-002
      -8.2621463087244801e-002 -2.1996626360373899e-002
      1.1872563201033443e-002 8.2778145955633931e-002
      -9.7304778162437489e-001 5.5669940743611201e-002
      -1.2178674000361831e-002 -4.6600101570523696e-002
      -1.0613249712422429e-001 -3.5305721272417295e-002
      2.6711683002915119e-002 3.4653450695071239e-002
      1.2648675658635364e-001 8.9632036936420443e-003
      -3.8686771889594219e-002 -1.4660107324537522e-001
      -1.0995745845919512e-001 -5.0087895788254844e-002
      -9.1297817217806554e-002 -2.7660601202889913e-002
      -4.8766613557463651e-001 3.9712833507676321e-002
      -3.0380511872118435e-002 -4.9042485750280390e-002
      -1.5531104796515768e-001 -4.7946180211937070e-002
      3.1186873059771109e-002 2.9842125658997576e-002
      1.4060007817937276e-001 3.7934063200676403e-002
      -4.2004225910398527e-002 -6.2740446253642487e-002
      -6.4745928447109233e-002 -9.1532665472887197e-003
      -5.9320986319292113e-002 -5.3800910069392319e-002
      1.3782305515336840e-001 6.5737203079028209e-002
      -3.2652802745151623e-002 7.5687625491510447e-003
      7.9317880245274031e-002 2.9761348204877029e-002
      -1.1480710554902265e-002 -4.1870720383500017e-002
      -9.8714008944681741e-002 -1.1475683794908939e-001
      1.2103718183824863e-002 1.1001732358524989e-002
      3.7746578202468878e-002 4.1249893128742126e-003
      2.3146163318521921e-002 1.0908794726239084e-002
      -8.1150924856757567e-001 -7.9549383831029483e-002
      -5.7486311450874732e-004 3.1726561396632560e-003
      -6.8956380763396413e-002 -2.0772416279796636e-002
      -2.0321599880402191e-002 -2.0520262610527282e-002
      4.9963747884179628e-002 1.0647559811910241e-002
      3.0573220116183958e-003 -5.1372493542533218e-002
      1.9963647973874805e-002 4.1160866091343104e-002
      9.9290891744670891e-004 3.1418873715753741e-002
      -4.3303898779987554e-002 -7.5925092232681591e-003
      -2.9556288997645421e-002 2.2530193628083083e-002
      2.2024145341360723e-002 -1.5992308396075256e-002
      4.3479388707047761e-002 -1.2422227448249759e-001
      6.8586705447823457e-002 -3.5054121468082504e-002
      1.6179479203842842e-002 -6.4465438855607168e-002
      5.6610997133596568e-002 -1.8508194923840822e-002
      5.6954332374565340e-002 -5.9704570470572413e-002
      -6.1762946655254092e-001 -8.8189667177270489e-002
      -1.8752329670472995e-002 1.2038495045878540e-002
      4.0372854419768470e-002 2.9904852727162114e-002
      -4.4915978255848664e-002 -1.1922916573844133e-001
      -1.1479738465273982e-001 -7.7709476753589066e-002
      4.5721110076373354e-003 -9.1408227347053089e-002
      -5.7490346229377688e-002 1.3014340562483440e-001
      -8.4356637500331132e-003 -4.4397821005275229e-002
      4.8463474118378386e-001 6.0368314087526222e-002
      1.2879667581226663e-002 -1.3608907964129691e-002
      -1.0297366521804648e-001 -1.8461457519589820e-002
      6.4153872127615211e-002 -3.4235601909055884e-002
      1.2047291102502086e-001 2.7051769614814512e-002
      2.8810602163432345e-002 1.2135818270529751e-002
      -7.2861580006812017e-003 -1.4071121564181109e-002
      2.9645269237714542e-003 -8.1536354880600778e-002
      3.8365109234527450e-001 2.3337832183471460e-002
      6.3216842951904939e-002 -4.7223393260182454e-002
      -2.5820027862762059e-002 -4.0578074269427153e-002
      1.3949932427679513e-002 -3.0548919282261930e-002
      1.9981253868784944e-003 -5.0219993519518634e-002
      1.5773441662747079e-002 3.3219958134886381e-002
      -3.3810507200236768e-002 -4.6135194358693558e-002
      2.8090208270841497e-002 1.2528468094384619e-002
      3.0063211609575955e+000 -1.9270733506989997e-002
      -6.2577976917472036e-002 4.1510702844415930e-002
      -9.2794669841836305e-002 -2.0533418405767324e-002
      -8.5766709683573698e-003 -1.5096394850694400e-001
      1.2372418044132048e-001 -1.9209169594224393e-001
      8.3945801836603703e-003 -2.4836392741990912e-002
      -1.1278955038067567e-001 -1.0043827459361190e-002
      9.2860342068073365e-002 2.4993288831447153e-002
      3.2264800099336619e+000 -1.9892266800934927e-001
      -2.6471735504291494e-001 3.0768634306976593e-002
      -2.8467243571588341e-001 6.6466914161417825e-002
      -2.4385177652131415e-001 -3.2162395164790414e-001
      2.2402078743015266e-002 -5.0174491390321263e-001
      -6.5413389610447089e-003 -3.0157239179170814e-001
      -2.2049582432502710e-001 1.0046685286227636e-001
      -3.0411891193462420e-002 -5.2771253886493980e-003
      3.0466312625204188e+000 -2.1739269268267908e-001
      -2.4201316093053454e-001 1.9255553731423680e-002
      -2.4706970518835272e-001 5.5173996423590339e-002
      -2.3652901349010480e-001 -3.1237011963045741e-001
      8.8571371374425542e-002 -4.3515682635286024e-001
      1.6430765151950088e-002 -2.8712906676750244e-001
      -2.0694887701924788e-001 1.0738701239751651e-001
      -1.9622185832810533e-002 2.4907948768943075e-002
      -1.9334240203751771e+000 -6.3936699311391135e-002
      7.7891178150380172e-002 3.3569361269109539e-002
      1.1080356631710681e-001 2.3043127157536974e-003
      -8.4876901499270047e-002 1.3574279055998778e-002
      -1.1585547986892761e-001 -1.1346620852654693e-002
      4.5120788116305870e-002 1.1285717423841546e-001
      1.5669389201809172e-001 -3.6160205886727997e-002
      -2.8429389474295783e-002 1.3840676190557820e-003
      -2.6267487657263722e+000 1.1330020876821102e-001
      -2.6756591578369041e-003 -3.0095063315974894e-002
      -1.3026872208744297e-001 -2.0475037080244143e-001
      -6.1289587890991697e-002 6.0003133722145319e-003
      -2.1477551406277315e-002 -9.7814921231675428e-002
      2.0177439237395137e-002 2.8844322956576816e-002
      1.2522788717589814e-001 -1.9470952074240541e-001
      -2.0259934464318294e-001 -9.2758942694393484e-002
      -2.6345051717051904e+000 1.0526643378413585e-001
      -2.6530915875584743e-003 -3.2561500989743579e-002
      -1.2797644108422065e-001 -2.0464274398771862e-001
      -6.0928244142437797e-002 1.0292461710514882e-003
      -2.9467053084205171e-002 -9.6368011866800496e-002
      2.3308215734673648e-002 2.2249537752874853e-002
      1.2963794396312786e-001 -2.0134736371545089e-001
      -2.1205409772552578e-001 -9.6520995649994792e-002
      -2.6370340005573896e+000 1.0709671179227319e-001
      5.2158796136128902e-003 -2.4061124183334805e-002
      -1.3020600134643076e-001 -1.9753008751729287e-001
      -6.4543212953996898e-002 3.0516838560668536e-003
      -2.7082666847188359e-002 -8.8669185501932757e-002
      1.5526123089296068e-002 3.1231810217073164e-002
      1.3718751619985736e-001 -1.8947407063182395e-001
      -2.1019356676069403e-001 -1.0223205367642364e-001
      -2.5490087504423200e+000 9.7340019398507005e-002
      2.2634931034458024e-002 -9.1730171235381245e-003
      -1.0671774543312863e-001 -2.4591285819183484e-001
      -7.8195472602363494e-002 -4.1754852926554807e-002
      3.1062288655357748e-002 -1.1544890858899393e-001
      5.4989253938016201e-002 6.6008921953097502e-002
      2.1307043890182803e-001 -2.3513638785108268e-001
      -2.0564434942540546e-001 -1.3652962290803825e-001
      -2.1667639558661871e+000 -3.7532236033877807e-002
      -5.0352688604606365e-002 3.0353230338483899e-002
      -5.8248196323486566e-002 4.4477377626242855e-002
      4.2314340200017703e-002 1.8961791031156399e-002
      -6.9338317335115668e-002 -4.1011660936416831e-002
      3.3070100961147438e-002 -4.0736855013414177e-003
      -3.3479007661289348e-002 6.3543010608781647e-002
      -6.5573703306867098e-002 -7.3111013129455024e-003
      -1.1163597876414018e+000 2.9114640330323197e-002
      3.2463193159250055e-003 1.5319942223158623e-002
      -5.5313051338308224e-002 -5.8562112577123966e-002
      6.4569378165210065e-002 4.9628076531178074e-002
      1.1731441892515850e-001 8.1113786106413441e-002
      4.4376276668577637e-002 9.6463263101309815e-002
      -2.5284416306493380e-002 -5.8968386354606689e-002
      4.2262783292643569e-004 2.5417224705608997e-002
      -6.6627506656700153e-001 -8.6857936428805488e-002
      1.1700762143178181e-001 1.6405742275009037e-002
      6.8006947623603514e-002 -3.4354959642931865e-002
      -2.7222111358399543e-003 -5.1926030586600315e-002
      3.7663485062511284e-002 -2.4396319304291883e-002
      5.2184479388698662e-002 8.8436790000897214e-002
      1.1210153346095870e-001 -4.7740517429030092e-002
      1.0914243605429391e-002 2.7695340159403944e-002
      -6.0202420748842500e-001 3.0703653569734875e-002
      1.0562079373771362e-001 -2.7753348236318072e-003
      6.2942931489981577e-002 -6.6396328410101277e-002
      9.6658114418275223e-002 -1.8826952091494861e-002
      1.2447565757212596e-001 8.6891258301878799e-002
      5.8338748452574085e-002 1.4663872361062294e-001
      1.2570413966639285e-001 -6.2167336459238422e-002
      2.9752517528087188e-002 1.1486248794110969e-002
      -5.3852534134192198e-001 -3.2065398249270204e-002
      2.1776859966797457e-002 -2.6676962147807910e-002
      -5.1751677823856524e-003 -5.1099900198900240e-002
      4.8293733247179248e-002 -3.7197458721581221e-002
      8.9277868617541375e-002 1.4955275069729160e-002
      -6.5128905619835174e-003 2.6188199272936960e-002
      8.1827224208390170e-002 -6.5576138094803976e-002
      2.7443324360971490e-002 8.7727287826336771e-003
      -1.1505406313522786e+000 1.6082085967790375e-002
      -2.8516838467866328e-002 8.2117992637065363e-003
      -6.2548272536725293e-003 -1.2252208303258080e-001
      6.8423379505183304e-002 1.0731606482003175e-002
      5.4389399554184453e-002 1.1287036366995516e-001
      -1.1099676115664271e-002 4.2103526574268836e-002
      9.3042052207464185e-002 -4.5142209203329543e-002
      -3.7536830480989429e-004 -3.4268170782093509e-002
      -2.6379357433094397e-001 1.4291202266237521e-001
      1.4982423224727531e-001 -1.5968655809769434e-002
      2.0310880051363134e-004 -1.3147178637504042e-001
      2.2417503559095869e-001 5.4908921315909971e-002
      2.1681927192313710e-001 1.5658802759830667e-001
      1.3112534383986778e-002 1.4992027038820147e-001
      1.1711265902460606e-001 -1.4887811797659267e-001
      4.7968794248705975e-002 1.8801717581982821e-003
      -5.7239405704221780e-001 2.9962543588299941e-002
      6.7721749041257879e-003 6.0549913594503931e-003
      -3.9074048355741658e-002 -1.7142787428681175e-001
      -8.4347921181580618e-002 -4.0416495628451871e-002
      -1.8278834776182810e-002 -1.3875668835870952e-001
      5.1064937441392894e-003 1.1030886682482757e-001
      2.0234496982411970e-001 -2.0683393235033709e-001
      -9.3104202247820206e-002 -5.3897377540096283e-002
      -2.2388647117806168e-001 -3.7398999910054131e-002
      -4.9437808104331508e-002 2.3883339517358725e-002
      -6.9899662590291262e-002 -7.9659824939658466e-002
      -6.3613634574354108e-002 2.3383158206538746e-002
      -4.8092247880672984e-002 -1.1306381519127635e-001
      1.7944498257026226e-002 6.3145054403692585e-002
      1.6840679628016584e-002 -9.2907780561757650e-002
      -8.0288098045450174e-002 -2.1298191191688038e-002
      1.1789057909899057e+000 -8.8632767833382226e-002
      -1.8815649186713090e-001 -3.1048552997728088e-002
      -1.9253703880998338e-001 2.8188358797990587e-003
      -2.1894203637404022e-001 -1.4789207236121871e-001
      1.5491255060346610e-002 -2.7277757218749688e-001
      -2.4357471166539073e-002 -1.8745351664611451e-001
      -7.9699036473173390e-002 -3.8713655506174413e-004
      -6.8089728810955971e-002 -1.5252821403254615e-002
      7.1579416485113800e-001 -6.8024782196998257e-002
      -4.8294715018349671e-002 -6.2127095996657709e-004
      -2.7155246705183661e-003 6.2092867538410803e-003
      -1.7868238836593325e-001 -9.3900311035893816e-002
      -7.5944323226362243e-002 -1.2856042643023124e-001
      -2.2844944737428718e-002 -1.4511835054970426e-001
      -2.8019321309599721e-002 1.9483219705401719e-002
      -6.3399354084508530e-002 -3.5973708804316787e-002
      -1.3614637021949698e+000 1.3891379849511445e-001
      1.5650169644503560e-002 -3.0540581850583854e-002
      -9.7962941105186913e-002 -8.8622948825481468e-002
      3.5713425955175029e-002 -1.6852153893958402e-002
      5.4841888446936403e-002 -3.2734988885294330e-002
      -2.6396539860842100e-003 5.4013481970597875e-002
      3.2248334045083961e-002 -8.6950203471725399e-002
      -4.2416067298043439e-002 1.2467852219571581e-002
      -1.9997491375456109e+000 1.1639806599840841e-001
      7.7292001946253644e-002 2.5952718470810231e-003
      -8.1273233514631629e-002 -3.2678093931364954e-001
      -6.8750969107771343e-002 -6.8664681340670164e-002
      3.5177173545236966e-002 -1.3429757998073236e-001
      1.1972433281219344e-001 1.7945011976298969e-001
      3.0321371477622328e-001 -3.6044148743417820e-001
      -2.0282635765053672e-001 -1.5039267609546314e-001
      -2.0014104982999559e+000 1.2397730626736753e-001
      8.2697508782069926e-002 3.3503757883838929e-003
      -8.3396943848962110e-002 -3.1511144004965669e-001
      -6.5892647159712853e-002 -6.2974320897901684e-002
      3.7292377968650779e-002 -1.3674100181986179e-001
      1.1322441317229071e-001 1.7836535923176244e-001
      2.9471747533229381e-001 -3.6372128103523921e-001
      -2.0575745242588908e-001 -1.5349385214173039e-001
      -1.9937209880946249e+000 1.2378092088607201e-001
      9.0337481544122175e-002 4.6425113544840352e-004
      -8.7584102962420959e-002 -3.2370253706647628e-001
      -7.4545723709188799e-002 -6.3668415159503722e-002
      4.0299418526590795e-002 -1.3718011871940192e-001
      1.1671911020180090e-001 1.7695012303980429e-001
      3.0336102833043532e-001 -3.6450451745165974e-001
      -1.9962936709777804e-001 -1.5603795954455252e-001
      -2.0001365094361025e+000 1.1746259159531319e-001
      8.1925561657913440e-002 1.4911029231674188e-002
      -7.7491756762058620e-002 -3.1782207473818463e-001
      -6.4283592623192970e-002 -6.1940296873833497e-002
      4.7711377453760730e-002 -1.2391212931346114e-001
      1.1629100964808345e-001 1.8559737581152003e-001
      2.9238373923701455e-001 -3.6457424524933874e-001
      -2.1102929758488911e-001 -1.4799179752715441e-001
      -1.9915643982476705e+000 1.1510731755109121e-001
      8.0177427334421333e-002 2.2783659711324922e-003
      -8.2647763836086310e-002 -3.2361704549143594e-001
      -6.9668344548541344e-002 -7.0520501976401237e-002
      4.7896300350911823e-002 -1.2993357245528500e-001
      1.2119639239135779e-001 1.8088028185133453e-001
      2.9452368828046716e-001 -3.6027351094663101e-001
      -2.0323218517637856e-001 -1.5516703415432009e-001
      -2.0040132877695562e+000 1.0910202695210761e-001
      7.9043734374983785e-002 5.7965542859097119e-004
      -8.4256875547249657e-002 -3.2784530884575075e-001
      -7.4634874445901667e-002 -6.1882470954357352e-002
      4.9079711648946554e-002 -1.2931995927773318e-001
      1.1526131141484611e-001 1.8379125866860568e-001
      3.0186168804007862e-001 -3.5163523493613463e-001
      -2.0513207226252347e-001 -1.5056682901354584e-001
      -1.9948373019713035e+000 1.1972838235832872e-001
      8.6690943878745028e-002 4.0021496966022160e-003
      -8.8087103415707538e-002 -3.2524552614144958e-001
      -6.5022027949775879e-002 -5.7237120276881839e-002
      4.9082615309647255e-002 -1.2669121979729706e-001
      1.1462818023795901e-001 1.8249077722639928e-001
      2.9771858860600009e-001 -3.5955567178586972e-001
      -2.0816163569495968e-001 -1.6135036905800865e-001
      -2.0017913643036769e+000 1.1747264571075988e-001
      8.2004853255208468e-002 1.0998139250808434e-003
      -8.9399623973197159e-002 -3.1698364813170127e-001
      -6.7027577817442202e-002 -6.4524872259827504e-002
      4.9543746933972586e-002 -1.3230277592782300e-001
      1.1814331257596353e-001 1.7456923035899136e-001
      2.9506191681723348e-001 -3.5191303698271231e-001
      -2.0439060179147220e-001 -1.5497279553865634e-001
      -1.9793711208071074e+000 1.1056010668936334e-001
      7.7193491500331030e-002 1.8628188558951198e-002
      -9.1815770426660323e-002 -3.2428429514489193e-001
      -7.0493077875695184e-002 -4.9858572466712610e-002
      2.8594654755845848e-002 -1.1078065791255177e-001
      1.2752610054318086e-001 1.3096736824725633e-001
      2.9451202480598243e-001 -3.6122084856235603e-001
      -2.0965054185497220e-001 -1.5917160838828451e-001
      -1.9928711138013375e+000 1.1624150700680067e-001
      8.8600609381687165e-002 1.8813667126257592e-003
      -7.8791303143616945e-002 -3.2471876994696719e-001
      -6.9035327491578202e-002 -6.0585971454482399e-002
      3.9355799124194006e-002 -1.3029200810843203e-001
      1.1427544459692746e-001 1.7897801468273544e-001
      2.9727937872142035e-001 -3.5754294984102647e-001
      -2.0318090034680378e-001 -1.4868728158316169e-001
      -1.9900129892538410e+000 1.2045313872202834e-001
      8.8285988561966275e-002 1.4155244873938056e-002
      -8.1620342475547239e-002 -3.1991616169438636e-001
      -7.0609368894625074e-002 -6.8078223883613384e-002
      3.7888919945263548e-002 -1.3088648424363061e-001
      1.1100976700049991e-001 1.8443973390758206e-001
      2.9167987119439909e-001 -3.6118688001216187e-001
      -2.0890417321139523e-001 -1.5444660735958982e-001
      -1.9662400135836475e+000 8.7805360900965773e-002
      8.4360373578998907e-002 -4.5614209742055302e-002
      -7.7571154857094524e-002 -3.2322975525763376e-001
      -5.7211105782109827e-002 -5.8238347259537797e-002
      4.3909905579012115e-002 -7.5119608446410621e-002
      1.0436330744625939e-001 1.3107538475341285e-001
      2.8973946429955100e-001 -3.5387344697939110e-001
      -2.0390848548540672e-001 -1.4729763440439256e-001
      -1.4418300369962820e+000 -3.7543728721489470e-003
      1.0174135069535681e-001 -2.6451256882129178e-002
      2.6655492157191790e-002 -1.8520059628775018e-001
      -8.2467655385806873e-002 -2.9221803539187512e-002
      -9.0182155879322302e-003 -8.8175122402989106e-003
      5.4212147139064637e-002 5.5126858442167151e-002
      1.6482510964866073e-001 -2.1256190810079603e-001
      -1.1373079538241647e-001 -8.9398067812939463e-002
      1.1847905500813469e-001 2.9410361362394076e-002
      -3.6578983483808454e-002 3.9228772055569773e-002
      -3.0163316477671200e-002 5.9034051206456911e-002
      -1.0051434953715598e-002 6.8496444124305986e-002
      -2.8840853925190407e-002 4.8412505164475338e-002
      5.6783170823317991e-002 2.2930903969276863e-002
      -1.2067817575876705e-001 2.2626248089310207e-002
      -2.0863949676563093e-002 7.1926367390143339e-002
      4.2337186012322992e-003 -5.2618640599358373e-003
      -1.6881408820219026e-003 -6.9085450733327258e-004
      3.3801700250766207e-004 5.7960703698903765e-003
      -2.7497029780888618e-003 1.3461092144755617e-003
      -4.2635487469359660e-003 -4.7835105935539564e-003
      6.1378849264220221e-003 -5.5062433391992400e-003
      -3.0767965173052734e-003 3.3996724191047255e-004
      2.1060202715994509e-003 4.5088856711979824e-003
      -1.1861711553315615e+000 1.4834942581000373e-002
      4.4445171404290169e-002 -4.0588656067520663e-002
      -5.7922823308037129e-002 1.3065616449249889e-002
      2.0032564899840420e-002 -1.2127328906668332e-001
      1.6974459914595527e-001 -6.6475057900329551e-002
      -4.3879118930020840e-002 -8.1805836338496224e-002
      -8.0211569908905406e-002 1.1857442505662159e-002
      5.1497732207449340e-002 1.0584459087482645e-001
      -2.2749650962484789e+000 7.6694719300562236e-002
      2.8629916093240768e-002 -2.1745149039468364e-003
      -1.1866155671203124e-001 -1.8423260351015927e-001
      -8.6026450892320222e-002 -1.2620475269935197e-001
      1.3965380124107810e-001 -1.3511391136701101e-001
      1.9248793808041245e-002 3.6037966002832739e-002
      1.4149206245519139e-001 -2.3243843597155239e-001
      -1.4684791621911011e-001 -4.3770580273022427e-002
      -2.2782612727359570e+000 9.2310079976502021e-002
      3.8125223592576640e-002 -3.2876744937135357e-003
      -1.0175856171701662e-001 -2.8454534760859118e-001
      -5.7329488041041654e-002 -6.6123582835227082e-002
      4.7290915189594947e-002 -1.2791623076487812e-001
      8.0885263866773693e-002 1.0590958566915071e-001
      2.0091170536525293e-001 -2.7658229965808839e-001
      -1.8527009253304388e-001 -1.2576859783138294e-001
      -2.2808040075465028e+000 9.3011446500077269e-002
      3.7450136998437217e-002 5.0897084098859187e-003
      -1.0221336606443217e-001 -2.7999517435630267e-001
      -6.1723930856670245e-002 -6.3320550357163316e-002
      3.6570963065095739e-002 -1.1948785953801509e-001
      7.2018593643587092e-002 1.1821942535185606e-001
      2.0228379552424905e-001 -2.8007625413400056e-001
      -1.8651321705849916e-001 -1.2914699516093886e-001
      -2.0675343450962935e+000 7.9280749124150243e-002
      7.8444264815018691e-002 1.2890228590398482e-002
      -6.2936024010164335e-002 -1.6974827606593415e-001
      -4.3152863473035277e-002 -1.1093479364706783e-001
      7.4176144672876240e-002 -1.4936963039796070e-001
      8.1622815190677024e-003 1.0389762835268723e-001
      1.6110294189969088e-001 -1.8287184719127889e-001
      -1.1538452588173297e-001 -5.6900840899549207e-002
      -1.9319380309501153e+000 1.0290535929792251e-001
      3.5967440518443777e-002 1.2251536189815400e-002
      -2.1086631591541262e-002 -1.6815276221439962e-001
      -5.0459169500681501e-002 -6.6245855813188065e-002
      -6.1072082704561576e-002 -1.7307888643888111e-001
      -7.7547523451379548e-003 1.7385163019010078e-001
      1.7089794735189745e-001 -1.8838561620371477e-001
      -1.1041451319369303e-001 -1.1583137539021010e-001
      -1.7118818569724312e+000 8.6054285423279822e-002
      4.0216826504347332e-002 -9.1513791363284479e-003
      -4.3045644011961211e-002 -1.0712881878345411e-001
      -3.2440900904938029e-002 -7.0006016434342511e-002
      -3.1952479481500457e-004 -1.5107308674067471e-001
      3.1630796337401852e-002 1.5743992821611089e-001
      1.0528598946100057e-001 -1.4876494438844154e-001
      -8.7868927108428072e-002 -1.8898678467276997e-002
      -2.2649747281580890e+000 7.5136660054605550e-002
      -3.2810206016510773e-002 7.7534283311394168e-003
      -5.9171091648767091e-002 -1.0484693957957268e-001
      -5.2160691315857981e-002 -4.2044028978864452e-002
      -1.8977390782458140e-002 -1.2045248373522553e-001
      1.4840391961320211e-003 9.0320640730473495e-002
      9.0661874800427172e-002 -1.3955374218250252e-001
      -1.3848502893445155e-001 -2.1569808665563850e-002
      -2.3134835326737568e+000 6.2493359280826020e-002
      -3.9818432193264350e-002 4.5223156992659212e-002
      -9.0784676417766580e-002 -1.3032327128270252e-001
      -4.4656993277182186e-002 -5.7828532066925745e-002
      2.8694456605110674e-002 -9.8160911972760917e-002
      -1.1758272642867639e-002 7.4394855439335911e-002
      1.2796998943099144e-001 -1.6681708229549896e-001
      -1.6654639261023257e-001 -5.9550185471802790e-002
      -1.8419357135728738e+000 3.2868900213724218e-002
      6.5421163826805181e-003 -1.9216967858203229e-002
      -5.9261818448343294e-002 -1.2262273300694647e-001
      -2.6347709960080477e-002 -5.2250405270463617e-002
      4.0951564101519497e-002 -6.7149679276964608e-002
      2.9055440628800187e-002 1.1751293977670545e-002
      1.0864135985873914e-001 -1.5966240961223124e-001
      -1.1802439771267330e-001 -3.4373573725075837e-002
      -2.3691948676884995e+000 5.1292237493526282e-003
      -3.9637744863965506e-002 2.2768235338390997e-002
      -9.3971988671750731e-002 -1.6556213826566668e-001
      9.6615342557308619e-004 -4.1876236356839010e-003
      4.3406308207232978e-002 -4.5033438297156433e-002
      3.4499725918152153e-002 9.7766010528737117e-003
      1.2614227178558474e-001 -1.5459757678704500e-001
      -1.6205310084373450e-001 -4.6356410263362777e-002
      -2.8255059706447674e+000 1.3162895955426795e-001
      -2.0948437571010198e-003 -1.0462336145091690e-002
      -7.9742192856767855e-002 -2.3045226620467221e-001
      -8.4852048663103488e-002 2.7170771875626908e-002
      -5.4805112891667548e-002 -1.1815554241189080e-001
      -2.8509684307804192e-002 1.0502630190703574e-001
      1.5374442508935557e-001 -2.3748014142591364e-001
      -2.6162768355640614e-001 -7.7635676304038059e-002
      -3.0927124272350728e+000 8.7106354610924128e-002
      -4.0190949186625267e-002 9.9762435078382585e-003
      -1.0685664412059431e-001 -1.4480401170382032e-001
      -6.6572823066629996e-002 2.8113193265526724e-002
      4.1756629401334408e-003 -5.0807850228082943e-002
      -2.7482879377427527e-003 3.9892332298096300e-002
      6.3953273060129448e-002 -1.8092269698111135e-001
      -2.2459515990552151e-001 1.5343293550548761e-004
      -2.2278348033376667e+000 6.0806632710248699e-002
      -5.5986673197628067e-002 -1.3317954825885252e-002
      -6.6542028360294561e-002 -1.5625594444058710e-001
      -9.4055077920793706e-002 8.3729198417923492e-002
      -6.2049264730253136e-002 -3.5683206623795256e-003
      -1.0771292715557025e-002 5.3395125706410571e-002
      7.2960350139591665e-002 -1.8132587587337198e-001
      -2.1121528002639237e-001 -7.7717340329854126e-002
      -3.1457830589418609e+000 9.7523977648136723e-002
      -2.6125611345134930e-001 -7.0087890625857574e-002
      -1.2956721864635770e-001 -2.0252887524289557e-002
      -9.9184340324842038e-002 2.1567596878593354e-001
      -1.6915380956422252e-001 -2.7178877348093603e-002
      -1.8354757925165405e-001 -9.2750868288908966e-002
      -1.2364829163273655e-001 4.4680604608024668e-003
      -2.8097628596607921e-001 1.9825102041224528e-002
      -2.5890510980897168e+000 8.8102867436926469e-002
      -2.5034202115320309e-001 -1.9047200735458181e-002
      -1.1500791945341178e-001 -1.2229320474808377e-002
      -1.5914017027879832e-001 2.3067721300561722e-001
      -1.8919303763486184e-001 -5.9284766748626712e-002
      -7.0026423801580903e-002 -3.4758147721918785e-002
      -1.2987339332585013e-001 -3.0614279779113259e-003
      -3.3191672677644324e-001 2.4358163376068935e-002
      -8.9132659148041959e-001 -1.9571579506095221e-001
      1.3755651939238665e-004 -1.1422008022078135e-002
      -8.1290792616621518e-002 -3.7615790341012298e-002
      -1.7879632228582304e-001 -7.4405295598521562e-002
      -3.5851842077394558e-002 -1.0747278553800664e-001
      2.6370190276284955e-002 -7.7945246667191256e-002
      3.5737008910706795e-002 -9.9872334203231737e-003
      -9.5782382882247698e-003 1.7369954671421616e-002
      -1.2267484129265183e+000 -2.9899493376004066e-001
      -2.2404284413336920e-002 -4.9778052011241062e-003
      7.4184986618549165e-002 -7.9725256874368058e-002
      -2.3460936401893254e-001 -2.3527991800696904e-001
      -6.7302688088420326e-002 -1.5929044596728248e-001
      -1.9831682714351446e-002 -1.8425530381335137e-001
      1.1284814002436647e-001 -7.0311103547351260e-003
      -9.5618049259222251e-002 -2.6268230165226749e-002
      -1.1598890255100076e+000 -3.2690618167912738e-001
      -2.4723828592006507e-003 -5.9932571900311897e-003
      -1.4848698241012996e-002 -8.5514033200770279e-002
      -2.5670994084483223e-001 -2.6171530536010618e-001
      9.7672635351074094e-002 -1.8662353914995314e-001
      -2.5685223589127518e-002 -1.6745358051743331e-001
      1.8002521479502798e-001 -1.0091215275267623e-001
      -4.5070938497725158e-002 -2.5185790240944018e-002
      -1.4797387327100293e+000 -1.8087705297172302e-001
      6.4824530714538545e-002 2.7456533219857977e-002
      3.6427623189412631e-002 -5.8086238747687209e-002
      -1.9623193750373000e-001 -1.9764954036668828e-001
      8.4877112231883392e-002 -1.2632247883592104e-001
      4.1425100127513974e-003 -1.9239142237139187e-001
      1.0928273292152763e-001 -6.0237813668389609e-002
      -6.5892976985149329e-002 1.5589032893174929e-002
      -6.2051981000014045e-001 1.8353350662029567e-002
      -1.9425899183505780e-002 1.8112934811708087e-002
      3.5424580246218493e-003 -1.0562008241440457e-001
      -6.3403483699599028e-002 -9.2968191908137918e-002
      -1.8847300212100301e-001 -1.1127432502356084e-001
      1.0137585092510913e-002 1.2816890454907631e-001
      2.2270490184973074e-001 -8.7231475543689416e-002
      -5.4072690531668674e-002 -1.0903580572519944e-001
      9.6644176153129202e-001 -4.4395264632692541e-002
      8.7520965594412081e-002 2.2436055938959372e-002
      7.3372870477756855e-002 -2.7427855589490107e-002
      7.5577702713057054e-002 -7.2398130159810212e-002
      4.4014048112446219e-002 2.5431450429128706e-002
      5.0101605201741187e-002 1.1049042069146740e-001
      1.0711637070778962e-001 -1.2369588978403703e-001
      1.0715379241697999e-001 4.6352784858400255e-002
      -5.7395670704828450e-001 1.2770397896043920e-001
      2.8670805511892650e-002 -7.5566068068827694e-003
      6.4395888858017142e-002 -1.3256923712492261e-001
      9.0161780731863289e-002 8.8289288614383926e-002
      -6.3686014012200420e-002 1.2942033415658197e-001
      5.0583858168811637e-003 1.9314174190624886e-001
      2.3493926931511117e-001 -1.4434505048192992e-001
      -3.1871195998069653e-002 -1.3458385929087163e-001
      -1.0409762502171258e+000 1.1472491044401643e-002
      5.5771060241518629e-002 -1.9989357096021204e-002
      7.9957741356367434e-002 -1.9545553461398944e-002
      7.7906032374446557e-002 -1.2598287256939298e-002
      -1.0353994844662513e-001 1.0698126882676678e-001
      -3.0874257466357885e-002 -5.3503179041039538e-002
      1.0457161773276419e-001 -2.3920027567983716e-002
      5.1793368305965558e-002 -6.8405479012762671e-002
      4.8793826947692737e-001 9.4452224317870485e-003
      8.0428330628552081e-003 -5.5690603887485826e-003
      4.3399996008088693e-002 -1.9017319466484023e-004
      8.4432891379291414e-002 -1.8934639155568145e-002
      -2.2199091359034626e-002 5.2022795273100844e-002
      -4.2420234951192959e-002 6.3166543097769395e-002
      1.3337975409864802e-001 -1.2105676680840920e-001
      8.3107652817541733e-002 -6.0001318882604945e-002
      -3.5820543711963237e-001 -4.9109615874710029e-002
      1.7938496129527887e-002 1.1800041820249989e-003
      4.2102302733475747e-004 -2.3389663635071622e-002
      -6.9614899707143491e-002 -9.1657083787239756e-003
      -1.1572194438012670e-001 -1.7887588200538408e-002
      7.7674789763310416e-003 4.6688129871974814e-002
      1.4745526683751478e-001 -4.7471233439014417e-002
      1.8514437557143961e-002 -1.0453059545788682e-001
      -3.4101687659348928e-001 1.7359776871386515e-002
      1.8620079925272891e-002 1.5970627167109144e-002
      -5.5560108426189150e-002 -4.8121801112080149e-002
      7.5023668650116684e-002 1.1677835813874729e-001
      7.1854444603599896e-002 7.0562565369185495e-002
      1.7549499146251164e-002 8.9911859210620240e-002
      6.0425289082391264e-003 -3.2788458992559541e-002
      1.3339345883240322e-002 1.3498525132242365e-002
      -1.0405526345460512e+000 1.4798867916743230e-001
      1.9981107477754213e-002 -1.5695635534375223e-003
      2.0298582339334844e-003 -4.4398284504489599e-002
      5.4224991996851893e-002 5.7291433132214943e-002
      5.4010240594391620e-002 1.2769807901602608e-003
      1.3317127861157270e-002 5.7728385297790695e-002
      2.2640282608134464e-002 1.3209701390598605e-002
      -4.7841419760460357e-002 -1.8544944264491121e-003
      3.8448833515060338e-001 -6.3297902789153329e-002
      -3.6504404403691584e-002 2.9277553963792679e-002
      -6.8267215027843609e-002 -4.6449568864057336e-002
      3.1253775380332832e-002 -3.9032210450644499e-002
      -5.8342482334013061e-002 -1.4223995591715274e-001
      2.9654068826185358e-002 1.8755861089218279e-001
      1.3280827963061309e-001 -1.4367259527369782e-002
      5.2412785795280505e-002 -7.9668860017951204e-002
      -1.5664016786694415e+000 3.3222666370821261e-002
      -5.5120859445598858e-002 -1.6512628542669883e-002
      -3.0097122157141998e-002 -1.3831861587170820e-002
      -4.6299419767669936e-002 1.2594130197076794e-001
      -1.0880798158184361e-001 -6.0653546034175811e-002
      -2.8318174982989992e-003 -1.6947675947872422e-002
      -5.5767530114685021e-002 -4.5079152705992685e-002
      -1.6916507476890477e-001 3.0342083460717102e-002
      -2.9128598758041928e+000 1.1495566093464153e-001
      -3.4353033028687452e-001 -9.4748764887431114e-002
      -1.9594475360085278e-001 1.2638670128224045e-002
      -1.3957301440860767e-001 2.7636557362288428e-001
      -2.2805260639954153e-001 -5.2562307514357205e-002
      -1.3030579166729514e-001 -1.1587566076138074e-001
      -2.1619078554129328e-001 9.1479492495300588e-003
      -3.5193148738469199e-001 4.8789891804006613e-002
      -3.0609492754619887e+000 6.7086102597069222e-002
      -3.3156547233257411e-001 -7.5280880659470709e-002
      -1.6188714070186064e-001 1.1072181955256520e-001
      -8.4101034145320080e-002 2.2410621760675822e-001
      -1.4838202395412134e-001 -2.9995560776308354e-003
      -1.6690130795807978e-001 -2.0041986924075256e-001
      -2.7025025369102268e-001 1.2161475277411314e-001
      -2.5558586238656678e-001 8.8115125335329073e-002
      -2.1711931247816758e+000 -5.6289333985461279e-002
      -3.2450682518739539e-002 -3.9483638871204508e-003
      -1.2827042245712941e-001 3.2033196536751913e-003
      -1.0726906778656013e-001 2.0182725198673923e-002
      5.6915712039964386e-002 -6.2287330251254151e-002
      -3.7049414038893683e-002 -1.7586145466264871e-001
      -2.0599471019782231e-001 4.9791821705999446e-002
      -6.4737838417217516e-002 1.5404976990760209e-002
      -1.1548654790180786e+000 -3.3015187548011243e-001
      4.5303859720714636e-002 -2.1063888714804149e-002
      -6.4104236953485619e-003 -6.0076290321928967e-002
      -2.5957566023831269e-001 -3.0722967024935449e-001
      8.1949671614341149e-002 -1.6324490826170060e-001
      -2.3127382762588626e-002 -2.8268770075372307e-001
      7.6145451448163468e-002 1.2547045634327268e-002
      -8.6378508024946340e-003 -2.3370573518774369e-002
      -1.4901015163620253e+000 -2.4318241451779696e-001
      3.7446691941725452e-002 3.8277054688530411e-002
      1.6176981764783872e-002 -3.5567651967618338e-002
      -2.0882309012579772e-001 -1.7643477365065963e-001
      2.6925159456838741e-002 -1.0781647232017938e-001
      2.6815929464626600e-002 -1.9026949907160801e-001
      5.2712161423764725e-002 2.6858965930193538e-003
      1.8908409602817842e-003 2.1558265565491362e-002
      -1.0994440187776073e+000 -3.0376338210035647e-001
      -1.1151976847684070e-002 -7.0328008866066298e-003
      6.4747432763532939e-002 -7.0896626129033094e-002
      -2.2587376554124219e-001 -2.7824583058919600e-001
      -2.8994755736071048e-003 -1.7292683889532162e-001
      -5.3831926489660953e-002 -2.1568755657218808e-001
      1.3675409151752602e-001 4.2296256514319196e-003
      -6.6245740410878204e-002 -1.1393801232783904e-002
      -3.3941843759772478e-001 3.4538090489197215e-003
      -2.3531424209428858e-002 -2.4995361374652073e-003
      -3.3841799252110449e-002 4.2991900974885505e-002
      1.8394121236145616e-002 -1.0621385402405668e-001
      1.1035300548430807e-001 -1.4418055909317875e-002
      2.5542665905326652e-003 -5.2696716519050793e-002
      1.4522712544877629e-002 9.0678018622107424e-003
      8.7801618823379168e-002 7.1568672950303627e-002
      -7.1963369339505168e-001 1.4623449927980353e-001
      3.6105689897782296e-002 -2.3718177648451681e-002
      -3.2869762754035178e-002 2.4349219961290837e-002
      1.2698435286341708e-001 1.3088930541290844e-001
      3.8973498656111405e-003 1.0324883524226980e-001
      4.1543349987511078e-003 6.7920308190745626e-002
      -7.5349199410402870e-002 -3.3836049348478517e-002
      -2.9418378029901986e-002 3.7907082919424483e-002
      -9.4540325103978085e-001 7.2964175653804739e-002
      -2.3094940722081035e-002 2.5500921500764037e-002
      2.8135110074319795e-002 -3.4789329205466124e-002
      -5.1500731808546158e-003 3.2893571408484507e-002
      -5.8996317096364085e-003 1.9746218528884262e-002
      1.9702765942848470e-002 1.4726455520569106e-002
      -1.1077372611951530e-002 2.4508540280000116e-002
      -3.8626359095707129e-002 7.5005484523195137e-002
      -6.3992022306778096e-001 8.1475556822251397e-002
      -5.4989422337746334e-002 8.9047266632570176e-004
      9.5049002862819202e-003 -1.6459180112576816e-002
      -2.9869942886021836e-002 4.4566117617737711e-002
      -4.4570920499812875e-003 1.1925396762154197e-002
      1.8711268275230113e-002 7.0573006551207578e-003
      1.1539363776877998e-002 -1.2095380595710178e-002
      -6.4513797164774511e-002 1.8170284617704372e-002
      -3.8368038679814792e-001 5.2844561832335489e-003
      -1.0509879664521268e-002 2.4496314718989085e-002
      3.0156722955568430e-002 -1.1237570431631073e-002
      -1.3055169386812693e-002 2.8663712943547286e-002
      -1.5849323102699629e-002 -2.0454014456681484e-002
      2.6553549203273311e-002 6.4463730395820346e-002
      3.7894779027097231e-002 -3.4442475769856748e-002
      5.1559127280335886e-003 7.8819109472469548e-002
      8.1858988764359944e-002 -6.4256558496949154e-002
      2.4510151828543002e-002 -7.2785734587783755e-003
      1.8918946512778332e-003 5.8444809207808170e-003
      -5.9443481848301123e-002 -5.6080864828231707e-002
      1.7531414992553753e-002 -2.3216461916589996e-002
      -1.6189095134742787e-002 3.6333033212271387e-003
      6.3774711549776375e-002 -1.5051303412663607e-002
      4.9851064849640532e-002 2.0186737993229658e-002
      -5.6048769844652224e-001 -2.9556815542930218e-002
      5.1711532756226149e-002 -2.3914080805431219e-002
      -3.3765168114246423e-002 -5.8014110768147440e-003
      -4.1917294663829700e-002 4.8424475943933112e-003
      6.9361957171961322e-002 -3.1753956661622590e-002
      -7.4289142704023403e-003 3.5283802322462178e-002
      5.2015392518298030e-002 -2.1011679989697371e-002
      -1.3471218682597163e-002 -2.3601899906594132e-002
      -7.7093228275857151e-001 -3.3782460437237426e-003
      2.2230865138835026e-002 -1.8603444788902329e-002
      -1.4343276338504124e-002 1.3769578901105231e-002
      1.6695854581535566e-002 1.9998339263263682e-002
      1.0308719972536180e-001 4.5959191420696995e-002
      -1.7035247517396341e-002 -6.7278658787551751e-002
      -2.3536443596309933e-002 2.0376107128083128e-003
      9.0354225483665618e-003 3.7649658889271298e-002
      -1.8386171986748473e-001 1.3247009091408377e-001
      2.1980307317448863e-002 -8.7182061153025965e-003
      -2.3472794783208899e-002 -3.5191166149175383e-002
      1.1674012421733754e-001 3.4087904034165235e-002
      8.6279813176054904e-002 7.0912926023195960e-002
      1.1354890422057029e-002 3.4039001330715926e-002
      9.6967920575295058e-004 -3.5324327917621343e-002
      -1.2867361699849426e-002 3.7939496484475234e-002
      6.5127843545819492e-002 1.4038283568537005e-001
      3.8442398643194313e-002 -9.8366170589704958e-003
      -2.4405078491524092e-002 -2.8542738495535753e-002
      9.1619404215783559e-002 1.1057150982230970e-001
      5.0323206739022977e-002 1.0339125367140752e-001
      -1.3815798339202849e-002 7.3587790661931440e-002
      -5.4295122126873208e-002 -7.1195099776594814e-002
      -4.1061164198387880e-002 3.9636346783969184e-002
      -2.3944776566839074e+000 4.0319827491187281e-002
      -3.4293485404952284e-001 -8.3972560696231130e-002
      -2.2986609539672764e-001 8.1398745801449762e-002
      -1.2878479369348517e-001 2.2126829400229081e-001
      -1.6696859614657142e-001 -5.7181908680336443e-002
      -1.5928828175531642e-001 -2.4821799583318230e-001
      -2.6134550482058927e-001 1.3468685561691940e-001
      -2.9118738275653755e-001 3.1012398228204736e-002
      -2.4019812223914494e+000 3.5114677828447009e-002
      -3.3843776370076273e-001 -8.7429272892601467e-002
      -2.2235108731538678e-001 7.4223140210160049e-002
      -1.3188385191393337e-001 2.1409484334592949e-001
      -1.5244488759418642e-001 -6.3207248195553151e-002
      -1.5726903536189327e-001 -2.4392700847411627e-001
      -2.6075487434715594e-001 1.3216773242834393e-001
      -2.8501708283638733e-001 2.8580212470943986e-002
      -1.7511575099931806e+000 -2.3036713871351994e-001
      -8.8619078335631461e-003 3.2729281090142621e-002
      7.7131710140904614e-002 4.9780104372554673e-002
      -2.0198311946294376e-001 -6.4626245549795250e-002
      -1.1485441749938739e-001 -1.1626049089360113e-001
      -1.7125022469848285e-003 -9.0403604976755661e-002
      2.2328210831252082e-002 7.6981426911310685e-002
      -5.1285925177528890e-002 -1.0988636816987789e-002
